tree
version=v4
num_class=1
num_tree_per_iteration=1
label_index=0
max_feature_idx=21
objective=regression
feature_names=Column_0 Column_1 Column_2 Column_3 Column_4 Column_5 Column_6 Column_7 Column_8 Column_9 Column_10 Column_11 Column_12 Column_13 Column_14 Column_15 Column_16 Column_17 Column_18 Column_19 Column_20 Column_21
feature_infos=[-0.879031048785479:6.6859619071937173] [-1.1507830223971744:6.3089141112671987] [-0.93321464002573518:5.7663203893432016] [-0.88907731495341258:7.6484057907609682] [-0.93406776606596587:5.7722410329440779] [-2.2211712628473874:1.7780831469258989] [-0.89858203852618201:7.5791832117578188] [-1.6591173178800356:1.6626142455181008] [-0.77409660678187242:1.2918284245649017] [-0.63996586939709699:1.5625833311112456] [-1.0447325618942884:1.0804670181090337] [-1.4162362186049713:1.4121966753875399] [-1.4150506726744785:1.4133774419154073] [-1.368030479513729:1.38217097525771] [-1.2833737766541564:1.4122998194289871] [-0.87885189687849485:6.6865618260095383] [-1.1506389354956343:6.3094054866622979] [-0.93301671143064857:5.766479248314587] [-0.88890101213429962:7.6514063791360973] [-0.94462026772699803:5.3662267378937027] [-1.2297887364923406:5.1001187430107118] [-1.0048298183960163:7.4699912514418658]
tree_sizes=7372 3312 7609 7355 3793 7501 3544 7537 3978 7560 4201 7557 5093 5295 7683 5998 5992 6063 6361 6930 7264 7521 7732 7590 7612 7666 7568 7636 7717 7677 7653 7703 7674 7583 7683 7684 7678 7671 7716 7790 7688 7622 7667 7774 7703 7672 7809 7755 7916 7817 7844 7881 7954 7977 7945 8020 7849 8026 8017 7997 7922 8131 7949 7950 8041 8059 8057 8052 7542 8137 7944 8039 7932 8207 7996 8094 8207 8090 7963 8013 8077 7354 5838 6378 8185 7933 6524 8135 7406 4133 6926 7789 6860 7980 7964 4488 8179 5316 6681 8025 3729 8127 7959 7729 3910 7891 8012 7445 8072 5712 8262 8101 8105 8179 8245 7911 8092 8058 6977 8196 8045 7528 8053 8296 7258 7725 7293 8066 4483 8239 6074 6972 8392 8292 7529 5765 8259 8134 8088 4812 4879 3751 6887 8164 3442 5163 5504 6852 7151 5098 7585 4405 5022 8492 4440 8121 4278 6749 8061 5520 7394 8017 8371 7989 6874 6699 8075 5020 8261 8033 8262 8332 5273 8135 5806 7437

Tree=0
num_leaves=84
num_cat=0
split_feature=15 15 15 6 15 15 6 15 15 15 6 15 15 15 3 15 15 3 15 15 16 3 3 3 11 3 19 5 5 15 21 19 19 12 3 19 15 3 11 15 15 15 21 5 12 11 19 3 5 21 15 10 3 15 11 12 3 21 3 21 19 3 5 3 21 6 11 3 19 5 5 3 5 12 15 21 15 19 5 12 5 12 12
split_gain=2.57695e+07 8.02683e+06 4.41228e+06 923643 713820 632414 568475 165934 122137 114496 109022 84738.5 51108.5 36043 33432.1 32584.7 31701.1 26310.3 21630.8 11534.7 11477.3 10822.7 8850.51 8742.55 6241.76 6135.64 4627.74 4245.82 4159.06 3803.6 3663.82 3178.52 2831.03 2376.17 2339.18 2240.27 2100.52 2065.01 1927.59 1845.28 1476.42 1059.44 1031.59 960.307 854.554 757.42 731.161 719.582 717.826 663.114 636.655 515.738 514.962 472.843 468.904 421.024 397.668 369.621 327.544 305.25 302.074 286.079 282.156 269.15 258.838 232.964 192.959 182.818 163.113 160.866 134.033 209.179 132.382 108.42 93.3339 79.8526 83.9953 64.9109 64.5587 62.721 46.1168 42.0881 23.4883
threshold=0.53664542696960227 -0.52201645507863104 1.8283217882215379 1.1161261362842463 -0.69673003825703028 -0.11977193579738034 1.4490901842128403 1.0630591598222157 -0.40637964566461288 1.2852942537646388 0.46149049429275318 -0.60958194314832137 -0.80144913202640378 0.26439090413514327 0.25139088017770495 2.6133400189201867 0.15180978991583446 -0.025663856514061601 -0.31690448588327397 -0.4834668682607372 0.42009002994511607 0.40984539602018122 0.11950589433068606 -0.2137684275688605 1.0000000180025095e-35 0.93103175614847278 -0.16632404647180135 0.14857692617147186 0.65422307410651903 0.013201678311704478 0.21795543061056719 -0.39196157654942815 -0.047247324431706338 -0.70794364402700716 -0.54858301207683924 0.12637054852187937 -0.231847346994661 0.31742963951424119 -0.53858695854770522 0.32680701883754554 -0.43592284777152229 -0.26317601122137768 -0.1902410938931062 0.57795594410795348 -1.2962222063038933 -1.2974075514412029 0.76194524546390341 -0.49255595969511318 0.36968432828267972 0.28981857728726412 0.28999019353542899 0.72626708810848006 -0.10161805639238113 -0.44077893808414276 -1.1143944762512776 -1.2962222063038933 0.066655633578851514 0.043537395181707989 0.5021648861130944 -0.16931821984166098 0.059315317705973966 0.10622112933295717 0.58800556807875037 -0.57168695120332436 -0.21803498146144576 -0.023199480046059002 -1.2974075514412029 -0.16756054931589043 -0.32070439311452176 0.48340031929212063 -1.1578380172906015 -0.2137684275688605 0.069021349167866244 -1.2962222063038933 -0.36363262165791582 0.13269654140093248 -0.074049555429594502 0.52818971092994005 -0.067605045475517531 -1.0000000180025095e-35 0.50221947917100496 -1.3909565849481236 1.111536209605003
decision_type=2 2 2 2 2 2 2 2 2 2 2 2 2 2 2 2 2 2 2 2 2 2 2 2 2 2 2 2 2 2 2 2 2 2 2 2 2 2 2 2 2 2 2 2 2 2 2 2 2 2 2 2 2 2 2 2 2 2 2 2 2 2 2 2 2 2 2 2 2 2 2 2 2 2 2 2 2 2 2 2 2 2 2
left_child=1 4 3 9 12 8 15 -5 17 14 16 -6 -1 28 24 -4 29 19 22 52 23 32 26 -13 -2 -15 34 -25 -12 35 39 40 36 57 51 44 47 38 -19 -18 -21 -34 67 58 81 -27 -35 55 68 60 73 -10 -3 72 -39 -20 59 -31 -23 -38 -43 -29 -44 77 -49 -11 -16 -36 82 -51 -42 -72 -40 -32 -50 -65 -77 -37 -58 -55 -56 -7 -24
right_child=2 5 6 7 11 10 -8 -9 18 65 13 20 -14 25 66 -17 30 37 21 31 -22 43 48 27 -26 45 -28 61 -30 33 50 -33 41 46 42 63 56 54 53 -41 70 49 62 -45 -46 -47 -48 64 74 69 -52 -53 -54 79 80 -57 78 -59 -60 -61 -62 -63 -64 75 -66 -67 -68 -69 -70 -71 71 -73 -74 -75 -76 76 -78 -79 -80 -81 -82 -83 -84
leaf_value=145.87471719245985 160.97739598416536 153.39914214524012 171.71628072400225 168.03011974922293 150.19243915275899 157.25787885925004 185.55817690675414 174.04061457964318 154.92439009448159 163.21845939981253 159.27807889309236 151.86826908759883 147.86691245797556 161.22747629452985 160.36007230667249 178.89672259985784 159.65234797116824 155.2486190648834 156.20388923636094 155.0012600360036 155.82889345366115 157.32155348577899 157.20828117690843 152.91338940145542 162.74561016203728 159.7407094334024 155.09332976362541 154.73806073053169 160.66072817883966 158.42719794280478 157.71870534289624 154.19992267924974 156.08044492761331 159.06337144244915 156.73428943033883 157.2630424565132 157.65723751305461 156.49338495754907 155.99156090594232 160.7398218523677 156.61754743860143 157.39407800671742 156.12676702401575 158.87339618446106 158.37437501870781 163.67709168097574 157.62377557466402 157.39841326241142 157.29749880725217 156.26058818553554 159.49314707817214 156.26744049667568 155.61129192249942 157.07481430266438 157.03484040541974 156.95686721200218 157.41493008455311 157.74939357683965 158.14366720344523 157.29347062912453 156.9389882974786 156.21884244031736 156.88335078173014 157.78582205904445 157.07828114781805 167.79617744704098 164.46275396224655 157.13703799237737 156.6270404075031 156.91182971276564 155.67651994598245 156.56755742639166 156.68483017011908 158.79158648048721 157.75943940787357 157.08267590139857 157.5000793381204 156.91182971276564 158.09343064105954 156.73146315142691 157.30006261237313 157.67899410419875 157.00049576552104
leaf_weight=276 90 98 66 107 475 9 178 152 11 17 57 337 772 56 7.9999999999999991 40 107 22 8.0000000000000018 78 10.999999999999998 8.9999999999999982 8.0000000000000053 58 82 6.9999999999999991 45 17.000000000000004 105 24 6.9999999999999991 52 14.999999999999998 110 38 6.9999999999999982 70 12.999999999999998 14.000000000000002 64 6.9999999999999991 18 47 39 113 65 6.9999999999999991 41 11.999999999999998 11.000000000000002 99 11 6.9999999999999991 8.9999999999999982 12.000000000000002 22 7.0000000000000027 33 27 43 39 6.9999999999999991 6.9999999999999991 18 57 76 128 12.999999999999998 6.9999999999999991 6.9999999999999991 30 7.9999999999999991 8.9999999999999982 44 20 6.9999999999999991 18.000000000000004 7 21 6.9999999999999991 9.9999999999999982 11 7.9999999999999991
leaf_count=276 90 98 66 107 475 9 178 152 11 17 57 337 772 56 8 40 107 22 8 78 11 9 8 58 82 7 45 17 105 24 7 52 15 110 38 7 70 13 14 64 7 18 47 39 113 65 7 41 12 11 99 11 7 9 12 22 7 33 27 43 39 7 7 18 57 76 128 13 7 7 30 8 9 44 20 7 18 7 21 7 10 11 8
internal_value=157.049 153.563 171.65 167.143 149.069 157.932 181.882 171.731 156.238 164.082 159.729 151.137 147.308 161.328 163.039 175.018 159.034 154.829 157.047 154.35 152.226 157.454 156.274 152.141 161.914 162.601 155.932 153.424 160.23 158.384 159.749 154.918 157.223 158.727 156.272 158.046 157.382 156.272 155.94 160.123 155.29 156.752 156.499 158.504 158.266 163.433 158.996 157.09 157.348 156.922 159.265 155.404 153.498 156.441 156.896 156.692 157.64 158.097 157.98 157.53 157.095 155.016 156.21 157.491 157.22 167.205 164.308 156.837 156.934 156.454 155.898 155.81 156.183 158.696 157.628 157.606 157.402 157.097 157.983 156.897 157.174 157.549 157.116
internal_weight=4909 3965 944 660 1953 2012 284 259 1037 401 975 905 1048 290 308 106 685 376 661 280 430 434 227 419 172 128 172 82 162 364 321 175 359 174 127 190 269 96 61 171 123 90 105 75 133 72 117 128 55 75 150 22 105 39 35 30 141 57 36 113 57 24 54 57 98 93 136 51 23 18 45 38 23 51 32 43 25 14 28 16 22 20 16
internal_count=4909 3965 944 660 1953 2012 284 259 1037 401 975 905 1048 290 308 106 685 376 661 280 430 434 227 419 172 128 172 82 162 364 321 175 359 174 127 190 269 96 61 171 123 90 105 75 133 72 117 128 55 75 150 22 105 39 35 30 141 57 36 113 57 24 54 57 98 93 136 51 23 18 45 38 23 51 32 43 25 14 28 16 22 20 16
is_linear=0
shrinkage=1


Tree=1
num_leaves=37
num_cat=0
split_feature=0 0 0 0 0 0 0 0 0 0 0 0 0 0 0 1 0 1 0 0 0 0 0 20 0 0 0 0 0 1 0 0 0 0 15 0
split_gain=2.26361e+07 7.58893e+06 3.10966e+06 638286 624662 319034 189508 126558 105850 74552.2 56775.6 29946.9 16372.4 14570 7926.29 6977.55 5704.87 4264.97 3808.88 3533.13 1879.92 440.616 320.572 319.174 316.478 97.209 80.7617 51.7362 49.4033 47.0776 19.9914 14.2042 12.6724 5.51915 4.5287 1.14772
threshold=0.80784863563820175 -0.49632855088093386 2.0201685919370038 -0.68197752178019544 0.054373525137425723 1.3328806100603829 2.7906217161954472 -0.40759611167185 0.51847204583446616 -0.58874189122086384 -0.77999419570922124 -0.19210430470013387 0.99330239774227447 0.24611294083274984 -0.44832621504595765 0.5528849697019772 -0.53980906206253765 0.19832960970305594 -0.29458523264112196 -0.074273468166037623 0.61252806383504732 -0.34945602909260581 -0.24136960953364209 0.5672189017639927 -0.13029409953213753 -0.42121821648660746 0.1090442862345052 -0.26338940527938526 -0.31711489171551782 0.37896493698557648 -0.37393929602095244 -0.02237593661197505 -0.22164551562854509 -0.27311958622529359 -0.42074704631252036 -0.2835039631840835
decision_type=2 2 2 2 2 2 2 2 2 2 2 2 2 2 2 2 2 2 2 2 2 2 2 2 2 2 2 2 2 2 2 2 2 2 2 2
left_child=1 3 5 10 7 12 -4 14 13 17 -1 18 -2 26 -3 16 -11 -5 21 24 -10 29 27 25 -13 -16 -6 33 -23 30 -9 -21 -24 35 -30 -20
right_child=2 4 6 9 8 -7 -8 11 20 15 -12 19 -14 -15 23 -17 -18 -19 22 31 -22 28 32 -25 -26 -27 -28 -29 34 -31 -32 -33 -34 -35 -36 -37
leaf_value=-9.722326478973665 7.3048085492860455 -2.2969964237498468 20.357791024939935 -5.9591590838031054 1.7561449433406287 14.270805721536146 28.231505236214968 -0.47628704666907906 4.2929592696998506 -4.417829248864205 -7.9898922484033736 0.58032397487076237 9.7676850584468848 3.1080024096398424 -1.3650977484335252 -0.75159891053704186 -3.2795459297972638 -2.0053259610142229 -0.0082627052003561921 1.1042688027317327 5.6470307882541286 -0.21539624954411937 0.25400373898128764 -0.34616029977360047 0.87136145868867021 -0.88954363353309096 2.2310882496864228 0.16573997318767025 -0.0080071678197850306 -0.10273264305364491 -0.32501317915722089 1.4259524576616465 0.37321319660189317 0.070855779282170642 -0.096494442591057189 0.023593210598776782
leaf_weight=434 114 170 114 511 100 206 133 89 98 249 691 111 167 338 91 7.9999999999999991 126 6.9999999999999991 19 93 132 76 56 6.9999999999999991 113 35 199 56 6.9999999999999991 6.9999999999999991 53 135 76 19 50 19
leaf_count=434 114 170 114 511 100 206 133 89 98 249 691 111 167 338 91 8 126 7 19 93 132 76 56 7 113 35 199 56 7 7 53 135 76 19 50 19
internal_value=0.0175974 -2.79128 15.9341 -7.11266 1.28754 11.2355 24.9213 -0.0953249 3.32475 -5.12386 -8.68534 0.450228 8.8672 2.64544 -1.84354 -4.00598 -4.06807 -5.91907 -0.0551365 1.03548 5.1406 -0.30038 0.22739 -1.22138 0.737912 -1.25969 2.09365 0.101139 -0.163751 -0.416 -0.428695 1.31279 0.330244 0.0319448 -0.0866864 0.00828786
internal_weight=4909 4175 734 2026 2149 487 247 1282 867 901 1125 979 281 637 303 383 375 518 527 452 230 282 245 133 224 126 299 113 133 149 142 228 132 57 57 38
internal_count=4909 4175 734 2026 2149 487 247 1282 867 901 1125 979 281 637 303 383 375 518 527 452 230 282 245 133 224 126 299 113 133 149 142 228 132 57 57 38
is_linear=0
shrinkage=0.0985333


Tree=2
num_leaves=84
num_cat=0
split_feature=1 15 1 15 15 1 5 1 1 15 15 15 1 5 1 1 5 3 5 3 15 1 1 5 15 1 5 1 1 1 15 5 5 5 5 1 1 21 1 5 1 3 5 4 5 1 5 5 5 15 5 5 1 15 1 17 1 1 1 3 1 1 5 3 1 5 1 4 1 1 15 5 1 5 1 5 1 5 1 4 5 9 5
split_gain=1.77996e+07 6.5153e+06 2.25912e+06 605924 597354 196503 181618 153451 132406 92288.2 60678.7 58002 30399.3 20613.9 19661.5 17351.2 11297.1 10846.1 10809.1 8125.26 7131.3 5435.51 5248.77 4720.66 3902.18 3657.21 3539.96 3533.76 3439.74 2665.45 2207.33 2154.28 2003.68 1852.27 1835.5 1643.88 1445.16 1217.04 1068.91 764.323 651.499 598.212 549.981 434.001 408.686 396.473 381.077 369.635 340.256 328.972 308.461 293.08 278.417 272.317 267.765 193.816 192.094 188.311 174.126 142.73 139.421 121.006 116.832 107.013 104.709 90.55 88.6523 83.2938 59.9366 56.2158 55.6779 51.4655 50.9231 48.8685 32.1555 31.6838 25.7607 13.4634 13.3271 12.6271 12.097 7.56355 7.13992
threshold=0.96881299563258361 -0.48663217653476704 1.9863909583994597 0.044740576409936554 -0.6703833563626892 0.5528849697019772 0.27289202426906928 2.7111126362365785 1.3323543142838983 -0.31690448588327397 -0.75712054456009792 -0.56990025638872233 0.19832960970305594 0.68972420598865147 -0.5092040235702725 -0.19287512578648544 0.049201165322150041 0.15907139008479168 0.35965927956463345 0.1326943929153879 -0.81010721935038288 0.34101385341249957 -0.066985486171962025 0.75650481420074478 -0.42964590647538786 -0.39487148992574667 0.5323534299879481 -0.43271716786817965 0.065806421289851036 -0.60530311480559107 -0.61918650640183615 0.75650481420074478 -0.40420011404174 0.62899404201290043 -0.13001621197289723 -0.37976668097939553 -0.35773519227336315 -0.3192047322102019 0.046898568877741444 0.77453874944805656 -0.4871526946192683 0.093032630748255227 0.39238711767130635 -0.46528186870573834 0.33244993216722574 0.35521965682471268 -0.27662222487242 0.069021349167866244 0.94450222748493551 -0.20879561314731956 0.79118696623298901 0.36968432828267972 0.11624777523272097 -0.38075430763904161 0.70545981796684676 -0.4290781268839044 -0.33636787184776601 -0.33636787184776601 -0.13737262925280294 -0.052137120096492302 -0.12890972080925131 -0.47729854465859373 0.44696662268868564 -0.32591879874533985 -0.19287512578648544 0.32110339540202204 -0.26949450047145346 0.029415488294253372 -0.47116960107292932 -0.23430879081364145 -0.26317601122137768 0.16546344801675392 -0.26949450047145346 0.25349954751781173 -0.56813959495175226 0.46759827752298178 -0.51536449384944338 0.33244993216722574 -0.42163184412238525 -0.46528186870573834 0.80960454464318177 1.0000000180025095e-35 1.0726265012185727
decision_type=2 2 2 2 2 2 2 2 2 2 2 2 2 2 2 2 2 2 2 2 2 2 2 2 2 2 2 2 2 2 2 2 2 2 2 2 2 2 2 2 2 2 2 2 2 2 2 2 2 2 2 2 2 2 2 2 2 2 2 2 2 2 2 2 2 2 2 2 2 2 2 2 2 2 2 2 2 2 2 2 2 2 2
left_child=1 4 6 9 10 12 37 -4 -8 14 20 19 22 44 26 25 24 27 34 21 -1 30 48 71 41 39 -3 43 58 -28 -6 -24 -29 47 49 -26 50 -2 60 40 81 55 -19 -13 -7 -25 53 72 66 59 65 69 -51 -37 -15 -16 77 80 -20 70 -36 76 -42 -45 -48 68 -5 -53 -18 -38 -17 -14 -27 -58 -31 -68 -41 -49 -67 -61 -35 -11 -63
right_child=2 3 7 5 11 13 8 -9 -10 15 -12 17 23 54 16 18 36 42 28 -21 -22 -23 31 45 35 33 29 32 -30 74 -32 -33 -34 57 38 46 51 -39 -40 61 62 -43 -44 63 -46 -47 64 56 -50 52 -52 67 -54 -55 -56 -57 73 -59 -60 79 -62 82 -64 -65 -66 78 75 -69 -70 -71 -72 -73 -74 -75 -76 -77 -78 -79 -80 -81 -82 -83 -84
leaf_value=-9.3381412947434033 0.77854771078699114 -2.5357876079129649 18.384200723033395 0.2311438115906618 -5.3981518124370877 2.2817197986440956 8.7164714322332184 25.481557809621531 12.852380983308684 -0.63767003276855894 -6.7481995828690593 -3.7093206134744046 1.004768443610216 5.0233560371489787 -1.373202723426177 -0.071274055846816509 -0.67186159543971602 -1.0369522623193641 0.84859074598545803 -1.4606087279478157 -7.9099855645824526 -1.5128722382211617 1.4491813446531769 2.8407566861421492 -1.3343774641134984 -0.31561267149852473 -1.9391454654569111 -2.5743264397429981 2.2378125015274812 -0.71220770638177189 -4.5362132985305337 2.148476100468006 -0.72288472789914415 0.15440900784224931 0.29148166363254496 -0.78151224676336584 -0.038714449889921468 2.4448722067526196 1.3170462009090855 -0.26909846942817128 -0.4639174817485483 -0.62649487757619071 -0.0029471618753420434 -3.1929304146480089 4.0000749723338718 3.6951637920481821 -0.2400209468578488 -0.14627803381403051 1.2033021280091873 0.086455883366678851 0.16928873041147807 0.31948424484756066 0.63964202020791905 -0.33074339947826015 6.528442317322674 -2.1263161973409774 0.10779437368460161 0.76413018237350094 1.3641978275788298 0.16789870890686112 0.6986554606507448 0.070736128152432604 -0.11729426734048694 -1.925851888702105 0.15266374556029871 -0.20534671958084502 0.35369264050123789 0.75691092701391871 -0.28196836093310867 0.26538505505043158 0.14055867683000905 2.4070296566397285 -0.043084699177655748 0.29548889377740128 -0.31938471923154754 0.80794709625039562 -0.033785564281798623 -0.0041696739325049826 -0.045932009900343088 0.39880817544093022 0.4106799585605308 -1.2978155597249534 0.25519530937594898
leaf_weight=216 14.000000000000002 77 114 7.9999999999999991 279 19 188 133 200 16.000000000000004 494 171 6.9999999999999991 91 54 20 7.0000000000000027 10.000000000000002 32 9.9999999999999982 474 7.9999999999999991 111 105 29 16.000000000000004 35 51 63 16.000000000000004 281 158 9.9999999999999982 9.0000000000000018 18 36 12.000000000000002 8.9999999999999982 37 7.0000000000000027 20 10.999999999999998 7.9999999999999991 25 55 112 17.000000000000004 9.0000000000000018 33 12.999999999999998 13.999999999999998 15.999999999999998 35 32 120 27 25 63 95 12.000000000000002 53 6.9999999999999982 21 28 6.9999999999999991 25.999999999999996 9.9999999999999982 17 24 6.9999999999999991 22 115 11.999999999999998 53 12.999999999999998 32 10.000000000000002 13.999999999999998 9.0000000000000018 14.999999999999998 12.999999999999998 6.9999999999999991 7
leaf_count=216 14 77 114 8 279 19 188 133 200 16 494 171 7 91 54 20 7 10 32 10 474 8 111 105 29 16 35 51 63 16 281 158 10 9 18 36 12 9 37 7 20 11 8 25 55 112 17 9 33 13 14 16 35 32 120 27 25 63 95 12 53 7 21 28 7 26 10 17 24 7 22 115 12 53 13 32 10 14 9 15 13 7 7
internal_value=0.020038 -2.31774 15.0579 1.43104 -6.28203 3.25305 10.4394 22.4982 10.941 -0.043573 -7.73222 -4.31098 2.33561 5.42398 -1.08965 0.660426 -0.67733 -3.13809 1.07405 -4.90401 -8.4004 -4.95564 1.66639 3.00719 -1.11559 0.0993028 -2.05904 -3.28574 1.61743 -1.38703 -4.99545 1.88148 -2.32469 0.323937 0.598052 -0.715479 0.040055 1.66028 0.88709 -0.400459 -0.586748 -1.59782 -0.650512 -3.50901 3.6778 3.33165 -0.480022 0.0835165 0.922944 0.313831 -0.220121 0.429334 0.505365 -0.595091 5.96875 -1.69935 0.170869 0.671662 1.25965 0.163213 0.613365 0.00400598 -0.308834 -2.6791 -0.120776 -0.306947 0.673436 0.594211 -0.427404 0.0964734 0.0418871 2.35583 -0.216039 0.242307 -0.587834 0.73419 -0.159243 -0.0713988 -0.172012 0.326281 0.340369 -0.979118 0.194664
internal_weight=4909 4251 658 2186 2065 976 411 247 388 1210 1184 881 691 285 486 724 345 303 415 578 690 568 352 339 213 309 141 285 190 64 560 269 61 214 225 121 132 23 108 95 64 92 18 224 74 217 92 129 83 117 80 52 48 68 211 81 101 85 127 69 71 31 41 53 24 66 50 33 31 19 42 122 28 78 29 42 17 23 35 27 22 23 14
internal_count=4909 4251 658 2186 2065 976 411 247 388 1210 1184 881 691 285 486 724 345 303 415 578 690 568 352 339 213 309 141 285 190 64 560 269 61 214 225 121 132 23 108 95 64 92 18 224 74 217 92 129 83 117 80 52 48 68 211 81 101 85 127 69 71 31 41 53 24 66 50 33 31 19 42 122 28 78 29 42 17 23 35 27 22 23 14
is_linear=0
shrinkage=0.0985333


Tree=3
num_leaves=80
num_cat=0
split_feature=1 15 1 15 15 1 1 4 1 15 15 15 15 1 1 1 1 4 4 3 3 1 1 15 1 3 1 15 15 1 3 3 4 2 15 2 1 1 3 1 4 17 1 20 4 4 1 11 12 15 15 4 20 15 15 15 4 2 17 19 6 1 1 2 2 20 3 17 15 15 16 12 4 3 1 1 15 15 4
split_gain=1.45436e+07 4.85492e+06 2.3717e+06 416427 415854 272811 136827 102208 101648 71601.7 59332.2 41920.7 25266 17803.4 16251.4 13396.7 10733.7 10158.1 8047.41 6534.83 4726.66 4260.36 3925.31 3849.72 3611.3 2669.81 2527.61 2486.26 2211.77 1882.28 1240.54 1152.18 1051.62 936.693 931.62 858.931 852.976 789.967 739.505 645.052 629.988 554.972 539.939 426.489 367.885 311.215 305.803 299.928 284.458 231.193 208.561 197.753 186.615 184.323 179.922 169.763 164.561 135.899 130.644 119.37 118.001 102.396 95.3481 83.7448 78.7287 70.4034 66.559 62.8913 62.2539 58.4722 45.6613 38.0793 30.3444 27.616 25.218 23.322 13.959 10.7519 7.87427
threshold=0.76944332160146423 -0.50942459602731538 1.9863909583994597 -0.70939917296286847 -0.063489999680415202 1.2699127093881979 3.1626013672980435 -0.45920060776987526 0.35521965682471268 -0.35748006399788962 -0.60958194314832137 0.50096072481509313 -0.80781592657608503 -0.54408683552305137 0.076144821658601439 -0.39487148992574667 0.5686841377454267 -0.46528186870573834 -0.43381795342888158 0.5021648861130944 -0.32591879874533985 -0.60041322173073119 0.40798730670285016 -0.43592284777152229 -0.14815867700411775 -0.13454116964762225 1.4491286724721939 -0.53943944649468767 -0.231847346994661 0.92481705944729464 -0.4051460566665781 0.10622112933295717 -0.52847410190883726 -0.22284213249101789 -0.64586101807739027 0.21749024528394434 -0.10628314349866881 0.17101495567482219 0.066655633578851514 -0.35773519227336315 -0.4840544568120983 -0.37093631496765411 -0.5092040235702725 -0.49813061005133957 -0.13451415432466415 -0.49040012039734665 -0.27929629395524691 0.85153536000864738 -1.1132094403640742 -0.14275313530480566 -0.30802435288352942 -0.2635426472247156 -0.14236106881875796 -0.44077893808414276 -0.38646530339088364 -0.022149137321102155 -0.40208963550263949 -0.18310254699951736 -0.15570561955814308 -0.44394177967823029 0.1040724441460298 -0.26949450047145346 -0.33636787184776601 -0.73131857664790079 -0.12362760633093502 -0.41764693504985578 0.19863688583889724 0.1627405652810229 -0.2483704715358693 -0.18093972379661313 -0.56799356783109545 -1.0000000180025095e-35 0.52120441615100666 -0.11480655497708288 0.046898568877741444 -0.34354424183257287 -0.18093972379661313 -0.301327558800774 -0.49674578398259511
decision_type=2 2 2 2 2 2 2 2 2 2 2 2 2 2 2 2 2 2 2 2 2 2 2 2 2 2 2 2 2 2 2 2 2 2 2 2 2 2 2 2 2 2 2 2 2 2 2 2 2 2 2 2 2 2 2 2 2 2 2 2 2 2 2 2 2 2 2 2 2 2 2 2 2 2 2 2 2 2 2
left_child=1 3 5 12 9 7 -4 59 14 13 34 -7 -1 30 24 21 32 22 23 28 -19 -11 27 -15 46 43 -13 -12 40 -9 -3 -22 -10 -32 -5 38 -21 -16 49 53 50 54 52 -20 66 -35 75 61 -38 -30 57 -40 -23 70 73 -26 58 -17 77 -2 -49 -42 -45 -61 -55 -46 -41 68 -58 -37 -27 -60 -71 -25 -52 -6 -69 -44 -77
right_child=2 4 6 10 8 11 -8 29 16 15 17 26 -14 18 37 19 -18 20 25 36 31 42 -24 41 55 39 -28 -29 35 -31 33 -33 -34 45 -36 69 48 -39 51 44 47 -43 56 62 65 -47 -48 60 -50 -51 74 -53 -54 64 -56 -57 67 -59 71 63 -62 -63 -64 -65 -66 -67 -68 76 -70 72 -72 -73 -74 -75 -76 78 -78 -79 -80
leaf_value=-8.3755201637318208 0.097923839995549086 -2.6177052917203785 17.469485372133505 -5.3814440743195853 0.084991841774109206 2.2148533387654403 24.174249948745363 5.7086296801237699 1.0545381930507343 -2.1319953316172624 -3.973976271822091 9.0730787743752117 -6.8523630322887348 -1.8274577645096513 1.7603475495582019 -0.16571042900292091 4.3064629588810588 -3.3939022196499051 -0.25294150053830439 0.62852447237572928 -2.0023289078010502 -0.34153950217369677 -1.3184255103341975 -0.73279456886267069 0.84308116529751764 -0.20122081889641574 12.003576759247267 -2.8472039211977189 0.35004543389224407 7.4540003335050073 -1.0475169398936597 -0.83103919823355399 3.0924831121582104 -2.5963271982646066 -4.5105383765862683 -0.10216920655590309 0.62486684204533482 2.2690973097657019 0.41799620160055806 -0.29245418884213054 -0.056759296206032532 -1.1157198148244836 -0.16125252516398172 -1.2354094050432876 0.36328283889578888 -1.3156673065351643 0.71270198479821989 0.20599159757895147 1.5633870033459665 0.62420852134100724 -0.11611769161928444 1.0414162218762413 -0.91908894702887589 -0.045577230971570216 -0.18421257974818941 1.3751620494766614 -0.084221788854034113 -0.67368261420602227 -0.54371181810191627 0.20193835580724609 0.58968507518117919 0.17337766537150642 -0.47494872420076356 0.7549517579148135 -0.37351363095181483 0.012444923814365561 0.047566833164633615 -0.27267174458437382 0.20976553626182548 0.036346107660209487 -0.65827570657384182 -0.17594492180544585 0.27389035402056328 -0.26786615578357109 0.047051217447517328 0.14927728670089324 -0.076008230727296566 -0.0081530056055977695 0.3899625518718573
leaf_weight=236 7.0000000000000027 75 152 334 6.9999999999999991 6.9999999999999991 95 86 6.9999999999999991 11.999999999999998 296 72 754 88 138 15.000000000000002 171 31 8.9999999999999982 24 41 15.999999999999998 10.999999999999998 24 27 7.0000000000000027 164 67 89 169 27 19 188 15.999999999999998 199 11.999999999999998 9.9999999999999982 217 12.999999999999998 14.000000000000002 32 41 11.000000000000002 28.999999999999996 29 18 69 22 56 67 13.000000000000002 41 17 22.000000000000004 13.999999999999998 206 15.000000000000002 7.9999999999999991 21 7.0000000000000044 17 38 8.0000000000000018 12.999999999999996 7.9999999999999991 6.9999999999999991 6.9999999999999991 9.0000000000000018 7.9999999999999991 13.000000000000002 13.999999999999998 8.0000000000000018 6.9999999999999991 7.0000000000000027 18 8.0000000000000018 9.9999999999999982 6.9999999999999991 18
leaf_count=236 7 75 152 334 7 7 95 86 7 12 296 72 754 88 138 15 171 31 9 24 41 16 11 24 27 7 164 67 89 169 27 19 188 16 199 12 10 217 13 14 32 41 11 29 29 18 69 22 56 67 13 41 17 22 14 206 15 8 21 7 17 38 8 13 8 7 7 9 8 13 14 8 7 7 18 8 10 7 18
internal_value=0.0212844 -2.29805 12.406 -5.80322 0.948539 8.56714 20.3397 6.34464 2.3398 -0.39869 -4.35564 11.0239 -7.24272 -1.32263 1.62247 0.286303 3.66491 -3.48694 -0.913531 0.522507 -2.3749 -0.577629 -3.73383 -1.36743 1.11132 -0.382336 11.2502 -3.79419 0.347726 6.94773 -2.26319 -1.69551 3.03854 -1.71277 -5.08675 0.534683 1.26797 2.0898 0.606118 -0.104448 0.0649335 -0.845396 -0.371392 -0.982964 0.120956 -2.09859 0.593129 0.19943 1.45855 0.478535 -0.202304 0.924795 -0.696811 -0.348233 -0.538363 1.32644 -0.229652 -0.406074 -0.350568 0.509504 0.406933 0.0704015 -1.1245 0.618573 -0.161994 0.301991 -0.188226 -0.078308 0.0318027 0.0527673 -0.554944 -0.471217 0.147066 -0.664467 -0.0260586 0.300125 -0.19628 -0.112421 0.341601
internal_weight=4909 4137 772 1988 2149 525 247 282 1056 1093 998 243 990 464 690 629 366 465 328 495 91 134 374 174 335 154 236 363 405 255 136 60 195 61 533 242 90 355 210 108 163 86 122 46 57 34 102 109 66 156 54 54 33 51 45 233 89 23 47 27 39 70 37 20 30 36 21 42 23 32 21 29 20 31 31 33 19 18 26
internal_count=4909 4137 772 1988 2149 525 247 282 1056 1093 998 243 990 464 690 629 366 465 328 495 91 134 374 174 335 154 236 363 405 255 136 60 195 61 533 242 90 355 210 108 163 86 122 46 57 34 102 109 66 156 54 54 33 51 45 233 89 23 47 27 39 70 37 20 30 36 21 42 23 32 21 29 20 31 31 33 19 18 26
is_linear=0
shrinkage=0.0985333


Tree=4
num_leaves=42
num_cat=0
split_feature=0 0 0 0 0 0 0 0 0 0 0 0 0 0 1 0 0 1 0 0 0 0 0 0 0 0 0 0 20 0 0 0 0 0 15 15 0 15 11 15 16
split_gain=1.23712e+07 3.99979e+06 1.86516e+06 332820 316108 175091 157971 67949.8 48233 47789.2 25912.4 12333.2 8655.22 8245.66 5351.07 4263.28 3695.96 3630.14 2652.49 2389.27 1754.32 1382.45 1380.18 573.259 549.52 271.216 242.225 148.475 69.276 47.7693 29.2247 21.2903 21.1459 17.0288 10.9557 9.13292 4.16556 2.96342 2.27772 1.35958 0.860264
threshold=0.75225245142540953 -0.50368224313086762 1.9155684912382105 -0.69980600775806689 0.012972912908472956 1.2525395153210093 2.9718588523003784 -0.41395950071200299 -0.58557004125726386 0.45731921571114231 -0.81029019464185359 -0.20901203168922675 0.21229861227822752 0.9501295681083447 0.10320679705573398 -0.46055763267986854 1.4921686780757664 0.45504931773318341 0.57219588474317418 -0.63479716290236399 -0.31711489171551782 -0.55081641322928465 -0.11999330558437525 0.10236496640724985 -0.74110853409373412 -0.26338940527938526 -0.4303715423901382 -0.38706990395714835 0.53386000483680041 -0.063714499709476277 -0.33264156143758311 -0.24136960953364209 -0.29458523264112196 -0.18115769160428216 -0.42074704631252036 -0.373003907578972 -0.27311958622529359 -0.2483704715358693 1.2933680082237722 -0.095400285038400298 -0.60024351219390848
decision_type=2 2 2 2 2 2 2 2 2 2 2 2 2 2 2 2 2 2 2 2 2 2 2 2 2 2 2 2 2 2 2 2 2 2 2 2 2 2 2 2 2
left_child=1 3 5 10 7 13 -4 15 14 12 -1 20 23 -2 19 -3 -7 21 -11 -5 27 -10 33 -6 -12 32 -17 28 40 -24 35 39 34 -13 -22 -29 37 -34 -32 -27 -9
right_child=2 4 6 8 9 16 -8 11 17 18 24 22 -14 -15 -16 26 -18 -19 -20 -21 25 -23 29 -25 -26 31 -28 30 -30 -31 38 -33 36 -35 -36 -37 -38 -39 -40 -41 -42
leaf_value=-7.6791238214742936 5.1078814642303287 -1.8299060022865024 15.189731292787368 -4.8188568422504403 1.1967323442325237 8.3356648266402953 21.459708578172279 -0.18112731514044056 -3.2718534711134377 2.8314538503112594 -6.3764376545079013 0.31589395655242897 2.1660781186101521 6.7912191616275006 -1.781237069380577 -1.1684519567437219 10.885395923970894 -0.57832080412438813 3.8304094420094561 -4.0478257911468774 0.040683555598117066 -2.552313884739438 0.67507020438148313 1.5739037824957316 -5.4385990196201446 0.12685225529923144 -0.77053574871178565 -0.17329416242608675 -0.059606907300175538 0.87865958548695899 -0.13066367686810945 0.21206329783915009 0.021676819855852975 0.45184048499028334 -0.075782740190329906 -0.26349241251882083 0.056439550727698504 -0.030975854884724544 -0.043079168908962448 0.044320326929947168 -0.43417828746716519
leaf_weight=217 132 151 152 355 159 94 114 6.9999999999999991 193 119 613 57 319 149 12.999999999999998 95 130 7.9999999999999991 133 267 6.9999999999999991 143 112 179 198 49 57 51 6.9999999999999991 131 30 94 25 111 50 81 19 12.999999999999998 7.9999999999999991 6.9999999999999991 60
leaf_count=217 132 151 152 355 159 94 114 7 193 119 613 57 319 149 13 95 130 8 133 267 7 143 112 179 198 49 57 51 7 131 30 94 25 111 50 81 19 13 8 7 60
internal_value=0.0220238 -2.11545 11.4531 -5.26824 0.85753 7.84839 18.1124 -0.178133 -3.94279 2.24531 -6.51346 0.244688 1.78636 6.07057 -4.46538 -1.44911 9.95522 -2.94408 3.40239 -4.51155 -0.0802198 -2.99409 0.643658 1.41008 -6.17099 0.0953831 -1.03924 -0.268924 -0.38792 0.795372 -0.210574 0.180959 -0.0191838 0.412856 -0.0600009 -0.23384 0.0227047 0.00260189 -0.117253 0.119648 -0.417709
internal_weight=4909 4138 771 2007 2131 505 266 1222 979 909 1028 919 657 281 635 303 224 344 252 622 508 336 411 338 811 264 152 244 74 243 170 150 114 168 57 132 57 38 38 56 67
internal_count=4909 4138 771 2007 2131 505 266 1222 979 909 1028 919 657 281 635 303 224 344 252 622 508 336 411 338 811 264 152 244 74 243 170 150 114 168 57 132 57 38 38 56 67
is_linear=0
shrinkage=0.0985333


Tree=5
num_leaves=84
num_cat=0
split_feature=1 15 1 15 15 1 1 5 1 15 15 5 15 5 1 1 5 1 5 3 5 4 5 1 1 5 1 5 1 15 5 1 15 5 1 1 1 1 5 15 15 1 5 1 5 17 3 4 5 1 4 5 5 4 5 5 20 5 5 1 17 1 1 5 3 1 5 1 16 1 5 1 1 5 4 15 1 5 1 5 1 4 5
split_gain=9.71246e+06 3.26788e+06 1.53515e+06 319662 254412 167022 100069 73212.8 63414.5 47632 37545.3 30631.6 30219.2 13871.1 10793.8 8517.95 8245.76 8015.29 6755.82 5909.1 5488.49 5351.94 3373.43 3033.12 2383.57 2251.73 2195.47 2580.26 2193.69 1929.11 1829.7 1655.56 1651.53 1396.63 1300.26 1295.89 983.816 959.763 933.604 889.792 809.374 797.769 760.955 679.783 568.052 523.404 431.708 395.712 364.469 320.919 313.827 303.602 269.02 261.928 241.522 237.766 193.73 184.992 183.04 165.241 147.835 143.605 134.056 122.916 120.691 117.522 115.266 94.1103 83.5507 74.9554 68.9315 66.8201 63.8394 61.4369 57.8039 52.7721 46.7825 46.4379 53.7554 39.7501 35.1897 30.9431 28.0056
threshold=0.80634314926178063 -0.48663217653476704 1.9863909583994597 -0.6703833563626892 0.022233311044346716 1.2699127093881979 2.5975060081734251 0.34811071548375117 0.37896493698557648 -0.31690448588327397 -0.77090698544495129 0.60381959885725478 -0.56990025638872233 0.94450222748493551 -0.5092040235702725 -0.26013514939822641 0.93608004699933156 0.037726873867181925 0.049201165322150041 0.15907139008479168 0.36968432828267972 -0.4147809626731363 0.65422307410651903 0.23683789245524803 0.065806421289851036 0.049201165322150041 -0.57788648884497007 -0.2926228166560913 -0.61028744942559432 -0.42964590647538786 0.42287864734692598 0.51197420645290259 -0.72418532411703962 0.44696662268868564 -0.4871526946192683 -0.15806156173111996 0.45504931773318341 -0.37976668097939553 0.66858383642202979 -0.83297918867587517 -0.18093972379661313 -0.35773519227336315 0.39238711767130635 -0.041564897704743524 0.65422307410651903 -0.4290781268839044 0.04027863640944785 -0.25085132005421867 0.77453874944805656 -0.16672656360263283 -0.64639768353470373 -0.19215718901896864 0.049201165322150041 -0.50309144756784352 0.13402868760907319 0.069021349167866244 -0.76424622027792066 0.79118696623298901 0.36968432828267972 -0.45038573228026785 -0.66697929880486417 -0.35773519227336315 -0.24324108679846221 0.21516522694630313 -0.052137120096492302 -0.12890972080925131 0.56714667656212181 -0.32369652584568259 -0.54415018313158003 0.96881299563258361 0.099933092279081107 -0.43827254530955012 0.12716499619468313 0.38153295769146905 0.029415488294253372 -0.27290673336252352 -0.086946583469020969 0.74810930853447677 -0.55647069093302981 0.87501796780012164 -0.23430879081364145 -0.53481976549408561 0.49492094796729491
decision_type=2 2 2 2 2 2 2 2 2 2 2 2 2 2 2 2 2 2 2 2 2 2 2 2 2 2 2 2 2 2 2 2 2 2 2 2 2 2 2 2 2 2 2 2 2 2 2 2 2 2 2 2 2 2 2 2 2 2 2 2 2 2 2 2 2 2 2 2 2 2 2 2 2 2 2 2 2 2 2 2 2 2 2
left_child=1 3 5 10 9 7 -4 50 17 14 39 -7 21 30 25 34 -9 35 29 26 40 23 63 -5 49 -3 56 -28 -27 45 -10 -15 -12 -23 48 66 -32 -31 54 -1 55 57 -30 70 -37 46 -16 -21 -11 82 69 -45 68 60 81 64 -14 71 80 -40 -39 -56 -55 -19 75 -57 -6 -68 -29 -2 -42 73 -24 -20 -60 -17 -66 78 -44 -61 -43 -36 -22
right_child=2 4 6 12 8 11 -8 16 13 15 32 -13 19 31 18 20 -18 22 41 47 24 33 72 -25 -26 28 27 52 42 37 36 -33 -34 -35 38 44 -38 53 59 -41 43 58 77 51 -46 -47 -48 -49 -50 -51 -52 -53 -54 62 61 65 -58 -59 74 79 -62 -63 -64 -65 76 -67 67 -69 -70 -71 -72 -73 -74 -75 -76 -77 -78 -79 -80 -81 -82 -83 -84
leaf_value=-7.4098369692761681 0.094568694206702955 -2.402928517523792 12.984182653879346 -3.749906098845714 0.14592429937830481 3.6824935571033661 18.592729961736378 4.6644370665840613 1.7620265532058637 -0.76216870471897069 -5.4101969210136556 9.3171491261824482 -1.4278291287013436 2.946385796116175 -1.0188446803824143 -0.091888913494383911 6.4982889615744579 0.59206588812585625 -0.41205798135623639 -0.92832826425280235 0.24721346670629513 -2.5017207821667617 1.5657059512172566 -1.340215241916809 1.7130651982153011 -1.7570195130305428 -2.2924332397255793 -1.5316374036556275 -1.210763004005619 -1.0352300644109456 1.7233629314889005 4.3152335399474184 -4.6079895844327741 -0.60999061924595177 -0.49855627027963445 0.69116710747374555 2.9008125721088405 -0.18336986356860926 -0.02754755938684213 -6.0781932450602225 0.082473609827328265 -0.037589675001537738 -0.62089313726048467 0.419512306837317 1.2276806340371389 -1.5747323258205068 -0.16358095777923151 -0.059962556323605851 -0.12129902288134112 0.99380819410864096 1.0504273329697418 0.91672622964571282 -0.48891381818908075 -0.31800177517202699 -0.13898574502929401 0.20936180243460167 -2.9051819172967317 0.14587511757652949 0.24093289034834064 0.22066076158412673 -0.61705973787272006 0.10398426716441092 0.037003485700156415 1.2948899546976544 0.069218521265701521 0.59511496777156336 0.13074982715885272 0.60319518521997895 -0.60128987009903545 0.47450795134336754 0.34522240566740692 -0.079266937930992029 2.07152738751219 -0.1420521853631955 0.5903848530323994 0.099033896263692703 0.31245538026096792 -0.13985414855241979 -0.23006419885874305 0.45666323969529615 0.20178904463964445 -0.20284118103280713 0.6383421178631532
leaf_weight=97 11.000000000000005 26 95 520 11.999999999999998 15.999999999999998 152 93 51 23 379 227 10.999999999999998 52 52 19 140 10.999999999999998 20 7.0000000000000027 7.9999999999999991 41 70 9.9999999999999982 47 52 120 14.999999999999998 26 29 27 96 274 6.9999999999999991 9.0000000000000018 45 133 13.999999999999998 9.9999999999999982 434 17 12.000000000000002 19 28 95 32 7.9999999999999991 10.999999999999998 14.999999999999998 91 7.9999999999999991 48 10.999999999999998 19 46 21 119 13.999999999999998 15.999999999999998 21 37 42 18 121 12.999999999999998 18 6.9999999999999991 37 8.0000000000000018 10.999999999999998 32 25 175 21 17 35 30 6.9999999999999991 11.000000000000002 42 6.9999999999999991 17 46
leaf_count=97 11 26 95 520 12 16 152 93 51 23 379 227 11 52 52 19 140 11 20 7 8 41 70 10 47 52 120 15 26 29 27 96 274 7 9 45 133 14 10 434 17 12 19 28 95 32 8 11 15 91 8 48 11 19 46 21 119 14 16 21 37 42 18 121 13 18 7 37 8 11 32 25 175 21 17 35 30 7 11 42 7 17 46
internal_value=0.0225983 -1.84512 10.2932 -4.6235 0.899105 7.10524 16.64 5.26097 2.10819 -0.0756345 -5.6841 9.00175 -3.18022 3.13429 -0.821357 0.455955 5.84348 1.45071 -0.512638 -2.32965 0.700578 -3.60851 1.71929 -3.71322 1.09752 -1.5385 -2.43904 -2.0642 -1.28004 -0.856713 2.53655 3.9108 -5.09905 -2.28412 -0.0396324 0.913714 2.74188 -0.564463 0.0697759 -6.36677 0.398276 0.039932 -0.816928 0.577663 1.07559 -1.19521 -0.919615 -0.491031 -0.539765 0.863527 0.603267 0.759204 -1.12425 -0.376772 -0.106068 0.223388 -2.81952 -0.153651 0.328957 0.336926 -0.516805 -0.0234643 -0.156651 1.25256 0.132577 0.420665 0.470843 0.542724 -1.32654 0.322434 0.26527 -0.2212 1.95028 -0.295115 0.45908 0.0303993 0.249324 -0.462003 -0.515396 0.393238 0.0677507 -0.350784 0.598373
internal_weight=4909 4156 753 2064 2092 506 247 263 932 1160 1184 243 880 359 482 678 233 573 341 302 453 578 377 530 192 141 284 154 115 209 211 148 653 48 225 196 160 117 187 531 261 132 63 125 140 92 60 18 38 145 30 76 34 88 114 136 130 80 52 73 51 88 37 132 97 39 56 44 23 22 49 66 245 41 33 54 43 37 30 63 19 26 54
internal_count=4909 4156 753 2064 2092 506 247 263 932 1160 1184 243 880 359 482 678 233 573 341 302 453 578 377 530 192 141 284 154 115 209 211 148 653 48 225 196 160 117 187 531 261 132 63 125 140 92 60 18 38 145 30 76 34 88 114 136 130 80 52 73 51 88 37 132 97 39 56 44 23 22 49 66 245 41 33 54 43 37 30 63 19 26 54
is_linear=0
shrinkage=0.0985333


Tree=6
num_leaves=39
num_cat=0
split_feature=0 0 0 0 0 0 0 0 0 0 0 0 0 0 0 0 1 1 0 0 0 0 3 0 0 0 0 0 1 0 15 0 0 15 0 19 15 3
split_gain=8.26375e+06 2.74628e+06 1.16672e+06 239156 219388 149661 60273.8 41297 37801.6 33547.8 23125.9 13799.2 11147.3 4958.75 3980.34 2379.88 2376.4 2000.95 1586.02 1089.82 1057.73 797.69 486.846 283.297 209.85 111.796 110.681 61.7387 22.2518 25.9155 15.4796 20.9178 10.9892 7.63144 4.25445 2.25202 0.317372 0.274167
threshold=0.80784863563820175 -0.49047481632792905 2.1177100122155967 -0.66381920545286588 0.071893645031580355 1.4294663716143325 3.2015966664792734 -0.40759611167185 0.51847204583446616 -0.76316862464754209 -0.57564491836920018 1.0627720043158917 -0.17110721740428839 0.28974603393801085 -0.82847586920627425 -0.44104096479797444 0.10320679705573398 0.5528849697019772 -0.27311958622529359 -0.054933282957761294 -0.52705417159526335 0.64275024889814081 1.9077507827206275 0.13969496765563269 -0.33264156143758311 -0.22164551562854509 -0.11999330558437525 -0.42553102560088146 0.40798730670285016 -0.36401954500047684 -0.43592284777152229 -0.30823525260364898 -0.25452683315935737 -0.44077893808414276 -0.29458523264112196 -0.23228635576707854 -0.32373777708311663 -0.33920356374306876
decision_type=2 2 2 2 2 2 2 2 2 2 2 2 2 2 2 2 2 2 2 2 2 2 2 2 2 2 2 2 2 2 2 2 2 2 2 2 2 2
left_child=1 3 5 9 7 11 -4 15 13 14 16 -2 18 23 -1 -3 -5 20 24 26 -12 -10 -15 -6 28 32 -14 -17 29 -9 -26 36 35 -31 -33 -20 -32 -37
right_child=2 4 6 10 8 -7 -8 12 21 -11 17 -13 19 22 -16 27 -18 -19 25 -21 -22 -23 -24 -25 30 -27 -28 -29 -30 33 31 34 -34 -35 -36 37 -38 -39
leaf_value=-6.6402975372673767 4.5668508242472852 -1.2908709466263357 13.19274166035458 -3.4050552101407909 1.1032116906380742 9.1868449426155472 18.112104587445707 -0.25407750342892305 2.6613935657643881 -4.514386882212885 -2.4577239429922146 6.2698506383657069 0.3792728824900502 1.9603332186400595 -5.4137253872311923 -0.78447770676305173 -1.4982759957953986 -0.37233805862780517 0.08590506185592274 0.82483847969377888 -1.8463830255544207 3.4831780790143285 0.64752266538569747 1.4335368297544582 0.064428198502896036 0.25612742971447311 0.56323004017119993 -0.52181475722080561 -0.026289164933500191 -0.037633742370352684 -0.070730099279301892 -0.045908202007628719 0.13668129631166087 -0.16890928398409513 0.00083450253313744217 0.010126981471796789 -0.12100200481675936 0.039542035996518551
leaf_weight=117 152 170 133 485 120 187 95 108 117 593 205 167 92 271 514 57 13.999999999999998 6.9999999999999991 20 211 110 113 6.9999999999999991 219 7.9999999999999991 114 131 57 6.9999999999999991 6.9999999999999991 24 34 93 65 38 8.0000000000000018 29 9.9999999999999982
leaf_count=117 152 170 133 485 120 187 95 108 117 593 205 167 92 271 514 57 14 7 20 211 110 113 7 219 8 114 131 57 7 7 24 34 93 65 38 8 29 10
internal_value=0.022557 -1.6746 9.63943 -4.25065 0.801465 6.92379 15.4771 -0.0119865 2.0288 -5.12685 -2.92868 5.51477 0.286583 1.61111 -5.67532 -1.05326 -3.362 -2.22923 -0.00250729 0.660045 -2.26611 3.10973 1.93545 1.32865 -0.146317 0.18476 0.494133 -0.671953 -0.212801 -0.219435 -0.049882 -0.0587025 0.117774 -0.158408 -0.0223052 0.0641139 -0.103844 0.0301427
internal_weight=4909 4175 734 2045 2130 506 228 1283 847 1224 821 319 999 617 631 284 499 322 565 434 315 230 278 339 320 245 223 114 187 180 133 125 131 72 72 38 53 18
internal_count=4909 4175 734 2045 2130 506 228 1283 847 1224 821 319 999 617 631 284 499 322 565 434 315 230 278 339 320 245 223 114 187 180 133 125 131 72 72 38 53 18
is_linear=0
shrinkage=0.0985333


Tree=7
num_leaves=84
num_cat=0
split_feature=1 15 1 15 15 1 1 5 15 1 15 15 5 5 5 1 15 1 1 5 5 3 4 5 1 1 1 5 1 1 1 5 1 1 5 5 5 5 15 5 5 17 1 1 5 5 15 1 1 5 1 3 3 5 5 5 5 1 11 3 5 5 1 5 5 15 1 5 1 1 1 1 3 4 1 1 1 5 5 1 1 5 1
split_gain=6.48509e+06 2.34236e+06 846963 221388 214830 103843 72574.8 41042.5 31681.8 30054.3 29370.8 19250.1 13126.9 10620.3 10473.6 8476.53 7129.57 6907.69 6568.73 4264.82 4085.72 3979.04 3686.58 2550.76 1915.58 1806.71 1518.36 1488.76 1478.97 1467.91 1409.83 1401.38 1392.73 1284.57 1243.4 1085.07 808.838 776.395 757.291 641.637 614.578 567.656 563.433 559.004 414.472 400.108 276.237 257.37 248.371 219.006 217.526 208.707 200.115 209.823 193.613 178.929 167.237 149.758 124.685 111.255 110.496 105.792 91.7701 91.2617 87.4692 78.8542 73.5486 64.7208 64.0423 60.9289 56.8095 50.9008 43.8874 42.1865 35.6186 34.2345 32.6386 32.5161 26.925 21.143 20.1676 14.138 13.0792
threshold=0.96881299563258361 -0.4834668682607372 2.2062262458821995 -0.66362808340624113 0.044740576409936554 1.5282862626367277 0.48926980194695613 -0.14539732782010348 -0.31690448588327397 3.1626013672980435 -0.7440210447939154 -0.56129963848168751 0.86289865482431061 0.80960454464318177 0.86289865482431061 0.19832960970305594 -0.818441213043413 -0.5092040235702725 -0.19287512578648544 0.39238711767130635 0.049201165322150041 0.066655633578851514 -0.4147809626731363 0.91792742978046704 -0.066985486171962025 0.34101385341249957 0.61728674132398598 0.39238711767130635 -0.38582866250135645 -0.37976668097939553 -0.61972312359581305 0.42287864734692598 0.12716499619468313 -0.43271716786817965 0.91792742978046704 0.36968432828267972 -0.13001621197289723 0.62899404201290043 -0.44077893808414276 -0.21105945604405299 -0.38707749770795041 -0.37920347807367938 -0.31288508653895736 0.046898568877741444 0.44696662268868564 -0.84638678784725896 -0.59583317704578553 -0.49972363215964061 -0.52722194451539539 -0.27662222487242 0.031465678474011417 -0.41833455525127999 1.4589567651886555 0.26188580350540563 0.94450222748493551 0.60865884139827708 0.016505701854216799 -0.48216107699662197 1.1103549330338469 0.33061813809894314 0.74810930853447677 0.17570849237961636 -0.47729854465859373 -1.6568734515404664 0.32110339540202204 -0.2483704715358693 -0.33636787184776601 1.0582821587617905 -0.33636787184776601 -0.056451909248684352 -0.097934596008304592 -0.22497979877860594 -0.038948621511790481 -0.54116542907933407 -0.23430879081364145 -0.46529353402604717 -0.53213645730571202 0.4013608367289242 0.25349954751781173 -0.42789537482618606 -0.097934596008304592 0.89074555437709246 -0.46529353402604717
decision_type=2 2 2 2 2 2 2 2 2 2 2 2 2 2 2 2 2 2 2 2 2 2 2 2 2 2 2 2 2 2 2 2 2 2 2 2 2 2 2 2 2 2 2 2 2 2 2 2 2 2 2 2 2 2 2 2 2 2 2 2 2 2 2 2 2 2 2 2 2 2 2 2 2 2 2 2 2 2 2 2 2 2 2
left_child=1 3 5 10 8 7 15 -2 17 -4 16 22 31 -7 -9 24 -1 27 28 36 29 33 25 52 54 46 -14 73 44 39 -29 -8 60 51 64 47 58 56 45 -19 63 59 55 70 57 -31 -5 -24 -46 50 -40 -13 53 -17 74 62 -30 -10 65 -23 80 -44 -22 -35 -26 72 -39 82 -58 -67 -38 -51 -20 -3 -6 -57 -32 -76 -70 -64 -21 -68 -50
right_child=2 4 9 11 6 13 12 14 18 -11 -12 21 26 -15 -16 23 -18 20 19 32 42 41 35 -25 34 -27 -28 30 37 38 76 -33 -34 40 -36 -37 43 66 49 -41 -42 -43 61 -45 48 -47 -48 -49 67 71 -52 -53 -54 -55 -56 75 68 -59 -60 -61 -62 -63 79 -65 -66 69 81 -69 78 -71 -72 -73 -74 -75 77 -77 -78 -79 -80 -81 -82 -83 -84
leaf_value=-5.7614301116112747 0.74905005316129925 -1.925125584984184 12.10847525456041 -3.1239762059381384 0.18633168213148316 4.7531725290833329 1.5225640072118132 4.1828330679404511 -0.8370735755330293 16.364478277133244 -3.8339994009064453 -2.2973452823361251 2.8318102651663222 8.9790725632700372 6.124328074212519 0.75936739224925653 -4.7201757551788104 -1.4209281616283669 -0.068297616125057553 0.44335971140375008 -0.39689668348814083 -0.37979997423216444 -2.2681285913242317 2.1064207300850852 0.51760555961362231 -1.0053897802626646 4.0574537131648958 -1.2854278818603817 -0.18922938395543304 -1.0300567427244476 -0.43576888736457559 2.5645082530956502 1.5464580688749114 -0.60438829966152807 1.3654761407555009 -0.6670920370673965 0.23306073473351793 0.20534558134700895 -0.52240166948360511 -0.62039975429616867 -0.31303940838525712 -1.1674390195021356 0.020301759696198411 0.82283091067039971 -0.42942349121172674 -0.26210857126995663 -2.595225638810672 -0.99034357374383752 -0.10756910871562263 -0.15086124209826479 -0.15784420034376784 -1.7170170273442029 0.5082191223327841 1.5004178751258501 0.74526619251064585 -0.057267281708933741 -0.043410101301936066 -0.31349509229287326 0.41591259612434106 0.063283557165311491 0.96894192616926933 0.43068445151122092 -0.16989629087373484 -1.5602842490679389 0.92673543005489212 -0.035766724608166774 0.32569359574489498 0.1732822669673223 0.051853378356828468 0.22669318866639734 0.44854554842089117 0.11061230673526912 0.14572259570774185 -1.1987242747760194 0.14745827703442291 0.15776920369528857 -0.11955213003247671 0.4910850591823484 0.17698688726401424 -0.043012063062109827 0.74338561330793662 0.5566170580437666 -0.0020974287581836948
leaf_weight=177 19 27 114 346 14.999999999999998 19 36 74 8.9999999999999982 95 414 111 56 149 188 14.999999999999998 633 29 23 25 11.999999999999998 13.000000000000005 31.999999999999996 127 21 8.9999999999999982 126 36 21 28 31 112 40 6.9999999999999991 130 10.999999999999998 36 19 51 27 6.9999999999999991 7.9999999999999991 7.9999999999999991 45 13.999999999999998 11.999999999999998 169 10.000000000000002 21.999999999999996 18.000000000000004 28 82 6.9999999999999991 145 33 8.0000000000000018 23 23 15.999999999999998 6.9999999999999991 65 28 25.999999999999996 48 118 8.9999999999999982 25 11.999999999999998 29 58 42 7.9999999999999991 10.999999999999998 33 6.9999999999999991 22 6.9999999999999991 28 53 28.000000000000004 45 38 21.000000000000004
leaf_count=177 19 27 114 346 15 19 36 74 9 95 414 111 56 149 188 15 633 29 23 25 12 13 32 127 21 9 126 36 21 28 31 112 40 7 130 11 36 19 51 27 7 8 8 45 14 12 169 10 22 18 28 82 7 145 33 8 23 23 16 7 65 28 26 48 118 9 25 12 29 58 42 8 11 33 7 22 7 28 53 28 45 38 21
internal_value=0.0227414 -1.38836 9.09965 -3.7442 0.879548 6.60309 1.96059 5.3186 -0.00938503 14.2726 -4.59785 -2.516 3.14642 8.6043 5.63622 1.3416 -4.9707 -0.639532 0.39816 0.652649 -0.392075 -1.80846 -2.85047 1.73683 0.998119 -2.94146 3.73883 -1.2297 0.0530059 -0.668065 -0.863824 2.35071 1.01967 -1.93149 1.12796 -1.82847 0.374587 0.20234 -0.483099 -1.09224 -1.37183 -0.60068 0.034367 0.548674 -0.251125 -0.838045 -2.96852 -2.06031 -0.104719 -0.325964 -0.404969 -2.08457 1.41956 1.44809 0.549646 -0.0914991 0.0455931 -0.52665 0.181306 -0.237984 0.829625 0.349061 -0.179384 -1.48066 0.878679 0.131876 0.431854 -0.00199014 0.0969952 0.191411 0.362902 -0.0669338 0.00785527 -1.61083 0.381524 0.10043 -0.392044 0.4414 0.136538 -0.110515 0.66159 0.486231 -0.059969
internal_weight=4909 4251 658 2084 2167 449 976 281 1191 209 1224 860 330 168 262 646 810 467 724 415 333 283 577 294 352 524 182 134 309 201 74 148 175 255 269 53 240 208 145 56 62 28 132 123 101 40 515 42 69 105 79 193 167 160 83 96 126 32 117 20 135 36 66 55 139 101 82 55 105 67 78 26 34 60 50 30 38 35 82 54 70 63 43
internal_count=4909 4251 658 2084 2167 449 976 281 1191 209 1224 860 330 168 262 646 810 467 724 415 333 283 577 294 352 524 182 134 309 201 74 148 175 255 269 53 240 208 145 56 62 28 132 123 101 40 515 42 69 105 79 193 167 160 83 96 126 32 117 20 135 36 66 55 139 101 82 55 105 67 78 26 34 60 50 30 38 35 82 54 70 63 43
is_linear=0
shrinkage=0.0985333


Tree=8
num_leaves=43
num_cat=0
split_feature=0 0 0 0 0 0 0 0 0 0 0 0 0 0 0 0 0 2 0 0 1 18 0 0 0 0 0 0 0 0 16 16 16 0 2 2 11 0 3 0 0 2
split_gain=5.52611e+06 1.88702e+06 732056 171048 153813 102498 32771.9 21960.8 21121 20910 20622.9 9571.1 5443.1 4036.03 3765.01 3670.5 2205.7 1150.36 880.358 868.365 647.765 530.579 463.229 384.295 375.255 234.51 151.937 60.5735 44.6783 18.6236 18.4065 7.66899 6.45229 5.4145 5.10232 5.09959 2.46683 1.60811 1.5239 0.896085 0.895323 0.814569
threshold=0.85714730870320854 -0.4838784993964112 2.2263828471169229 -0.67057410270014273 0.08080752254788319 1.5663358610311076 0.53638754910588404 -0.30823525260364898 -0.57009659131193147 -0.78952980598676004 3.2015966664792734 1.180256732465484 -0.42553102560088146 -0.13029409953213753 -0.72852178424220304 0.32656081159245826 -0.61938010016324963 -0.80332957089651613 0.64275024889814081 -0.52226813923407245 0.23683789245524803 1.908852304494919 -0.02237593661197505 -0.40759611167185 -0.22164551562854509 0.15157331552155559 -0.44104096479797444 -0.26338940527938526 -0.34945602909260581 -0.20901203168922675 0.26457390118012097 -0.58946816439103455 -0.61011819958647784 -0.2835039631840835 -0.54395655282606192 -0.60343389059839458 -0.18503284679864099 -0.24858468903610956 -0.012475357929359715 -0.27311958622529359 -0.29458523264112196 -0.18310254699951736
decision_type=2 2 2 2 2 2 2 2 2 2 2 2 2 2 2 2 2 2 2 2 2 2 2 2 2 2 2 2 2 2 2 2 2 2 2 2 2 2 2 2 2 2
left_child=1 3 5 9 7 11 15 12 16 -1 -4 -2 26 24 -11 25 -5 -10 -8 -19 -18 -17 -15 -14 27 -6 -3 33 30 -26 32 -30 -25 34 -9 -33 39 41 -38 -35 -36 -29
right_child=2 4 10 8 6 -7 18 13 17 14 -12 -13 23 22 -16 21 20 19 -20 -21 -22 -23 -24 28 29 -27 -28 37 31 -31 -32 35 -34 36 40 -37 38 -39 -40 -41 -42 -43
leaf_value=-4.9128781860553863 4.1000380370143414 -0.9566825216886925 11.078075498707735 -3.0274118766118607 0.93540203867138338 7.990111208623718 2.223963803917901 0.040568879847480609 -0.29478207588849709 -4.11462902581503 14.853024152700462 5.5518485146279586 -0.42813254619187735 0.48192540055082683 -3.4386535370114628 1.6961598747735056 -2.4972449206735061 -1.9236928725171967 2.9601385935968407 -1.4342561725298359 -1.0570278790800662 0.49145938879125911 0.72518603000719839 -0.068790165225179403 0.15857071935085493 1.2168394660998554 -0.64646876485628557 0.085503520441677458 0.007827617805202608 0.26748715143989965 -0.030197199094878561 -0.0097005817268407922 -0.19482591913404679 -0.014973453130596523 -0.042486002197698186 -0.10234380096992142 0.013186577127225461 0.11587194177875375 0.077605635471026654 0.019296409872960163 -0.011750133200369599 0.037686399334782482
leaf_weight=356 169 133 114 279 119 168 97 7.9999999999999991 6.9999999999999991 534 95 150 57 206 294 232 290 183 151 129 9.9999999999999982 6.9999999999999991 175 8.9999999999999982 38 259 57 24 6.9999999999999991 149 8.9999999999999982 6.9999999999999991 131 10.999999999999998 31.999999999999996 81 7.9999999999999991 74 6.9999999999999991 12.000000000000002 17.000000000000004 13.999999999999998
leaf_count=356 169 133 114 279 119 168 97 8 7 534 95 150 57 206 294 232 290 183 151 129 10 7 175 9 38 259 57 24 7 149 9 7 131 11 32 81 8 74 7 12 17 14
internal_value=0.0230042 -1.32251 8.13467 -3.42979 0.738483 5.97016 1.74845 0.0456018 -2.3887 -4.21036 13.003 4.83375 -0.468098 0.371675 -3.88956 1.35093 -2.7502 -1.7106 2.70597 -1.73887 -2.46155 1.66822 0.599053 -0.203405 0.148574 1.13731 -0.876544 0.0557025 -0.145775 0.248563 -0.179856 -0.0879773 -0.188537 -0.00247639 -0.0212148 -0.0956073 0.0250649 0.103679 0.0519987 0.00308256 -0.0332714 0.0724069
internal_weight=4909 4213 696 2082 2131 487 865 1266 898 1184 209 319 491 775 828 617 579 319 248 312 300 239 381 301 394 378 190 207 244 187 149 95 140 95 57 88 38 112 15 23 49 38
internal_count=4909 4213 696 2082 2131 487 865 1266 898 1184 209 319 491 775 828 617 579 319 248 312 300 239 381 301 394 378 190 207 244 187 149 95 140 95 57 88 38 112 15 23 49 38
is_linear=0
shrinkage=0.0985333


Tree=9
num_leaves=84
num_cat=0
split_feature=1 19 1 1 19 1 5 1 1 5 1 3 5 5 5 19 4 5 1 5 19 1 5 1 1 1 5 5 5 1 3 5 5 1 5 1 5 5 1 1 1 5 5 5 21 1 5 1 5 5 16 1 1 1 4 5 5 5 1 19 5 1 5 1 5 5 1 1 1 5 1 1 5 5 1 1 5 1 4 20 1 21 5
split_gain=4.33667e+06 1.32681e+06 680840 178454 123126 81597.9 60913.1 50638.5 33276.7 21364.5 17853.7 17053.2 15497.6 13816.7 13797.5 10110.7 8913.77 8495.47 6119.87 5410.43 4909.24 4516.15 3261.9 2577.7 2228.54 1831.54 1776.14 1572.66 1568.12 1428.76 1397.05 1004.78 971.818 795.423 758.954 725.938 710.052 705.091 604.384 579.173 540.639 511.527 437.609 387.093 355.607 355.425 332.504 247.766 242.246 209.424 157.584 143.422 142.764 129.899 112.003 111.227 100.492 90.8992 76.1281 51.9257 50.4222 50.2595 46.6166 42.6805 41.679 40.6869 35.1879 34.5767 23.4144 20.0425 18.6027 15.5269 15.3822 12.9708 12.8336 12.2801 10.9798 9.15135 8.25501 7.90754 7.37884 5.92689 4.74532
threshold=0.84333702265187915 -0.56186511325052957 1.8349193464996389 -0.26013514939822641 -0.75975403572027245 2.3625390853582404 0.73332497602702651 0.2983565449874675 -0.53213645730571202 0.56714667656212181 1.1430544798990661 -0.39195755808187621 0.13402868760907319 -0.21105945604405299 -0.14539732782010348 -0.86541041562732024 -0.47770879322684984 0.39238711767130635 0.5686841377454267 -0.58637397344741948 -0.67337874200261594 0.010771095731415648 -0.79720302575390678 -0.62511194193325947 -0.56085801724398188 -0.6402188684917921 0.84899511087854274 -0.51322771557892699 0.32110339540202204 -0.40382135021721338 -0.31273030016063802 0.77453874944805656 -0.098477278455745706 -0.68038439057910749 -0.07997310441336565 -0.47116960107292932 -0.32907379324587444 1.0134237059760023 -0.70744373380408909 1.1430544798990661 -0.41273750683068788 1.0968169614523362 0.95359549020208345 0.41193532389530885 -0.23870269851226364 -0.42789537482618606 -1.3092357937223842 -0.015392131411563396 -1.034209176075584 0.81721642197589761 -0.36664451763139155 -0.18310146487947779 -0.38582866250135645 -0.015392131411563396 -0.1469410788457757 -0.43422450157103126 0.030538552082628925 0.48340031929212063 -0.17363301719736504 -0.46689118079581243 0.75650481420074478 -0.32369652584568259 -0.96923540038249134 -0.68324705591011525 0.97988308297545668 -0.21105945604405299 -0.35773519227336315 -0.57309025557991544 0.96881299563258361 0.5323534299879481 -0.32369652584568259 0.42517219463913597 0.35965927956463345 0.44696662268868564 -0.056451909248684352 -0.20330590946050195 0.64517406428977664 -0.39487148992574667 -0.67178033787569735 -0.12602594448038287 -0.31288508653895736 -0.40103722741141146 0.049201165322150041
decision_type=2 2 2 2 2 2 2 2 2 2 2 2 2 2 2 2 2 2 2 2 2 2 2 2 2 2 2 2 2 2 2 2 2 2 2 2 2 2 2 2 2 2 2 2 2 2 2 2 2 2 2 2 2 2 2 2 2 2 2 2 2 2 2 2 2 2 2 2 2 2 2 2 2 2 2 2 2 2 2 2 2 2 2
left_child=1 4 6 8 15 -4 14 12 17 19 -8 20 22 27 39 -1 33 25 37 46 -6 31 44 38 43 -3 57 61 35 63 -17 51 -27 -13 50 -15 -35 -11 -19 68 -29 -12 -20 -18 48 64 59 65 -5 66 -26 72 56 -46 -36 -49 -37 -23 -33 -9 67 -10 71 -22 76 74 -47 -25 -2 -56 82 -48 -14 -68 79 -67 -30 -51 -55 -24 -42 -72 -54
right_child=2 3 5 7 11 -7 10 9 13 18 41 16 21 28 -16 30 24 23 42 -21 29 26 47 60 34 32 -28 40 45 -31 -32 58 -34 36 54 52 -38 -39 -40 -41 80 -43 -44 -45 53 49 62 55 -50 77 -52 -53 70 78 69 -57 -58 -59 -60 -61 -62 -63 -64 -65 -66 75 73 -69 -70 -71 81 -73 -74 -75 -76 -77 -78 -79 -80 -81 -82 -83 -84
leaf_value=-4.5383754767528428 0.12917820766935992 -2.5172275449309187 8.1609029064971175 -0.91576243316844697 -2.8926830411474858 12.282272372548514 4.0160083120080117 -0.42185023750562367 -1.8325722915107578 1.5072507107814304 4.9317955580360628 -2.5445775338574972 0.13526256602406919 -0.69543869529240088 3.1168776781411114 -3.6772689551538988 -1.562829136769639 -1.9253562291640884 2.1694200614557175 1.2347089772773709 -2.6688870280706118 0.67776121639710696 -0.012088675135336581 -0.50888212691046386 -0.9203881175080717 -2.0325544120682029 1.2718061909046827 -1.2102424088322319 -0.13059453604930835 -1.456472165079213 -1.5666061124767299 0.51324947384767095 -1.1589325032398461 -1.9449770232403019 -0.30393129815991093 -0.48092364977710578 -1.0454363304133714 2.1000728585992587 -1.0123560506217837 1.142520728540807 -0.53477601957359722 6.3769262426322024 2.9690505076760592 -0.59395691261772443 -0.53442225749041139 -4.4024228357309588e-05 -0.01628854564051397 0.059329489747862417 -0.31969022840828215 0.12651124315066031 -0.30278818794701051 0.43665562490818122 -0.1590095857132274 -0.13346398293909767 -0.055542746746617348 0.36527615081821591 -0.17359703229543175 0.9128921114318731 0.79817203893556288 -0.080990768682105738 -0.1244480205311783 -0.82578701054303461 0.32911708543134827 -2.1222934603147499 0.094250992544853224 0.019324656425607347 0.031269911064778347 -0.2193952883626385 0.37960267780071366 0.12064826660000082 0.05271630529923424 0.14667448404282607 0.27575890652106638 0.14732581480134888 0.064350791932838006 0.12293344868587655 -0.044703616684418843 0.33350195425455281 -0.0034977521296562447 -0.10534471181109378 -0.20711331785067436 -0.037011636425862804 -0.067100634078387345
leaf_weight=256 12.000000000000002 82 112 36 315 171 128 7.0000000000000027 43 124 100 52 24 33 70 722 36 17 75 108 90 100 20 20.999999999999996 24 46 181 22 41 43 9.9999999999999982 40 44 81 12.999999999999998 17 25 76 43 10.999999999999998 23.000000000000004 119 94 10.999999999999998 8.0000000000000018 33 7.0000000000000027 17 13.999999999999998 7.9999999999999991 9.9999999999999982 137 15.999999999999998 9.0000000000000018 9.0000000000000018 46 35 120 105 10.999999999999998 10.999999999999998 8.9999999999999982 17 183 9.9999999999999982 17 13.999999999999998 15.000000000000002 10.999999999999998 9.9999999999999982 7.0000000000000027 17 36 49 7.9999999999999991 39 29 55 7.9999999999999991 13.999999999999998 6.9999999999999991 20 20
leaf_count=256 12 82 112 36 315 171 128 7 43 124 100 52 24 33 70 722 36 17 75 108 90 100 20 21 24 46 181 22 41 43 10 40 44 81 13 17 25 76 43 11 23 119 94 11 8 33 7 17 14 8 10 137 16 9 9 46 35 120 105 11 11 9 17 183 10 17 14 15 11 10 7 17 36 49 8 39 29 55 8 14 7 20 20
internal_value=0.0227658 -1.20669 6.9894 0.391069 -3.13562 10.7668 4.55668 1.01112 -0.827993 1.77865 5.1883 -2.28786 0.586232 -0.335241 2.35231 -3.89915 -1.59666 -1.68077 2.19631 0.83053 -2.57463 0.806326 -0.108294 -0.946003 -0.888366 -2.11083 1.03169 -1.32418 -0.0603163 -2.23033 -3.65577 0.534574 -1.66285 -2.07401 -0.480011 -0.30871 -1.77168 1.76368 -1.35991 0.638705 -0.848195 5.80203 2.66368 -1.39113 -0.630171 0.0956601 0.0638644 0.142774 -0.779672 0.179631 -0.782544 0.378584 -0.181049 -0.273923 -0.114519 0.289945 -0.297289 0.817886 0.733054 -0.259284 -0.361824 -1.71935 0.214679 -2.33292 -0.0717463 0.0416505 0.0831028 -0.417447 0.28224 0.0413987 -0.0748515 0.102995 0.229772 0.124443 -0.0304364 0.0943732 -0.0987108 0.314999 -0.0830328 -0.0565447 -0.487036 -0.0104676 -0.118093
internal_weight=4909 4175 734 2285 1890 283 451 1515 770 536 347 902 979 491 104 988 271 279 369 167 631 743 236 107 113 172 401 104 387 316 732 342 90 158 66 148 106 200 60 34 52 219 169 47 75 239 59 161 50 159 34 197 115 25 32 63 52 220 145 18 47 52 41 273 80 98 96 36 23 19 63 24 60 63 42 56 70 63 17 34 30 27 36
internal_count=4909 4175 734 2285 1890 283 451 1515 770 536 347 902 979 491 104 988 271 279 369 167 631 743 236 107 113 172 401 104 387 316 732 342 90 158 66 148 106 200 60 34 52 219 169 47 75 239 59 161 50 159 34 197 115 25 32 63 52 220 145 18 47 52 41 273 80 98 96 36 23 19 63 24 60 63 42 56 70 63 17 34 30 27 36
is_linear=0
shrinkage=0.0985333


Tree=10
num_leaves=46
num_cat=0
split_feature=0 0 0 0 0 0 0 0 0 0 0 0 0 0 0 0 5 0 0 18 0 0 0 5 0 0 5 21 16 0 0 15 18 15 15 15 0 15 6 19 15 6 0 18 18
split_gain=3.6913e+06 1.25793e+06 493920 115042 101908 67085 26317.4 23349.2 21097.2 14927.1 10138.8 4116.34 2423.29 2356.13 2006.97 1775.27 926.344 555.858 525.415 465.449 350.723 311.14 171.446 163.93 103.663 87.358 87.0126 40.1012 23.72 21.9528 19.1607 16.6155 13.8831 19.325 9.29014 6.4277 6.33495 3.59209 2.78016 2.20796 1.48482 1.20848 0.835576 0.69193 0.312836
threshold=0.85714730870320854 -0.4838784993964112 1.8279920709727373 -0.70958774935097779 0.093659698349342249 2.6129666411781982 1.2849947381710891 -0.58557004125726386 0.53638754910588404 -0.2835039631840835 -0.82847586920627425 -0.41395950071200299 -0.11999330558437525 0.32656081159245826 -0.63479716290236399 -0.53980906206253765 -1.9035371455607542 -0.75386002508540717 0.68758186019318013 1.908852304494919 -0.43639138715537007 1.0000000180025095e-35 -0.20901203168922675 -1.49272520768904 0.19644824982647538 -0.33264156143758311 -1.4211423183079399 -0.30389531217255911 -0.58946816439103455 -0.39433044129376432 -0.24136960953364209 -0.43592284777152229 -0.37177936169204212 -0.373003907578972 1.0000000180025095e-35 -0.31690448588327397 -0.30823525260364898 -0.102730658267582 -0.57945927090509286 -0.37105812248427844 -0.31690448588327397 0.26071239713539895 -0.26338940527938526 -0.03849108754294487 -0.55830908923518041
decision_type=2 2 2 2 2 2 2 2 2 2 2 2 2 2 2 2 2 2 2 2 2 2 2 2 2 2 2 2 2 2 2 2 2 2 2 2 2 2 2 2 2 2 2 2 2
left_child=1 3 6 10 9 -4 -2 14 13 11 -1 20 22 24 -5 23 -16 -12 -10 -15 -3 -14 30 -9 -6 27 -17 28 -13 -29 35 -27 33 -30 -24 41 40 -32 -37 43 -33 -11 -40 -38 -41
right_child=2 4 5 7 8 -7 -8 15 18 12 17 25 21 19 16 26 -18 -19 -20 -21 -22 -23 34 -25 -26 31 -28 29 32 -31 37 36 -34 -35 -36 38 39 -39 42 44 -42 -43 -44 -45 -46
leaf_value=-4.5670787872908578 3.5864258985155173 -0.75421249061947804 7.7413119078765877 -2.6475714026532975 0.82210743741738979 11.414032995337076 5.3433798544882922 -0.65897808804023505 1.9157404675266532 0.11233440940451876 -3.5531203253094672 0.062731516481075042 0.42227222503983908 1.3933310040538909 -0.94323465479686597 -0.47060146707607492 -2.2037025222132347 -3.0594066130962996 2.4989140739554174 0.35301576471756507 -0.44793262935018802 0.6251603707908151 0.23802073541704533 -1.7219920222738589 1.031000283443015 0.077882288988354489 -1.2361625773058831 -0.24559830513936098 0.010847790583592603 -0.14361493235558268 0.12531431058455492 -0.04418027112357923 -0.16761603809450784 -0.12076295851908471 0.14058465008793231 -0.013829044375720431 0.025712438908546971 0.054521505181793592 0.022113959087712628 -0.0095772958450927488 -0.089847668003573633 0.035263721813941787 0.050122562118246124 -0.0099768638342465146 -0.038884448593377426
leaf_weight=119 227 149 132 395 177 151 186 6.9999999999999991 134 14.000000000000002 614 7.9999999999999991 227 232 12.999999999999998 6.9999999999999991 266 258 113 6.9999999999999991 75 157 137 225 177 7.9999999999999991 182 39 20 104 79 25 17 19 30 8.9999999999999982 7 15.999999999999998 26 6.9999999999999991 28 6.9999999999999991 37 7.9999999999999982 29
leaf_count=119 227 149 132 395 177 151 186 7 134 14 614 8 227 232 13 7 266 258 113 7 75 157 137 225 177 8 182 39 20 104 79 25 17 19 30 9 7 16 26 7 28 7 37 8 29
internal_value=0.0172058 -1.08369 6.64629 -2.79996 0.605228 9.81253 4.41464 -2.09215 1.44644 0.0516925 -3.57229 -0.339341 0.339252 1.11655 -2.45626 -1.4943 -2.15696 -3.41942 2.21267 1.36821 -0.659846 0.509955 0.151536 -1.69984 0.935316 -0.109726 -1.21657 -0.147262 -0.0764468 -0.176458 0.0846553 -0.0380686 -0.0987706 -0.0577841 0.223654 0.0500216 -0.0491597 0.115675 0.0331977 -0.0221639 -0.0722486 0.0950997 0.04028 0.00833587 -0.0345004
internal_weight=4904 4208 696 2086 2122 283 413 1095 840 1282 991 543 739 593 674 421 279 872 247 239 224 384 355 232 354 319 189 207 64 143 188 112 56 39 167 93 104 95 72 51 53 21 63 15 36
internal_count=4904 4208 696 2086 2122 283 413 1095 840 1282 991 543 739 593 674 421 279 872 247 239 224 384 355 232 354 319 189 207 64 143 188 112 56 39 167 93 104 95 72 51 53 21 63 15 36
is_linear=0
shrinkage=0.0985333


Tree=11
num_leaves=84
num_cat=0
split_feature=1 15 1 15 15 1 1 15 15 5 1 15 5 3 1 1 15 5 5 5 3 4 1 5 1 5 5 15 3 17 1 5 1 1 1 5 15 5 1 5 5 5 4 3 1 5 5 3 5 1 5 4 2 5 15 1 1 15 1 5 5 4 5 1 5 5 3 2 1 17 1 1 5 5 1 5 1 5 5 4 1 5 5
split_gain=2.89371e+06 1.08059e+06 324912 111331 98382.2 43994.2 36184.4 19851.5 15787.6 14838.5 14824.4 8171.48 6766.76 4406.37 4314.93 4094.03 3969.47 3701.76 2739.43 2180.39 1792.18 1687.37 1652.76 1620.19 1460.34 1370.25 1352.48 1342.77 1298.42 1248.16 1182.77 1178.74 940.177 910.096 794.569 505.807 472.36 462.95 438.098 412.114 304.996 280.929 264.167 306.199 241.447 240.715 224.024 194.231 214.204 187.814 170.973 220.428 127.319 127.2 123.655 122.449 110.83 90.7923 90.5575 90.1883 87.2951 77.8821 74.1293 72.7453 68.6774 64.529 48.456 45.5558 45.2793 43.1028 39.2206 34.077 31.4519 29.2927 22.7296 22.1803 21.9803 20.7409 19.156 19.0722 16.0101 12.8383 12.1102
threshold=1.0569957796471738 -0.4834668682607372 2.2907406131307035 0.13993078137306195 -0.65929563427809501 1.6502590123922751 0.58432253548460678 -0.27290673336252352 -0.77090698544495129 0.79118696623298901 3.4556410928568724 -0.55465554500296232 1.0318763767237227 0.40984539602018122 0.23683789245524803 -0.47116960107292932 -0.84466265268326235 -0.14539732782010348 0.68972420598865147 -0.27662222487242 0.15907139008479168 -0.4840544568120983 -0.26949450047145346 0.91792742978046704 0.010771095731415648 -0.067605045475517531 0.56714667656212181 -0.72418532411703962 -0.39195755808187621 -0.51282325464670853 0.16087686756490802 0.36968432828267972 -0.59723986113207783 -0.33179928189222735 -0.015392131411563396 0.79975306091330522 -0.41350766342609624 0.21516522694630313 -0.22497979877860594 0.41193532389530885 0.84899511087854274 0.88192334472294787 -0.30769788967206918 -0.22695692615356242 -0.13737262925280294 0.36968432828267972 0.44696662268868564 1.3534487765110412 0.5323534299879481 -0.49972363215964061 -1.6568734515404664 -0.53481976549408561 -0.19390469553342435 -0.64512508878995212 -0.14275313530480566 -0.066985486171962025 0.3156398029363548 -0.59583317704578553 -0.42163184412238525 0.36968432828267972 0.84899511087854274 -0.1469410788457757 0.27289202426906928 -0.42789537482618606 0.030538552082628925 0.68972420598865147 -0.038948621511790481 0.47379497055388065 -0.52722194451539539 -0.24878541440509558 0.48926980194695613 -0.42163184412238525 0.94450222748493551 -1.034209176075584 -0.11487172331934951 0.87501796780012164 0.5528849697019772 -0.19215718901896864 0.19757473519330784 -0.50943711115309198 -0.37470473686247707 -0.46281962142980709 0.52186632584702863
decision_type=2 2 2 2 2 2 2 2 2 2 2 2 2 2 2 2 2 2 2 2 2 2 2 2 2 2 2 2 2 2 2 2 2 2 2 2 2 2 2 2 2 2 2 2 2 2 2 2 2 2 2 2 2 2 2 2 2 2 2 2 2 2 2 2 2 2 2 2 2 2 2 2 2 2 2 2 2 2 2 2 2 2 2
left_child=1 4 5 7 8 9 14 15 16 17 -4 21 26 22 34 25 -1 -2 -7 33 29 24 40 47 57 -3 -8 -10 -23 50 45 54 41 -17 60 79 53 -34 46 -30 49 -27 -31 -44 65 67 58 48 -16 -9 -13 -52 70 56 69 78 -35 -6 64 -51 82 -22 -40 -42 -21 -33 -53 -15 -39 73 -38 -61 -46 -24 -47 80 -26 -57 -56 -36 -48 -71 -5
right_child=2 3 10 6 11 18 12 13 27 -11 -12 20 -14 30 23 19 -18 -19 -20 38 61 28 31 -25 76 32 -28 -29 39 42 -32 44 37 36 35 -37 52 68 62 -41 63 -43 43 -45 72 74 75 -49 -50 59 51 66 -54 -55 55 77 -58 -59 -60 71 -62 -63 -64 -65 -66 -67 -68 -69 -70 81 -72 -73 -74 -75 -76 -77 -78 -79 -80 -81 -82 -83 -84
leaf_value=-4.5141928928639476 0.65074735296744013 -1.3740984408475823 8.3613015569492344 0.086218006168507805 -2.0838434848150582 2.3408412783721317 1.2005409131786517 -0.39499079070655591 -2.9055001084333734 4.3381893459707843 11.496513375956214 -0.27822962912812382 2.9816232699323404 0.31108184580079801 0.81634635996511362 -0.92731817282228601 -3.3168719635155459 2.7272634811797816 6.3156178707688788 -0.40201396316241461 -0.26341277512788414 -1.9227179145730384 0.050410239897425164 1.5831525693108095 -1.0041906595676333 -0.99937156630305135 2.0803530558114214 -2.4477661709388232 -1.0946593335972465 -1.5938056716191271 1.1193011881795016 0.21698871429942748 -0.69728884314781747 -0.67811990396706734 0.25459169428220585 0.96046721789039557 -0.10829089283241694 -0.29499113793411269 0.12021430133526589 -0.34173693623977697 0.003175674601625442 -0.24141179472490704 -1.1583221930147956 -0.29788018632950458 0.55006507005734528 0.29167351663053981 -0.015463555940861752 0.32055023591829462 1.1992754972805073 -0.13624706886068433 -1.0967609619168459 -0.71952103809511381 -0.37011237400536473 -0.15321985472631267 0.032951026952575756 0.22816691456490731 -0.17566483672892486 -1.7413062441202933 -0.066743620188298519 -0.065559592209820189 0.52975281952965902 0.1107198235245363 0.36715397247548864 0.2615689712534916 -0.12360083362268347 0.44915966447990902 -0.24155235606748385 0.010451707596048515 -0.10769087031736171 -0.037802998018833724 0.08584409894665665 0.079253994614933085 0.80447531938673777 0.20778258672636082 0.67868483320079431 0.20215391380356987 -0.38149895019508007 0.41448745315795255 0.18151057657192646 0.59868853996345717 0.11074485705345538 0.079091847527726786 0.2928524267291967
leaf_weight=59 12.999999999999998 28 114 6.9999999999999991 305 6.9999999999999991 39 11.999999999999998 376 201 75 6.9999999999999991 122 15.000000000000002 62 30 476 48 143 14.999999999999998 8.9999999999999982 25 17 128 13.000000000000002 52 139 337 44 85 76 29 31 37 8.9999999999999982 130 46 39 28 12.999999999999998 13.999999999999998 7.9999999999999991 15.000000000000002 8.9999999999999982 91 8.9999999999999982 15.999999999999995 6.9999999999999991 101 42 74 32 15.999999999999998 9.9999999999999982 15.999999999999998 25 7.9999999999999991 188 73 19 39 6.9999999999999991 26 41 25 50 6.9999999999999991 6.9999999999999991 26 9.9999999999999982 9.9999999999999982 53 31 64 69 13.999999999999998 6.9999999999999991 46 20 60 19.000000000000004 32 27
leaf_count=59 13 28 114 7 305 7 39 12 376 201 75 7 122 15 62 30 476 48 143 15 9 25 17 128 13 52 139 337 44 85 76 29 31 37 9 130 46 39 28 13 14 8 15 9 91 9 16 7 101 42 74 32 16 10 16 25 8 188 73 19 39 7 26 41 25 50 7 7 26 10 10 53 31 64 69 14 7 46 20 60 19 32 27
internal_value=0.0165252 -0.879542 6.40117 0.63624 -2.48595 4.78164 1.50248 0.0735609 -3.04232 3.9092 9.78554 -1.65047 2.37627 0.391137 1.03129 -0.37537 -3.47642 2.34212 6.18579 -0.184654 -1.14207 -1.85217 0.263459 1.29363 -1.92934 -0.751679 1.91355 -2.70172 -1.31212 -1.21162 0.821777 0.367698 -0.613194 -0.459889 0.731522 0.836069 -0.328296 -0.398858 0.019403 -0.951682 0.0130538 -0.916574 -1.47569 -0.912259 0.541027 0.566458 -0.062296 1.04903 1.07316 -0.0715466 -0.937909 -0.969507 -0.150856 -0.538399 0.210582 0.288325 -0.607309 -1.96597 -0.137436 -0.0271063 0.422137 -0.108959 0.253736 0.19979 -0.251195 0.376332 -0.659839 0.229562 -0.229098 0.137049 -0.0707088 0.0398114 0.634654 0.178097 0.647999 0.10867 -0.872906 0.362232 0.123982 0.567792 0.0567647 0.050514 0.261955
internal_weight=4904 4303 601 2215 2088 412 870 1345 1248 262 189 840 300 788 570 557 535 61 150 373 245 595 612 298 513 184 178 713 82 229 176 431 156 157 272 199 127 96 216 57 181 60 109 24 201 100 162 170 163 126 120 113 72 55 230 107 45 493 113 114 73 16 54 55 40 79 39 22 65 123 56 72 122 81 78 49 20 71 36 69 35 42 34
internal_count=4904 4303 601 2215 2088 412 870 1345 1248 262 189 840 300 788 570 557 535 61 150 373 245 595 612 298 513 184 178 713 82 229 176 431 156 157 272 199 127 96 216 57 181 60 109 24 201 100 162 170 163 126 120 113 72 55 230 107 45 493 113 114 73 16 54 55 40 79 39 22 65 123 56 72 122 81 78 49 20 71 36 69 35 42 34
is_linear=0
shrinkage=0.0985333


Tree=12
num_leaves=55
num_cat=0
split_feature=0 0 0 0 0 0 0 0 0 0 0 0 0 0 0 0 0 2 0 17 18 0 0 0 15 0 21 0 21 0 15 0 0 0 2 4 4 18 21 0 0 17 0 15 3 3 11 15 2 6 0 6 6 7
split_gain=2.46753e+06 838753 334189 76734.1 67817.8 50768.2 17967.9 14727.5 14623.8 9397.68 6477.36 3549.15 2575.74 1561.77 1398.27 1327.44 680.945 516.572 533.937 479.888 349.794 325.036 232.986 169.667 134.948 134.799 66.3143 64.8481 48.1696 40.5742 26.6842 15.1321 14.8005 14.2328 7.67669 19.3164 11.8145 7.16301 5.34214 5.09169 4.96739 3.38395 2.87459 3.06202 2.36435 2.17193 1.23724 1.08238 0.935179 0.712644 0.669125 0.499458 0.781201 0.282769
threshold=0.85714730870320854 -0.4838784993964112 1.8279920709727373 -0.64605312827792594 0.08080752254788319 3.2015966664792734 1.2525395153210093 0.51847204583446616 -0.77109214094253498 -0.29458523264112196 -0.55718554541081167 -0.84484370609928783 -0.41395950071200299 -0.11999330558437525 0.31249111302430993 -0.71488026876983179 0.5917260112998034 -0.85493641802168685 -0.58557004125726386 -0.80313239975112605 1.8559845603435599 1.6204879990586514 -0.44104096479797444 -0.035673118852630199 -0.60524414505970459 -0.22164551562854509 -0.44634582052281618 0.15157331552155559 -0.24550081002897886 -0.36401954500047684 -0.44077893808414276 -0.18115769160428216 -0.39433044129376432 -0.26338940527938526 -0.49034932262117864 -0.67495316966832164 -0.64005201994945538 -0.26623646990717914 -0.60219207140601094 -0.40032929748779283 -0.34945602909260581 -0.34613242855980692 -0.31711489171551782 -0.35748006399788962 -0.012475357929359715 -0.37867279308414736 0.36400637877113512 -0.38075430763904161 0.17348421463401528 0.26071239713539895 -0.27311958622529359 0.27574352913783567 -0.27500941833638898 1.4459795783399618
decision_type=2 2 2 2 2 2 2 2 2 2 2 2 2 2 2 2 2 2 2 2 2 2 2 2 2 2 2 2 2 2 2 2 2 2 2 2 2 2 2 2 2 2 2 2 2 2 2 2 2 2 2 2 2 2
left_child=1 3 6 8 9 -4 -2 14 11 12 17 -1 22 25 27 -10 -9 -5 -19 -12 -16 -8 -3 -15 -21 33 38 -6 30 39 32 48 -14 44 36 -36 -32 -34 -24 -30 -37 45 43 53 46 -35 50 -38 -27 -46 -11 52 -43 -31
right_child=2 4 5 10 7 -7 21 16 15 13 19 -13 28 23 20 -17 -18 18 -20 24 -22 -23 26 -25 -26 31 -28 -29 29 42 34 -33 37 41 35 40 47 -39 -40 -41 -42 51 -44 -45 49 -47 -48 -49 -50 -51 -52 -53 -54 -55
leaf_value=-4.1250633410037727 2.8566857190867614 -0.62604714547194673 6.8338611247225449 -0.8340322635728481 0.62216973826034427 10.145009905755096 3.8058310605894325 1.3698320162325659 -2.6135019362573355 -0.028209438511560707 -0.16686855964081462 -3.014761691565357 -0.059689946154753398 0.31990140299143122 1.1026267477283287 -2.2050514271837569 1.9173962351928808 -1.8332839842524207 -1.4567948211491955 -0.37557673182166029 0.2460501183349646 4.949604634702788 -0.28194469014747747 0.47424312950416225 -1.101109529621253 0.14083092637693667 -0.44896267552517771 0.7979759946417665 -0.23283594696284177 -0.059021645519312778 -0.15200046753204222 0.19976617638353472 0.131505938053257 0.04653852019629505 0.08221250853057098 -0.10184293079793783 -0.052111895946140498 0.012508304169613717 -0.13224493947958507 -0.14196157719643526 -0.028582820503639333 0.032686803104259698 -0.045261591337010382 -0.10516308097148609 0.044099642889416396 0.10615720320951659 0.016653190292815711 -0.0050239980013472027 0.079405491186886529 0.0044335924253552476 0.005182861591193421 0.014992961334181853 0.066101362641718536 -0.021097825710719598
leaf_weight=59 208 130 189 15.999999999999998 118 94 130 78 436 15.999999999999998 6.9999999999999991 476 7.0000000000000027 170 231 355 189 325 155 6.9999999999999991 6.9999999999999991 75 14.000000000000002 194 250 75 64 237 22 18.000000000000004 17 111 10.000000000000004 17 7.9999999999999991 15.999999999999998 12.000000000000002 8.9999999999999964 15.999999999999998 59 24 25 31 52 14.000000000000002 35 11.999999999999998 7.9999999999999991 19 6.9999999999999991 7.0000000000000027 6.9999999999999991 28 7.9999999999999991
leaf_count=59 208 130 189 16 118 94 130 78 436 16 7 476 7 170 231 355 189 325 155 7 7 75 14 194 250 75 64 237 22 18 17 111 10 17 8 16 12 9 16 59 24 25 31 52 14 35 12 8 19 7 7 7 28 8
internal_value=0.0163442 -0.883753 5.43628 -2.28519 0.495353 8.04042 3.60107 1.16828 -2.73895 0.0348874 -1.48489 -3.16233 -0.28265 0.261342 0.885884 -2.44035 1.77656 -1.69992 -1.72274 -1.06451 1.08123 4.29777 -0.533101 0.405767 -1.08648 0.118024 -0.38729 0.745958 -0.0924178 -0.122285 -0.0391901 0.171153 0.044071 0.0510964 -0.0653712 -0.0354366 -0.0979857 0.0855461 -0.223582 -0.174982 -0.0635415 0.0709031 -0.0790387 -0.090024 0.00969972 0.0906986 -0.00616181 -0.0367317 0.131603 0.033331 -0.0186792 0.0498233 0.0532465 -0.0511268
internal_weight=4904 4208 696 2086 2122 283 413 860 1326 1262 760 535 525 737 593 791 267 496 480 264 238 205 224 364 257 373 94 355 301 190 111 205 26 168 85 48 37 19 30 81 40 112 109 78 56 52 35 20 94 21 23 60 53 26
internal_count=4904 4208 696 2086 2122 283 413 860 1326 1262 760 535 525 737 593 791 267 496 480 264 238 205 224 364 257 373 94 355 301 190 111 205 26 168 85 48 37 19 30 81 40 112 109 78 56 52 35 20 94 21 23 60 53 26
is_linear=0
shrinkage=0.0985333


Tree=13
num_leaves=57
num_cat=0
split_feature=0 0 0 0 0 0 0 0 0 0 0 0 0 0 0 0 3 20 19 3 0 0 19 21 17 0 0 21 0 15 0 0 15 20 19 19 0 0 17 19 15 18 15 15 11 13 0 15 13 18 18 19 15 12 0 15
split_gain=2.01592e+06 643208 322742 52142.7 51747.6 48721.6 20442.6 11570.7 8500.49 8406.24 7001.29 1900.17 1326.88 978.851 814.776 749.839 383.384 369.315 259.368 275.303 255.152 210.956 110.223 84.3566 70.9323 68.5412 43.9275 34.903 34.7086 26.2619 23.0379 22.966 18.6125 13.668 19.8181 28.6357 10.7135 9.97471 8.59369 18.3865 8.08701 6.40281 5.72289 5.12748 4.74644 3.10183 2.74358 1.82772 1.77883 1.60617 1.13474 1.00261 0.680698 0.618944 0.469311 0.329463
threshold=0.75225245142540953 -0.50990576637452711 1.7659812387327405 -0.70958774935097779 0.012972912908472956 2.9718588523003784 1.1391950351914357 -0.41395950071200299 -0.61517026151300536 0.38237163846266492 -0.81029019464185359 -0.20901203168922675 -0.55718554541081167 0.53638754910588404 -0.46055763267986854 0.19644824982647538 1.6437882782005362 0.29626342222372154 -0.72613441309521287 -0.80725086388044465 -0.30823525260364898 -0.11999330558437525 -0.57208822907851942 -0.48553064561916393 -0.70085057678736684 1.4921686780757664 0.08080752254788319 -0.30389531217255911 -0.26338940527938526 -0.50325382173401578 -0.42553102560088146 -0.40759611167185 0.28999019353542899 0.12396621791493521 -0.3136117694408464 -0.56186511325052957 -0.089446325572543492 -0.35818299346237098 -0.57389870492798778 -0.43927330492862443 -0.035447059154550077 -0.48242606120007819 -0.56660748969653507 -0.231847346994661 0.85153536000864738 0.31305894601386824 -0.24136960953364209 -0.31690448588327397 1.0000000180025095e-35 0.31800506700775105 -0.36523108008495214 -0.28013400195704236 -0.063489999680415202 -0.18384938131935502 -0.25452683315935737 -0.3397177906878554
decision_type=2 2 2 2 2 2 2 2 2 2 2 2 2 2 2 2 2 2 2 2 2 2 2 2 2 2 2 2 2 2 2 2 2 2 2 2 2 2 2 2 2 2 2 2 2 2 2 2 2 2 2 2 2 2 2 2
left_child=1 3 6 10 7 -4 -2 14 -5 15 -1 20 18 16 22 26 -11 42 -10 -20 27 40 24 33 -3 -8 -6 29 44 -9 -25 -29 36 34 35 -16 -23 55 41 -40 -13 -31 -14 49 45 53 54 -39 -46 -30 -50 -47 -48 -22 -45 -33
right_child=2 4 5 8 9 -7 25 11 12 13 -12 21 17 -15 23 -17 -18 -19 19 -21 28 32 -24 30 -26 -27 -28 31 43 38 -32 37 -34 -35 -36 -37 -38 47 39 -41 -42 -43 -44 46 48 51 52 -49 50 -51 -52 -53 -54 -55 -56 -57
leaf_value=-3.1863804185906521 2.2420061735279266 -0.21912003236502686 5.9354612650496028 -1.9083982827051109 0.46027368599246377 8.9173664590382558 3.239542548628616 0.11229348509479867 -0.59806451873097899 1.09952658598154 -2.4596079865176206 0.17984959804350961 -0.74931781838570477 1.4897074837620417 -0.10684989380625712 0.80001800486943153 0.22237432220050515 -0.20847010858118048 -0.5291979044652646 -1.4703332885950551 -0.04558730095840554 0.25655215469685455 -0.80337924656373516 -0.497342821274325 -0.59503395698832651 4.1025662296588079 0.59860239356435951 -0.24632991390763723 0.10327838781430582 -0.032457878263528757 -0.2950023160325746 -0.099496990286974882 0.16338896208890294 -0.076866729311019691 -0.078181177338117788 -0.37023761142538553 0.35102515258868144 -0.047268220002635343 0.071631537032533305 -0.060692327815433246 0.10512763694704748 -0.12988309289626673 -1.1171341415518998 0.0037638076215233207 -0.0031828307322644632 0.02447557194894294 0.073237682373185869 -0.087967433117517826 0.015383198259673644 0.036666675942065047 0.073781261649576685 -0.0064875381706074207 0.031004464162921005 -0.012046612327316452 0.032211931344563731 -0.14694584547199338
leaf_weight=219 226 11.999999999999998 188 494 118 113 149 6.9999999999999991 9.9999999999999982 153 772 131 32 172 8.9999999999999982 256 6.9999999999999991 6.9999999999999991 7.9999999999999991 319 20.000000000000004 72 122 78 34 95 197 10.999999999999998 57 14.000000000000002 27 47 18 6.9999999999999991 6.9999999999999991 22.000000000000004 156 35 10.999999999999998 33 36 17 131 9.0000000000000018 8.0000000000000018 11.999999999999998 45 43 7.9999999999999991 8.9999999999999982 6.9999999999999991 27 11.999999999999998 10.999999999999998 18 46
leaf_count=219 226 12 188 494 118 113 149 7 10 153 772 131 32 172 9 256 7 7 8 319 20 72 122 78 34 95 197 11 57 14 27 47 18 7 7 22 156 35 11 33 36 17 131 9 8 12 45 43 8 9 7 27 12 11 18 46
internal_value=0.0158314 -0.847977 4.62983 -2.12077 0.337713 7.1415 2.98179 -0.0762508 -1.60898 0.903419 -2.6305 0.101203 -1.30653 1.29858 -0.585304 0.667371 1.06655 -1.03123 -1.43378 -1.45296 -0.0267218 0.257186 -0.737193 -0.402693 -0.518681 3.62701 0.55222 -0.0932347 0.0458263 -0.0377542 -0.456135 -0.117087 0.315898 -0.254839 -0.278664 -0.311795 0.325375 -0.104159 -0.0559985 -0.0248585 0.166147 -0.0934046 -1.06161 0.0746244 -0.00160871 -0.0144433 0.0544263 -0.0724281 0.0342937 0.0964256 0.051199 0.0042283 0.0665819 -0.0360441 0.0242075 -0.127298
internal_weight=4904 4133 771 1992 2141 301 470 1238 1001 903 991 920 507 332 318 571 160 170 337 327 507 413 168 150 46 244 315 264 243 82 105 182 246 45 38 31 228 171 75 44 167 31 163 150 93 70 84 78 23 66 15 39 57 31 27 93
internal_count=4904 4133 771 1992 2141 301 470 1238 1001 903 991 920 507 332 318 571 160 170 337 327 507 413 168 150 46 244 315 264 243 82 105 182 246 45 38 31 228 171 75 44 167 31 163 150 93 70 84 78 23 66 15 39 57 31 27 93
is_linear=0
shrinkage=0.0985333


Tree=14
num_leaves=84
num_cat=0
split_feature=1 15 1 15 15 1 1 15 1 15 15 15 15 1 1 1 1 3 19 4 6 3 1 15 15 1 1 4 15 1 15 1 3 1 1 1 4 7 4 1 16 17 17 4 1 3 21 1 12 17 3 15 7 17 3 1 4 3 4 1 7 11 19 6 4 15 6 17 17 6 16 17 18 1 1 3 11 11 4 21 11 12 17
split_gain=1.58477e+06 522968 249393 52195.8 41529 37317.4 16396.2 12680 10952.2 8797.86 8330.9 6036.59 2609.96 1822.87 1798.33 1790.55 1013.4 954.483 939.345 917.494 862.536 593.809 593.292 531.151 521.508 502.995 446.173 355.639 336.337 319.498 307.753 284.331 275.736 275.362 223.222 209.219 205.739 201.329 179.914 162.673 158.089 161.385 150.178 135.431 124.035 114.797 113.529 112.26 104.173 83.6425 78.6165 78.5389 77.8055 77.1968 65.1716 57.926 57.8511 57.0858 56.3011 54.7473 51.7514 47.604 47.426 39.4957 36.8905 35.9057 35.5752 35.0586 32.6304 31.8382 36.2042 29.0936 28.2494 27.224 26.8884 33.5255 26.1628 25.6522 21.9759 21.431 21.2596 19.4921 18.8144
threshold=0.84333702265187915 -0.4834668682607372 2.2062262458821995 -0.71469198675305223 0.044740576409936554 1.4491286724721939 3.4556410928568724 0.13993078137306195 0.45504931773318341 -0.6346044266420573 -0.31690448588327397 -0.83297918867587517 -0.53943944649468767 0.08662142096065778 -0.26013514939822641 -0.54408683552305137 1.0913542055142675 -0.038948621511790481 -0.5482282931106407 -0.47770879322684984 0.60452429246779105 -0.41833455525127999 0.68819044324174772 -0.75367391113298232 -0.38075430763904161 -0.37470473686247707 -0.70367058429347329 1.7757949874844974 -0.14275313530480566 0.34101385341249957 0.31273653770904203 -0.5092040235702725 0.15907139008479168 0.23683789245524803 1.7022463122861295 -0.10628314349866881 -0.43381795342888158 1.1571333554357761 -0.033512342259460259 -0.23430879081364145 -0.50916250385092154 -0.30879376022321364 -0.24025057627461574 0.74171622573838925 -0.24324108679846221 0.053467134994149616 -0.23143072399438336 -0.58909070562983568 -1.0008369653421305 -0.48401942444059515 -0.36558056091247254 -0.42074704631252036 -0.28709775908515306 -0.22264834656948029 -0.038948621511790481 -0.37470473686247707 0.054798142635247037 -0.15437205073118862 -0.50943711115309198 1.0382251168391996 1.3015564668878687 0.85153536000864738 -0.39903215350563714 -0.32362056485067431 -0.1815778259152567 -0.26317601122137768 0.47646300832878941 0.88150993076044404 -0.24878541440509558 -0.32362056485067431 -0.40396962511974516 0.0403235877538572 -0.50553764334274887 0.5528849697019772 -0.4871526946192683 -0.08833329139465225 -1.1143944762512776 -1.0020218113453134 -0.42747228984363322 -0.097163465164247093 -1.2974075514412029 -1.0008369653421305 0.23021704428142153
decision_type=2 2 2 2 2 2 2 2 2 2 2 2 2 2 2 2 2 2 2 2 2 2 2 2 2 2 2 2 2 2 2 2 2 2 2 2 2 2 2 2 2 2 2 2 2 2 2 2 2 2 2 2 2 2 2 2 2 2 2 2 2 2 2 2 2 2 2 2 2 2 2 2 2 2 2 2 2 2 2 2 2 2 2
left_child=1 3 5 11 10 7 -4 59 13 44 15 -1 19 35 31 26 -9 24 32 25 28 -21 -10 -13 40 60 -3 29 45 -15 -29 72 74 81 -7 -6 49 38 -20 61 -17 50 62 -44 -5 65 71 -23 68 -19 -42 -43 54 -26 -49 78 -50 -39 -37 -2 -11 82 63 -28 -47 -16 -41 -58 -30 70 -55 -33 -12 -27 -14 -76 -60 -66 -48 -67 -57 -22 -38
right_child=2 4 6 9 8 34 -8 16 22 12 14 23 18 27 20 17 -18 36 37 21 33 47 -24 -25 53 73 42 30 48 -31 -32 46 -34 -35 -36 58 39 57 -40 66 41 51 43 -45 -46 64 55 52 56 -51 -52 -53 -54 69 -56 80 67 -59 76 -61 -62 -63 -64 -65 77 79 -68 -69 -70 -71 -72 -73 -74 -75 75 -77 -78 -79 -80 -81 -82 -83 -84
leaf_value=-3.1753760800689648 0.12639615127283207 -1.3874556108417868 6.0561469551166018 -1.7425313590589069 0.22888229415059141 3.4590604698844376 8.6194394782341774 2.1474880365859326 1.1990342350140277 -1.4159205531450434 -0.41916550419804866 -2.345912337588739 -0.68701239205392728 0.70303388211660234 -0.020870850736548933 -0.076485009200854881 2.796390954042359 -0.023625621253115386 -1.1309161609184997 -1.3253865313774789 0.18222652335117262 -0.82047029875520283 1.612445753477536 -1.98901608741361 -0.022846755133497529 -0.96115648698630596 -0.5272198750255096 -0.18088565997626943 0.25907916963697686 0.96415347239618243 0.52652041556073248 0.12686019318074554 -0.034329632245020135 0.87271393745193593 4.5124690682602981 0.21159546363322007 -0.061402629301053849 -0.64499328168835868 -0.48179182189278108 0.086451969147518098 -0.47250924351152912 -0.83164983071900123 -0.76580437998855777 -0.18605481042587002 -0.68867670745569387 0.1296891755519248 -0.17194058354519687 -0.36496298434818297 0.28064533899576566 -0.36856286448872949 -0.24303606136847722 -0.41547612228940661 -0.61653689560868186 -0.057781935991133182 -0.0098187499591711556 -0.10929528156878776 0.45982912995486125 -0.17385620708249958 0.2349034962358057 0.43118293048227913 -1.0303384816973522 0.059985024529835888 -0.15877748898119226 -0.15139000386922963 0.12488548813301904 0.13960278380714372 0.3099029429307309 0.14848033687658868 0.086807447897559203 -0.055033072107112127 -0.35155227535010858 -0.036240492540672631 -0.14716160361020053 -0.37875197937063959 -0.46983347185985924 -0.13526496415958408 0.49910615956313614 0.34024866322508324 -0.047271215915105268 0.030865050478606961 0.037085042737484503 0.4606086715229456 -0.21818935110485896
leaf_weight=99 15.000000000000002 6.9999999999999991 133 407 65 92 75 132 189 326 13.000000000000002 634 33 265 29 10.999999999999998 161 11.000000000000002 77 22 8.9999999999999982 28 107 238 36 48 21 7.0000000000000027 24 102 13.999999999999998 66 10.999999999999998 24 113 15.999999999999998 46 11.000000000000002 11.999999999999998 17 53 21 51 6.9999999999999991 6.9999999999999991 33 29 10.999999999999998 81 17 38 22 12.999999999999998 6.9999999999999991 8.0000000000000018 7.9999999999999991 71 6.9999999999999991 12.999999999999998 12.999999999999998 50 27 11.999999999999998 7.0000000000000027 12.999999999999998 53 14.999999999999998 7.9999999999999991 26 9.9999999999999982 17.000000000000004 10.999999999999998 11.999999999999998 6.9999999999999991 28.999999999999996 7.0000000000000027 131 31 30 29 61 55 6.9999999999999991
leaf_count=99 15 7 133 407 65 92 75 132 189 326 13 634 33 265 29 11 161 11 77 22 9 28 107 238 36 48 21 7 24 102 14 66 11 24 113 16 46 11 12 17 53 21 51 7 7 33 29 11 81 17 38 22 13 7 8 8 71 7 13 13 50 27 12 7 13 53 15 8 26 10 17 11 12 7 29 7 131 31 30 29 61 55 7
internal_value=0.0152591 -0.728787 4.2263 -1.83095 0.374553 3.05049 7.10344 2.34226 0.873404 -1.36326 -0.0124356 -2.36093 -1.13883 0.629847 0.19748 -0.338232 2.53187 -0.228488 -0.79576 -1.25786 0.304291 -0.876588 1.36499 -2.25656 -0.357258 -1.32301 -0.690572 0.760273 0.238858 0.783742 0.298325 -0.0293538 -0.504972 0.580446 4.10349 0.397011 -0.0269744 -0.991053 -1.06422 0.0345236 -0.462442 -0.491463 -0.596201 -0.709934 -1.73043 0.139283 0.0109343 -0.650128 0.324383 -0.250195 -0.388821 -0.664517 -0.436937 -0.12811 -0.239499 -0.0456815 0.364627 -0.518225 0.459165 0.299107 -1.37428 -0.0416701 -0.388823 -0.459691 0.229679 0.0716418 0.210796 0.435687 0.180668 -0.22742 -0.283583 0.103014 -0.321682 -0.913252 -0.574893 -0.421974 0.481189 0.290069 -0.114547 0.103892 0.0158006 0.432567 -0.0939506
internal_weight=4904 4170 734 2085 2085 526 208 321 909 1114 1176 971 700 613 716 460 293 355 187 513 486 82 296 872 215 431 105 388 398 367 21 230 80 88 205 225 140 107 89 112 145 134 98 58 414 188 205 60 210 28 91 43 32 70 19 128 160 18 160 28 376 80 40 28 77 111 32 79 50 34 24 77 25 55 69 36 144 44 59 82 69 64 53
internal_count=4904 4170 734 2085 2085 526 208 321 909 1114 1176 971 700 613 716 460 293 355 187 513 486 82 296 872 215 431 105 388 398 367 21 230 80 88 205 225 140 107 89 112 145 134 98 58 414 188 205 60 210 28 91 43 32 70 19 128 160 18 160 28 376 80 40 28 77 111 32 79 50 34 24 77 25 55 69 36 144 44 59 82 69 64 53
is_linear=0
shrinkage=0.0985333


Tree=15
num_leaves=65
num_cat=0
split_feature=0 0 0 0 0 0 0 0 0 0 0 0 0 0 0 0 0 5 4 5 15 5 18 15 0 0 0 0 5 0 0 0 21 15 16 15 0 4 15 0 15 3 5 20 0 21 21 11 15 15 16 5 21 21 18 15 19 0 5 0 19 15 11 0
split_gain=1.35225e+06 477302 170016 43909.6 41820.3 23394.9 8611.62 7945.72 7722.1 6096.66 3420.33 2006.59 1989.11 1609.87 1338.43 965.781 604.817 557.815 388.327 294.062 311.445 270.004 197.603 175.17 180.74 150.299 130.331 120.144 115.608 107.28 106.276 67.9492 55.2822 45.0646 35.3566 26.5797 22.4304 23.2191 21.9341 16.8369 14.8956 14.3242 13.9776 17.0703 9.41831 8.80937 7.83751 6.97451 5.62718 5.1852 4.49621 3.74508 3.23719 2.87044 1.75181 2.3791 1.58324 1.93104 1.42363 1.28355 1.06915 0.580298 0.353222 0.339694
threshold=0.9501295681083447 -0.4838784993964112 2.3259940027282799 0.21229861227822752 -0.64605312827792594 1.6204879990586514 -0.7860308058063431 -0.22686842121256187 0.5917260112998034 3.577940137810649 -0.57009659131193147 -0.84484370609928783 -0.41395950071200299 -0.73409777119651365 -0.02237593661197505 1.0945420645988941 0.38237163846266492 -1.9035371455607542 1.7757949874844974 -1.6215582634360477 -0.6703833563626892 -1.9485605625408631 0.45002997999775746 -0.56990025638872233 -0.53980906206253765 -0.14297322694249739 -0.44104096479797444 0.071893645031580355 -1.8447038744778714 -0.31711489171551782 -0.58557004125726386 -0.52226813923407245 -0.44634582052281618 0.53664542696960227 -0.65061081852836955 0.16412837626214824 -0.39433044129376432 -0.69081732863144274 -0.478622172046126 -0.27311958622529359 -0.35748006399788962 0.013901639240043936 -1.3723126349946302 -0.75812081105735663 0.71791513733436785 -0.58719248486912978 0.79138433852051382 0.85153536000864738 -0.43592284777152229 -0.301327558800774 0.3404525863189482 0.42287864734692598 -0.41508908794596228 -0.75796542028902614 0.31800506700775105 -0.22665299584776225 -0.29449831166820589 -0.30153883097763529 0.14857692617147186 -0.24136960953364209 -0.16632404647180135 -0.15478190313780668 -0.53858695854770522 -0.095623010307663417
decision_type=2 2 2 2 2 2 2 2 2 2 2 2 2 2 2 2 2 2 2 2 2 2 2 2 2 2 2 2 2 2 2 2 2 2 2 2 2 2 2 2 2 2 2 2 2 2 2 2 2 2 2 2 2 2 2 2 2 2 2 2 2 2 2 2
left_child=1 4 5 7 6 15 11 12 16 -4 19 -1 26 17 25 -2 -5 -8 -18 -6 -21 -12 -20 31 -25 46 42 -16 -15 34 -22 -23 38 -29 -14 63 37 -36 -28 47 41 -38 -3 -44 -10 -40 53 56 -39 62 -37 -42 -49 -9 55 -55 57 -31 -58 60 -51 -61 -41 -27
right_child=2 3 9 8 10 -7 13 14 44 -11 21 -13 29 28 27 -17 18 -19 22 20 30 23 -24 24 -26 35 32 33 -30 39 -32 -33 -34 -35 36 50 40 48 45 49 51 -43 43 -45 -46 -47 -48 52 -50 59 -52 -53 -54 54 -56 -57 58 -59 -60 61 -62 -63 -64 -65
leaf_value=-3.1477443880429834 1.9707699035906512 -0.1768006340356566 5.7465897661382197 0.65732755898196926 -0.65886753983292934 4.0932566523351657 -0.65216599701667299 0.038815534346807484 1.2522570917314102 7.8530797014031792 -0.17611345669766051 -2.2787358007935739 0.090480207902616558 -0.66028873456863479 0.34745767091000407 2.7062858316964058 0.95772479354301288 -2.0128010678503152 0.58717794743919871 -0.42676974313176164 -1.3729098782966709 -0.68635882028327178 -0.054425867159103761 -1.0537504789348864 -0.78309047120020159 0.20435433354539623 -0.018549552411418042 0.49678691691901222 -1.6717942871825711 -0.038607693468996923 -1.074365528707323 -0.3194874994835184 -0.33663324099905506 0.21419028657033223 0.0039473635152690338 0.13667557648283196 0.0070136094790727377 -0.087771372981889917 -0.24960711810084141 0.037014281351494364 -0.105332691494383 -0.077133670545151883 -0.17746941772294736 -0.484407692194254 1.6048373960917668 -0.073214203121670027 0.023782750644499282 0.0724149387056824 -0.19559347325004819 0.0026291145073590997 0.028374742459110858 -0.056618741711433385 0.00034466535926392359 0.14783851857404898 0.069121651853086899 0.10265248684373704 -0.054449915718802359 0.0097513960240862372 -0.0159563200914206 0.057193485352761794 0.030151273810860996 0.020965341630191165 0.090029012237838255 0.26756223416111086
leaf_weight=59 75 6.9999999999999991 114 236 18 169 6.9999999999999991 8.9999999999999982 95 75 7.9999999999999991 318 8.9999999999999982 6.9999999999999991 156 206 203 487 7.9999999999999982 7.9999999999999991 315 45 7 92 161 85 10.000000000000002 223 448 9.0000000000000018 97 15.999999999999998 64 12.999999999999998 8.9999999999999982 19.000000000000004 43 15.999999999999995 12.000000000000002 9.0000000000000018 67 32 6.9999999999999991 116 151 7.9999999999999991 11.999999999999998 8.0000000000000018 30.000000000000004 25 6.9999999999999991 39 12.999999999999998 55 22 89 22 20 21 17.000000000000004 29 12.999999999999998 19 115
leaf_count=59 75 7 114 236 18 169 7 9 95 75 8 318 9 7 156 206 203 487 8 8 315 45 7 92 161 85 10 223 448 9 97 16 64 13 9 19 43 16 12 9 67 32 7 116 151 8 12 8 30 25 7 39 13 55 22 89 22 20 21 17 29 13 19 115
internal_value=0.0144567 -0.619863 4.22921 0.399876 -1.68399 3.14682 -2.01896 0.0948531 1.04079 6.70577 -1.0932 -2.44149 -0.154336 -1.84304 0.303264 2.53573 0.789547 -1.99808 0.920463 -1.27757 -1.29862 -0.831744 0.332803 -0.846394 -0.894106 0.17725 -0.391895 0.433378 -1.66122 -0.0340439 -1.31193 -0.611955 -0.283456 0.484464 -0.0776126 0.231443 -0.0852105 -0.140134 -0.14741 0.0184396 -0.0662577 -0.0306652 -0.461134 -0.472154 1.48749 -0.199839 0.108808 -0.0123579 -0.166667 0.0436267 0.114141 -0.0897141 0.0340383 0.114077 0.117301 0.122906 -0.0268114 -0.00771541 -0.0381864 0.029301 0.0183173 0.045211 0.0788148 0.244542
internal_weight=4904 4265 639 2179 2086 450 1326 1479 700 189 760 377 674 949 805 281 454 494 218 438 420 322 15 314 253 413 224 392 455 450 412 61 94 236 245 226 236 55 30 205 181 75 130 123 246 20 187 93 46 112 26 106 21 175 166 144 72 29 43 84 54 30 28 200
internal_count=4904 4265 639 2179 2086 450 1326 1479 700 189 760 377 674 949 805 281 454 494 218 438 420 322 15 314 253 413 224 392 455 450 412 61 94 236 245 226 236 55 30 205 181 75 130 123 246 20 187 93 46 112 26 106 21 175 166 144 72 29 43 84 54 30 28 200
is_linear=0
shrinkage=0.0985333


Tree=16
num_leaves=65
num_cat=0
split_feature=0 0 0 0 0 0 0 0 0 0 0 0 0 0 0 1 1 0 0 0 0 3 19 17 19 0 0 0 0 19 17 19 17 20 0 0 18 17 18 19 17 1 19 17 5 19 17 18 17 19 18 5 19 18 4 4 4 0 18 0 19 18 3 3
split_gain=1.10548e+06 377003 152326 32821.4 32747.4 22986.8 6333.77 6187.09 5562.19 5171.91 3620.48 2287.58 1528.68 1510.97 915.362 567.556 514.203 509.354 480.644 424.634 313.687 313.524 220.735 168.797 167.521 127.61 105.474 79.6618 70.2317 55.3762 40.8781 32.3277 25.5896 21.0682 19.7474 17.4898 15.8402 10.9727 6.8689 23.3595 6.56453 5.84233 5.826 5.48891 10.4618 4.64854 4.63285 4.60459 3.89027 3.60991 3.95098 2.89033 2.67691 2.30991 2.1103 1.65879 1.27879 0.89448 0.695704 0.642157 0.468745 0.324278 0.314342 0.280903
threshold=0.89242881844075739 -0.48703321275433548 2.3259940027282799 -0.66381920545286588 0.13969496765563269 1.6204879990586514 -0.81029019464185359 0.53638754910588404 -0.27311958622529359 3.577940137810649 -0.58557004125726386 1.0945420645988941 -0.42553102560088146 -0.74420769561145828 -0.063714499709476277 -0.55066876010326971 -0.0276389654389349 0.34234033036495781 -0.84484370609928783 -0.53980906206253765 0.68758186019318013 1.8020502612169587 -0.58027012066195915 -0.54376089426418239 -0.77433401268264368 -0.15500132576946074 -0.40759611167185 -0.46055763267986854 0.012972912908472956 -0.57208822907851942 -0.70378501418231953 -0.70302014096371657 -0.73045503497707254 -0.46944974671853307 -0.22164551562854509 -0.33264156143758311 -0.35858650021893429 -0.38533803031322994 -0.11437411557804696 -0.43072562082841565 -0.58830081978852544 -0.27929629395524691 -0.18192689691856251 0.15100521279098345 0.16546344801675392 -0.26042271090419056 -0.67818089930584202 0.38396937437329032 -0.27545583471481044 -0.36164011617952829 -0.29917047446048495 -0.48192509464638084 0.93569844374537503 0.31800506700775105 -0.61519817090723239 -0.67178033787569735 -0.37089012287516804 -0.20901203168922675 0.35758365142707466 -0.25452683315935737 -0.62037022978352951 0.33119792848085899 -0.52220601490743557 -0.33920356374306876
decision_type=2 2 2 2 2 2 2 2 2 2 2 2 2 2 2 2 2 2 2 2 2 2 2 2 2 2 2 2 2 2 2 2 2 2 2 2 2 2 2 2 2 2 2 2 2 2 2 2 2 2 2 2 2 2 2 2 2 2 2 2 2 2 2 2
left_child=1 3 5 6 8 11 18 17 12 -4 16 -2 27 15 25 -8 24 -6 -1 23 -9 -19 41 31 -5 34 36 29 43 30 -3 -12 -28 40 45 38 37 -14 39 -34 46 -21 47 -16 -45 53 -29 57 55 50 -37 -51 61 -10 -50 -27 -40 -36 -56 63 -26 -44 -61 -47
