tree
version=v4
num_class=1
num_tree_per_iteration=1
label_index=0
max_feature_idx=21
objective=regression
feature_names=Column_0 Column_1 Column_2 Column_3 Column_4 Column_5 Column_6 Column_7 Column_8 Column_9 Column_10 Column_11 Column_12 Column_13 Column_14 Column_15 Column_16 Column_17 Column_18 Column_19 Column_20 Column_21
feature_infos=[-0.78358161099342827:7.4639796107613963] [-1.1573899332839366:7.0536334570606884] [-0.79801125175459797:6.1937392645860232] [-0.71526162017040307:8.2841057559151103] [-0.76871634055568283:6.2586386421270648] [-1.5887844940198168:1.910255726844948] [-0.72350373694044767:8.1958519673127803] [-1.659822402756417:1.6609778125037977] [-0.77444073634222677:1.2912543892294881] [-0.63519706593007641:1.5743145767458147] [-1.2255909887563965:1.181136364040682] [-1.4152472753204755:1.4139490582311041] [-1.4149541404444292:1.4127067827939834] [-1.373653441191715:1.3794672936894572] [-1.2777968036203731:1.4148962581783942] [-0.78366703310155261:7.4641000304763692] [-1.1574496668871552:7.0536866759308392] [-0.79812399103001741:6.193918955838531] [-0.7153555140188298:8.2843156294026628] [-0.83713284440235791:5.9901494029849234] [-1.2295133950968047:5.6939397864210681] [-0.79337382940296886:7.9356655297493717]
tree_sizes=6060 3533 6447 6880 3884 7604 3960 7007 4375 7569 4552 7737 4633 5256 7740 6056 6281 6728 7726 7702 7735 7453 7696 7492 7643 7647 7541 7611 7655 7532 7657 7504 7520 7651 7707 7676 7644 7631 7646 7699 7691 7706 7709 7733 7784 7750 7778 7729 7743 7906 7854 7811 7921 7773 7864 7957 7893 7975 7974 7994 7875 7980 7877 7859 8032 7027 7936 7918 8116 7915 7356 7993 7953 8079 8033 8086 7970 8060 7019 8156 7568 8136 8010 7286 8226 7335 8012 5874 8100 6787 7092 8210 8162 8053 7875 4344 7336 8126 7449 8043 7888 7940 8078 8175 8261 7634 8024 5046 8121 8132 8193 8310 8147 8070 6764 8274 8251 8075 8097 8177 8068 8067 8252 7673 8255 5152 8359 7015 7553 8232 8429 7168 8232

Tree=0
num_leaves=67
num_cat=0
split_feature=15 15 15 15 3 15 3 15 15 15 15 15 15 6 15 3 3 15 3 3 15 15 15 16 15 19 15 5 6 15 5 19 20 5 5 15 12 19 11 19 6 11 3 5 5 3 16 6 18 19 16 16 3 19 19 21 21 16 20 19 3 11 16 16 12 16
split_gain=3.15658e+07 9.96698e+06 4.90551e+06 1.22134e+06 949170 694691 624280 195126 193832 154484 128810 124305 89819.5 47620.3 36048.9 25591.9 21114.5 19239.7 17731.9 15772.9 12451.2 11855.8 7709.17 7224.81 6857.88 6171.37 5923.31 5833.98 5771.48 4763.05 4210.36 3446.66 3145.59 2854.8 2747.4 2718.55 2558.48 2436.19 2360.52 1908.65 1585.07 2064.75 1556.75 1548.28 1500.94 928.678 905.206 1135.84 970.543 824.19 735.074 636.685 611.953 589.296 480.864 474.449 436.074 425.993 425.667 409.539 395.08 332.367 286.317 104.658 36.8587 32.4511
threshold=0.67012252300903752 -0.39843900600402044 2.1180782515964354 -0.58599535360761834 1.4091556188661301 -0.11831216205966315 1.6314347653416965 1.3167878899946717 -0.69311262220559544 -0.49981486109767814 1.2662287207611016 0.23273227557520568 -0.29216217711416675 0.85314384422858847 2.8052720909013193 0.20779458016637262 0.54111198759782841 -0.44583721926299524 0.6521502485537175 0.17993370264550632 -0.62835896022703619 -0.34017805395295914 -0.53485095031055596 0.36359032976945482 0.040739208968502021 0.14062627433600985 -0.73128072329204918 -1.358153233464013 -0.035932193901440222 -0.23441133327277516 -1.2019665672861648 -0.20125694794056179 -0.53027952091988351 0.49967841556056997 0.70828491329741239 -0.20296990693038991 -0.53754441923659368 0.51420551554854022 -1.2963865343870034 -0.0098461890984929221 -0.10288108775372133 -0.85443462842924267 -0.27668075185101965 -1.089955884533911 0.27315208702827437 0.5549917702173145 0.78205402165996962 -0.10288108775372133 -0.03187979089637525 -0.42175329690091617 0.42744725783043069 0.21428898329901008 -0.19157843506000968 0.32166788786405703 -0.30509358148196347 -0.037854455420602721 0.095700543485402662 -0.41123460527165534 0.16639225381999331 0.60663702113966234 0.06545082410521906 0.85313641133987173 -0.30659350775312127 -0.66483199596058651 -0.53754441923659368 0.36359032976945482
decision_type=2 2 2 2 2 2 2 2 2 2 2 2 2 2 2 2 2 2 2 2 2 2 2 2 2 2 2 2 2 2 2 2 2 2 2 2 2 2 2 2 2 2 2 2 2 2 2 2 2 2 2 2 2 2 2 2 2 2 2 2 2 2 2 2 2 2
left_child=1 3 4 8 10 12 14 -6 26 22 16 18 15 -13 -4 21 -2 23 24 25 -10 30 -5 34 37 29 -1 -19 50 36 -3 46 -31 49 51 60 42 -7 45 -21 54 -42 -14 -38 56 -17 47 62 -49 -30 -29 -11 -45 64 65 -34 -40 -57 -41 -26 -27 -43 -23 -35 -37 -32
right_child=2 5 6 9 7 11 -8 -9 20 17 -12 13 19 -15 -16 38 -18 27 -20 39 -22 31 -24 -25 59 35 -28 28 33 32 40 -33 55 63 -36 53 43 -39 44 58 41 61 -44 52 -46 -47 -48 48 -50 -51 -52 -53 -54 -55 -56 57 -58 -59 -60 -61 -62 -63 -64 -65 -66 -67
leaf_value=126.50383184337517 143.41830231883318 137.48405976997688 152.80840593807895 131.61336419910401 149.63673800890012 139.54304084419059 167.39538462338311 155.85885134381863 129.61189084835328 133.33984423643952 148.09101875790313 141.5160625645874 136.24258740545349 143.62513504203503 160.14630400828221 136.54057856916307 145.68834699907961 137.20629985678667 141.21393196740385 139.3550332754113 130.65759421005794 136.44680082034739 132.55587992005542 136.35030291633521 140.37405417657351 135.94289975171969 128.24504381130453 134.25752154969712 136.09541679742065 136.77570206218252 135.47340207337055 135.51499254116905 138.98590725731904 136.7127501663719 135.65867461035893 138.05848634420926 139.01590678815029 138.25735532420799 137.95538413077227 138.34732320298414 135.37893566752126 136.50605712505336 137.62014503807256 137.49733393622211 138.7809179094011 137.81040914682117 137.79812948572658 137.95701926312896 136.94634849963282 134.66501542922808 136.01526290215239 134.63051225443331 138.03609368432092 137.00714822988348 134.71075621076798 137.50663388819513 137.09373588803243 138.46891261119066 137.3452532813516 139.36831577281592 136.99404054807181 137.19313557572713 136.88207609676618 137.221871972874 137.5351128280009 136.4371073138108
leaf_weight=186 184 9.9999999999999982 63 486 128 253 187 150 814 464 165 425 13.000000000000002 167 49 8.9999999999999982 115 7.9999999999999991 133 135 413 27 310 10.999999999999998 221 14.000000000000002 348 268 16.999999999999996 6.9999999999999991 104 14.999999999999998 60 7.9999999999999991 11.999999999999998 10.000000000000004 8.9999999999999982 23 10.000000000000002 8.9999999999999982 19 19.000000000000004 12.999999999999998 44 34 6.9999999999999991 8.9999999999999982 13.000000000000002 18 18.000000000000004 8.9999999999999982 33 43 7.9999999999999991 31 6.9999999999999991 7.9999999999999991 48 6.9999999999999991 36 6.9999999999999991 10.999999999999998 55 6.9999999999999991 7.0000000000000009 8.9999999999999982
leaf_count=186 184 10 63 486 128 253 187 150 814 464 165 425 13 167 49 9 115 8 133 135 413 27 310 11 221 14 348 268 17 7 104 15 60 8 12 10 9 23 10 9 19 19 13 44 34 7 9 13 18 18 9 33 43 8 31 7 8 48 7 36 7 11 55 7 7 9
internal_value=137.275 134.304 152.984 131.016 148.602 139.631 163.611 153.177 129.209 132.956 145.766 141.097 137.451 142.144 156.595 136.401 144.376 133.902 140.147 138.421 129.945 136.053 131.959 133.504 139.858 137.982 127.575 134.551 134.487 138.178 135.58 136.778 138.608 135.65 133.449 136.954 137.723 139.449 138.114 139.23 135.479 136.115 136.893 137.954 138.419 137.094 136.977 136.898 137.396 135.195 134.299 133.407 137.782 137.634 135.294 138.73 137.605 138.367 137.999 140.262 136.207 136.725 136.712 136.898 137.923 135.524
internal_weight=6560 5519 1041 3412 742 2107 299 278 1761 1651 464 1258 849 592 112 408 299 855 666 441 1227 340 796 520 533 290 534 335 327 244 203 137 122 50 509 46 122 276 68 151 193 49 26 96 52 16 122 113 31 35 277 497 87 25 144 115 18 55 16 257 21 30 82 15 17 113
internal_count=6560 5519 1041 3412 742 2107 299 278 1761 1651 464 1258 849 592 112 408 299 855 666 441 1227 340 796 520 533 290 534 335 327 244 203 137 122 50 509 46 122 276 68 151 193 49 26 96 52 16 122 113 31 35 277 497 87 25 144 115 18 55 16 257 21 30 82 15 17 113
is_linear=0
shrinkage=1


Tree=1
num_leaves=39
num_cat=0
split_feature=0 0 0 0 0 0 0 0 0 0 0 0 0 0 0 0 0 0 0 1 1 0 1 0 0 0 1 0 0 1 0 0 0 5 0 19 19 0
split_gain=2.70515e+07 9.20744e+06 3.87496e+06 1.08313e+06 547083 429364 288161 168615 141716 121323 84034 28844.8 15362.9 14991 14131 12890.2 7797.26 7492.96 7098.91 6732.36 6158.48 4942.55 2897.1 1991.33 1902.64 1808.45 1493.11 1227.59 821.918 521.708 239.699 215.59 141.478 63.3539 40.0608 8.31332 6.91399 0.482708
threshold=0.87885372564610387 -0.37299398579380344 2.2348045192403947 -0.57935714384563508 0.057472537803977292 1.4296804306684401 3.0482840005462282 -0.69509058981009042 -0.49050968470162531 -0.26360637559902528 0.4448887658636464 -0.43288348094344425 1.1181698042544936 -0.63430223353805759 -0.32166342150069854 1.7194777899800868 0.20339077070325595 -0.52378809198801835 -0.11824334539863819 0.24017357981391221 0.60249708569310445 0.70543084752167162 1.0633181370564764 -0.73688428558101904 -0.45166320023684653 -0.29240260015456881 0.48368618037917727 -0.4036566289204282 -0.34014359197864336 0.48368618037917727 -0.24475452516301127 -0.30857093720460438 -0.27907942753332904 -1.2245597286955452 -0.29976107533706747 -0.20125694794056179 -0.34049621729169116 -0.31556205120542963
decision_type=2 2 2 2 2 2 2 2 2 2 2 2 2 2 2 2 2 2 2 2 2 2 2 2 2 2 2 2 2 2 2 2 2 2 2 2 2 2
left_child=1 3 5 7 9 12 -4 23 17 14 16 19 -2 -9 28 -7 -6 -5 30 24 27 -12 25 -1 -10 31 -21 -13 29 -3 -11 37 -27 -30 36 -36 -33 -16
right_child=2 4 6 8 10 15 -8 13 11 18 21 20 -14 -15 22 -17 -18 -19 -20 26 -22 -23 -24 -25 -26 32 -28 -29 33 -31 -32 34 -34 -35 35 -37 -38 -39
leaf_value=-9.8600956754624853 7.6945769183088792 -1.1118766641279458 20.975490785617673 -5.0161070282832965 2.8254189927340718 12.50339762468127 29.466968866152129 -6.9887425047932625 -3.6281437576423885 1.0631746221574883 4.739551988882317 -2.3877192925202313 9.9836895368999752 -6.0292262622019326 -0.32181896470569799 15.969223793579625 3.6911685789807924 -4.1472358635775253 2.1309882937588052 -2.2472053349271057 0.091712360743732096 5.8812847590860624 1.7804236465930601 -8.2699161695464358 -2.901442053105777 0.29618865966679758 -0.44908116540382526 -1.7765308350862075 -0.18692741125227652 -0.15317270405179118 1.513499224875823 0.0035814153485016326 0.57571413498712409 -0.62906932990210684 0.12953645267577352 0.013694280112076037 -0.10303421997715442 -0.19223776945696736
leaf_weight=159 155 119 125 514 255 125 150 763 360 52 311 175 156 540 24 147 362 310 359 51 11.999999999999998 155 7.9999999999999991 349 154 48 6.9999999999999991 122 6.9999999999999991 6.9999999999999991 283 8.0000000000000018 50 69 15.999999999999998 10.000000000000005 16.999999999999996 26
leaf_count=159 155 119 125 514 255 125 150 763 360 52 311 175 156 540 24 147 362 310 359 51 12 155 8 349 154 48 7 122 7 7 283 8 50 69 16 10 17 26
internal_value=0.0105886 -2.44672 16.2866 -5.56673 2.57242 11.6247 25.9087 -7.24623 -3.77201 1.02297 4.14239 -2.8824 8.9378 -6.60772 -0.321906 14.5495 3.3507 -4.7075 1.81327 -3.30544 -2.072 5.15892 0.249005 -8.8295 -3.43079 0.158736 -2.06687 -2.15947 -0.90142 -1.06401 1.45492 -0.132444 0.453243 -0.59804 0.0116715 0.0916871 -0.0725486 -0.270877
internal_weight=6560 5702 858 3516 2186 583 275 1811 1705 1103 1083 881 311 1303 409 272 617 824 694 572 309 466 207 508 514 199 58 297 202 126 335 101 98 76 51 26 25 50
internal_count=6560 5702 858 3516 2186 583 275 1811 1705 1103 1083 881 311 1303 409 272 617 824 694 572 309 466 207 508 514 199 58 297 202 126 335 101 98 76 51 26 25 50
is_linear=0
shrinkage=0.0985333


Tree=2
num_leaves=71
num_cat=0
split_feature=1 15 1 15 15 1 5 1 15 15 1 15 5 1 5 1 1 15 3 4 15 1 15 3 1 1 1 5 5 15 4 5 5 5 1 3 1 15 5 1 2 15 4 5 1 1 1 1 1 19 1 5 5 1 4 1 13 17 2 1 5 1 2 4 15 2 4 4 5 5
split_gain=2.11191e+07 7.64892e+06 3.28865e+06 924600 485897 421337 213985 168534 146128 114877 104441 75973.9 41610.6 28958 23110.5 20747.5 17891.2 16956.9 15685.8 14281.3 13824.6 10515.6 9573.64 7730.81 6879.79 5963.5 5289.34 5137.37 4811.98 4795.03 4436.44 3782.27 3484.64 3214.1 2505.62 2174.82 1909.71 1905 1820 1776.5 1655.44 1615.2 1103.13 1005.69 995.651 950.274 867.414 821.686 788.845 685.867 503.879 502.486 466.321 633.4 441.37 421.892 388.796 339.978 309.489 298.547 321.707 270.117 201.659 185.29 174.676 167.982 162.422 106.677 78.8866 8.67152
threshold=0.89767924488887141 -0.36667396642746691 2.276534610776396 -0.57452741538392793 0.040739208968502021 1.5716899266803075 0.64543777710481653 3.1686474890109113 -0.69311262220559544 -0.4751370094396658 0.37636367422368705 -0.25260411513466668 0.72169232154442087 1.1316386655780117 0.90557171737314646 -0.3213052982895232 0.031897571927573788 -0.62154965840924714 0.093210389344191388 -0.23397244099617079 -0.5136973207745702 0.67056266451636792 -0.42559996350120072 -0.1081984270611988 -0.54860827393636857 -0.49028680134720021 0.30502623912392762 0.9140338254406426 0.79049625772674459 -0.73696854222188124 -0.20122178528460005 0.46238754993264863 0.86023553264926644 0.3116599365513944 0.5007889515896593 0.34659240636123417 -0.55943804305657741 -0.2867905838534523 0.72169232154442087 0.21432984725168489 0.01172182115995893 -0.16667808319869412 -0.21443213380691425 0.83578982606953722 0.58199515218342412 -0.55943804305657741 0.78208707543111788 -0.4546536843906816 -0.19764062212746572 -0.24326747834751547 -0.52503156450395505 0.66197257275562793 0.15986210564170672 -0.39468121998860772 -0.27332827096889861 -0.17152578698951362 0.30922042485899776 -0.36500380628977619 -0.12635840776859689 -0.53869612549503054 0.67518667887416994 -0.18733973720852146 0.055917856910825008 -0.332224408130883 -0.30848161139068808 0.3441559656922068 -0.27993344523005576 0.21545462435672824 0.27315208702827437 0.80831904045142355
decision_type=2 2 2 2 2 2 2 2 2 2 2 2 2 2 2 2 2 2 2 2 2 2 2 2 2 2 2 2 2 2 2 2 2 2 2 2 2 2 2 2 2 2 2 2 2 2 2 2 2 2 2 2 2 2 2 2 2 2 2 2 2 2 2 2 2 2 2 2 2 2
left_child=1 3 5 8 11 6 -2 -4 29 20 16 18 -7 -8 33 24 48 -10 25 22 -5 -16 26 -21 43 32 -11 -18 41 -1 40 52 64 -12 50 59 -32 42 39 -22 63 54 46 -13 -28 66 58 51 -6 -39 -24 -33 -26 -54 62 -30 -44 -37 -27 60 -25 -43 -17 -20 -3 -66 -34 -58 -61 -50
right_child=2 4 7 9 10 12 13 -9 17 19 14 15 -14 -15 21 28 27 -19 30 23 38 -23 34 35 31 37 44 -29 55 -31 36 47 45 -35 -36 57 -38 49 -40 -41 -42 61 56 -45 -46 -47 -48 -49 69 -51 -52 -53 53 -55 -56 -57 67 -59 -60 68 -62 -63 -64 -65 65 -67 -68 -69 -70 -71
leaf_value=-8.905317150869271 2.3989731947313193 -1.7900214196416497 19.940104000835873 -4.355425036740824 1.7485417641466241 3.9761523652497099 7.5881136053029046 27.307990479765667 -6.1911699518911698 -2.9175027197953769 2.2649804070075046 -1.386486469853407 14.347530996672333 10.235402085295116 4.7836241043323868 0.96493982714161763 2.8638902800250969 -5.2133714062868597 -0.036707743458783464 -2.3123270375268419 -3.541763822808055 6.3889134624888113 -2.4097131666200675 -1.3313309084723968 -0.45929701082028973 -0.51929982300682309 -1.6890350501654456 3.7664258082805051 1.932355388470909 -7.4032384585850055 -0.22863592705176228 -0.022822206417277332 -0.88718990902071604 4.0513281782047148 -0.51032104552521051 0.72975074390752925 1.2837371522582179 0.61972794471394477 -1.0903950581617909 -1.8854528204526417 -0.94223800092429644 1.3570140791194294 0.52492116733152983 -0.12520840221711996 -0.29962854950259571 0.5491975321640391 0.30659539872256802 1.3199791890829444 1.8872893543427267 -0.20301627168855568 -1.7967915444555951 0.83475986921771217 -0.23890105870403641 0.61525527557200266 1.4751723481003693 2.8405378643141752 0.076263302521859505 -0.059250297819355681 -1.0799207143309912 -0.5403278210430883 -0.35131679967431534 1.9307070667781416 0.32294692572085976 0.55822354933566365 -0.41425714771589089 -1.2525210057877898 -0.27275046227513194 -0.37672604904859597 -0.092822993455471098 2.6192560402435348
leaf_weight=159 54 45 129 567 70 6.9999999999999991 132 125 892 387 27 11.000000000000002 198 199 191 29 186 435 6.9999999999999991 31 337 129 69 13.000000000000002 9.9999999999999982 102 27 254 50 375 7.9999999999999991 7.9999999999999991 8.0000000000000036 130 13.999999999999998 10.000000000000002 75 25 6.9999999999999991 19 12.999999999999998 50 11.000000000000002 11.999999999999998 7.9999999999999991 6.9999999999999991 8.9999999999999982 91 50 12.999999999999998 151 31 12.999999999999998 15.000000000000002 38 66 7.9999999999999982 7.9999999999999991 11.999999999999998 14.000000000000002 7.9999999999999991 194 10.999999999999998 12.000000000000002 9.0000000000000018 8.9999999999999982 14 7 6.9999999999999991 118
leaf_count=159 54 45 129 567 70 7 132 125 892 387 27 11 198 199 191 29 186 435 7 31 337 129 69 13 10 102 27 254 50 375 8 8 8 130 14 10 75 25 7 19 13 50 11 12 8 7 9 91 50 13 151 31 13 15 38 66 8 8 12 14 8 194 11 12 9 9 14 7 7 118
internal_value=0.0128396 -2.13801 14.53 -4.96427 2.4536 10.3929 8.33299 23.877 -6.47731 -3.27557 3.83597 0.885371 14.0636 9.26705 4.96436 1.55457 3.02143 -5.8847 -0.187105 -2.34667 -4.01048 5.49076 -2.50891 -1.12913 0.681166 -0.584814 -2.8061 3.40964 1.92731 -7.90368 0.766918 0.900153 -1.22008 3.79833 -1.94065 -0.427102 1.13472 -0.256165 -3.43648 -3.47193 -0.204334 1.69172 -0.413644 -0.828781 -1.42581 -0.282144 -0.534397 1.14724 2.26603 0.344667 -2.02258 0.671051 0.0301972 0.235659 1.19109 2.51487 0.153363 0.425143 -0.607708 -0.796814 -1.05845 1.83329 0.82731 0.366588 -1.61548 -0.965135 -0.584576 -0.165525 -0.424711 2.44292
internal_weight=6560 5716 844 3538 2178 590 385 254 1861 1677 1155 1023 205 331 477 629 678 1327 394 747 930 320 656 91 191 279 422 440 438 534 115 168 92 157 234 60 83 187 363 356 32 322 149 23 35 29 123 130 238 38 220 39 38 28 78 116 26 18 114 42 21 244 40 19 63 18 22 15 21 168
internal_count=6560 5716 844 3538 2178 590 385 254 1861 1677 1155 1023 205 331 477 629 678 1327 394 747 930 320 656 91 191 279 422 440 438 534 115 168 92 157 234 60 83 187 363 356 32 322 149 23 35 29 123 130 238 38 220 39 38 28 78 116 26 18 114 42 21 244 40 19 63 18 22 15 21 168
is_linear=0
shrinkage=0.0985333


Tree=3
num_leaves=75
num_cat=0
split_feature=1 15 1 15 15 1 4 1 15 1 15 15 15 3 1 1 15 1 15 15 15 1 4 4 15 3 1 1 3 1 2 4 3 1 4 1 17 1 15 17 3 4 15 1 1 20 15 20 19 1 17 1 1 3 2 4 1 20 4 3 1 1 15 20 3 7 2 15 4 20 20 4 15 3
split_gain=1.72435e+07 6.35741e+06 2.57434e+06 752554 417636 314852 165142 147330 127420 85893.8 85063 80599.1 21917.9 17351.8 15686.1 13746.4 13204.2 12807.8 11795.3 11128.3 9027.22 8120.87 5404.69 5112.29 4935.91 4918.28 4785.92 4716.48 4075.6 3460.88 2987.59 2709.23 2520.71 2458.52 2298.99 1735.55 1675.46 1375.67 1350.96 1175.52 1655.78 988.112 932.928 803.38 798.972 776.84 664.49 653.139 601.873 555.448 551.443 525.583 498.127 472.802 453.192 435.631 352.984 486.301 321.977 284.733 280.113 270.297 219.484 219.464 206.319 190.959 183.554 164.06 64.6922 64.1446 45.8184 21.3336 7.18528 4.19532
threshold=0.92932765501552028 -0.36667396642746691 2.276534610776396 -0.56981520966017196 0.1095286409068187 1.5716899266803075 -0.22764248232922854 3.4656337601485325 -0.68496686567103304 0.5007889515896593 -0.4751370094396658 -0.20296990693038991 0.75638547842458637 0.20779458016637262 0.10339056697054329 1.1316386655780117 -0.62154965840924714 -0.33259283756049773 -0.41748664911127964 -0.72099148685758851 -0.51833628226363571 -0.57391595534293904 -0.19461661102344296 -0.39001968291600775 -0.2867905838534523 0.76328982179150062 0.39616493446724471 -0.56380984166783221 0.47161176221850359 0.71927940526111511 0.17807644319402294 -0.18140626250112871 -0.1081984270611988 -0.39468121998860772 -0.21443213380691425 0.086365270754883802 -0.058085980119299774 -0.2269850742575161 -0.07075946660707326 -0.29966719557890259 -0.12217952196257904 -0.22764248232922854 -0.32153325413649719 0.1924137037247467 -0.50799393851265384 -0.35930478521624182 -0.32977286431799385 -0.55420893442422103 0.14062627433600985 0.56021820877371209 0.42370295172654115 -0.15698559408732238 0.28424552415881593 -0.19157843506000968 0.10752636535791844 -0.2865386194912129 -0.44876493126249833 0.076372880433729681 -0.16819591397881448 0.4022128491210728 0.60249708569310445 -0.31295035040839608 -0.23441133327277516 -0.62795016116947322 -0.1499390872015513 -1.1544832395646449 0.49513749931239887 -0.23441133327277516 -0.25351274818542724 -0.061198953462131923 -0.21132920135801816 -0.23397244099617079 -0.34017805395295914 -0.49622446671544651
decision_type=2 2 2 2 2 2 2 2 2 2 2 2 2 2 2 2 2 2 2 2 2 2 2 2 2 2 2 2 2 2 2 2 2 2 2 2 2 2 2 2 2 2 2 2 2 2 2 2 2 2 2 2 2 2 2 2 2 2 2 2 2 2 2 2 2 2 2 2 2 2 2 2 2 2
left_child=1 3 5 8 11 6 -2 -4 19 14 20 13 -7 21 51 -8 -10 27 22 -1 -5 46 26 -11 34 38 43 -13 39 -25 53 35 -24 47 36 -22 42 -18 66 40 49 69 -23 -12 -34 72 64 -15 67 -20 -40 -6 -16 55 -48 -26 57 -29 -42 -49 -28 -47 -50 -46 -3 -55 -19 -32 -56 -35 -43 -41 -36 -58
right_child=2 4 7 10 9 12 15 -9 16 23 18 17 -14 33 52 -17 37 25 28 -21 31 24 32 29 30 -27 60 56 -30 -31 48 -33 44 41 45 -37 -38 -39 50 71 58 70 -44 -45 63 61 54 59 62 -51 -52 -53 -54 65 68 -57 73 -59 -60 -61 -62 -63 -64 -65 -66 -67 -68 -69 -70 -71 -72 -73 -74 -75
leaf_value=-7.7327758249583329 2.0433233812475287 -1.7946807238036859 18.563666042664309 -3.9219248540786502 1.66248556457979 4.2159857557331648 6.9427443440032945 25.479994472945904 -5.5220939674815401 1.8268994038496926 -2.6275491028469333 -1.02887178511388 12.931566277298092 0.64114632128631788 3.0345736101110612 9.2008336063491214 -4.703308320697225 1.4959186417349155 -1.5612469504655992 -6.3947259758966357 -3.2856418372965868 -0.6228631102494756 -2.2170858775754438 4.4198259418200241 0.5459435635414559 2.6516482554625123 -0.93223083972597587 0.83257537848949204 0.60923875058930388 5.5902036835792446 -0.22108459496961164 -1.0501099391368673 -0.99327714903255959 0.60099559043761797 0.31990178181003115 -2.1012329453825753 -1.3507174684303822 -1.7826116077986418 2.0239378352477901 -2.1438021831908793 -0.74974764836791785 1.4448945188729907 -0.084785514631175438 -1.8656829814056379 0.30269620715421452 -0.43337983442206579 -0.28741812024563956 -0.5253598318663919 -1.1188185829973831 -0.49331359346755216 1.335255004026211 2.4029091793284456 3.6274558082982127 0.44531908308335805 -1.2687387043191298 -0.096584411773270554 0.47646356196230344 0.064696543067134418 -0.017826171107673924 0.17024125826470513 -0.098094645459765456 0.23768666955724116 -0.24115245153156376 -0.33824650573988774 -0.63661119908655317 0.99400091557746073 0.74807662547371867 0.2662307959410139 -0.45992609826147207 0.14334132891593282 0.6518333820811576 -1.2307986655166614 0.7856756104310223 1.1354771239293371
leaf_weight=266 47 24.000000000000004 154 465 49 6.9999999999999991 111 100 811 9.9999999999999982 402 9.9999999999999982 198 14.000000000000002 239 201 479 151 117 349 367 80 12.999999999999998 178 33 87 8.9999999999999982 25 6.9999999999999991 161 12.999999999999998 9.9999999999999982 17 12.000000000000002 8.0000000000000018 37 20 6.9999999999999991 211 51 20.000000000000004 73 52 55 7 11.000000000000002 13.999999999999998 8.0000000000000018 7 8.9999999999999982 42 177 239 18 12.999999999999998 12.999999999999998 6.9999999999999991 11.999999999999998 7.9999999999999991 8.9999999999999982 6.9999999999999991 6.9999999999999991 6.9999999999999982 7.0000000000000018 6.9999999999999991 35 13.999999999999998 8.0000000000000018 7.0000000000000027 6.9999999999999991 8.9999999999999982 18 10.999999999999998 72
leaf_count=266 47 24 154 465 49 7 111 100 811 10 402 10 198 14 239 201 479 151 117 349 367 80 13 178 33 87 9 25 7 161 13 10 17 12 8 37 20 7 211 51 20 73 52 55 7 11 14 8 7 9 42 177 239 18 13 13 7 12 8 9 7 7 7 7 7 35 14 8 7 7 9 18 11 72
internal_value=0.0151908 -1.89394 13.3691 -4.48003 2.25793 9.56225 7.66465 21.5854 -5.80605 3.67319 -2.91196 0.956201 12.7072 0.046511 3.01854 8.48048 -5.21722 1.70162 -2.12147 -7.01256 -3.57304 -0.286398 -2.38971 4.95212 -0.0790298 1.92392 -2.49094 0.783701 -1.49264 5.02536 0.372992 -3.1526 -1.2015 1.00778 -0.400434 -3.1955 -0.5677 -4.67384 1.7524 -1.56673 -1.34567 1.23742 -0.418302 -2.55023 -0.59953 0.276711 -1.26202 0.211521 -0.383219 -1.49985 1.92872 2.26924 3.3544 0.644166 -0.817312 0.370174 0.964662 0.609796 -0.565074 -0.189931 -0.648051 -0.176083 -0.812222 -0.0212235 -1.62147 0.845523 1.44875 -0.0242635 -1.09307 0.479501 1.3871 -1.97422 0.667492 1.09903
internal_weight=6560 5742 818 3538 2204 564 359 254 1912 1053 1626 1151 205 520 704 312 1297 631 747 615 879 388 517 349 323 505 473 126 230 339 134 414 44 132 189 404 152 486 418 223 154 101 132 457 31 37 65 31 35 126 253 226 478 99 34 46 116 37 28 17 16 18 14 14 31 53 165 21 20 19 82 69 19 79
internal_count=6560 5742 818 3538 2204 564 359 254 1912 1053 1626 1151 205 520 704 312 1297 631 747 615 879 388 517 349 323 505 473 126 230 339 134 414 44 132 189 404 152 486 418 223 154 101 132 457 31 37 65 31 35 126 253 226 478 99 34 46 116 37 28 17 16 18 14 14 31 53 165 21 20 19 82 69 19 79
is_linear=0
shrinkage=0.0985333


Tree=4
num_leaves=43
num_cat=0
split_feature=0 0 0 0 0 0 0 0 0 0 0 0 0 0 0 0 0 0 0 1 1 0 1 0 0 0 1 0 1 5 0 1 0 0 0 16 19 0 0 15 15 0
split_gain=1.47757e+07 5.19664e+06 1.95042e+06 584474 332790 234444 110720 88527.8 83750.1 78888.9 45731.5 17830.2 16473.4 7982.78 7340.25 7019.15 5901.64 5146.08 4785 3686.37 3392.27 2928.63 1645.09 1534.21 1005.49 765.712 657.779 479.744 407.105 339.137 331.37 299.853 252.419 132.512 67.4951 61.1332 32.8851 9.69028 2.94335 2.85536 0.829534 0.457573
threshold=0.94683175860916313 -0.37299398579380344 2.356510706680329 -0.58604879742701088 0.12332430581613703 1.5969202984701198 3.3118099525977631 -0.69509058981009042 -0.49050968470162531 -0.26360637559902528 0.53820828008157739 1.2662629830491337 -0.43288348094344425 -0.32166342150069854 -0.64626165780229228 -0.080129247116991986 -0.5349431757185249 0.28541095153345813 0.7564324650126244 0.26304234010553079 0.67056266451636792 -0.74669365374017349 1.0633181370564764 -0.45166320023684653 -0.29240260015456881 -0.39846823785284563 0.48368618037917727 -0.34437896042686916 0.42748518957575654 -1.358153233464013 -0.22511894309115818 0.48368618037917727 1.0000000180025095e-35 -0.30857093720460438 -0.28678681438781001 0.69757545622339812 -0.18948653418848452 -0.29976107533706747 -0.29976107533706747 -0.13374809406938978 -0.32153325413649719 -0.31556205120542963
decision_type=2 2 2 2 2 2 2 2 2 2 2 2 2 2 2 2 2 2 2 2 2 2 2 2 2 2 2 2 2 2 2 2 2 2 2 2 2 2 2 2 2 2
left_child=1 3 5 7 9 11 -4 21 16 13 17 -2 19 27 -9 30 -5 -6 -12 23 25 -1 24 -10 33 28 -21 31 -14 -18 -11 -3 -17 40 -26 -29 37 -35 -38 -36 41 -15
right_child=2 4 6 8 10 -7 -8 14 12 15 18 -13 20 22 -16 32 29 -19 -20 26 -22 -23 -24 -25 34 -27 -28 35 -30 -31 -32 -33 -34 36 39 -37 38 -39 -40 -41 -42 -43
leaf_value=-7.4259652393946887 6.3295632618860598 -0.87779789917150786 16.403886362790836 -3.7883687841204505 2.3148919230973504 11.690132227405217 22.479478894164743 -5.245618869965992 -2.681136719985048 0.89221265628997759 3.69823378959186 8.3732200489685269 -1.751149574675098 -0.15753139130549029 -4.5495447937577014 1.5249814733869185 -1.2557205045634425 3.0191056895730921 4.745032966989152 -1.5786912980152787 0.35842443733759372 -6.1210506733620536 1.349374991646537 -2.1126602823676888 0.16292779704423249 -1.2285644129251512 -0.3406756874557515 -0.5099796398304719 -0.77274792923813984 -3.1381003715388611 1.2008258049824496 -0.13456868983982154 1.874715694306013 0.011691207986125758 0.40778843959390343 -0.12722205327077196 -0.09544456212194774 0.12295440152059992 -0.01438273661654834 0.16613591292552765 -0.22774189432918576 -0.067974172137595226
leaf_weight=133 181 93 125 487 256 222 125 583 366 102 233 153 190 10 669 180 6.9999999999999991 362 156 41 7.9999999999999991 375 7.9999999999999991 158 23 99 6.9999999999999991 95 11.999999999999998 381 311 6.9999999999999991 229 12.999999999999998 68 6.9999999999999991 12 18.000000000000004 8 6.9999999999999991 30 10
leaf_count=133 181 93 125 487 256 222 125 583 366 102 233 153 190 10 669 180 7 362 156 41 8 375 8 158 23 99 7 95 12 381 311 7 229 13 68 7 12 18 8 7 30 10
internal_value=0.016684 -1.73577 12.4824 -4.09671 1.97396 9.1372 19.701 -5.36684 -2.81583 0.883356 3.29975 7.34023 -2.12253 -0.233852 -4.88692 1.43792 -3.50304 2.74157 4.15528 -2.44168 -1.51169 -6.50951 0.195148 -2.52436 0.126987 -1.56483 -1.43243 -0.669449 -1.7067 -3.11528 1.13247 -0.831873 1.73456 -0.0903505 0.346524 -0.488636 0.0218557 0.0820357 -0.0697921 0.393372 -0.198941 -0.129058
internal_weight=6560 5754 806 3516 2238 556 250 1760 1756 1231 1007 334 881 409 1252 822 875 618 389 572 309 508 207 524 199 301 48 202 202 388 413 100 409 101 98 102 51 31 20 75 50 20
internal_count=6560 5754 806 3516 2238 556 250 1760 1756 1231 1007 334 881 409 1252 822 875 618 389 572 309 508 207 524 199 301 48 202 202 388 413 100 409 101 98 102 51 31 20 75 50 20
is_linear=0
shrinkage=0.0985333


Tree=5
num_leaves=84
num_cat=0
split_feature=1 15 1 15 15 5 1 1 15 1 15 15 5 1 15 1 3 15 5 15 15 5 15 5 3 1 1 1 3 5 4 1 5 5 17 6 1 1 1 1 15 2 1 1 15 3 17 1 4 20 1 1 4 5 15 5 1 5 1 5 15 1 1 5 2 1 5 17 1 15 1 19 4 1 1 20 5 5 4 4 1 5 4
split_gain=1.15011e+07 4.21785e+06 1.73891e+06 498024 278234 195285 155233 102144 86691.6 64773.2 55546.1 42317.4 16114.4 14195 12200.2 11481.8 8728.62 8661.65 6627.17 6569.32 6346.93 5414.96 5200.25 4543.56 4219.95 3993.75 3702.39 3647.43 3608.59 3057.17 2539.34 2341.56 2278.36 2134.52 1615.32 1860.21 1523.86 1413.2 1310.5 1113.99 1043.16 1039.27 888.93 748.439 678.215 638.776 693.648 566.931 530.743 565.509 523.448 490.788 481.543 472.428 340.255 317.363 286.399 279.509 373.368 249.164 246.394 239.424 234.99 215.04 207.536 191.861 185.095 170.778 162.711 137.315 115.972 114.697 108.263 105.04 86.7789 84.1036 75.1549 50.3033 25.3353 48.7289 17.0898 36.6144 14.8877
threshold=0.92932765501552028 -0.36667396642746691 2.1422769146136935 -0.56981520966017196 0.040739208968502021 0.77594352639633479 2.9816411283324209 1.5285290351214191 -0.67696830479156589 0.48368618037917727 -0.47783907765560901 -0.25260411513466668 1.16668998791796 0.10339056697054329 -0.71821933148603645 -0.3213052982895232 0.093210389344191388 -0.43271162509678146 1.1551511061331994 -0.60743425680940699 0.3065337347234886 1.0228670884195539 -0.52803876923664461 0.33028787856777725 0.37445328388210047 -0.54860827393636857 -0.31295035040839608 -0.49028680134720021 0.47161176221850359 0.53861932405033286 -0.20122178528460005 0.35194952033015742 0.46238754993264863 0.86023553264926644 -0.11765800699471668 -0.11243104470724605 0.086365270754883802 -0.10252206690671806 -0.07093353025772095 -0.55943804305657741 -0.34017805395295914 -0.094240434152069438 0.52754641637677835 -0.60853320552846013 -0.15634476131193961 -0.40858934287708509 -0.12644305510977308 -0.55943804305657741 -0.25351274818542724 -0.70724486904821504 -0.41137832851004608 -0.47186501644376105 -0.16819591397881448 0.15986210564170672 -0.40338969748159165 0.27315208702827437 0.008824172214793603 0.15986210564170672 -0.40670789227640375 0.8207325743042474 -0.30848161139068808 1.2454190551062323 0.1924137037247467 0.874177762731981 0.024349259945920642 -0.3213052982895232 0.083047543548416827 -0.13769752296601348 -0.19764062212746572 -0.38527766107428801 -0.35236339317725879 -0.47597810026553294 -0.27993344523005576 0.58199515218342412 -0.30096555796807534 -0.21132920135801816 0.58012707577386513 0.73540938408791734 -0.27332827096889861 -0.4125873616416279 -0.35236339317725879 0.23645605501776329 -0.52102230576229058
decision_type=2 2 2 2 2 2 2 2 2 2 2 2 2 2 2 2 2 2 2 2 2 2 2 2 2 2 2 2 2 2 2 2 2 2 2 2 2 2 2 2 2 2 2 2 2 2 2 2 2 2 2 2 2 2 2 2 2 2 2 2 2 2 2 2 2 2 2 2 2 2 2 2 2 2 2 2 2 2 2 2 2 2 2
left_child=1 3 5 8 11 20 -4 18 14 13 22 16 23 38 -1 25 27 24 -7 26 61 53 -5 -11 31 43 -10 33 34 44 41 48 57 67 35 42 -24 -31 74 -32 66 70 54 -13 64 56 50 72 62 -50 -47 59 69 -15 -19 -48 -42 -27 -59 -34 -58 -2 -12 -45 82 -43 -29 -3 -46 -37 -18 -54 -35 -33 -6 80 -53 -40 79 -66 -41 -82 -17
right_child=2 4 6 10 9 7 -8 -9 19 12 17 15 -14 21 -16 29 30 28 -20 -21 -22 -23 36 -25 -26 32 -28 40 -30 37 39 73 51 47 -36 52 -38 -39 77 75 45 65 -44 63 68 46 55 -49 49 -51 -52 76 71 -55 -56 -57 60 58 -60 -61 -62 -63 -64 -65 78 -67 -68 -69 -70 -71 -72 -73 -74 -75 -76 -77 -78 -79 -80 -81 81 -83 -84
leaf_value=-6.2679969240014142 1.2410798019810918 -0.79404010808337588 13.834153901364164 -3.246086793229749 0.94810905620644681 5.6800324940240996 19.777549113458104 10.146724071598362 -4.4099931140961814 1.6523615935437497 -2.2451339425413939 -1.2570766837147322 4.8168107814894592 0.94690055354331948 -5.1212085633745268 0.40601461161273728 0.047400723312269598 -1.603505799411967 7.5179478853409645 -3.6942406622794635 3.993438981529648 3.0577463047152507 -2.7029145599201416 3.4765024910316353 0.046296274068563979 -0.38330731989705857 -1.2746644513239216 -0.68877830171924748 0.45621712314489993 1.4199347493312786 -0.19415428461617956 -0.88699085852285142 0.015778971898979342 -0.68723413033777025 -1.9232196588305503 -1.0036541728998529 -1.6753913751429326 2.1104868986519341 1.5162679362867189 0.63703639677734802 -0.74362556113548339 -0.91003292105238542 -0.41169836563318823 -0.46068956436071468 0.73316439499292141 -0.28220129591302551 -0.47295443381230129 0.43060569472425569 -0.53039783644259697 -1.6705332493454623 0.46087058706108697 0.57027427028444433 -0.3605571311369053 2.3073946554681841 -1.1597883787653962 0.15828422408080897 -0.31625597087918561 -0.22658087980713196 0.43011256110252433 0.60895273758309554 0.098306887871348086 2.1940959340950763 -1.5485748370278694 0.1695989387335122 0.40086134104727339 -0.16311993733645291 -0.08886509379580855 -1.4331441668136571 1.3331694787537027 -0.36096931555915734 0.55937045250750861 0.088713785750357779 -0.19888079800229802 -0.23071680487972879 1.5570902324880025 0.3520929649834374 1.0330243237065533 2.1748066533513697 0.61428461522632971 0.041403905651933727 0.60577433865056129 1.2077266758001273 1.0010291509715159
leaf_weight=293 26 23 128 387 23 104 150 196 852 24 344 8.0000000000000018 148 8.9999999999999982 402 6.9999999999999991 7.9999999999999956 117 168 358 23 247 430 210 8.9999999999999982 9.9999999999999982 6.9999999999999991 35 8.9999999999999982 119 7.9999999999999991 7.9999999999999982 10.000000000000002 8.0000000000000036 59 21.000000000000004 36 80 42 20 7.9999999999999991 8.9999999999999982 11.999999999999998 6.9999999999999991 19 8.9999999999999982 18.000000000000004 6.9999999999999991 9.9999999999999982 24 44 19 9.0000000000000018 233 87 9.9999999999999982 38 11.999999999999998 16.000000000000004 20 19 23 39 7.9999999999999991 7 6.9999999999999991 6.9999999999999991 40 147 9.9999999999999982 8.0000000000000018 7.9999999999999991 14 7 130 6.9999999999999991 81 113 8.9999999999999982 7.0000000000000018 12.999999999999998 35 44
leaf_count=293 26 23 128 387 23 104 150 196 852 24 344 8 148 9 402 7 8 117 168 358 23 247 430 210 9 10 7 35 9 119 8 8 10 8 59 21 36 80 42 20 8 9 12 7 19 9 18 7 10 24 44 19 9 233 87 10 38 12 16 20 19 23 39 8 7 7 7 40 147 10 8 8 14 7 130 7 81 113 9 7 13 35 44
internal_value=0.0172178 -1.54195 10.9232 -3.64839 1.83986 7.58416 17.24 8.31897 -4.72711 2.87012 -2.37276 0.649266 3.93436 2.34557 -5.63267 1.14846 -0.149912 -1.75372 6.89355 -4.1958 2.64909 2.68642 -2.9246 3.3156 -2.04846 0.498727 -4.38954 -0.445626 -1.34551 1.42518 0.562254 -2.09212 0.66577 -0.942795 -1.39992 -1.26014 -2.63617 1.72815 1.78113 0.840633 -0.189977 -0.171116 -1.38656 -0.650383 1.15346 -0.0602499 0.122641 -0.210237 -2.13706 -1.41348 0.325334 0.857532 -0.637461 2.27054 -1.43626 -0.25474 -0.282959 -0.00671376 0.154576 0.432849 -0.180298 1.80112 -2.18837 -0.155154 0.825002 -0.668698 -0.60286 -1.25213 1.28049 -0.852205 0.3563 -0.169477 -0.444336 -0.679476 1.48801 0.954624 0.96662 2.03253 0.462305 0.264142 0.99704 1.09527 0.949672
internal_weight=6560 5742 818 3538 2204 540 278 468 1912 1179 1626 1025 382 797 695 630 395 773 272 1217 72 489 853 234 441 191 859 280 332 439 115 432 168 92 323 264 466 199 308 83 188 32 216 23 240 146 81 29 417 34 53 130 48 242 204 28 65 38 28 30 57 49 383 15 74 16 42 63 166 31 16 17 22 15 153 75 100 155 23 14 68 48 51
internal_count=6560 5742 818 3538 2204 540 278 468 1912 1179 1626 1025 382 797 695 630 395 773 272 1217 72 489 853 234 441 191 859 280 332 439 115 432 168 92 323 264 466 199 308 83 188 32 216 23 240 146 81 29 417 34 53 130 48 242 204 28 65 38 28 30 57 49 383 15 74 16 42 63 166 31 16 17 22 15 153 75 100 155 23 14 68 48 51
is_linear=0
shrinkage=0.0985333


Tree=6
num_leaves=43
num_cat=0
split_feature=0 0 0 0 0 0 0 0 0 0 0 0 0 0 0 0 1 0 0 0 1 0 0 1 1 1 0 0 1 1 0 15 15 1 0 1 0 0 15 20 15 1
split_gain=9.86302e+06 3.32084e+06 1.44873e+06 376175 206327 159690 129941 59052 54743.7 46859.6 32153.1 10537.3 9023.01 8572.01 4821.78 3613.53 3182.66 2720.6 2229.67 2208.42 2096.97 1467.77 1376.06 761.141 613.648 327.941 326.694 316.825 243.357 231.332 149.467 66.9906 52.2765 32.136 12.9579 12.8344 11.018 10.6793 9.40061 3.17829 3.0537 0.448328
threshold=0.87885372564610387 -0.38072400202635864 2.1180912540381263 -0.59007307620788774 0.040804056140097134 3.5924534380343407 1.4884258289132097 -0.70639007473383331 -0.49425593278101704 -0.29240260015456881 0.41740070120401246 -0.45166320023684653 1.0754946992587728 -0.65280936479847373 -0.24475452516301127 -0.54313663959356107 0.67056266451636792 0.23279233112228617 -0.32983790548999492 0.7564324650126244 0.17219903656027144 -0.41751328407856853 -0.1029761425112032 1.1316386655780117 0.023130349896436173 0.69760967208253455 -0.34437896042686916 -0.27312872191987059 0.39616493446724471 0.78208707543111788 -0.30857093720460438 -0.44273065344681611 -0.37262873533611279 0.35194952033015742 -0.29976107533706747 0.5007889515896593 -0.28678681438781001 -0.31556205120542963 -0.31559492729570754 -0.53702294167034348 -0.27907331872014512 -0.41760703272263866
decision_type=2 2 2 2 2 2 2 2 2 2 2 2 2 2 2 2 2 2 2 2 2 2 2 2 2 2 2 2 2 2 2 2 2 2 2 2 2 2 2 2 2 2
left_child=1 3 6 7 9 -4 12 -1 15 18 17 20 -2 -9 23 -5 21 -6 25 -12 -10 33 -16 27 -17 26 31 36 -22 30 37 -3 -28 -13 38 -23 -11 39 -32 -20 -36 -40
right_child=2 4 5 8 10 -7 -8 13 11 14 19 16 -14 -15 22 24 -18 -19 29 -21 28 35 -24 -25 -26 -27 32 -29 -30 -31 34 -33 -34 -35 40 -37 -38 -39 41 -41 -42 -43
leaf_value=-5.4803197672166162 4.4959790748354242 -0.29977402385895568 13.228524236117229 -3.1474994326504588 1.7275524541474567 19.083163504983577 8.7083553578476014 -4.3989180574842406 -2.2236217776714975 0.14367798925644201 2.8788222683337148 -1.6484653558058309 6.0193868274867697 -3.7513610326141751 0.93403564265904693 -2.6691088371776606 0.30509560408445491 2.2321472783166798 -0.097339513970306088 3.6725816860907581 -1.3861330360080493 -1.1993935348086067 1.2691068583043572 1.2826521747532182 -1.7514572251010099 0.034337259915647865 -0.22887326297105245 0.54686528832073333 -0.42997282341634857 0.34259482417852938 0.03909688101680836 -0.77006656761593162 -0.49219498609587736 -0.90185837120728252 0.090237919098258457 -0.53273942818175479 0.27297565826608194 -0.12498340590412711 -0.034523600688047343 -0.25821185485485737 0.018089580674907933 -0.095486369010336775
leaf_weight=401 129 8.9999999999999982 198 435 332 100 225 586 376 23 388 269 206 747 309 406 8.9999999999999982 285 6.9999999999999991 104 33 165 307 7.9999999999999991 34 6.9999999999999991 19 75 6.9999999999999991 7.9999999999999991 8.0000000000000018 112 57 13.999999999999998 11.000000000000002 7.9999999999999991 49 24 7.9999999999999991 41 12.999999999999998 7.9999999999999991
leaf_count=401 129 9 198 435 332 100 225 586 376 23 388 269 206 747 309 406 9 285 7 104 33 165 307 8 34 7 19 75 7 8 8 112 57 14 11 8 49 24 8 41 13 8
internal_value=0.0181214 -1.46566 9.84594 -3.35751 1.51979 15.3851 6.82368 -4.38805 -2.33341 0.56287 2.46693 -1.77233 5.48352 -4.04644 0.983015 -2.88935 -1.42816 1.97152 -0.412904 3.07052 -2.14242 -1.46436 1.10704 0.477007 -2.61209 -0.612623 -0.635804 0.40532 -1.26534 -0.0870284 -0.124271 -0.744183 -0.438913 -1.62261 0.0108862 -1.17936 0.239968 -0.210826 -0.0377856 -0.2427 0.0582195 -0.0763485
internal_weight=6560 5702 858 3490 2212 298 560 1734 1756 1103 1109 881 335 1333 771 875 465 617 332 492 416 456 616 155 440 204 197 147 40 128 120 121 76 283 48 173 72 72 24 48 24 16
internal_count=6560 5702 858 3490 2212 298 560 1734 1756 1103 1109 881 335 1333 771 875 465 617 332 492 416 456 616 155 440 204 197 147 40 128 120 121 76 283 48 173 72 72 24 48 24 16
is_linear=0
shrinkage=0.0985333


Tree=7
num_leaves=77
num_cat=0
split_feature=1 15 1 15 15 5 1 15 1 1 15 15 5 15 5 1 3 15 1 1 5 4 15 1 3 1 1 1 5 15 15 1 5 3 2 1 1 5 4 5 1 1 5 3 5 17 1 1 5 5 1 12 5 3 1 5 5 4 5 1 12 2 3 5 18 1 5 1 18 1 1 1 5 15 1 5
split_gain=7.67029e+06 2.90611e+06 1.0777e+06 329645 205139 150418 65320 54138.3 45202 43907.9 42897.4 41614.6 34587.5 11115.7 9155.22 8203.19 7665.77 7648.05 6070.77 3559.87 3233.86 3045.83 3033.53 2763.53 2455 2160.28 2080.57 2022.76 1944.32 1774.66 1444.64 1381.26 1360.87 1301.46 1287.07 1121.42 928.159 913.322 910.718 885.723 884.606 851.044 845.685 774.653 621.346 619.721 591.456 578.816 552.132 548.362 497.966 390.946 348.477 316.889 285.972 284.723 277.906 294.018 251.684 250.269 243.287 184.91 181.429 159.408 153.464 149.111 132.542 132.309 117.138 110.149 104.822 97.408 97.1077 78.5383 77.6604 63.9188
threshold=1.0100059625825641 -0.36667396642746691 2.429096403480516 -0.57690619870192739 0.1703029436146484 1.0654794970170742 1.6515570395735995 -0.70647357030317559 0.52754641637677835 3.4656337601485325 -0.21444706382499826 -0.48773503043473115 0.21940211514261529 -0.65082745005887788 1.16668998791796 -0.3213052982895232 0.20779458016637262 -0.43271162509678146 0.18207349858489583 -0.57391595534293904 0.69857824085494113 -0.19461661102344296 -0.53485095031055596 -0.56380984166783221 0.47161176221850359 -0.017212240321904351 -0.24231738989251506 0.1924137037247467 1.005706326483937 -0.31559492729570754 -0.74677815520228286 -0.53869612549503054 0.063977513645139747 -0.25408811298864442 0.19454664007086694 -0.44340499698341163 0.60249708569310445 0.72169232154442087 -0.25351274818542724 0.56522797290537796 -0.083744406774003924 -0.060914411209866424 0.69857824085494113 -0.1499390872015513 0.73540938408791734 -0.37324027723002157 0.58199515218342412 0.040850426791096843 0.25363881109661224 0.1045384610433364 1.2454190551062323 -0.53754441923659368 0.063977513645139747 -0.29045922218861181 -0.65790806438612193 0.33028787856777725 0.56522797290537796 -0.26011792244658433 0.5911319959132334 -0.30096555796807534 1.0000000180025095e-35 -0.094240434152069438 -0.2609773481574405 0.3898527442756356 0.14866478938886249 -0.42961017823005848 0.42628582554463962 -0.2269850742575161 2.3258379014817216 -0.49028680134720021 -0.34222768586220631 -0.4770781044019991 0.64543777710481653 -0.40338969748159165 -0.43723101431924988 0.99760558943643884
decision_type=2 2 2 2 2 2 2 2 2 2 2 2 2 2 2 2 2 2 2 2 2 2 2 2 2 2 2 2 2 2 2 2 2 2 2 2 2 2 2 2 2 2 2 2 2 2 2 2 2 2 2 2 2 2 2 2 2 2 2 2 2 2 2 2 2 2 2 2 2 2 2 2 2 2 2 2
left_child=1 3 5 7 10 12 -7 30 18 -4 16 22 50 -9 37 23 19 21 41 42 40 27 -5 -12 31 -22 -15 -13 -20 38 -1 56 36 -23 43 60 73 -10 45 53 52 -6 -3 51 -35 62 -29 -24 -42 61 -2 -31 -17 74 -44 71 -19 -58 65 66 -18 -37 -21 70 -45 -36 -51 -47 -39 -41 -40 -34 -43 -33 -25 -56
right_child=2 4 9 11 8 6 -8 13 14 -11 15 17 -14 26 -16 20 35 24 28 29 25 33 47 39 -26 -27 -28 46 -30 34 -32 32 55 44 58 49 -38 68 63 69 48 72 54 64 -46 67 -48 -49 -50 59 -52 -53 -54 -55 75 -57 57 -59 -60 -61 -62 -63 -64 -65 -66 -67 -68 -69 -70 -71 -72 -73 -74 -75 -76 -77
leaf_value=-5.5818561477120907 1.085140327547945 -1.2891988761868722 12.728584863365004 -2.7176578102582836 1.2313646684114901 6.4208253116610452 9.3522909913665373 -3.9496570182899831 2.2134975946124165 17.221717961679349 -0.77413768384758175 -1.8747250493249559 5.0404590880110165 -3.3110656859070478 4.1216651116788725 0.10892459667243408 -0.36037660846908509 -1.6255333888313532 1.9708678831571784 -0.37419397357786111 1.348997582483519 -1.6553984967243378 -2.2877633099925503 -0.31948630062937966 0.38438568184792471 2.0610698906647489 -0.95814213100842538 -1.2516216893016427 2.6052458317079701 -0.28252224901290024 -4.5525731399517193 -1.2489986056006781 -0.62009846564126725 -0.61315433546164988 -0.85433214129632606 0.47076803304746512 -0.17376560460309465 3.1964361727514481 -0.28422197232617757 0.42012391746693833 1.0547293159884221 1.1341553126335964 -0.88563822391543978 0.54945982996182929 0.32008637386151789 -0.98396999271365615 -0.18833624774497312 -1.5392450576488539 1.4767381310171692 0.2883071319077799 2.0919827947431919 0.15566804620489691 0.88454097330515802 0.43063625048289822 -0.3694983468683527 0.15928214053939849 -1.1449130284973856 -0.28089957911616176 0.04172232509013029 1.085660653317728 0.25868048683260175 -0.088777452761686609 0.075691436685724353 0.3562548679393881 0.10646194847510136 -0.25787376498628223 0.74363150278051526 -0.31508592408943775 1.3310002120097881 0.83051770325210894 0.13360075097473126 -0.12608893358259532 1.8610109243214945 -0.92713986313432195 0.058244429269259358 -0.045203840119530068
leaf_weight=132 23 27 128 412 72 211 176 613 56 100 11.999999999999998 443 102 815 157 6.9999999999999991 9.0000000000000018 72 162 56 161 8.9999999999999982 373 6.9999999999999991 8.9999999999999982 88 6.9999999999999991 56 208 24 268 102 12.000000000000004 23.000000000000004 10.000000000000004 9.0000000000000018 11.999999999999998 152 8.0000000000000018 19 142 22 9.9999999999999982 51 6.9999999999999991 23.000000000000004 6.9999999999999991 41 96 14.999999999999998 27 68 108 17 16.000000000000004 7.9999999999999991 18.000000000000004 7.9999999999999991 6.9999999999999991 40 8.9999999999999982 8.9999999999999982 8.9999999999999982 10.999999999999998 10.999999999999998 12 34 7.9999999999999991 6.9999999999999991 88 9.0000000000000018 8 169 84 8.9999999999999982 9.9999999999999982
leaf_count=132 23 27 128 412 72 211 176 613 56 100 12 443 102 815 157 7 9 72 162 56 161 9 373 7 9 88 7 56 208 24 268 102 12 23 10 9 12 152 8 19 142 22 10 51 7 23 7 41 96 15 27 68 108 17 16 8 18 8 7 40 9 9 9 11 11 12 34 8 7 88 9 8 169 84 9 10
internal_value=0.0181321 -1.20956 9.2553 -2.96973 1.55437 6.78021 7.82342 -3.88673 2.6002 14.922 0.708111 -1.97649 4.01173 -3.5833 3.471 1.17432 -0.00517425 -1.49354 2.07273 -0.230972 1.33773 -1.72592 -2.48166 0.5121 -1.09969 1.62488 -3.29503 -1.7926 2.34784 -0.0884701 -4.93616 -1.14445 -0.97857 -0.786831 0.106358 0.651672 -1.06915 2.93944 -0.371193 0.637998 1.12168 1.66081 -0.885525 0.221036 -0.385033 -0.511422 -1.14908 -2.2267 1.24324 0.769348 1.72686 0.0353958 0.841788 0.169906 -0.498108 -0.291882 -1.48163 -0.941961 -0.462129 0.868064 -0.0588793 0.22118 -0.311238 0.112888 0.480432 -0.606659 0.631844 -0.859301 3.14372 0.77274 -0.0775416 -0.469292 1.79846 -1.12278 -0.133901 -0.264322
internal_weight=6560 5793 767 3539 2254 539 387 1835 1005 228 1249 1704 152 1435 372 754 495 878 633 370 602 545 826 152 333 249 822 506 370 307 400 324 226 39 183 125 198 215 124 140 353 263 63 154 30 96 63 414 238 107 50 92 115 33 36 28 98 26 29 89 18 18 65 28 62 22 49 31 159 107 17 20 191 186 16 26
internal_count=6560 5793 767 3539 2254 539 387 1835 1005 228 1249 1704 152 1435 372 754 495 878 633 370 602 545 826 152 333 249 822 506 370 307 400 324 226 39 183 125 198 215 124 140 353 263 63 154 30 96 63 414 238 107 50 92 115 33 36 28 98 26 29 89 18 18 65 28 62 22 49 31 159 107 17 20 191 186 16 26
is_linear=0
shrinkage=0.0985333


Tree=8
num_leaves=47
num_cat=0
split_feature=0 0 0 0 0 0 0 0 0 0 0 0 0 0 0 0 0 1 0 0 1 0 0 1 5 3 1 0 16 5 0 0 7 1 1 0 1 20 1 2 20 20 3 16 2 17
split_gain=6.58579e+06 2.25233e+06 950197 250396 144798 144657 39289.1 38620.3 31499 28151.7 24432.5 16039.2 7878.83 6539.71 3316.78 3061.91 2341.7 2151.45 1901.82 1486.76 1482.9 1027.98 938.072 638.966 400.416 337.152 242.499 206.384 178.999 175.775 94.8412 69.4839 21.8108 18.7989 18.4445 12.2535 11.1093 10.3523 10.6904 8.70407 7.35065 5.77457 3.09796 1.75316 0.717144 0.607761
threshold=0.91415177966962335 -0.38072400202635864 2.5091053637915874 -0.595220628319727 1.6613414023471409 0.040804056140097134 -0.49699213018782462 -0.71488879528085014 -0.29240260015456881 3.5924534380343407 0.48803319052238664 1.2662629830491337 -0.45166320023684653 -0.66140194927809426 0.26965866923755927 -0.25314398824401324 -0.54594902173135196 0.69760967208253455 0.7564324650126244 -0.32983790548999492 0.16205251346146279 -0.08906403779998022 -0.41751328407856853 1.1316386655780117 -1.2481175194167282 2.2425504497266631 0.69760967208253455 -0.35001256430326128 0.78205402165996962 -1.4216952512066812 -0.30857093720460438 -0.27907942753332904 1.3000212673668181 0.87097813545437563 0.42748518957575654 -0.31556205120542963 0.37636367422368705 -0.46157673403041893 0.023130349896436173 -0.044141477866733995 -0.70123869830530206 -0.53702294167034348 -0.19856898251069979 -0.075894666176116468 0.5522364845951756 0.51017705521286805
decision_type=2 2 2 2 2 2 2 2 2 2 2 2 2 2 2 2 2 2 2 2 2 2 2 2 2 2 2 2 2 2 2 2 2 2 2 2 2 2 2 2 2 2 2 2 2 2
left_child=1 3 4 7 11 8 16 -1 19 -4 14 -2 20 -9 -7 23 -5 22 25 26 -8 33 36 31 -18 -12 27 -3 30 -22 35 39 40 -17 -24 41 -14 -32 42 -10 -29 -21 -39 -37 -33 -41
right_child=2 5 9 6 -6 10 12 13 15 -11 18 -13 17 -15 -16 21 24 -19 -20 28 29 -23 34 -25 -26 -27 -28 32 -30 -31 37 44 -34 -35 -36 43 -38 38 -40 45 -42 -43 -44 -45 -46 -47
leaf_value=-4.6181839398732532 4.1073796890818013 -0.63668307893114651 11.68562020599523 -2.5905950132378841 8.1452923190858968 1.438354429621074 -1.8284231762144429 -3.6690106342915594 0.19666730414468139 15.635714549560445 2.4326709960026243 5.6611300363441295 -1.3279430424566094 -3.1163993781437216 1.9275606909955347 0.74420127935499536 -1.5142063711785874 0.32689703913777463 3.0761944363212361 -0.071047265133384579 -0.35344287244659722 1.0464165722560952 -0.97811637116932904 1.0750448176201515 -2.2134044480314703 0.92966198740885964 0.046183072750131192 -0.17427657894173115 0.30409128096697224 -1.1505909129967236 0.071567807405152728 0.35483040463712395 -0.2329128985268131 1.1848994393315702 -0.48523405110885581 -0.11259269994996352 -0.65045695945863091 -0.082487356563646169 0.059984694058354812 0.03143485021013754 -0.44519188713700042 -0.22139089870324782 -0.014812971215016377 -0.032148120513699079 0.15659555169122213 0.096702894864638678
leaf_weight=320 207 96 125 460 222 384 399 562 33 100 303 178 273 801 311 353 41 7.9999999999999991 130 6.9999999999999991 6.9999999999999991 281 163 7.9999999999999991 399 6.9999999999999991 6.9999999999999991 6.9999999999999991 7.9999999999999991 36 11.999999999999998 65 21 7.9999999999999991 10.999999999999998 18.000000000000004 9.9999999999999982 12.999999999999998 7.9999999999999991 6.9999999999999991 73 41 14.000000000000002 6.9999999999999991 7.9999999999999991 7.9999999999999991
leaf_count=320 207 96 125 460 222 384 399 562 33 100 303 178 273 801 311 353 41 8 130 7 7 281 163 8 399 7 7 7 8 36 12 65 21 8 11 18 10 13 8 7 73 41 14 7 8 8
internal_value=0.0185422 -1.17277 8.19186 -2.73639 6.10555 1.26602 -1.92483 -3.60214 0.46023 13.6466 2.04541 4.86875 -1.45699 -3.35277 1.66553 0.804699 -2.38909 -1.15657 2.62816 -0.339776 -1.76187 0.892934 -1.18475 0.353988 -2.16029 2.40912 -0.50287 -0.52283 -0.0735934 -1.05604 -0.106413 0.278399 -0.397502 0.764867 -0.956797 -0.174182 -1.31196 0.0034655 -0.0241261 0.167025 -0.429513 -0.205584 -0.0529532 -0.0965839 0.340998 0.077633
internal_weight=6560 5728 832 3490 607 2238 1807 1683 1103 225 1135 385 907 1363 695 771 900 465 440 332 442 642 457 129 440 310 204 197 128 43 120 121 101 361 174 73 283 47 35 48 80 48 27 25 73 15
internal_count=6560 5728 832 3490 607 2238 1807 1683 1103 225 1135 385 907 1363 695 771 900 465 440 332 442 642 457 129 440 310 204 197 128 43 120 121 101 361 174 73 283 47 35 48 80 48 27 25 73 15
is_linear=0
shrinkage=0.0985333


Tree=9
num_leaves=84
num_cat=0
split_feature=1 19 1 19 1 1 5 5 19 1 1 1 19 5 6 5 4 19 1 3 3 1 5 1 5 1 19 1 1 19 1 1 5 5 1 1 4 1 5 3 5 1 19 5 5 1 1 17 16 1 17 1 4 1 5 5 5 5 1 5 1 17 1 5 5 1 5 3 3 1 5 1 13 1 1 5 5 16 1 5 5 5 1
split_gain=5.12211e+06 1.69801e+06 829076 210785 144858 106092 82069.8 58804.6 34504.4 31277.9 31032.8 27191 23687 18042.3 17522.5 9937.8 9265.58 6059.6 6051.39 4604.21 4379.19 3895.74 3759.48 3640.71 3191.38 3047.83 2825.1 2414.42 2316.08 2015.82 1877.01 1783.1 1559.86 1479.18 1273.17 1250.66 1197.34 1192.75 1106.76 952.052 876.415 870.555 860.805 855.475 808.705 703.631 523.53 562.811 458.719 369.201 365.246 343.518 307.612 293.805 289.961 268.845 248.944 246.312 244.97 229.206 172.973 170.882 168.374 151.333 138.717 126.578 120.852 120.405 113.262 107.949 106.37 91.5245 84.5757 65.7945 64.8204 48.9983 45.5897 44.7117 35.0309 81.4456 30.9219 29.6278 27.1205
threshold=0.89767924488887141 -0.40976270801916387 2.0431882260964769 -0.61948551011046715 -0.23443753048659768 2.6987683331179162 1.0337172343838523 0.51498778912465348 -0.73374563264605575 1.3210243461945004 0.32092963467647734 -0.55943804305657741 -0.52413710748648989 0.083047543548416827 -0.044523978487236278 -0.55517604004647414 -0.24690757392427015 -0.79666359613624216 0.64389419848964458 0.030599399133662563 -0.12906875713137508 -0.67989559426425739 0.53861932405033286 -0.64145848809192019 0.53861932405033286 -0.0076900482653032409 -0.67433834062358666 0.36362913993131957 -0.39468121998860772 -0.27555239068414916 -0.038015991926134654 0.095481571389854289 0.020912689229495966 1.1022959353342754 1.2745850522503175 -0.37707723032785917 -0.23397244099617079 -0.50799393851265384 1.1450944448445819 -0.017929183893591841 -0.23382196403766101 -0.44876493126249833 -0.47024749396172516 1.16668998791796 -0.16245105944091201 -0.47186501644376105 0.67056266451636792 -0.77358400384348036 0.35191054950111894 -0.40057617068069562 -0.29966719557890259 -0.47186501644376105 -0.017377768349060199 0.71927940526111511 1.0154455662324746 0.83578982606953722 0.69857824085494113 0.99760558943643884 0.22461371882296821 0.62127300967648968 -0.052397346384702219 -0.26411763128224358 0.42748518957575654 0.29341083272394358 0.27315208702827437 -0.46079010045043711 0.72169232154442087 2.0202713032510968 0.19381348526499242 -0.27349787849834734 0.29341083272394358 1.3210243461945004 0.30922042485899776 0.44995749094195098 0.75767554651632485 -0.69479612784090172 0.42628582554463962 -0.53874734822298709 0.26304234010553079 -0.42249133244422904 -1.3844751688256263 0.083047543548416827 -0.12443202376177954
decision_type=2 2 2 2 2 2 2 2 2 2 2 2 2 2 2 2 2 2 2 2 2 2 2 2 2 2 2 2 2 2 2 2 2 2 2 2 2 2 2 2 2 2 2 2 2 2 2 2 2 2 2 2 2 2 2 2 2 2 2 2 2 2 2 2 2 2 2 2 2 2 2 2 2 2 2 2 2 2 2 2 2 2 2
left_child=1 3 6 8 11 -4 14 15 17 -8 25 21 19 35 71 29 23 -1 43 30 50 -3 28 63 -23 57 65 32 51 46 -5 40 42 -20 -16 -13 -21 66 -27 -28 60 -34 58 67 -37 56 47 62 72 -44 -18 76 61 -29 -47 -26 -24 -9 -25 -38 82 81 -6 -14 -30 -10 -22 -12 -54 -46 -53 -2 -31 75 -48 -49 -15 -57 -33 -80 -32 -39 -17
right_child=2 4 5 12 7 -7 9 10 26 -11 18 13 16 22 34 31 20 -19 33 36 37 24 45 27 55 38 39 53 64 48 80 78 41 -35 -36 44 59 52 -40 -41 -42 -43 49 -45 69 54 74 73 -50 -51 -52 70 68 -55 -56 77 -58 -59 -60 -61 -62 -63 -64 -65 -66 -67 -68 -69 -70 -71 -72 -73 -74 -75 -76 -77 -78 -79 79 -81 -82 -83 -84
leaf_value=-4.5774824245581316 0.94021284718552023 -1.9251706646242617 8.6219183770749801 -2.1129582450010216 -0.7750579358706412 13.001835426823881 4.3377548417703906 0.9787832020427053 -3.033027943391243 6.4458281201416714 1.9524536176966487 -1.2924543696906263 -2.1199801100657543 -0.59645609980316128 2.8065624077667097 -0.20804669682438887 -0.54846262457223804 -3.564604981599536 2.429985714099137 -1.4060533988733386 -0.59105722790381643 -1.4167037685722246 -0.10097001415919694 -1.5185491766239694 -0.58128310965957763 1.4279203595525853 -2.598235154475526 -0.59409071101840116 0.23093625875164964 -0.16825338093938447 -0.63463649529932264 0.91943595746964379 -0.91225479689721045 3.3980480151969705 4.1244539638626287 -0.90094135389074492 -0.44623175154158384 0.057706264531859862 1.8632457047896542 -0.91369752699238016 0.75475602030069866 0.12987684468217423 -1.4728762504147752 2.4784069992608955 -0.22518268750035078 0.65521829908309726 -0.056467092348162946 -0.2515940821464972 0.6340512047609641 -0.98231800747484155 -1.7348037690398668 -0.27752629586507227 0.13296416938391017 0.028127986040934239 0.9660585888774913 -0.23823866875671226 0.43191712792918696 1.3067736813349187 -0.97402020621180629 0.16262974345785172 0.34019198181081245 -0.24481056958948766 -0.3146302959760186 -1.3774996265942989 0.55005513976470521 -1.664110166134269 -0.074761320874341536 0.78231738484820756 0.67187570884985304 0.1686178367486218 0.053892490111696681 1.6188852942112306 0.20397442038746416 0.096708729447629233 0.27380479542563591 0.0055582595201244906 -0.19807099823830845 0.0038939460768660922 0.79298413679816893 1.3870583792777214 -1.4643981980164049 0.3320843272817347 0.030418043836539267
leaf_weight=133 35 53 128 698 28 176 154 142 720 219 183 55 70 28 60 7 8.0000000000000018 455 86 13.999999999999998 17.000000000000004 55 8.9999999999999982 314 34 252 453 31 29 9.0000000000000018 7.9999999999999991 58 59 96 57 23 14.000000000000002 8.0000000000000053 169 7.9999999999999991 128 7.9999999999999991 39 128 14.000000000000002 140 8.0000000000000018 21 33 131 13.999999999999998 12.999999999999998 7.0000000000000027 8.9999999999999982 73 24 44 105 33 6.9999999999999991 13.999999999999998 7.9999999999999991 20 34 45 13.999999999999998 6.9999999999999991 6.9999999999999991 18 7.9999999999999991 20 14.999999999999998 7.9999999999999991 8.9999999999999982 10.999999999999998 10.000000000000002 7.9999999999999991 9.9999999999999982 20 65 59 8.9999999999999982 7.0000000000000018
leaf_count=133 35 53 128 698 28 176 154 142 720 219 183 55 70 28 60 7 8 455 86 14 17 55 9 314 34 252 453 31 29 9 8 58 59 96 57 23 14 8 169 8 128 8 39 128 14 140 8 21 33 131 14 13 7 9 73 24 44 105 33 7 14 8 20 34 45 14 7 7 18 8 20 15 8 9 11 10 8 10 20 65 59 9 7
internal_value=0.0184512 -1.0408 7.16781 -2.43793 1.02125 11.2727 4.80115 1.52724 -3.17813 5.62224 1.89716 -0.179961 -1.62035 0.186511 2.89208 0.57275 -1.23989 -3.81856 2.48822 -2.00535 -0.316831 -1.22336 0.47718 -1.35959 -0.87756 1.44444 -2.85313 -1.25493 0.0671721 -0.0619753 -2.057 0.903003 -1.30621 2.99325 3.54638 -0.979056 -0.794796 0.0633881 1.61612 -2.57587 0.647689 -0.787558 -1.36788 2.17074 -0.532482 0.693988 -0.301183 -0.399861 0.436586 -1.12138 -1.43389 -0.335128 0.332088 -0.462804 0.775176 -0.395056 0.340796 1.13397 -1.47666 -0.248862 0.12966 0.0698353 -0.61653 -1.92824 0.440545 -3.01466 -0.468292 1.92377 0.554789 -0.0785922 -0.0903155 1.23342 0.011683 -0.112078 0.147209 -0.176246 -0.532526 -0.173106 1.16014 1.28295 -1.40056 0.233954 -0.106077
internal_weight=6560 5716 844 3407 2309 304 540 1624 1783 373 1168 685 1624 509 167 456 824 588 500 800 96 176 409 728 123 668 1195 624 143 157 765 299 584 182 117 100 35 74 421 461 156 67 517 318 45 266 107 88 50 170 22 69 50 40 213 68 53 247 347 21 28 25 48 104 74 734 24 190 25 22 33 50 17 40 19 31 36 34 143 85 67 17 14
internal_count=6560 5716 844 3407 2309 304 540 1624 1783 373 1168 685 1624 509 167 456 824 588 500 800 96 176 409 728 123 668 1195 624 143 157 765 299 584 182 117 100 35 74 421 461 156 67 517 318 45 266 107 88 50 170 22 69 50 40 213 68 53 247 347 21 28 25 48 104 74 734 24 190 25 22 33 50 17 40 19 31 36 34 143 85 67 17 14
is_linear=0
shrinkage=0.0985333


Tree=10
num_leaves=49
num_cat=0
split_feature=0 0 0 0 0 0 0 0 0 0 0 0 0 0 0 0 0 5 0 0 5 0 5 0 0 0 0 5 15 6 5 15 15 15 0 5 5 15 21 0 21 6 15 5 15 21 6 19
split_gain=4.39613e+06 1.52766e+06 606046 167411 112973 101954 30578.2 25438.1 24144.1 14875.1 13640.9 7939.28 6399.45 2919.05 2702.08 2015.35 1598.64 1384.09 1379.81 1310.31 1016.47 702.014 629.002 287.407 267.141 205.661 189.455 285.657 147.777 132.812 102.743 99.7127 66.0948 57.4459 43.334 34.8428 30.2168 26.2314 19.9425 16.6228 16.5903 16.445 8.19236 4.90466 4.50229 3.71425 0.599679 0.365308
threshold=0.94683175860916313 -0.38072400202635864 2.6619998475343292 -0.60436527112595073 1.8159006481104794 0.12332430581613703 -0.50513376874611027 -0.26360637559902528 -0.71488879528085014 1.3168208904634151 0.51842489988417662 4.0902830235668111 -0.45166320023684653 -0.32166342150069854 -0.65922851874287158 -0.041583763687803768 0.7846378001380051 -1.3986039716466383 -0.55125528256173884 0.30659194838696829 -1.3844751688256263 -0.41751328407856853 -1.3736167680987512 -0.29976107533706747 -0.75376422312428193 -0.34437896042686916 -0.15627499546072696 -1.2803579475598876 -0.49052615353740481 2.1866482869470327 -1.1621601576398486 -0.44273065344681611 -0.54600808041283255 -0.41748664911127964 -0.28678681438781001 -1.2287849901224461 -1.2428382647228859 -0.20296990693038991 0.2006754094043707 -0.30857093720460438 -0.19770467497785313 0.20891566523887775 -0.34434629495097563 0.66197257275562793 -0.31559492729570754 -0.28235880413998254 -0.10288108775372133 -0.38848015283805049
decision_type=2 2 2 2 2 2 2 2 2 2 2 2 2 2 2 2 2 2 2 2 2 2 2 2 2 2 2 2 2 2 2 2 2 2 2 2 2 2 2 2 2 2 2 2 2 2 2 2
left_child=1 3 4 8 9 7 18 13 24 -2 19 -4 20 25 -10 26 29 -14 -5 -7 -8 28 -15 39 -1 30 27 -9 -19 -12 -3 -32 -22 -27 38 -35 -23 41 45 44 -41 -36 -37 -33 47 -25 -42 -24
right_child=2 5 11 6 -6 10 12 15 14 -11 16 -13 17 22 -16 -17 -18 21 -20 -21 32 36 23 34 -26 33 -28 -29 -30 -31 31 43 -34 35 37 42 -38 -39 -40 40 46 -43 -44 -45 -46 -47 -48 -49
leaf_value=-4.2936445141136845 3.4916462127629058 -0.067391337778865718 10.098514171390059 -2.1591406265345077 7.1780906776074573 1.2881079737032513 -0.6336204460738053 1.1332797348267856 -2.9792897505463087 4.8926810291461118 2.0498466374109348 13.374723728142733 0.31256270350393517 0.87154858855691308 -2.5731164837930938 0.98824493967234006 2.625335070143723 -0.48668651242519356 -1.8167335851183535 1.6545988828611411 -0.60570546449981921 -0.38747040337570865 -0.024337813734531658 0.15443963742757125 -3.4635848478340274 -0.008078218495309682 0.72939676114789675 0.53789457741804581 -1.0864826602544786 0.82357841320590131 -0.12028029107744638 -0.53668679921056406 -1.4976718694598805 -0.047809353157734782 0.27140154823409685 -0.19045861494177532 -0.78687420552229415 0.077908906243049816 -0.032907751449634239 0.085464518682087223 -0.081594440520122366 0.088968434738817645 -0.3317748920171113 -0.27366281453345132 -0.13282494837902775 0.071548248442934906 -0.025880485801097881 -0.068266884595126281
leaf_weight=107 208 6.9999999999999991 125 516 198 308 21 7.9999999999999991 589 201 276 74 6.9999999999999991 6.9999999999999991 673 306 130 11.999999999999998 412 282 6.9999999999999991 11.999999999999998 8.0000000000000018 18 214 7.9999999999999991 256 250 269 6.9999999999999991 8.9999999999999982 101 487 6.9999999999999991 50 23 165 14.999999999999998 8.9999999999999982 9.0000000000000018 7 9.9999999999999982 64 11.999999999999998 25 22 7.9999999999999982 15.999999999999998
leaf_count=107 208 7 125 516 198 308 21 8 589 201 276 74 7 7 673 306 130 12 412 282 7 12 8 18 214 8 256 250 269 7 9 101 487 7 50 23 165 15 9 9 7 10 64 12 25 22 8 16
internal_value=0.0146065 -0.942067 6.81377 -2.233 5.21569 1.05415 -1.60661 0.460235 -2.98297 4.21463 1.79324 11.5198 -1.21499 -0.148208 -2.77014 0.78229 2.2369 -0.936483 -2.01427 1.4717 -1.4587 -0.957723 0.122545 0.0816796 -3.78212 -0.385634 0.654024 0.570771 -1.06696 2.02959 -0.4715 -0.492243 -1.48923 -0.265399 0.171302 -0.286257 -0.767564 0.218295 0.089927 -0.0713973 -0.00304645 0.247364 -0.302936 -0.517514 -0.102516 0.117979 -0.0621107 -0.0584407
internal_weight=6555 5749 806 3491 607 2258 1908 1255 1583 409 1003 199 980 435 1262 820 413 465 928 590 515 458 204 197 321 231 514 258 281 283 129 122 494 102 124 94 177 75 49 73 24 60 87 113 49 40 15 24
internal_count=6555 5749 806 3491 607 2258 1908 1255 1583 409 1003 199 980 435 1262 820 413 465 928 590 515 458 204 197 321 231 514 258 281 283 129 122 494 102 124 94 177 75 49 73 24 60 87 113 49 40 15 24
is_linear=0
shrinkage=0.0985333


Tree=11
num_leaves=84
num_cat=0
split_feature=1 15 1 15 15 1 5 1 15 15 1 5 15 5 1 15 15 1 3 1 15 5 4 1 1 5 1 4 1 3 4 5 17 5 3 3 5 1 15 1 2 15 5 5 3 3 1 5 5 1 17 1 2 5 1 1 15 5 3 3 15 3 1 3 5 12 17 1 18 15 5 21 17 12 17 3 5 21 3 5 18 16 4
split_gain=3.4181e+06 1.1643e+06 601135 138462 77989.6 73115.8 64101.2 22838.6 21568.1 21080.8 19302.7 15642.5 9867.57 6723.73 3841.52 3336.5 3205 2771.16 2456.52 1715.63 1496.57 1485.75 1411.46 1375.81 1178.54 1146.22 1073.87 966.491 966.164 962.153 905.087 894.706 663.114 608.389 598.007 594.174 571.014 538.092 492.295 452.337 432.146 353.027 348.457 340.399 324.381 268.272 254.708 252.441 246.943 243.485 233.32 232.037 216.721 211.982 191.426 190.409 182.127 165.182 151.559 147.605 134.36 103.734 103.733 98.1959 93.1139 86.0692 85.6588 85.3011 78.7903 77.9781 73.9865 70.3813 55.1803 57.673 49.8709 38.591 37.4077 30.8388 26.8712 24.9212 23.0464 19.3605 19.2058
threshold=0.83675984936070791 -0.38063013758675346 2.0431882260964769 -0.59950580834218126 -0.059386278640776287 2.9816411283324209 1.0654794970170742 1.358380538404911 -0.50519292005635152 -0.71497250296042536 0.26304234010553079 -0.16245105944091201 -0.2867905838534523 0.88431968962330387 -0.4659180018580627 -0.434589784070672 -0.66148432203821905 -0.07093353025772095 0.13484973720264984 0.62474457560237029 -0.54298626322751686 1.005706326483937 -0.19461661102344296 1.2745850522503175 0.13073347826008153 0.55247819480772942 1.4079060013330651 -0.16819591397881448 -0.56380984166783221 0.31883284112226185 -0.063613988177160033 0.3116599365513944 -0.18656407038726833 0.3898527442756356 -0.25408811298864442 -0.1081984270611988 1.1022959353342754 -0.37707723032785917 -0.76024871708557218 -0.55943804305657741 0.01172182115995893 -0.22467663146481878 0.69857824085494113 -0.2153746091254026 2.5481082919191467 -0.45721923818623361 0.5007889515896593 0.67518667887416994 0.042502139445650615 -0.1506558118553353 1.0000000180025095e-35 -0.35236339317725879 0.19454664007086694 0.29341083272394358 0.54234995673079267 -0.30663838753413858 -0.32977286431799385 0.33028787856777725 0.34659240636123417 -0.15682832237034736 -0.46274126881550931 1.0000000180025095e-35 -0.50291265498466264 -0.19157843506000968 0.92575689429973773 -0.0011236788252229999 0.3440909976525599 -0.25534453851581274 -0.16379283440444461 -0.26341019067139876 0.44582175444318239 -0.0075138162076269005 0.094548422294652087 -1.1131947804580029 -0.13769752296601348 0.079229294442811141 -1.3986039716466383 0.012245056860082327 0.037589946584352697 0.74983480735669195 0.17987002548754558 -0.42257703300963767 -0.33882958239204003
decision_type=2 2 2 2 2 2 2 2 2 2 2 2 2 2 2 2 2 2 2 2 2 2 2 2 2 2 2 2 2 2 2 2 2 2 2 2 2 2 2 2 2 2 2 2 2 2 2 2 2 2 2 2 2 2 2 2 2 2 2 2 2 2 2 2 2 2 2 2 2 2 2 2 2 2 2 2 2 2 2 2 2 2 2
left_child=1 3 6 9 12 -4 11 -8 20 38 17 26 18 31 25 22 -11 36 28 44 -5 53 24 -13 50 57 69 32 42 41 40 -12 46 37 -24 -29 55 48 -1 71 74 52 -3 56 -15 77 -17 -36 -30 66 60 -18 61 -19 -26 79 -39 -14 68 -35 -10 65 -32 -44 -41 -16 -31 -45 -37 76 -64 -27 -47 -74 81 -22 -2 -43 -50 -6 -63 -20 -73
right_child=2 4 5 8 10 -7 7 -9 15 16 13 23 14 19 29 27 51 21 30 -21 75 -23 34 -25 54 39 -28 35 33 49 62 -33 -34 59 47 58 -38 43 -40 64 -42 45 63 67 -46 72 -48 -49 78 -51 -52 -53 -54 -55 -56 -57 -58 -59 -60 -61 -62 80 70 -65 -66 -67 -68 -69 -70 -71 -72 82 73 -75 -76 -77 -78 -79 -80 -81 -82 -83 -84
leaf_value=-3.9884976499018365 0.56871961822362505 -0.95348116712575337 7.3536493498628959 -1.8926269178644433 0.19046148391523257 10.929927553442987 3.651733724735879 5.3881605600866456 -1.3447766669674577 -2.6896929407663333 0.88028428623039734 2.4257295133518153 -1.0873900494027782 1.8684717245988314 -0.066080335743123914 -0.78232320979158598 -2.3038198511074843 0.55785175357761874 0.032539908954575814 2.4463597788626097 -1.5658008477556495 1.3983972953835955 -1.1538202449848878 3.4875956362361555 -0.8804353897674142 -0.0073752332353851169 1.7580904423257728 -0.77638647016547524 -0.89721323375588302 0.65689003782237665 0.11195362076362743 1.4536804267257697 -1.1894463035196514 -0.066367217586263058 -0.43003972619080993 0.093398832380955699 0.98082924575821828 -0.37420390058583564 -3.1548035994985315 0.080538335857767887 -0.57471800864317402 0.19796373893203373 -0.51612519183203953 -0.034931771871910898 0.66260674062471459 0.61845710453577185 -0.22959375077364155 0.17228232664385656 -0.42188253757585875 0.91961017349871566 -1.8045000474851667 -1.1895695893207354 -0.11914390835267555 1.0240653811459079 -0.2104139461089013 0.6870776352330622 -0.11486021888031578 -0.37331005854308641 0.32589233404749773 0.38914728459111464 -1.1098209104221817 0.55441967791136604 0.25390362179616555 -0.09551401506181123 0.39808111907392185 0.26417034080411311 0.30662019091749065 0.33297289146444009 -0.28098097943587552 0.84871438325735815 0.68597226743752482 -0.42331299834705388 0.14494331349984091 0.46902900210575271 -0.07174076472228931 -0.83305599470483138 0.18999159773596172 -0.046988334116599369 -0.12924641565114708 0.44274091774416674 0.20037898922554634 0.25088923637443611 -0.1239715758250978
leaf_weight=81 8.0000000000000018 30 155 541 13.999999999999998 149 189 191 336 562 57 87 7.0000000000000027 256 7.9999999999999991 203 738 24 7.0000000000000027 122 321 203 8.9999999999999982 59 77 9.0000000000000018 13.999999999999998 10.999999999999998 17 62 6.9999999999999991 159 57 11.000000000000002 23.000000000000004 7.0000000000000027 86 74 240 18 9.9999999999999982 7.9999999999999982 16.000000000000004 12.000000000000002 6.9999999999999991 109 11.999999999999998 6.9999999999999991 21.000000000000004 76 26 12.999999999999998 10.999999999999998 221 6.9999999999999991 137 46 12.999999999999998 6.9999999999999991 11.999999999999998 186 17.000000000000004 10.999999999999998 9.9999999999999982 20 37 18 7.9999999999999991 10.000000000000002 34 26 10.000000000000002 9.9999999999999982 61 9.0000000000000018 12.999999999999998 9.9999999999999982 7 7.9999999999999991 24 7.9999999999999991 10.999999999999998 6.9999999999999991
leaf_count=81 8 30 155 541 14 149 189 191 336 562 57 87 7 256 8 203 738 24 7 122 321 203 9 59 77 9 14 11 17 62 7 159 57 11 23 7 86 74 240 18 10 8 16 12 7 109 12 7 21 76 26 13 11 221 7 137 46 13 7 12 186 17 11 10 20 37 18 8 10 34 26 10 10 61 9 13 10 7 8 24 8 11 7
internal_value=0.0145934 -0.881681 5.65737 -1.99639 0.908237 9.2074 3.79246 4.56432 -1.40899 -2.65824 1.38623 2.35902 0.17924 1.79927 0.451058 -1.08394 -2.46752 1.02923 -0.226571 2.05532 -1.76674 1.18227 -1.21056 2.92404 -1.24734 -0.153521 1.02759 -0.797013 -0.370721 0.568894 0.240991 1.31826 -0.859923 -0.265499 -0.562532 -0.275441 0.754788 -0.324307 -3.40454 0.0591683 -0.114712 0.448077 -0.725962 -0.21883 1.84519 0.521235 -0.755504 -0.28628 -0.608373 0.768613 -1.30506 -2.28995 0.258131 0.986608 -0.8349 0.627225 -0.280659 -0.744302 0.0216461 0.190695 -1.26873 0.320176 0.526956 -0.383953 0.266532 0.204941 0.593704 0.139084 -0.136893 0.735627 0.589525 -0.239694 0.554246 0.432045 0.100637 -1.54591 0.421615 0.0960242 -0.363076 0.372946 0.478485 0.184549 -0.34106
internal_weight=6555 5659 896 3487 2172 304 592 380 1853 1634 1310 212 862 601 516 978 1313 709 346 385 875 448 671 146 632 84 66 307 265 432 81 216 272 209 39 35 261 186 321 64 37 276 56 140 263 195 215 30 46 156 548 751 81 245 84 175 120 20 24 23 522 70 44 26 38 45 80 20 17 52 37 26 180 71 27 334 18 15 29 38 25 18 17
internal_count=6555 5659 896 3487 2172 304 592 380 1853 1634 1310 212 862 601 516 978 1313 709 346 385 875 448 671 146 632 84 66 307 265 432 81 216 272 209 39 35 261 186 321 64 37 276 56 140 263 195 215 30 46 156 548 751 81 245 84 175 120 20 24 23 522 70 44 26 38 45 80 20 17 52 37 26 180 71 27 334 18 15 29 38 25 18 17
is_linear=0
shrinkage=0.0985333


Tree=12
num_leaves=50
num_cat=0
split_feature=0 0 0 0 0 0 0 0 0 0 0 0 0 0 0 0 0 0 0 0 2 18 0 15 15 15 0 21 0 2 15 15 15 17 15 0 3 0 21 7 0 0 7 3 21 0 18 15 15
split_gain=2.93624e+06 1.03742e+06 394693 117738 66004.9 56377.1 22736.7 21985.9 15210.8 15123.6 9481.33 9014.21 3442.77 3157.9 2951.02 1892.01 1394.28 1034.24 917.273 827.094 328.434 240.551 218.86 209.042 183.551 118.249 105.337 104.083 86.9096 77.9882 95.022 34.2012 27.2533 26.3228 25.6618 25.4843 18.1039 16.8371 16.6807 11.8447 10.0134 9.03223 5.82531 4.99867 3.03817 2.879 1.2752 1.00667 0.427566
threshold=0.99846691029018719 -0.36694202886706401 2.5091053637915874 -0.56978163363991674 0.17036455722797966 1.9118474053412307 -0.69509058981009042 4.0902830235668111 -0.45166320023684653 -0.26360637559902528 1.3168208904634151 0.59417106038728418 -0.63974563446101518 -0.51365210057892463 -0.74669365374017349 -0.041583763687803768 -0.32166342150069854 -0.39846823785284563 0.34517608612769968 0.80940509880824607 -0.78056977669576733 2.3813589059689888 -0.29240260015456881 -0.4751370094396658 -0.42068536375168902 -0.53752505943415363 -0.16735181084005929 -0.11677757495361411 -0.4299077303546785 -0.37314530800688567 -0.37262873533611279 -0.20296990693038991 -0.39175113807602152 -0.46849942883140511 -0.44893000758606277 -0.30857093720460438 0.22167436278585881 -0.32983790548999492 0.043372305237838811 1.3000212673668181 -0.28678681438781001 -0.34437896042686916 0.86687341320244216 -0.19856898251069979 -0.27145864857087648 -0.25314398824401324 -0.30452034395337574 -0.32977286431799385 -0.31559492729570754
decision_type=2 2 2 2 2 2 2 2 2 2 2 2 2 2 2 2 2 2 2 2 2 2 2 2 2 2 2 2 2 2 2 2 2 2 2 2 2 2 2 2 2 2 2 2 2 2 2 2 2
left_child=1 3 5 6 9 10 14 -4 13 16 -2 18 -8 -5 -1 26 29 23 -6 21 -18 -13 35 -10 -19 -15 27 -11 -25 30 33 36 -26 -3 -27 42 40 39 44 -31 -24 -32 48 -40 -37 -29 -33 -44 -22
right_child=2 4 7 8 11 -7 12 -9 17 15 -12 19 -14 25 -16 -17 20 24 -20 -21 22 -23 31 28 32 34 -28 45 -30 37 41 46 -34 -35 -36 38 -38 -39 43 -41 -42 -43 47 -45 -46 -47 -48 -49 -50
leaf_value=-3.4401792745163515 2.9053694082667456 0.12089764893618803 7.9886777099492061 -1.5775146495779533 1.1165358777703061 5.9110921505771792 -2.2918312293000249 11.084500612150208 -0.40246090676709401 0.59227842031565459 4.0517663776697894 1.7646675351658037 -1.9219302282471187 -0.6038360224988204 -2.686509628750227 0.83547646753118332 0.57712701641614517 -0.11359483041553867 1.4235907125668359 2.2389113336546163 -0.056765256391956995 0.69406452639247529 0.1184048010737378 -0.91331920018511614 -0.3369179196219077 -1.1784882762037412 0.58863709647564433 0.24732711452470582 -0.72860344619624573 -0.36753504508524037 -0.31395694084696879 0.057945143691838695 -0.55409654765997196 -0.079797017602557418 -1.4632239072412676 0.088142710475903621 0.060078754988118217 -0.14833985342040509 -0.099694280578211239 -0.17939448242399333 0.24059284569795039 -0.17812840121031559 -0.0022136868624131902 -0.0062117776933032481 0.01633722055722784 0.41815547414542853 0.0061877767156722999 -0.048436115741675417 -0.12803918755797716
leaf_weight=133 182 8.0000000000000018 150 516 280 148 688 74 21 65 226 200 721 12.999999999999998 376 384 9.9999999999999982 14.999999999999998 333 130 10.000000000000002 7.9999999999999991 20 193 29 508 282 19 173 77 20 7.0000000000000027 86 10.999999999999998 71 15.000000000000002 11.999999999999998 11.999999999999998 7.0000000000000027 13.999999999999998 51 37 7.0000000000000027 12.999999999999998 10.999999999999998 148 9.9999999999999982 11.999999999999998 19
leaf_count=133 182 8 150 516 280 148 688 74 21 65 226 200 721 13 376 384 10 15 333 130 10 8 20 193 29 508 282 19 173 77 20 7 86 11 71 15 12 12 7 14 51 37 7 13 11 148 10 12 19
internal_value=0.0142901 -0.75317 5.67518 -1.80072 0.909877 4.22398 -2.32391 9.16096 -1.17965 0.446307 3.56845 1.53051 -2.1076 -1.3863 -2.90483 0.666719 -0.071793 -0.730626 1.29023 1.94921 0.10371 1.73525 0.0698419 -0.813772 -0.468755 -1.21163 0.53601 0.464506 -0.833474 -0.270023 -0.180207 0.168896 -0.510513 0.0101957 -1.22169 -0.0377376 0.194211 -0.328464 0.014546 -0.346052 0.213119 -0.240695 -0.0855066 -0.0486183 0.0631422 0.404012 0.0335816 -0.0343191 -0.111956
internal_weight=6555 5775 780 3543 2232 556 1918 224 1625 1281 408 951 1409 1108 509 898 383 517 613 338 204 208 194 387 130 592 514 232 366 179 76 100 115 19 579 94 83 103 46 91 71 57 48 20 26 167 17 19 29
internal_count=6555 5775 780 3543 2232 556 1918 224 1625 1281 408 951 1409 1108 509 898 383 517 613 338 204 208 194 387 130 592 514 232 366 179 76 100 115 19 579 94 83 103 46 91 71 57 48 20 26 167 17 19 29
is_linear=0
shrinkage=0.0985333


Tree=13
num_leaves=56
num_cat=0
split_feature=0 0 0 0 0 0 0 0 0 0 0 0 0 0 0 0 0 0 18 20 0 20 20 15 20 0 20 19 20 0 0 2 15 15 15 0 0 2 19 15 21 19 20 0 3 15 3 18 2 20 2 3 20 2 0
split_gain=2.39868e+06 862478 311100 96238.1 57231.6 52009.1 19356 13478.6 12758.9 8291.76 8187.75 5652.9 2651.62 2192.53 1740.61 1637.2 1160.57 1042.15 846.649 651.718 529.881 300.694 296.125 286.684 266.891 213.785 186.354 178.31 167.969 152.743 107.855 98.9041 98.5677 89.6641 84.5321 60.5837 47.5546 40.695 27.1627 24.9391 20.5741 18.2797 13.7535 13.0301 12.9466 18.9755 10.1628 8.8287 4.91479 4.60748 3.53166 3.49948 1.87845 1.16245 0.32206
threshold=1.0327866225520292 -0.36694202886706401 2.6619998475343292 -0.60735323299183586 0.18753455995783072 1.9118474053412307 -0.48214815475918377 -0.71813554277445624 -0.26360637559902528 0.67017166248571469 4.0902830235668111 1.3681433096957731 -0.44022450422834325 -0.54313663959356107 -0.029619237711101604 -0.66877615895003528 -0.30857093720460438 0.34517608612769968 2.5481245508340291 0.81143244330468678 -0.39846823785284563 0.47153365955463405 0.042695082008568884 -0.49703478777178972 0.9471601759049767 -0.76016387943489261 0.15360259422265335 -0.45456244355585657 0.36440387819325692 -0.32983790548999492 -0.15627499546072696 -0.4903619716858863 -0.44016263480867274 -0.35955203801071306 -0.49703478777178972 -0.29240260015456881 -0.34014359197864336 -0.44287173207562397 -0.38848015283805049 -0.20296990693038991 0.31361001091933532 -0.18948653418848452 0.63489195604742021 -0.31556205120542963 0.22167436278585881 -0.2867905838534523 -0.05956853175205027 -0.087400795383642524 -0.77977038432244739 0.45291493900682062 -0.10412263452018959 -0.19856898251069979 -0.49608968768345352 0.47784364866818857 -0.29976107533706747
decision_type=2 2 2 2 2 2 2 2 2 2 2 2 2 2 2 2 2 2 2 2 2 2 2 2 2 2 2 2 2 2 2 2 2 2 2 2 2 2 2 2 2 2 2 2 2 2 2 2 2 2 2 2 2 2 2
left_child=1 3 5 7 8 11 13 25 16 17 -4 -2 19 -5 30 -9 29 -6 -11 23 27 32 -15 -8 35 -1 -25 28 34 33 31 -10 -22 36 -14 41 37 -3 47 44 -33 46 -35 48 45 -37 54 -31 -40 -29 -45 -43 -38 -41 -18
right_child=2 4 10 6 9 -7 12 15 14 18 -12 -13 20 22 -16 -17 24 -19 -20 -21 21 -23 -24 26 -26 -27 -28 49 -30 38 -32 40 -34 42 -36 39 52 -39 43 53 -42 51 -44 50 -46 -47 -48 -49 -50 -51 -52 -53 -54 -55 -56
leaf_value=-3.2986904066002949 2.7515555883402105 -0.031123046633076534 7.4518709922034656 -1.5687126662823896 1.0183009970451133 5.4381405815930535 -0.54587582622786979 -2.2422524149640157 0.76813457402609087 1.90032169135199 10.040009973644315 3.7212465994925781 -0.15903264964981453 -1.2941018345642847 0.77331397388787004 -1.9254709428342327 0.044001068867614491 1.32647557033575 0.48954134894608003 -0.02270089192081675 -0.087328334314080616 0.093581974669037213 -0.91451854764786433 -1.0517383072290856 0.62981821316138376 -2.608538782956149 -0.6886559061435672 -0.80191986266044013 -0.063930298553979789 0.092614335581853988 0.54293239761081535 0.43330204827000474 -0.48858296002368129 -0.32825447997250362 -0.61420623525920037 0.25382250347375035 -0.020530589946429704 -0.25437785121129619 -0.039077749445187437 -0.0016922082614195591 0.3150354458053824 -0.084422821223651801 -0.10621473890911239 0.012446779631316247 0.055459835994387821 0.12718709771076664 -0.012669818735272649 -0.038121745938399218 -0.15431778673092153 -0.40398337712167143 -0.064838790126419646 -0.002162985077307051 0.039320493399098849 0.047742943469854734 0.11750347958382172
leaf_weight=81 181 11.999999999999995 125 619 254 173 26 482 8.9999999999999982 279 74 201 6.9999999999999991 479 385 781 7.0000000000000027 411 6.9999999999999991 6.9999999999999991 7.9999999999999991 8.9999999999999982 61 339 6.9999999999999991 213 42 140 6.9999999999999991 7 281 177 113 92 118 27.999999999999993 7 28.000000000000004 6.9999999999999991 6.9999999999999991 72 11.000000000000002 6.9999999999999991 8.0000000000000018 11.999999999999998 42.000000000000007 10.999999999999998 6.9999999999999982 37 10.999999999999998 10.999999999999998 7.9999999999999991 6.9999999999999982 8.9999999999999982 11.000000000000002
leaf_count=81 181 12 125 619 254 173 26 482 9 279 74 201 7 479 385 781 7 411 7 7 8 9 61 339 7 213 42 140 7 7 281 177 113 92 118 28 7 28 7 7 72 11 7 8 12 42 11 7 37 11 11 8 7 9 11
internal_value=0.0140665 -0.666456 5.22937 -1.625 0.837758 3.98842 -1.16691 -2.2055 0.412888 1.41814 8.56588 3.28995 -0.79719 -1.42764 0.610488 -2.05203 -0.0649972 1.21451 1.87191 -0.976613 -0.610864 -0.425075 -1.25718 -0.992697 0.143408 -2.83401 -1.01812 -0.690185 -0.567786 -0.203702 0.49009 0.42626 -0.465149 -0.260121 -0.593575 0.106365 -0.144059 -0.195047 -0.0853718 0.149569 0.403782 0.0141168 -0.316581 -0.111898 0.170881 0.1872 0.060661 0.0325364 -0.140082 -0.78241 -0.0353257 -0.0553505 0.0112137 0.0295843 0.1004
internal_weight=6555 5801 754 3543 2258 555 1986 1557 1307 951 199 382 827 1159 924 1263 383 665 286 414 413 130 540 407 153 294 381 283 132 230 539 258 121 153 125 146 54 40 77 98 249 48 99 63 82 70 29 14 44 151 19 19 14 16 18
internal_count=6555 5801 754 3543 2258 555 1986 1557 1307 951 199 382 827 1159 924 1263 383 665 286 414 413 130 540 407 153 294 381 283 132 230 539 258 121 153 125 146 54 40 77 98 249 48 99 63 82 70 29 14 44 151 19 19 14 16 18
is_linear=0
shrinkage=0.0985333


Tree=14
num_leaves=84
num_cat=0
split_feature=1 15 1 15 15 1 15 1 15 1 15 15 15 1 3 4 1 1 1 1 1 4 1 1 1 6 3 3 1 3 15 1 4 1 17 15 17 19 15 1 1 1 1 16 4 15 3 1 3 15 1 1 1 16 1 18 17 17 3 1 21 16 1 11 21 17 19 15 7 4 3 1 17 1 1 17 15 1 12 1 16 19 16
split_gain=1.86871e+06 717656 244838 85512 47963.1 38973.8 18123.4 15640.4 12803 12277.5 8365.4 8350.33 4120.76 2669.61 2200.94 1976.14 1900.41 1345.78 1212.16 1112.99 1053.91 952.995 864.143 823.764 816.607 758.974 693.768 675.196 625.774 522.031 510.836 390.466 338.413 333.319 330.16 329.302 324.375 305.421 257.944 220.342 207.419 195.851 192.557 167.277 160.751 142.376 131.86 126.968 116.536 115.797 107.473 106.511 102.8 96.7252 95.1044 94.4174 94.077 90.7496 87.8502 105.351 81.8694 80.8292 85.4495 69.2262 66.1215 65.6423 63.0632 62.7017 62.3201 61.2668 50.7783 47.1107 41.2306 38.9543 38.8533 34.035 31.4117 30.8386 30.8189 28.2514 28.231 19.3487 19.0384
threshold=1.0928595388359545 -0.34434629495097563 2.5615710637754501 -0.55673651706079286 0.1703029436146484 1.7274776657631057 -0.67180014107854569 0.64389419848964458 0.34511883544334093 3.9210283487260873 -0.46274126881550931 -0.15634476131193961 -0.75384890105296776 0.20464349054979125 -0.16371755753914338 -0.30635414227468422 -0.49710873986219756 -0.17152578698951362 -0.66819668488159223 0.040850426791096843 0.36362913993131957 -0.18140626250112871 -0.55943804305657741 -0.33259283756049773 -0.1506558118553353 -0.22465504905835101 -0.087328096991022522 0.88830917764877027 -0.7928311109682985 -0.17769865244052357 -0.40338969748159165 -0.4546536843906816 -0.26011792244658433 0.73929065291155893 -0.2722148968841116 -0.27907331872014512 0.82011534566294431 -0.35524295747950596 -0.27907331872014512 -0.060914411209866424 -0.42961017823005848 0.71927940526111511 -0.49710873986219756 -0.46596822343565325 -0.030588116871374485 0.3065337347234886 0.19381348526499242 1.1872426534373561 0.54111198759782841 -0.22467663146481878 0.1924137037247467 0.78208707543111788 -0.56380984166783221 -0.47712847950018339 0.36362913993131957 -0.45730442199497984 0.011642949035468123 0.52857042843246493 2.5203487266801745 0.36362913993131957 -0.18897705900671344 -0.30081692840232804 -0.51903360790352515 -1.1133240610226602 -0.18034308698376142 -0.13769752296601348 -0.28368021008598937 -0.27280382691202437 -1.298865857619437 -0.36359898587137929 -0.38771901280690885 -0.53869612549503054 -0.31298191204518999 -0.66819668488159223 -0.35932181969452237 0.024270915965073105 -0.23441133327277516 -0.17152578698951362 -1.2961579054645722 -0.61606960661696786 -0.47191531982966889 -0.42950479981356088 -0.60482405854781207
decision_type=2 2 2 2 2 2 2 2 2 2 2 2 2 2 2 2 2 2 2 2 2 2 2 2 2 2 2 2 2 2 2 2 2 2 2 2 2 2 2 2 2 2 2 2 2 2 2 2 2 2 2 2 2 2 2 2 2 2 2 2 2 2 2 2 2 2 2 2 2 2 2 2 2 2 2 2 2 2 2 2 2 2 2
left_child=1 3 5 6 11 8 12 13 47 -4 19 14 -1 39 18 20 25 40 -3 21 30 69 72 36 -18 -8 53 44 -14 -23 37 56 63 -9 81 51 38 74 43 -6 71 -22 82 52 -19 -35 -31 -2 60 -38 -29 64 -16 -24 -21 -37 66 78 59 -15 -44 62 -40 76 -33 -45 -20 80 -34 73 -68 -13 -17 -5 -12 -57 -25 -65 -42 -74 -58 -32 -28
right_child=2 4 9 10 7 -7 16 33 -10 -11 15 17 28 58 23 22 24 27 31 54 41 29 26 32 -26 -27 42 50 -30 46 34 35 68 45 -36 55 49 -39 61 -41 57 -43 48 65 -46 -47 -48 -49 -50 -51 -52 -53 -54 -55 -56 75 67 -59 -60 -61 -62 -63 -64 77 -66 -67 70 -69 -70 -71 -72 -73 79 -75 -76 -77 -78 -79 -80 -81 -82 -83 -84
leaf_value=-2.8913394671200838 0.30860824858998609 -0.99626819401504585 6.5969222037238664 -1.3300663689997005 0.58928558725502567 4.6585121217487133 -1.7189872963704997 1.4759106586928157 3.0430044504335827 9.142982069019272 -0.85323159344743438 -0.019222523988211778 -2.2210796175564194 1.0707508606612746 -0.072679878918819676 -0.32771185014626908 -1.3925420630053553 0.54708223774414622 -0.22958128963980637 -0.75309933477672286 -0.33367994871581214 -1.0331231751292953 -0.15128867642447752 -0.089934580317871368 -0.20467790752758108 -1.0842107756316921 -0.037685737774072608 0.72514616405791466 -1.826832865642082 -0.34949068290693536 -0.26073725561664018 -0.087759125357606202 0.19479203107562726 0.86193106558194588 -0.77712523709017012 -0.059894635064031539 -0.37783377636846854 -1.2192330520448735 0.031083950199709887 0.86271904682179401 0.27260841772866351 0.11058760472179448 0.229331813306797 -0.0050969380754407054 0.73926878796003825 2.0263232950667214 0.10583577812158433 1.0058884267670087 0.4533271107920398 0.071764516797428957 1.2354509939812421 0.17593253292388766 0.2566547723579356 -0.55322938294025825 -0.22244395947784526 0.31951490917903125 -0.18556932761047676 0.32371524639909177 0.4972869366579592 1.3050565441617981 -0.048448143795739848 -0.017914156906404185 0.37021137673049337 0.11230320615442181 -0.35254653827440607 -0.30125395447338432 -0.1467148643924944 -0.18908265166986929 0.55237660909512232 -0.91913301544011716 0.1396943086992411 0.24017891772912342 -0.81320604236016791 -1.1195802439233768 -0.6867353333784304 0.12503883305552435 0.1428768585967313 0.35051554428056897 0.54821592875933423 -0.41841712883751181 -0.58696563929775281 -0.45886598908092541 -0.27019006877507751
leaf_weight=107 6.9999999999999991 10.999999999999998 127 141 74 204 905 69 275 74 149 7.9999999999999991 453 183 11.999999999999998 15.999999999999998 345 132 15.999999999999998 96 35 9.9999999999999982 11.999999999999998 8.9999999999999982 6.9999999999999991 41 7 29 190 17.000000000000004 23 73 9.9999999999999982 7.9999999999999991 47 9.9999999999999982 13.000000000000002 24 8.9999999999999982 217 14.999999999999998 10.999999999999998 17.999999999999996 14.000000000000002 212 231 6.9999999999999991 27 9.9999999999999982 6.9999999999999991 36 9.9999999999999982 24 21 6.9999999999999991 30 7.0000000000000027 56 7.9999999999999991 260 18.000000000000004 6.9999999999999991 54 13.000000000000002 7.9999999999999991 11.999999999999998 6.9999999999999991 23 101 86 11.000000000000002 29 17.999999999999996 511 188 21 6.9999999999999991 18 109 18.000000000000004 9.9999999999999982 73 6.9999999999999982
leaf_count=107 7 11 127 141 74 204 905 69 275 74 149 8 453 183 12 16 345 132 16 96 35 10 12 9 7 41 7 29 190 17 23 73 10 8 47 10 13 24 9 217 15 11 18 14 212 231 7 27 10 7 36 10 24 21 7 30 7 56 8 260 18 7 54 13 8 12 7 23 101 86 11 29 18 511 188 21 7 18 109 18 10 73 7
internal_value=0.0136231 -0.568956 4.75974 -1.42457 0.823626 3.57673 -1.8441 1.3065 2.81988 7.66997 -0.874521 0.388875 -2.23801 1.05272 0.106555 -0.614107 -1.61127 0.633669 -0.118587 -1.07821 -0.699554 -1.12193 -0.281444 0.278102 -1.37109 -1.69543 -0.0941862 0.740626 -2.11474 -0.530951 -0.74087 -0.0618179 0.433553 1.89981 -0.553887 0.029291 0.110599 -0.809114 0.16715 0.80075 0.423811 -0.227141 0.10629 0.0181577 0.671563 1.99991 -0.220011 0.903216 0.201147 -0.232841 1.05487 -0.0885884 0.150057 -0.434706 -0.725249 0.200565 -0.242068 0.468106 1.20813 1.21711 0.0982 0.292199 0.325816 0.192601 -0.126986 -0.16072 -0.106028 -0.34043 0.52687 -1.14661 0.0227209 0.187174 -0.59016 -1.17172 -0.768091 0.252187 0.0190669 0.271484 0.522995 -0.668665 -0.479874 -0.42188 -0.183881
internal_weight=6555 5841 714 3618 2223 513 2048 1050 309 201 1570 1173 750 742 547 695 1298 626 237 875 550 772 145 310 352 946 93 409 643 34 504 226 158 308 143 152 152 361 132 291 217 46 60 62 344 239 24 34 46 20 65 91 36 33 103 61 74 180 451 443 36 70 63 47 81 26 34 40 111 738 18 37 52 652 337 51 16 31 124 36 17 96 14
internal_count=6555 5841 714 3618 2223 513 2048 1050 309 201 1570 1173 750 742 547 695 1298 626 237 875 550 772 145 310 352 946 93 409 643 34 504 226 158 308 143 152 152 361 132 291 217 46 60 62 344 239 24 34 46 20 65 91 36 33 103 61 74 180 451 443 36 70 63 47 81 26 34 40 111 738 18 37 52 652 337 51 16 31 124 36 17 96 14
is_linear=0
shrinkage=0.0985333


Tree=15
num_leaves=65
num_cat=0
split_feature=0 0 0 0 0 0 0 0 0 0 0 0 0 0 0 5 0 0 0 5 16 5 5 5 5 3 0 19 15 20 0 5 16 15 0 5 0 15 16 5 0 15 21 21 7 21 5 0 21 19 18 18 21 4 20 7 15 19 20 18 14 15 16 3
split_gain=1.60709e+06 518132 269880 56181.5 40114.5 35520.1 17675.8 9583.19 9450.52 9343.81 4550.67 1828.15 706.592 697.342 674.339 640.461 633.721 566.102 404.779 357.661 335.167 299.604 278.225 270.182 266.983 260.259 360.814 229.816 180.287 170.358 131.808 119.703 103.364 86.2189 77.3366 73.4458 65.2495 48.9677 38.4787 34.5638 33.6809 74.5897 33.3456 28.2464 24.7743 22.5564 16.2321 12.1353 12.5066 11.2854 7.6422 13.6381 7.586 6.99875 6.6166 6.33214 3.92539 3.8751 3.26214 3.2309 3.12402 2.90502 1.31448 0.810171
threshold=0.83768502753646423 -0.39846823785284563 2.0462642189502569 -0.60735323299183586 2.8052679428546883 0.023529165232631679 1.3681433096957731 -0.29240260015456881 -0.510770150782757 -0.71259152193827557 0.39508534363452347 -0.45166320023684653 -0.65074534326527966 -0.76016387943489261 1.0327866225520292 -1.2245597286955452 -0.25314398824401324 -0.34014359197864336 0.18753455995783072 -1.358153233464013 -0.24784542497601389 -1.3485436428841278 -1.3382383125840174 -1.3736167680987512 -1.2803579475598876 2.6591465528750353 0.59417106038728418 -0.47597810026553294 -0.4751370094396658 0.6979522672915216 -0.080129247116991986 -1.1159355616811324 -0.67222074832967671 -0.42068536375168902 -0.32166342150069854 -1.2803579475598876 -0.35996883399988117 -0.38063013758675346 0.78205402165996962 -0.19540551123232641 -0.4255848119744276 -0.42559996350120072 -0.18034308698376142 0.54979877703960367 1.1556386493120263 0.27928013951354264 -1.2287849901224461 -0.30857093720460438 0.043372305237838811 -0.4157089570637586 0.065383282657961492 0.27713309904188249 0.022527162371146398 -0.74972646455485592 -0.21132920135801816 0.86687341320244216 -0.43271162509678146 -0.18948653418848452 -0.69712024882349899 -0.073621859963444822 1.0000000180025095e-35 -0.24449831459295965 -0.37272891602402908 0.27719349326380349
decision_type=2 2 2 2 2 2 2 2 2 2 2 2 2 2 2 2 2 2 2 2 2 2 2 2 2 2 2 2 2 2 2 2 2 2 2 2 2 2 2 2 2 2 2 2 2 2 2 2 2 2 2 2 2 2 2 2 2 2 2 2 2 2 2 2
left_child=1 3 6 9 -4 7 14 17 20 13 18 15 22 -1 -2 29 24 19 -7 -3 -5 -14 -11 -13 -9 26 -12 32 58 -10 31 -18 -17 39 37 -30 -35 -19 47 -21 56 -42 53 -32 -38 -33 -39 55 57 -48 52 63 54 -26 -44 60 -37 -49 -25 -54 -36 -50 -57 -52
right_child=2 5 4 8 -6 10 -8 16 11 12 25 23 21 -15 -16 27 30 34 -20 33 -22 -23 -24 28 42 -27 -28 -29 35 -31 43 45 -34 36 38 40 44 46 -40 -41 41 -43 50 -45 -46 -47 49 48 61 -51 51 -53 59 -55 -56 62 -58 -59 -60 -61 -62 -63 -64 -65
leaf_value=-2.7131951968171419 1.7225484548981997 0.28957423372460084 4.7591643205208412 -1.2665837644683433 7.2756626551853163 0.66228391423889177 3.2176635814683432 0.64488601047181116 -0.63582446325791986 -1.3437291328240479 1.0649916705172195 0.007509688937724435 -0.74327193220813315 -2.1022113672432807 2.2372459091857082 -0.57895569494722654 0.77511103396402714 0.04785444522557683 0.85820675982697703 0.037809162707440065 -1.0270473279103636 -1.5417402670197859 -1.796548643032684 -0.13500358698567211 0.066829947539353299 0.35153437015623845 1.325880999447498 -1.1086441292583962 -0.36224585346762245 -0.084009281105486611 0.52677344402897752 0.39604527203344259 -0.89624057679896696 -0.39719024064972658 -0.12813655912953045 -0.6092417419831091 -0.27997166391578743 -0.019066299017205572 0.15979792431003056 -0.19615651723969907 -0.35770884308333761 -0.6033171949900239 0.048875568486572464 0.35863091070275538 -0.10217337088446292 0.30652569606217123 -0.043377003325320969 0.074260009208856267 -0.0027732020137744067 -0.20258992095681458 0.18118774510730051 0.018039476681487279 0.10528369926719501 0.2221857300793475 -0.057792821094773017 0.011729805246112588 -0.79163662274617086 -0.0051855578942981168 -0.31975168920409663 0.02072143357604618 -0.048313179824020017 -0.075257824753005409 -0.034408429569549884 0.076950465801670059
leaf_weight=81 130 6.9999999999999991 148 725 174 284 251 7.9999999999999991 81 68 255 6.9999999999999991 13.999999999999998 267 181 36 6.9999999999999991 9.9999999999999982 331 7.0000000000000027 177 527 600 10.000000000000002 6.9999999999999991 6.9999999999999991 228 118 25 6.9999999999999991 182 257 325 130 12.000000000000002 122 53 6.9999999999999991 7.9999999999999991 20 36 99 8.9999999999999982 46 14.999999999999998 122 6.9999999999999991 16.000000000000004 9.0000000000000018 53 17.000000000000004 9.9999999999999982 18 37 6.9999999999999991 8.0000000000000018 77 7.9999999999999991 10.999999999999998 8.0000000000000018 17 10.999999999999998 10.999999999999998 8.9999999999999982
leaf_count=81 130 7 148 725 174 284 251 8 81 68 255 7 14 267 181 36 7 10 331 7 177 527 600 10 7 7 228 118 25 7 182 257 325 130 12 122 53 7 8 20 36 99 9 46 15 122 7 16 9 53 17 10 18 37 7 8 77 8 11 8 17 11 11 9
internal_value=0.0129827 -0.596825 3.91237 -1.36237 6.18046 0.560609 2.58369 0.17715 -0.993067 -1.79948 0.958965 -0.77156 -1.65834 -2.26915 2.04293 -0.887472 0.387147 -0.204891 0.771846 -0.305157 -1.22359 -1.52582 -1.75745 -0.595521 0.182812 1.18692 1.1965 -0.936344 -0.606598 -0.596662 0.429172 0.3842 -0.870264 -0.327672 -0.0702126 -0.624077 -0.35078 -0.1422 -0.0119446 -0.138036 -0.639849 -0.548158 0.135945 0.498584 -0.247448 0.370193 -0.171504 -0.0320132 0.00555481 -0.187321 0.0906738 0.124095 0.0549159 0.204003 0.000260657 -0.0645535 -0.691859 0.0504017 -0.262692 0.0846461 -0.0912746 -0.0477618 -0.0161378 0.158113
internal_weight=6555 5671 884 3413 322 2258 562 1153 1856 1557 1105 954 1209 348 311 567 744 409 615 232 902 541 668 387 130 490 483 479 380 88 614 386 361 225 177 359 198 77 100 27 334 135 122 228 68 379 67 92 44 60 78 36 42 44 16 48 199 24 21 26 29 20 19 26
internal_count=6555 5671 884 3413 322 2258 562 1153 1856 1557 1105 954 1209 348 311 567 744 409 615 232 902 541 668 387 130 490 483 479 380 88 614 386 361 225 177 359 198 77 100 27 334 135 122 228 68 379 67 92 44 60 78 36 42 44 16 48 199 24 21 26 29 20 19 26
is_linear=0
shrinkage=0.0985333


Tree=16
num_leaves=68
num_cat=0
split_feature=0 0 0 0 0 0 0 0 0 0 0 5 0 1 1 0 0 0 0 0 1 1 1 19 18 1 5 0 5 0 19 1 0 20 20 19 0 1 19 0 1 0 0 19 19 0 1 18 3 0 18 7 7 19 3 0 19 19 6 7 18 20 1 7 7 19 6
split_gain=1.31108e+06 422461 220415 45732 36267.4 28904.3 14496 7857.38 7782.97 7659.42 3742.14 2334.57 1296.12 1258.37 595.741 594.694 504.401 486.953 461.846 445.887 313 237.586 233.719 224.4 208.319 206.704 196.922 167.382 131.556 128.992 123.279 113.76 162.424 110.321 94.5865 74.1855 63.642 43.106 42.5835 40.5662 40.3549 38.4469 36.5537 34.3917 27.4378 77.7511 23.394 20.058 18.4743 13.1155 11.5118 10.2813 8.95455 8.57909 11.6026 8.4105 8.33212 7.18147 6.61667 6.48774 6.11569 5.81468 4.33636 3.47945 2.75787 1.1172 0.986317
threshold=0.83768502753646423 -0.39846823785284563 2.0462642189502569 -0.60735323299183586 3.5924534380343407 0.023529165232631679 1.3168208904634151 -0.29240260015456881 -0.72090762896055349 -0.50513376874611027 0.34517608612769968 1.2683614997812265 -0.45166320023684653 -0.73352603379492631 0.11375165212797826 1.6613414023471409 -0.25314398824401324 -0.55125528256173884 -0.34014359197864336 0.53820828008157739 0.71927940526111511 0.42748518957575654 1.1316386655780117 -0.47338097395301271 2.436879910456256 -0.39468121998860772 -1.2481175194167282 0.15436178590112026 -1.2733555017776832 1.0327866225520292 -0.55888173715064393 1.1316386655780117 -0.11824334539863819 -0.71361789274593213 0.6979522672915216 -0.40463817320731532 -0.32166342150069854 0.87097813545437563 -0.26441294619703387 -0.38072400202635864 0.62474457560237029 -0.66877615895003528 -0.35001256430326128 -0.36208261572628314 -0.45456244355585657 -0.40867364538430218 0.60249708569310445 -0.038870574308093167 -0.32531064716016816 -0.76016387943489261 0.27713309904188249 1.4444038854216101 -0.28818753123589352 -0.28368021008598937 0.22167436278585881 -0.30857093720460438 0.7140192559090992 -0.18948653418848452 -0.10288108775372133 0.86687341320244216 0.093143784901595181 0.45291493900682062 -0.58341166887958906 0.72249079514765013 1.1556386493120263 -0.35524295747950596 -0.18258771506934421
decision_type=2 2 2 2 2 2 2 2 2 2 2 2 2 2 2 2 2 2 2 2 2 2 2 2 2 2 2 2 2 2 2 2 2 2 2 2 2 2 2 2 2 2 2 2 2 2 2 2 2 2 2 2 2 2 2 2 2 2 2 2 2 2 2 2 2 2 2
left_child=1 3 6 8 11 7 29 18 49 17 27 -4 14 41 23 -8 22 28 20 -12 35 30 50 33 -21 -15 -19 -7 -5 -2 -14 32 38 -11 -16 39 43 -29 -18 -3 55 -10 -37 47 45 -32 -23 48 -20 -1 53 52 -41 54 61 59 -34 60 66 62 -57 -9 -38 -59 -45 -61 -55
right_child=2 5 4 9 -6 10 15 16 13 12 19 -13 21 25 34 -17 31 26 36 24 -22 46 -24 -25 -26 -27 -28 37 -30 -31 44 -33 56 -35 -36 42 40 -39 -40 51 -42 -43 -44 64 -46 -47 -48 -49 -50 -51 -52 -53 -54 58 -56 57 -58 63 -60 65 -62 -63 -64 -65 -66 -67 -68
leaf_value=-2.4565626264132083 1.5571206737707628 -0.30068493130930851 3.1881185888989245 -0.84273640077852785 7.2784465419637625 0.58004463216677604 2.5161651687603426 0.2098658878593847 -1.725422733634884 -0.5118308210865149 0.90910536700953781 4.9512373231503721 -0.14964073559071889 -1.4036988497780942 -0.50564691157615049 3.2037366389685982 0.39271299969775203 -0.6075092738207869 -0.073493406261681077 1.1602812683449102 0.27874223761853395 -0.21508272403280948 0.60021468155569835 -1.0025720965769112 0.36084523264366142 -0.67311518662703407 -1.0054876736495801 0.70492780654650355 -1.1985100972310674 1.9649154737395014 -0.52237471707038741 0.74317159283091105 0.44620183177243677 -0.7985306733386216 -0.078426798514754717 -0.39014391236116158 -0.019563379773184748 1.0723822626230375 0.28388119713506788 -0.11145702088286209 0.13716010111789748 -1.467891156183029 -0.21988641443395474 -0.19334976767670564 -0.62374627605362853 -0.20506081842325588 0.0070106670494942264 -0.14664145487810307 0.085049506637413619 -1.9452709701451354 0.016710969996848773 -0.048020366363662727 -0.22525138165695979 0.072236130819655797 0.048572883350844025 0.067246226139928908 0.28717328740610981 -0.070061392250629323 0.14256832562433724 0.012775239548278004 -0.025716226732110353 0.079132716367728576 -0.11420180444840761 0.0096433304406735726 -0.07361177782164928 -0.030290315922689003 0.022634405146081941
