tree
version=v4
num_class=1
num_tree_per_iteration=1
label_index=0
max_feature_idx=21
objective=regression
feature_names=Column_0 Column_1 Column_2 Column_3 Column_4 Column_5 Column_6 Column_7 Column_8 Column_9 Column_10 Column_11 Column_12 Column_13 Column_14 Column_15 Column_16 Column_17 Column_18 Column_19 Column_20 Column_21
feature_infos=[-0.89194018927465502:6.5780032326999649] [-1.1594383744435151:6.2076914352282007] [-0.94722850173531237:5.6753406580100521] [-0.89771484563620896:7.5348456595624222] [-0.94717231484453823:5.6809484981712277] [-2.2396113455911997:1.7386389614093545] [-0.9075301680959984:7.4667668821598703] [-1.6613247725836151:1.6613247725836151] [-0.7745966692414834:1.2909944487358056] [-0.6436503043468057:1.5536386656647034] [-1.0396705734849931:1.0464017270923553] [-1.4142135623730949:1.4142135623730951] [-1.4142135623730947:1.4142135623730949] [-1.3626522224123452:1.3812843264322487] [-1.2962541524239961:1.4060005776133486] [-0.89203116400413429:6.5781480899687343] [-1.1595713219816068:6.2078649967489241] [-0.94729370959334147:5.675442468179531] [-0.89777317231324893:7.5349688630775473] [-0.96007697453390251:5.2779761671893253] [-1.2409809500400322:5.0168781164430936] [-1.0159946740695986:7.3577980295171574]
tree_sizes=7438 3161 7655 7856 4017 7602 3954 7575 4218 7483 4394 7556 4577 4929 7646 6308 6535 6342 6941 6829 7078 7498 7457 7541 7666 7760 7581 7691 7741 7745 7615 7683 7645 7677 7673 7700 7644 7727 7655 7660 7687 7746 7603 7843 7700 7924 7781 7758 7930 7955 7920 7849 7909 7910 7819 7956 8017 8017 8091 7946 8054 7884 8071 7947 8021 8059 8067 8083 8132 8247 8169 8095 8080 8033 8046 8223 8125 8161 8212 6710 5953 8053 8231 6432 7161 6154 6949 7823 8294 5927 8225 8075 8216 7190 8179 8209 5780 8317 8113 8404 8124 7399 8049 5379 8240 7981 8179 7961 6007 5685 7058 8150 4837 5711 6130 8098 7628 8207 5553 5895 7166 6882 8203 5658 7208 3826 4797 8252 5003 8166 7995 7455 8182 8250 8036 7979 7091 7758 7338 8090 3842 6246 6285 6145 8233 7851 7398 6413 6591 8294 5706 8089 8055 8369 7275 6897 8056 4941 6538 7127 6654 8180 8269 5696 6198 8357 8151 6207 3517 4861 8046 8259 6995 8113 6845 5284 5829 5024 4440 5267 3817 3812 5223 7112 5164 8378 6898 5433 4418 5698 6041 3545 5446 6495 6762 5068 3278 3241 4382 3140 8330 5601 8288 6328 8232 6900 7244 6912 5873 4809 5102 2774 8339 8125 8417 6982 8109 4998 5416 8295 7426 3124 2972 6470 8135 6965 7478 4909

Tree=0
num_leaves=84
num_cat=0
split_feature=15 15 15 6 15 15 6 6 15 15 16 15 15 15 15 15 3 3 15 16 3 15 6 3 11 11 3 15 19 5 21 15 21 3 3 5 21 15 15 11 19 19 15 15 16 21 19 19 12 11 3 11 11 3 15 15 3 15 15 5 6 21 15 19 19 6 12 3 21 19 11 11 3 5 12 21 5 16 21 3 21 19 19
split_gain=2.51598e+07 8.18595e+06 3.9023e+06 845649 721614 713115 592729 144817 139047 127706 84387.2 76316.4 74312.9 45003.6 40580.6 37498.1 27465.1 19369.5 17993.8 10777.4 11058.1 10679.4 7860.47 7573.85 7073.28 5349.37 4837.43 4589.07 4049.06 3828.38 3113.49 3080.27 3054.62 2927.85 2831.21 2710.5 2134.61 1985.93 1573.56 1429.72 1370.66 1257.79 1120.66 1070.49 982.822 754.456 732.824 727.895 720.291 702.792 578.728 537.734 494.124 492.374 481.044 388.073 368.038 363.847 320.778 319.203 312.277 304.944 291.259 275.669 255.666 234.849 230.254 224.509 218.34 196.474 193.338 185.845 162.47 151.173 146.407 124.716 108.676 79.2399 69.7037 60.9772 51.3116 47.049 42.3271
threshold=0.57897706107320335 -0.53656129364000249 1.7718833807492569 0.93030657512691695 -0.71069544809452834 -0.08800786827365624 1.6684106379903489 0.86428504332123823 -0.38093250523936995 1.0103497089061595 2.2814982965327162 1.2678285678700252 -0.62541669425997448 -0.81478661267743091 0.24697268049162799 0.27787716435045479 -0.044912428443793916 0.22873740505824339 -0.45846432666565451 0.40238117835828857 -0.23070526189166754 -0.28705493036591495 -0.21811622126651772 0.359096655138609 0.36602540378443899 -1.1123724356957942 -0.64621942881449657 0.032670079841564316 -0.37951717213143871 0.1151184580918954 -0.061738364659531669 -0.50162329653005633 0.31349920316793645 0.2939645717651222 -0.57452659543696494 0.60490778786819321 0.58536950894570161 -0.45846432666565451 -0.16492516494914963 -1.2953851375880134 0.13376021238746158 -0.13277296236089758 -0.27097959393080534 -0.20011121521878447 0.66846958266278655 -0.10432783761206661 0.85288428399927196 -0.15250595268303077 -1.2953851375880134 0.53656609248549347 -0.4001437619961255 -1.1123724356957942 -1.1123724356957942 0.085351738303180033 0.057821073143307714 0.82199409201443163 0.48945590521897486 0.3738635405164567 -0.33934247647917787 0.46062341192198814 -0.41420040188642576 0.2270956973640206 -0.21111683130033668 0.055725423675507701 0.36991357230697758 -0.1455733035037117 -1.2953851375880134 -0.25675809524106225 0.07062215381874655 -0.10803983453867115 1.2953851375880145 0.85355339059327406 0.54165665525115647 0.29475404916589287 -1.2953851375880134 -0.23674238079176521 0.63599010639101683 -0.23051038076595973 0.094753187119548762 -0.30895884527324374 -0.28763364952912757 -0.39560976821152966 -0.092484933020051105
decision_type=2 2 2 2 2 2 2 2 2 2 2 2 2 2 2 2 2 2 2 2 2 2 2 2 2 2 2 2 2 2 2 2 2 2 2 2 2 2 2 2 2 2 2 2 2 2 2 2 2 2 2 2 2 2 2 2 2 2 2 2 2 2 2 2 2 2 2 2 2 2 2 2 2 2 2 2 2 2 2 2 2 2 2
left_child=1 4 3 11 13 8 10 14 16 -5 -4 22 -6 -1 23 39 18 21 31 20 -14 26 -2 27 34 55 -10 40 44 -22 38 65 64 37 -16 43 -26 49 50 -9 48 58 -37 56 67 71 57 66 78 -18 63 -34 81 -31 73 -24 61 -36 70 -27 -40 -19 77 -23 -29 -3 -32 -20 -42 -52 -28 -39 80 -25 -53 -60 -68 -49 -7 -70 -54 -35 -62
right_child=2 5 6 9 12 7 -8 15 17 -11 -12 -13 19 -15 24 -17 33 35 28 -21 29 30 25 54 36 59 41 32 -30 53 47 -33 51 52 46 42 -38 45 60 -41 68 -43 -44 -45 -46 -47 -48 62 -50 -51 69 74 72 -55 -56 -57 -58 -59 75 -61 82 -63 -64 -65 -66 -67 76 -69 79 -71 -72 -73 -74 -75 -76 -77 -78 -79 -80 -81 -82 -83 -84
leaf_value=148.18333263619161 163.63569149636731 155.68556493361578 173.74516217766882 170.4728840793658 152.54754183064105 160.20994900768707 188.48051114769677 161.38877092651302 157.36111467747284 175.9071410715099 181.31904528024694 169.19683453379653 154.18311111034822 150.13532182994493 160.51576465768014 166.4493935742432 157.62531038492747 159.90744930019113 158.13479255083189 158.17483628979724 155.30755219092251 159.63633024286921 161.70259592661375 160.34360153166054 163.56412250507509 162.49637709047505 158.86624356667429 161.70361322194691 157.24874656741221 156.92789181050725 159.31385110443924 156.97154643056197 159.87133023404894 159.34686634526153 161.95622679111506 160.27706396954565 161.80026161202855 159.15342054022807 160.01917737603526 163.4564151584467 160.31019056792374 158.40559974765927 161.42577759703278 160.72183675597054 159.5082469546513 158.45209004154017 161.50167207866423 158.76954372450572 160.89840277437412 158.82012227191899 160.03770001311599 160.09087383934656 159.60535480050686 158.50156508023079 162.45867552066861 164.09626070036592 160.28927447273134 163.05177196243693 159.50466588718297 166.14050835402657 160.60146306849256 159.30131711593481 159.33511869640216 159.12781805351179 160.92910412498782 157.979877664611 159.63740555976926 158.79459120462349 159.64602801374281 159.61431721401968 159.34003151616491 159.65776138149633 159.84677720382939 161.57968786199336 160.87660775409253 159.21234285059393 160.02084030156453 159.29496395502184 159.72655802117626 159.96015553450766 159.31930207393719 158.84636147414869 160.01128055453972
leaf_weight=281 53 82 62 103 396 11.000000000000002 157 12.999999999999998 18 167 68 75 323 713 13.999999999999998 91 29 28 64 10.999999999999998 54 60 12.000000000000002 6.9999999999999991 118 7.9999999999999991 40 123 67 18.000000000000004 13.999999999999998 93 9.9999999999999982 7.0000000000000027 57 17 23 15.000000000000002 33 66 21 27 46 31 6.9999999999999991 13.999999999999998 38 19.000000000000004 89 12.999999999999998 52 8.9999999999999982 8.9999999999999982 9.9999999999999982 50 14.999999999999998 20 45 26 148 31 7.9999999999999991 37 8.9999999999999982 30 6.9999999999999991 28 21 12.000000000000002 13.999999999999998 15.999999999999998 9.9999999999999982 10.999999999999998 35 45 34 6.9999999999999991 8.9999999999999982 6.9999999999999991 13.999999999999998 12.000000000000002 10.999999999999998 8.9999999999999982
leaf_count=281 53 82 62 103 396 11 157 13 18 167 68 75 323 713 14 91 29 28 64 11 54 60 12 7 118 8 40 123 67 18 14 93 10 7 57 17 23 15 33 66 21 27 46 31 7 14 38 19 89 13 52 9 9 10 50 15 20 45 26 148 31 8 37 9 30 7 28 21 12 14 16 10 11 35 45 34 7 9 7 14 12 11 9
internal_value=159.587 156.159 174.703 169.959 151.338 160.448 184.075 162.457 158.757 173.994 178.157 166.338 153.563 149.547 161.855 165.042 157.484 159.713 157.02 154.578 154.492 159.408 165.306 161.258 162.762 165.707 158.761 161.034 157.848 155.876 159.736 156.341 161.333 158.726 162.168 160.678 163.335 158.37 159.961 163.205 160.583 158.984 161.167 160.277 158.351 158.958 162.307 159.327 160.78 157.911 159.753 160.663 159.341 157.314 162.079 163.387 159.979 162.536 159.148 166.02 160.319 159.761 159.119 159.552 161.584 155.801 159.614 158.262 160.085 159.954 158.981 159.341 159.585 161.446 160.784 159.329 159.747 158.89 160.076 159.84 159.429 158.974 160.513
internal_weight=4707 3839 868 581 1806 2033 287 928 1105 270 130 311 812 994 758 170 472 633 341 416 405 483 236 463 295 183 161 371 159 82 322 182 217 131 154 150 141 81 208 79 154 143 63 87 92 39 140 114 107 42 135 64 50 28 92 27 56 102 116 156 73 36 65 69 153 89 49 85 47 66 56 25 32 42 54 60 35 28 18 26 21 18 40
internal_count=4707 3839 868 581 1806 2033 287 928 1105 270 130 311 812 994 758 170 472 633 341 416 405 483 236 463 295 183 161 371 159 82 322 182 217 131 154 150 141 81 208 79 154 143 63 87 92 39 140 114 107 42 135 64 50 28 92 27 56 102 116 156 73 36 65 69 153 89 49 85 47 66 56 25 32 42 54 60 35 28 18 26 21 18 40
is_linear=0
shrinkage=1


Tree=1
num_leaves=35
num_cat=0
split_feature=0 0 0 0 0 0 0 0 0 0 0 0 0 0 1 0 0 1 0 0 0 0 0 0 0 0 1 0 0 0 0 11 11 0
split_gain=2.21528e+07 7.28893e+06 3.12012e+06 622959 613394 309010 206528 117983 113539 59563.4 52032.8 22998.6 21051.8 20200.8 6781.41 6628.56 3982.09 3558.82 3303.76 2626.71 1771.6 1655.5 427.982 345.799 241.113 88.216 60.4918 53.4353 33.61 21.6217 1.18059 1.02208 0.555452 0.466794
threshold=0.77147229219105617 -0.51512858564972497 1.936971897890243 -0.69446396060479565 -0.0058534786882589607 1.3032092664207406 2.8051825266241961 0.48800412919222164 -0.42958173750707296 -0.60515216450010545 -0.79972452945117578 -0.22686958826310002 0.98275823344984903 0.21448131105387594 0.5227716941087257 -0.47325225369510032 -0.56035386750946181 0.18326825168635161 -0.31544389316902099 -0.14243929352376963 0.57902159638036521 0.077998914313704606 -0.37380637785647269 -0.079402086378987505 -0.26439097242275317 -0.19225607760769775 0.38243981958400292 -0.44674963396421213 -0.28698305460972962 -0.2463409804465421 -0.27891809291355463 -0.85355339059327362 -1.1123724356957942 -0.29838192378726774
decision_type=2 2 2 2 2 2 2 2 2 2 2 2 2 2 2 2 2 2 2 2 2 2 2 2 2 2 2 2 2 2 2 2 2 2
left_child=1 3 5 10 8 12 -4 13 15 17 -1 18 -2 21 16 -3 -11 -5 22 25 -9 -6 26 -21 28 -13 -10 -17 33 31 -30 32 -26 -20
right_child=2 4 6 9 7 -7 -8 20 11 14 -12 19 -14 -15 -16 27 -18 -19 24 23 -22 -23 -24 -25 29 -27 -28 -29 30 -31 -32 -33 -34 -35
leaf_value=-10.067942338331365 7.2092268041066747 -2.5802743548758631 20.298190607449516 -6.1043430703846289 1.4334335387855304 14.044608885046243 28.178222949243349 4.0853327451932735 -0.67559503201123372 -4.6436924915539937 -8.2903389479236616 0.25016644564000884 9.7078635992976796 2.866685757905262 -0.91084997460794836 -1.7105711356105093 -3.5411310470935708 -2.1607122568071868 -0.20452538646448121 0.71513644493565798 5.3944804919256972 1.9784404482983051 -0.39195474743434222 1.0215692862902939 0.019524482307836738 0.42634164814248893 -0.21837764312359265 -1.2188380901245772 -0.091420995322761045 0.11868263786385207 -0.047964027436339596 0.038519274046286633 -0.010546298945456936 -0.1147737227659663
leaf_weight=375 130 152 126 429 151 195 126 95 142 223 693 71 158 340 7.9999999999999991 76 126 6.9999999999999991 36 124 132 208 132 122 12.000000000000002 88 6.9999999999999991 57 18 54 35 34 6.9999999999999991 18
leaf_count=375 130 152 126 429 151 195 126 95 142 223 693 71 158 340 8 76 126 7 36 124 132 208 132 122 12 88 7 57 18 54 35 34 7 18
internal_value=0.0180547 -2.89311 15.6914 -7.38278 1.07034 10.9264 24.559 2.9655 -0.414822 -5.25073 -8.94429 0.129883 8.67671 2.31194 -4.21709 -2.11631 -4.28341 -6.05813 -0.319857 0.677665 4.91457 1.76471 -0.539938 0.878893 -0.0269706 0.354517 -0.659436 -1.53526 -0.129587 0.0764702 -0.0673209 0.0289227 0.00851982 -0.183133
internal_weight=4707 3972 735 1861 2111 483 252 926 1185 793 1068 900 288 699 357 285 349 436 495 405 227 359 281 246 214 159 149 133 107 107 53 53 19 54
internal_count=4707 3972 735 1861 2111 483 252 926 1185 793 1068 900 288 699 357 285 349 436 495 405 227 359 281 246 214 159 149 133 107 107 53 53 19 54
is_linear=0
shrinkage=0.0985333


Tree=2
num_leaves=84
num_cat=0
split_feature=1 15 1 15 15 1 1 5 1 15 15 5 15 1 5 1 5 1 4 5 5 5 5 15 3 1 1 1 1 15 1 1 1 5 1 1 15 5 5 3 4 5 1 1 5 1 1 5 3 5 5 5 5 5 5 5 5 15 15 1 1 5 11 5 1 1 5 1 1 1 3 5 16 2 1 5 1 1 5 21 1 5 1
split_gain=1.74226e+07 5.79892e+06 2.81825e+06 515904 503333 298968 168136 135368 120040 93924.8 59323.3 55702.5 30500.6 29070.1 17470.2 15517.4 12599.5 12417.3 10185.2 7321.12 5630.17 5048.97 4866.12 4803.84 4778.71 4086.76 4082.53 3901.65 2872.23 2620.79 2542.38 2461.03 2260.98 2024.03 1893.43 1790.43 1528.72 1467.82 1337.06 764.702 602.15 602.027 564.863 479.44 446.451 467.209 438.642 418.806 382.675 376.863 336.248 320.296 313.767 279.037 260.261 254.48 240.096 209.169 201.819 197.69 183.207 155.355 147.385 112.36 111.529 101.402 92.3565 91.3733 53.409 46.5855 29.6581 29.3901 27.952 21.3852 20.8256 19.2102 18.9109 18.377 16.4553 16.0025 15.6122 12.2842 10.4638
threshold=0.76723409662307607 -0.52220883310442756 1.9276301210425939 -0.71466818253579401 -0.039857944185338195 1.2406839626826633 2.7147598039582865 0.30454066773125538 0.33416386847399071 -0.33934247647917787 -0.62541669425997448 0.39055200216931679 -0.82035814488237457 -0.55107703148626208 0.92156594813166415 0.043929868665621853 0.035672109619479177 -0.27489709436473964 -0.48385193156599565 0.40230089534118124 0.52045684052567931 0.88624843770405948 0.72621549665636809 -0.45280011966468664 0.085351738303180033 0.5227716941087257 0.38243981958400292 -0.17735262903698876 -0.017171036427321432 -0.57005726909070842 0.44697185250942323 -0.44354910088012306 -0.61961413658888875 0.33828892637024277 -0.37894439895849269 -0.38687383147324717 -0.16492516494914963 0.65440198842448594 0.63599010639101683 -0.35459884530138064 -0.66285614055967956 0.035672109619479177 -0.072518601446747835 -0.15180053494727844 0.74275295742479674 -0.5040430302664235 -0.18647288123909694 0.20259593992324984 0.085351738303180033 0.75226463244354302 -0.013165995913186361 -0.20042304728664309 0.46062341192198814 0.080866119643214204 -0.23032519954317157 0.33828892637024277 0.53959988411663196 -0.29845415941473241 -0.40313633920689546 -0.35467675576279123 0.94956148764696557 0.27312397255149495 0.36602540378443899 0.20259593992324984 -0.35467675576279123 -0.25911898026525804 0.78803661178446205 -0.48726048913218517 -0.25911898026525804 -0.17735262903698876 -0.058033928451883245 0.50751922189937626 -0.36231639282633271 -0.31461816437993068 0.14321388473736787 0.36022061414946166 -0.2505123852860906 -0.44354910088012306 0.59753167845468769 -0.47974548777760068 -0.37135996826907403 0.52915553799880588 -0.36261252091734436
decision_type=2 2 2 2 2 2 2 2 2 2 2 2 2 2 2 2 2 2 2 2 2 2 2 2 2 2 2 2 2 2 2 2 2 2 2 2 2 2 2 2 2 2 2 2 2 2 2 2 2 2 2 2 2 2 2 2 2 2 2 2 2 2 2 2 2 2 2 2 2 2 2 2 2 2 2 2 2 2 2 2 2 2 2
left_child=1 3 5 12 9 7 -4 40 15 13 -5 -7 -1 20 25 27 23 31 26 36 -3 -9 50 48 39 47 29 56 46 -12 -16 44 -22 -27 49 -25 41 63 53 -20 60 57 69 -43 45 -11 71 -10 -15 61 -17 58 -26 -33 73 68 76 70 -37 -58 -2 67 -59 -29 81 78 80 -18 -36 -38 -19 -21 -53 -44 -52 -66 -6 -63 -57 -46 -40 -55 -68
right_child=2 4 6 10 8 11 -8 21 14 17 18 -13 -14 16 30 22 34 19 24 28 32 -23 -24 35 52 33 -28 37 -30 -31 -32 38 -34 -35 55 51 42 -39 66 -41 -42 43 54 -45 79 -47 -48 -49 -50 -51 74 72 -54 64 -56 65 59 62 -60 -61 -62 77 -64 -65 75 -67 82 -69 -70 -71 -72 -73 -74 -75 -76 -77 -78 -79 -80 -81 -82 -83 -84
leaf_value=-9.4345521098410945 -0.058762167868485683 -3.133479315065328 18.322987726789094 -5.7402808085096151 -0.0040385174090264995 2.5798221223271427 25.434461491301374 6.3836693575855596 1.0401860380070473 -1.168494532128961 -4.6312290921641548 12.279590924351604 -7.7518960764842522 -2.0008895267996607 3.5274065787196336 0.55604080469988393 -1.0398370283038751 -0.25702730240776689 -3.9543281536114865 0.23129030751167681 -2.1374323886226607 8.4143379908400515 2.47977316384276 -1.5410421559683851 -1.3925608744458386 2.1872392495764874 -1.6339814051518107 0.39105691873202103 1.9543436424439244 -3.5662069441371118 5.3211802702736737 -0.54428290548934588 -0.71191578053438476 4.0824898959599887 -0.18441746767720907 -0.93141521533167781 0.041740307988821293 1.5678153705726983 0.017252646230587362 -2.4772498282253261 1.1601505568209991 0.11851870209000352 0.48279261902126952 0.69504226901571731 -0.088816469439029183 -0.46890024960853482 1.1068429954663013 2.7443745633928813 -0.91479861145039076 -0.0042355475904381325 1.366881098185954 -0.31098400626369682 -0.34570514520561879 -0.28860068949682771 0.98688432733308407 0.070292097785790819 0.067232521768502959 0.00011561199727402547 -0.48829569561221825 0.62663842991045038 0.45715913459121349 -0.46322359942951435 0.27053088245730195 0.97483573934987977 -0.077089657636768977 0.58457907262099984 0.24643481614431484 -0.46887756509882955 0.11657797163636632 0.33113311107017934 -0.037831531028114818 0.64601911656356237 -0.041007582013490751 0.14651251610104221 1.8659429812374519 0.057203284438522746 0.18578097654622708 -0.20673226877476775 0.27245919199411206 -0.32936312619456082 0.19235608427623724 -0.084052947274765852 0.48473642458089533
leaf_weight=243 12.000000000000005 90 126 414 8.0000000000000018 7.9999999999999991 126 96 6.9999999999999991 25 240 223 733 95 43 6.9999999999999991 11.000000000000002 19.000000000000004 27 6.9999999999999991 38 148 195 36 11.000000000000002 20 10.999999999999998 9.9999999999999982 38 111 101 21 21 93 10.000000000000002 41 9.0000000000000018 116 9.0000000000000018 44 6.9999999999999991 30 8.9999999999999982 26 7.0000000000000027 25 57 103 11.999999999999998 12.999999999999998 67 8.9999999999999982 6.9999999999999991 29 40 10.000000000000002 7.9999999999999991 52 32 46 9.9999999999999982 37 28 66 19 12.999999999999998 15.999999999999998 17 6.9999999999999991 15.999999999999998 9.9999999999999982 40 6.9999999999999991 6.9999999999999991 79 15.999999999999998 9.9999999999999982 11.999999999999998 9.9999999999999982 13.999999999999998 9.9999999999999982 6.9999999999999991 24
leaf_count=243 12 90 126 414 8 8 126 96 7 25 240 223 733 95 43 7 11 19 27 7 38 148 195 36 11 20 11 10 38 111 101 21 21 93 10 41 9 116 9 44 7 30 9 26 7 25 57 103 12 13 67 9 7 29 40 10 8 52 32 46 10 37 28 66 19 13 16 17 7 16 10 40 7 7 79 16 10 12 10 14 10 7 24
internal_value=0.02015 -2.60497 13.6901 -6.64091 0.921425 9.33153 22.1683 6.96658 2.55316 -0.494415 -4.85449 11.9857 -8.20195 -1.46164 3.9591 1.69295 -0.980468 0.33519 -4.00471 0.669382 -2.61456 7.71351 2.12768 -1.42106 -2.82655 3.30131 -4.26555 1.10023 1.22525 -4.33165 4.87871 -0.25017 -1.69611 3.82031 -0.234051 -0.962561 0.33626 1.3309 -0.021169 -3.19311 0.53289 0.158057 0.678395 0.410517 -0.714109 -0.870534 0.905719 2.67017 -1.91082 -0.497562 1.63505 -0.680751 -1.10446 -0.252712 0.847235 0.241739 0.453015 0.0199064 -0.767374 0.552607 0.20539 -0.577169 0.101892 0.917944 -0.145658 0.389266 0.334009 -0.781021 -0.0616919 0.244334 -0.193285 0.603913 -0.220626 0.386884 1.67303 -0.0160637 0.114108 -0.417804 0.196155 -0.272614 0.12455 -0.259458 0.416044
internal_weight=4707 3951 756 1841 2110 504 252 273 979 1131 865 231 976 521 367 612 372 610 451 388 149 244 348 232 89 223 362 264 142 351 144 222 59 113 140 125 246 192 151 71 29 165 81 56 71 50 104 110 107 90 153 89 18 92 56 50 72 109 73 54 22 77 80 76 71 33 59 28 17 25 29 47 16 16 146 35 18 49 20 21 19 36 40
internal_count=4707 3951 756 1841 2110 504 252 273 979 1131 865 231 976 521 367 612 372 610 451 388 149 244 348 232 89 223 362 264 142 351 144 222 59 113 140 125 246 192 151 71 29 165 81 56 71 50 104 110 107 90 153 89 18 92 56 50 72 109 73 54 22 77 80 76 71 33 59 28 17 25 29 47 16 16 146 35 18 49 20 21 19 36 40
is_linear=0
shrinkage=0.0985333


Tree=3
num_leaves=84
num_cat=0
split_feature=1 15 1 15 15 1 1 15 1 15 15 15 18 1 1 1 1 3 3 3 1 1 4 1 15 15 1 4 1 3 3 17 1 3 1 15 1 15 11 16 20 4 1 17 12 16 12 7 17 16 20 1 15 15 3 17 1 3 15 17 16 12 2 17 18 16 1 16 1 15 11 15 3 1 2 2 20 16 4 15 16 3 20
split_gain=1.4238e+07 5.0249e+06 1.95831e+06 476243 457408 208660 144926 95045 93885.7 68905.3 44137.7 41124.8 28555.1 20708.3 15962.8 11875 11349.4 8311.2 6022.63 5984.9 5059.72 4080.37 4290.66 2995.9 2994.36 2638.95 2507.09 1586.9 1558.99 1531.08 1523.75 1478.87 637.179 636.603 591.041 509.411 483.322 455.228 423.814 382.56 369.488 360.669 356.692 351.912 320.018 305.778 288.633 264.252 239.824 228.158 216.438 172.614 161.94 152.52 145.142 133.042 125.954 123.977 123.653 115.771 112.553 95.879 84.6708 77.3426 71.6947 68.5824 67.6286 66.8769 61.1769 60.3963 60.381 59.8731 58.3614 58.3161 50.1885 50.1024 46.7633 46.4912 38.7913 23.3905 21.2001 20.4797 4.26855
threshold=0.8879500232428349 -0.50474875946799846 2.0122424075048948 -0.68905315075421725 1.0000000180025095e-35 1.3623949835115494 0.46252061364063585 0.24697268049162799 2.9015218507709193 -0.32984951379348243 -0.78521949177322325 -0.58817479645069459 -0.044952396594194588 0.16842583398010655 -0.53251939668989856 -0.2113272611028249 0.65009361947861666 0.046272488279087802 -0.058033928451883245 0.38524457182139576 -0.089979536392027035 0.20703906606302205 -0.43393980905826773 -0.40775619983945927 -0.44675493664787064 -0.17582676391200919 -0.59317405590146322 -0.2285422787385078 0.053419485765625226 -0.13295959516474107 -0.45234451202830706 -0.36871579991682807 -0.25911898026525804 0.05929890495378521 -0.24203811120642313 -0.20011121521878447 -0.52582072444715489 -0.39649268254439768 -0.53656609248549336 -0.4988917162924148 0.18401936049959625 -0.32810520374083424 0.33416386847399071 -0.31572150629761703 -1.3901194830787664 -0.1925944093307157 -0.99999999999999989 1.0112411659204616 -0.017271186251251767 -0.42821513782901183 -0.78404189561041282 0.99896710156183011 -0.21111683130033668 -0.44675493664787064 0.2939645717651222 -0.68298613143628029 -0.27489709436473964 0.26791173841572735 -0.24641157310043046 -0.2432188798845222 -0.29611875042620367 1.0000000180025095e-35 0.14438360565996133 0.14434592773730656 -0.51923827342401307 -0.56367436527810477 -0.29617839949309271 -0.45843064094536273 0.016067416489309951 -0.097937693692347241 0.85355339059327406 -0.28705493036591495 -0.48486301204835452 -0.13719470192759123 -0.085249777549991843 -0.18095217363411278 0.68911297440986918 -0.42821513782901183 -0.57087149593810771 0.032670079841564316 -0.15869469087322788 0.072325321628482556 -0.45921362771357105
decision_type=2 2 2 2 2 2 2 2 2 2 2 2 2 2 2 2 2 2 2 2 2 2 2 2 2 2 2 2 2 2 2 2 2 2 2 2 2 2 2 2 2 2 2 2 2 2 2 2 2 2 2 2 2 2 2 2 2 2 2 2 2 2 2 2 2 2 2 2 2 2 2 2 2 2 2 2 2 2 2 2 2 2 2
left_child=1 3 5 10 9 7 13 51 -4 14 -1 21 -7 20 30 23 -8 26 24 25 34 22 -5 36 39 41 50 38 73 -28 -3 54 48 -24 79 49 64 47 57 -16 44 58 -15 82 -27 62 -30 55 65 -25 -13 -2 61 -40 -19 -26 80 -20 78 71 66 -38 -37 -54 -11 -29 -51 -45 -22 -58 -55 -43 -46 -21 -60 -62 -42 -34 -17 -6 -47 -61 -39
right_child=2 4 8 11 6 12 16 -9 -10 15 -12 17 -14 42 18 19 -18 31 27 28 68 -23 33 35 37 40 29 32 46 -31 -32 -33 77 -35 -36 45 52 43 53 -41 76 59 -44 67 72 56 -48 -49 -50 60 -52 -53 63 70 -56 -57 69 -59 74 81 75 -63 -64 -65 -66 -67 -68 -69 -70 -71 -72 -73 -74 -75 -76 -77 -78 -79 -80 -81 -82 -83 -84
leaf_value=-7.9910872631270236 0.11733661408531391 -2.4284910367413426 17.299341738052703 -4.7746915824893819 0.056643001662331854 3.3329792125810793 3.6004080337172879 7.7185085050439444 23.506592457244651 -1.1381051591223472 -6.5023449244196536 -1.8670672732585913 11.963382668682737 2.1692686651951085 -0.53094567487784017 -0.20547583807211361 5.0918180024503101 -0.68743734801013689 -1.0847067435032243 0.48480340549992301 1.2703542173410525 -1.7373359901485115 -3.3572592372135412 0.39600018578222218 -0.43361171872519122 0.15458393554242117 -2.864258774072701 0.098828110699599875 0.68707522798676135 -1.2559832232998742 -1.5337020716332062 -2.0862542204536649 0.50211142199000347 -1.2353982566498156 0.81060976374299409 0.46912565522066962 -0.61544219275910239 -0.11519729811830548 -0.64055653601433316 -1.6825035752660957 0.49231053629461119 0.11867868141066745 2.7271997184909371 -0.29100194955131103 0.51237706245881254 0.0027157651934374043 1.8311701413913701 -0.38533214140596694 -0.528377379380637 -0.045445030891460028 -3.7546511749563538 0.74228227904273503 0.048127732806806503 -0.28810083895236893 -0.089423365536640473 -1.1859668511561616 0.047722674676631924 -0.38945634340245577 0.20143112817721914 -0.011137552819633537 -0.055958327694127862 -0.22278504999718896 0.098082605577822002 -0.26529924754545625 -0.48732933557579089 -0.1441111115964718 0.19513990723488475 -0.87039849700634375 1.6224687031701535 0.36081507905477972 0.017028536769877697 0.48791797798258407 0.98954665381809825 0.97996644451647863 -0.070146943383523119 -0.26844763424241586 0.13817462100461159 0.16952302970098757 -0.010868319509471258 0.29287575545052202 -0.19500198835268603 0.18027995067094926 -0.30904962509362294
leaf_weight=523 8.0000000000000018 70 126 458 7.0000000000000027 6.9999999999999991 152 231 108 11.000000000000002 564 10.999999999999998 188 177 6.9999999999999991 20 156 11.000000000000005 18.000000000000004 13.999999999999998 101 9.9999999999999982 36 7.9999999999999991 7.9999999999999991 6.9999999999999991 124 14.999999999999995 7.9999999999999991 13.999999999999998 66 7.9999999999999991 14.000000000000002 6.9999999999999991 62 53 24 6.9999999999999991 11.999999999999998 71 25 7.9999999999999991 123 7.0000000000000027 14.999999999999998 9.0000000000000018 50 10.999999999999998 10.999999999999998 30 126 11.999999999999998 10.000000000000002 21.000000000000004 6.9999999999999991 41 13.000000000000002 8.9999999999999982 22.000000000000004 9.0000000000000018 22 14.999999999999998 8.9999999999999982 20 11.999999999999998 27.000000000000004 13.999999999999998 24 179 9.9999999999999982 7.9999999999999991 28 77 45 6.9999999999999991 23 7.9999999999999991 11.999999999999998 18 24 8.9999999999999982 8.9999999999999982 26
leaf_count=523 8 70 126 458 7 7 152 231 108 11 564 11 188 177 7 20 156 11 18 14 101 10 36 8 8 7 124 15 8 14 66 8 14 7 62 53 24 7 12 71 25 8 123 7 15 9 50 11 11 30 126 12 10 21 7 41 13 9 22 9 22 15 9 20 12 27 14 24 179 10 8 28 77 45 7 23 8 12 18 24 9 9 26
internal_value=0.0219932 -2.20791 13.1732 -5.88774 1.08006 9.22595 2.63824 7.16179 20.4581 -0.256439 -7.24119 -4.05342 11.7156 1.81269 -1.14464 0.396793 4.40286 -3.06806 -0.778736 0.764935 1.30217 -4.60987 -4.65518 -0.0731029 -1.12422 0.484472 -3.23048 -0.289397 1.34078 -2.73503 -2.04197 -1.17613 0.0142538 -3.12703 0.639185 0.141467 -0.528046 -0.786907 -0.626141 -1.6055 0.783764 0.145545 2.42585 -0.55102 0.884565 0.290399 1.71989 -0.995719 -0.180198 -0.0211288 -3.65169 0.545407 -0.366181 -0.375882 -0.505781 -1.09904 0.0727577 -0.922068 -0.00926833 0.326863 -0.0717406 -0.494233 0.423121 -0.166524 -0.904508 -0.0564455 0.0395608 -0.781038 1.51212 0.212641 -0.210931 0.423095 0.932661 0.895104 0.135394 -0.175733 0.427275 0.385772 -0.121713 0.250349 -0.111334 0.0979332 -0.282455
internal_weight=4707 4027 680 1899 2128 446 981 251 234 1147 1087 812 195 673 485 662 308 301 349 370 373 511 501 292 202 253 275 147 117 138 136 26 79 43 93 200 92 124 68 78 132 121 300 64 99 103 58 60 53 97 137 20 69 41 18 49 41 27 67 54 89 39 62 30 23 42 44 31 280 23 29 36 92 59 29 45 33 26 38 31 18 18 33
internal_count=4707 4027 680 1899 2128 446 981 251 234 1147 1087 812 195 673 485 662 308 301 349 370 373 511 501 292 202 253 275 147 117 138 136 26 79 43 93 200 92 124 68 78 132 121 300 64 99 103 58 60 53 97 137 20 69 41 18 49 41 27 67 54 89 39 62 30 23 42 44 31 280 23 29 36 92 59 29 45 33 26 38 31 18 18 33
is_linear=0
shrinkage=0.0985333


Tree=4
num_leaves=44
num_cat=0
split_feature=0 0 0 0 0 0 0 0 0 0 0 0 0 0 0 0 0 1 0 0 1 0 1 0 0 0 0 0 0 0 1 0 0 0 0 19 0 19 20 7 18 15 15
split_gain=1.2101e+07 4.0188e+06 1.66335e+06 352107 340243 163966 126696 63942.9 62294.7 46420.4 27655.6 17470.6 6978.17 3663.65 3378.67 3136.98 2576.27 2446.36 2304.18 2012.94 1885.66 862.149 514.078 423.622 276.971 195.403 165.66 140.035 32.3787 24.3721 23.194 43.008 17.1215 13.0882 5.48849 4.26333 3.05293 1.31323 1.29389 0.817357 0.813151 0.416662 0.223839
threshold=0.79304804269821016 -0.50893149658722114 1.8465897869368773 -0.71061019809571258 0.05048844073511468 2.6299371328407433 1.2678513562790446 0.48800412919222164 -0.42958173750707296 -0.60515216450010545 -0.82314385329209883 -0.20004208425752054 0.26974498770988814 -0.56035386750946181 0.95302549094189393 -0.45883684582728063 0.63389233697412484 0.091174576747655431 -0.29838192378726774 -0.087942276391632782 0.38243981958400292 -0.75616806301822825 -0.017171036427321432 0.1126289109156222 -0.35572425031391303 -0.15134680279782783 -0.2463409804465421 -0.051652824347848368 -0.47784629926892785 -0.26439097242275317 0.40244914364609935 -0.40837350102234005 -0.65134301415571094 -0.22686958826310002 -0.32343854614124579 0.48542479597172067 -0.27891809291355463 0.19250156324646336 0.059467995900077147 -1.0112411659204612 0.29393189871885156 -0.17582676391200919 -0.32351157282601645
decision_type=2 2 2 2 2 2 2 2 2 2 2 2 2 2 2 2 2 2 2 2 2 2 2 2 2 2 2 2 2 2 2 2 2 2 2 2 2 2 2 2 2 2 2
left_child=1 3 6 10 8 -4 14 12 15 17 -1 18 23 20 -2 28 -9 32 24 25 -11 -12 -15 -6 30 -13 29 -21 -3 36 31 -10 -5 37 -26 -35 39 -28 40 -20 -31 -40 -38
right_child=2 4 5 9 7 -7 -8 16 11 13 21 19 -14 22 -16 -17 -18 -19 26 27 -22 -23 -24 -25 34 -27 33 -29 -30 38 -32 -33 -34 35 -36 -37 42 -39 41 -41 -42 -43 -44
leaf_value=-7.8556018778446388 5.2333687631607049 -1.9070928743760809 14.352244788903802 -4.9465761946767026 1.2150794718727103 20.564654874095766 9.9634719651630448 3.1730048085522453 -0.55508241293141447 -3.4314677315915594 -6.5278964869253473 0.27808828786659867 2.2074839734581229 -2.5745149299269299 6.8989988696387838 -0.98784886217483159 4.2360443133701571 -1.9315561982292553 -0.031185170348320111 0.64566541514660936 -1.0503363467750357 -5.5324663775532823 -0.93665182006866965 1.5993877840769362 -0.26621967316110201 0.49371817218788178 0.098769626969868754 0.91369963804036447 -1.3903919028706355 0.040680529829653998 -0.16219340554682399 -0.38792678490315635 -4.1926833130246814 0.18650543878484907 -0.18170664100404529 0.064651946064322438 -0.014245821725296672 0.030642666874806847 0.013443027662627565 -0.093460728172480093 0.0020967936242469063 -0.010750966634832385 -0.042601306574667847
leaf_weight=224 93 114 126 263 114 144 194 133 51 220 583 87 264 142 159 95 113 9.9999999999999982 6.9999999999999991 72 6.9999999999999991 187 6.9999999999999991 227 76 124 47 162 57 25 7.9999999999999991 128 237 46 54 7.9999999999999991 7.9999999999999991 6.9999999999999991 11.000000000000002 29 6.9999999999999991 9.9999999999999982 27
leaf_count=224 93 114 126 263 114 144 194 133 51 220 583 87 264 142 159 95 113 10 7 72 7 187 7 227 76 124 47 162 57 25 8 128 237 46 54 8 8 7 11 29 7 10 27
internal_value=0.0224666 -2.09622 11.7865 -5.40521 0.854608 17.8788 7.99154 2.37254 -0.174204 -3.94969 -6.68481 0.18539 1.81027 -3.06138 6.36169 -1.50342 3.7121 -4.58013 -0.186279 0.641869 -3.37453 -6.31138 -2.52005 1.48409 -0.357563 0.410595 0.0495325 0.841595 -1.76514 -0.0281101 -0.435954 -0.444956 -4.61978 0.136827 -0.236609 0.173327 -0.0646234 0.0922658 0.0217431 -0.0850708 0.0332509 0.00202298 -0.0379489
internal_weight=4707 3991 716 1880 2111 270 446 851 1260 886 994 994 605 376 252 266 246 510 549 445 227 770 149 341 317 211 232 234 171 124 187 179 500 108 130 54 71 54 53 36 32 21 35
internal_count=4707 3991 716 1880 2111 270 446 851 1260 886 994 994 605 376 252 266 246 510 549 445 227 770 149 341 317 211 232 234 171 124 187 179 500 108 130 54 71 54 53 36 32 21 35
is_linear=0
shrinkage=0.0985333


Tree=5
num_leaves=84
num_cat=0
split_feature=1 15 1 15 15 1 1 15 1 5 15 15 5 5 3 1 1 15 5 1 15 5 1 3 5 1 5 1 5 1 1 5 1 4 5 17 1 15 1 5 15 5 5 5 5 1 5 5 5 5 5 3 1 1 1 20 1 4 1 21 4 16 1 5 5 1 1 1 2 1 1 1 17 4 5 20 21 5 1 1 5 1 5
split_gain=9.50249e+06 3.48869e+06 1.14653e+06 347066 328438 121936 107558 62188.5 50052 43370.9 36818.9 26064.5 20390.9 16355.9 12896.5 12283.8 10727 7219.8 5911.25 5640.26 5006.14 4398.09 3321.79 3127.87 2891.05 2684.96 2598.18 2688.84 2587.13 2315.16 2176.45 2096.83 2078.17 1773.12 2315.67 1743.93 1623.58 1600.08 1422.47 1239.4 654.928 653.438 595.137 551.732 483.891 409.271 394.894 370.923 346.616 343.692 336.087 308.322 288.44 210.403 202.083 149.438 143.998 136.627 134.315 125.039 108.152 104.079 100.564 99.1909 99.1408 92.9986 86.4269 68.1543 67.2231 62.7041 59.1425 56.5785 45.1547 40.3472 38.6793 34.2238 33.8852 33.405 29.5109 29.4262 27.1406 23.4648 13.6009
threshold=0.99896710156183011 -0.50162329653005633 2.1214387541558071 0.11256965122398119 -0.67837631309045576 1.4151750246784707 0.5227716941087257 -0.28705493036591495 3.1908785356523448 0.23674275508897924 -0.7685812553408008 -0.58635983005660652 0.77911930302323251 0.75945391587281397 0.38524457182139576 -0.52582072444715489 0.20703906606302205 -0.83341006491288194 -0.026997400881820888 -0.45409883901829889 -0.08800786827365624 0.75945391587281397 -0.39568518180590956 0.11149965498596669 0.72621549665636809 0.10204450409936285 0.33158504117270765 -0.62477583415305349 -0.46697379876457584 0.32123876496535236 0.58463330755750198 0.36022061414946166 -0.089979536392027035 -0.47156989094891072 0.39055200216931679 0.13551275559243628 -0.15860338302374949 -0.42945915483675839 -0.32818472397479392 0.76857553313857596 -0.22693956618979863 0.39055200216931679 0.53959988411663196 -0.27845937049857888 0.33158504117270765 0.44697185250942323 -0.23032519954317157 0.24466744509570937 0.75226463244354302 0.38043213045379826 0.40230089534118124 0.046272488279087802 -0.44354910088012306 -0.34728033997628832 -0.48726048913218517 -0.29312265767522505 -0.24203811120642313 -0.52122069344350919 0.46252061364063585 -0.18181726768173087 -0.75954454541758187 -0.556609151658782 -0.15180053494727844 0.74275295742479674 0.34988610814011351 -0.41710653795425784 -0.072518601446747835 -0.31295092372024197 0.081900539687448051 -0.2866111684651847 -0.2866111684651847 -0.5762183542045779 1.3183762416907927 -0.58968653688342909 0.75226463244354302 -0.11323230033260896 -0.40801869252603812 0.33158504117270765 -0.25911898026525804 -0.31990959578065153 0.58031298108786711 -0.23041608515268333 0.64541433275597926
decision_type=2 2 2 2 2 2 2 2 2 2 2 2 2 2 2 2 2 2 2 2 2 2 2 2 2 2 2 2 2 2 2 2 2 2 2 2 2 2 2 2 2 2 2 2 2 2 2 2 2 2 2 2 2 2 2 2 2 2 2 2 2 2 2 2 2 2 2 2 2 2 2 2 2 2 2 2 2 2 2 2 2 2 2
left_child=1 4 5 7 10 9 16 15 -4 60 17 23 -7 31 20 26 32 -1 22 33 35 -11 46 29 -18 41 -3 -28 45 49 -15 -8 56 -13 -35 40 48 43 50 -34 53 68 -27 73 66 -21 -17 81 69 -6 54 59 72 76 -20 -55 -5 58 -39 -42 -2 -30 -59 71 70 74 -38 -50 -16 -22 -54 -29 -37 -24 -52 -53 -9 -71 -49 -66 -58 -40 -67
right_child=2 3 8 6 11 12 13 14 -10 21 -12 19 -14 30 25 18 24 -19 38 28 36 -23 37 -25 -26 42 27 63 61 -31 -32 -33 39 34 -36 52 44 57 47 -41 51 -43 -44 -45 -46 -47 -48 78 67 -51 65 75 64 55 -56 -57 80 62 -60 -61 -62 -63 -64 -65 79 82 -68 -69 -70 77 -72 -73 -74 -75 -76 -77 -78 -79 -80 -81 -82 -83 -84
leaf_value=-7.2521972552540657 0.37461629394033918 -2.0876012340887447 14.679743938043988 0.19998103863236025 -3.7817517582291611 5.7279998394483265 1.581537804525222 -0.037235594637977897 19.869763664692794 4.832916394604112 -4.9875844655478234 -2.8892005619130945 10.456387197992903 3.2267149868243257 0.39940123757544566 -1.8001280930504047 1.5658143891119012 -5.9995621968468855 -0.74914477354907272 -1.9748189512248588 -0.032539251922437798 7.1065358213192997 -1.1639262368065262 -1.202576517571639 2.4017998148073194 1.1316178265781975 -1.7117659835340358 -0.76173122381723224 -0.046157260780495334 -1.2526080351326472 4.8585520137638749 3.1290241053233334 0.95673054026604032 -2.261894613660961 -0.58238165086094351 -0.32883211682599578 0.18178751405836435 -0.4980587316009164 -0.091610378606123283 1.5464783373572206 0.33982890309945019 1.0062540134478559 1.9506480281619305 -0.12586868081075173 1.0084430988249091 -0.65766401826749121 -0.92628016678799874 0.21439361059563344 0.22460203661818703 -2.2801909619337821 -0.24758018243921767 0.71652725637753667 -0.31038815002588788 0.36571560296568217 -0.31271264525557413 0.051944867133770507 0.26975498375507273 -0.2833390779032241 -0.058845707835734673 0.08976598057133181 1.1915689377821423 -0.5398507161848225 0.019742640066335995 -0.18578305528721767 -0.027352810004878537 -0.014891189394325429 0.61654072056536302 0.6049547624005569 0.020531722870559925 0.03341880236551905 -0.064285022728974697 -0.35157793822178884 -0.71037025386593955 -0.65435381588305741 -0.023870097666221043 0.28537218933143832 -0.29430315330257262 0.27952858929354002 0.51240108581407395 0.19686215620207598 0.73133680828052916 0.078721410463098593 0.13165068839422686
leaf_weight=168 7 58 126 11.999999999999998 455 24 22 9.0000000000000018 90 45 413 173 171 40 12.000000000000002 31 91 544 13.999999999999998 47 17 153 44 8.9999999999999982 178 33 40 23.999999999999996 7.0000000000000027 7.9999999999999991 159 87 78 45 12.999999999999998 26 8.9999999999999982 45 16.000000000000004 142 94 63 57 7.9999999999999991 110 6.9999999999999991 22 11.999999999999998 11.999999999999998 20 27 24 17 15.999999999999998 56 68 6.9999999999999991 26 8.9999999999999982 28 7.9999999999999982 9.9999999999999982 15.999999999999998 8.9999999999999982 11.000000000000002 11.000000000000002 38 29 6.9999999999999991 9.0000000000000018 22 15.000000000000002 6.9999999999999991 19 10.999999999999998 8.9999999999999982 11.999999999999998 14.999999999999998 27 6.9999999999999991 28 9.9999999999999982 8.9999999999999982
leaf_count=168 7 58 126 12 455 24 22 9 90 45 413 173 171 40 12 31 91 544 14 47 17 153 44 9 178 33 40 24 7 8 159 87 78 45 13 26 9 45 16 142 94 63 57 8 110 7 22 12 12 20 27 24 17 16 56 68 7 26 9 28 8 10 16 9 11 11 38 29 7 9 22 15 7 19 11 9 12 15 27 7 28 10 9
internal_value=0.0221758 -1.7113 11.3129 1.00081 -4.76605 8.12581 2.55703 0.0017859 17.115 6.29717 -5.85233 -3.20865 9.98193 4.02031 0.580413 -0.784688 1.69626 -6.32799 -0.502624 -2.43168 0.357132 6.67958 -0.847822 -3.66573 2.14193 1.3234 -1.55316 -1.13673 -1.53294 -3.70296 4.58991 2.87364 1.22609 -2.68182 -1.93825 0.117513 0.701507 -0.610341 -0.101314 1.35502 0.246293 0.856771 1.70216 -0.957563 0.886022 -1.85287 -1.51467 0.265311 0.327139 -3.73508 -0.289527 0.372906 -0.249967 0.0535881 -0.430484 0.123546 0.572155 -0.329708 -0.432637 0.286405 0.949318 -0.377938 -0.175005 -0.576454 -0.10446 -0.105069 0.551072 0.519217 0.284003 0.110145 -0.187761 -0.6446 -0.468242 -1.05139 -0.190064 0.636378 -0.204571 0.20276 0.445119 0.077171 0.670907 -0.0245738 0.0605447
internal_weight=4707 4083 624 2164 1919 408 844 1320 216 213 1125 794 195 308 761 559 536 712 413 302 589 198 220 492 269 172 146 88 71 483 199 109 267 231 58 350 239 167 193 220 260 82 90 71 157 54 53 65 82 475 128 155 90 105 70 84 47 96 54 122 15 17 42 48 57 58 47 41 19 41 39 39 33 63 38 33 21 24 39 18 35 26 20
internal_count=4707 4083 624 2164 1919 408 844 1320 216 213 1125 794 195 308 761 559 536 712 413 302 589 198 220 492 269 172 146 88 71 483 199 109 267 231 58 350 239 167 193 220 260 82 90 71 157 54 53 65 82 475 128 155 90 105 70 84 47 96 54 122 15 17 42 48 57 58 47 41 19 41 39 39 33 63 38 33 21 24 39 18 35 26 20
is_linear=0
shrinkage=0.0985333


Tree=6
num_leaves=43
num_cat=0
split_feature=0 0 0 0 0 0 0 0 0 0 0 0 0 0 0 1 0 0 0 0 0 1 3 0 0 0 0 0 0 1 0 15 0 15 15 0 18 0 12 15 4 20
split_gain=8.08931e+06 2.59717e+06 1.22103e+06 216988 216376 139673 87426.5 44863.2 36915.6 30006.6 15808.7 8061.3 7476.25 4844.23 3034.53 2634.51 2549.13 1035.38 913.875 755.847 675.135 516.022 370.03 361.012 203.202 116.123 104.81 102.689 30.2295 21.6412 16.8653 11.6677 7.92465 1.4231 1.27463 1.26761 1.18027 0.865053 0.577106 0.461539 0.428188 0.298354
threshold=0.73913905487586484 -0.52226123785630907 1.7718902562531491 -0.0058534786882589607 -0.72578403969894478 2.4448283427551227 1.1597669590317041 -0.42958173750707296 0.48800412919222164 -0.60515216450010545 -0.82314385329209883 -0.22686958826310002 0.18222859023076918 1.4549273471125039 -0.47784629926892785 0.53630872802829388 -0.65134301415571094 -0.31544389316902099 -0.14243929352376963 0.31877052655679172 -0.57027600144038826 0.091174576747655431 1.7603397393358018 0.057882061236119713 -0.44674963396421213 -0.37380637785647269 -0.087942276391632782 -0.26439097242275317 -0.17575839960579906 0.38243981958400292 -0.28698305460972962 -0.46461900319534039 -0.2463409804465421 -0.20011121521878447 -0.27097959393080534 -0.21995493090731008 0.29393189871885156 -0.32977628702123968 0.53656609248549336 -0.25890496966621007 -0.36547396561834772 0.059467995900077147
decision_type=2 2 2 2 2 2 2 2 2 2 2 2 2 2 2 2 2 2 2 2 2 2 2 2 2 2 2 2 2 2 2 2 2 2 2 2 2 2 2 2 2 2
left_child=1 4 6 7 10 -4 -2 14 12 16 -1 17 23 -8 -3 20 -6 25 28 -14 -11 -18 -21 -5 -16 29 -20 30 35 -9 -19 -27 34 -34 36 -13 -29 -33 -32 -40 -35 -36
right_child=2 3 5 8 9 -7 13 11 -10 15 -12 18 19 -15 24 -17 21 27 26 22 -22 -23 -24 -25 -26 31 -28 32 -30 -31 38 37 33 40 41 -37 -38 -39 39 -41 -42 -43
leaf_value=-6.420589871991802 4.7165338165992337 -1.6199488169000702 11.234676568261177 0.81208683399469472 -4.0968159010474636 16.572693297089685 6.5478492163778004 -0.38162566548007942 2.8924257269655875 -2.8339242760384868 -5.2032803265713667 0.10245011117652707 1.4663788695935456 8.5577850013599175 -1.0659272157844137 -0.42849213641982398 -3.4270708760768378 -0.12646921770844299 0.41643851274122101 1.9195671041364286 -2.2410941239956905 -1.5853058141825958 0.66772062633079032 1.1170459181895194 -0.70239390869903684 -0.078985931253039141 0.59288085472725427 0.050705542900674444 0.2808608372543982 -0.11899099068795296 -0.051746126719326074 -0.25732296820862777 0.082101079416174089 0.010797962040406006 0.014102499400218101 0.18193530801133281 0.0012549041268052098 -0.17146199310324003 -0.0022200617724613364 -0.03475545560996255 0.047706858534403471 -0.0031314900884027584
leaf_weight=224 236 152 124 113 318 162 124 142 209 187 715 18 189 107 95 6.9999999999999991 237 54 106 182 144 9.9999999999999982 6.9999999999999991 208 57 8.9999999999999982 140 12.000000000000002 54 6.9999999999999991 38 89 39 7.9999999999999991 13.999999999999998 87 6.9999999999999991 34 7.9999999999999991 6.9999999999999991 6.9999999999999991 20
leaf_count=224 236 152 124 113 318 162 124 142 209 187 715 18 189 107 95 7 237 54 106 182 144 10 7 208 57 9 140 12 54 7 38 89 39 8 14 87 7 34 8 7 7 20
internal_value=0.0232149 -1.76132 9.3598 0.597307 -4.46182 14.4165 6.18162 -0.270232 1.74439 -3.34948 -5.51566 0.080487 1.38887 7.58883 -1.29801 -2.56096 -3.80317 -0.185795 0.404787 1.69092 -2.60127 -3.37491 1.88575 1.01927 -0.947846 -0.309005 0.523527 -0.0217201 0.214002 -0.372201 -0.0886434 -0.230158 0.0458669 0.0714148 0.017114 0.17193 0.035434 -0.23881 -0.0448306 -0.0210099 0.0336349 0.0045945
internal_weight=4707 3954 753 2112 1842 286 467 1204 908 903 939 900 699 231 304 338 565 495 405 378 331 247 189 321 152 281 246 214 159 149 107 132 107 54 53 105 19 123 53 15 15 34
internal_count=4707 3954 753 2112 1842 286 467 1204 908 903 939 900 699 231 304 338 565 495 405 378 331 247 189 321 152 281 246 214 159 149 107 132 107 54 53 105 19 123 53 15 15 34
is_linear=0
shrinkage=0.0985333


Tree=7
num_leaves=84
num_cat=0
split_feature=1 15 1 15 15 1 5 1 1 15 15 15 1 5 4 1 1 15 5 5 5 3 5 1 15 5 5 1 5 1 1 1 1 5 1 18 5 4 15 5 1 1 5 1 5 5 5 1 5 1 5 1 5 1 1 5 1 5 1 1 5 1 11 3 1 3 15 1 1 1 1 17 5 5 4 21 1 17 5 5 1 1 5
split_gain=6.35712e+06 2.07707e+06 1.04747e+06 201562 170443 124397 87483.9 46999.9 43097.9 30092.1 29188.1 12495 9197.53 8656.79 7412.64 6121.77 4931.44 4893.17 4222.37 2906.26 2698.43 2626.07 2496.84 1773.69 1742.31 1703.81 1688.48 1445.16 1398.04 1388.83 1181.61 993.756 890.138 843.743 750.354 714.095 713.517 681.08 586.267 560.459 473.368 329.063 316.779 316.596 274.513 266.55 248.192 242.316 238.565 233.983 231.003 187.534 152.131 146.103 135.894 131.04 121.128 113.065 111.847 107.462 106.592 99.3569 99.1916 86.4748 83.7219 78.2369 68.2919 65.9268 46.0544 44.9148 42.0263 39.3291 38.9164 38.2149 29.1856 27.8409 22.9818 18.1983 18.0301 16.0154 13.3816 12.0828 10.9425
threshold=0.76723409662307607 -0.50872519448524567 1.7839360154609829 -0.73086322057417474 -0.039857944185338195 3.1908785356523448 0.46062341192198814 1.2406839626826633 0.35527547253736458 -0.33934247647917787 -0.63555832323338179 -0.84313595766137484 -0.55756188918246508 0.88624843770405948 -0.48385193156599565 0.043929868665621853 -0.27489709436473964 -0.015440696048210757 -0.026997400881820888 0.40230089534118124 1.0387412141211041 -0.34147734529329127 0.59753167845468769 -0.38687383147324717 -0.56034507878455009 0.53959988411663196 0.52045684052567931 0.25071391459254139 0.85960705814533023 -0.17735262903698876 0.053419485765625226 -0.44836209280647704 -0.42823032793567811 0.36022061414946166 -0.62768419670658293 1.9429025635108956 0.59753167845468769 -0.68167118150500106 -0.16492516494914963 0.63599010639101683 0.15267696924932514 0.44697185250942323 0.34988610814011351 -0.62477583415305349 0.41375423881497403 0.098529273626669453 0.74275295742479674 -0.072518601446747835 0.33828892637024277 -0.45409883901829889 0.035672109619479177 -0.15180053494727844 -0.013165995913186361 -0.26644007868304237 -0.66216693516294356 0.080866119643214204 -0.49417623019469942 -0.87311586457800161 0.94956148764696557 -0.49901568630095333 0.56530205095632369 -0.54494904931501753 0.85355339059327406 -0.058033928451883245 -0.31295092372024197 0.085351738303180033 -0.26446213492910703 -0.31990959578065153 -0.35467675576279123 -0.25911898026525804 -0.072518601446747835 0.048903356585107992 0.75226463244354302 0.85960705814533023 -0.10676715262017682 -0.18181726768173087 -0.22247621550937155 0.3637013246057475 0.94748123038242227 0.080866119643214204 0.10204450409936285 -0.36261252091734436 0.59753167845468769
decision_type=2 2 2 2 2 2 2 2 2 2 2 2 2 2 2 2 2 2 2 2 2 2 2 2 2 2 2 2 2 2 2 2 2 2 2 2 2 2 2 2 2 2 2 2 2 2 2 2 2 2 2 2 2 2 2 2 2 2 2 2 2 2 2 2 2 2 2 2 2 2 2 2 2 2 2 2 2 2 2 2 2 2 2
left_child=1 3 6 11 9 -4 17 20 15 12 -5 -1 26 25 24 29 31 58 23 38 -8 -16 52 65 27 45 54 -12 -9 60 46 44 42 49 -28 -27 70 40 50 55 -25 -15 56 -35 59 -10 76 79 69 -23 62 -52 -17 -39 -3 -33 -20 -49 -2 -11 -6 -46 66 -55 77 -14 -18 82 -57 -34 -31 -59 -44 81 -19 -64 -21 -62 -63 -40 -24 -41 -50
right_child=2 4 5 10 8 -7 7 28 13 16 14 -13 18 41 21 22 19 74 32 30 -22 33 80 37 -26 35 34 -29 -30 36 -32 39 48 43 -36 -37 -38 53 47 73 -42 -43 72 -45 61 -47 -48 57 67 -51 51 -53 -54 63 -56 68 -58 71 -60 -61 64 78 75 -65 -66 -67 -68 -69 -70 -71 -72 -73 -74 -75 -76 -77 -78 -79 -80 -81 -82 -83 -84
leaf_value=-6.2123710903397269 0.023881479574905169 -2.4425962445590299 11.13418510094322 -3.5567516234353098 0.065544705712182419 16.408925774698737 4.0709985645361 5.1083480691321244 0.47189826559090836 -0.98286315507821476 -2.7989158405009591 -4.7834565927850354 -1.3462498144832251 2.2065516734612443 -2.2872784941011277 0.27223706336634707 -0.12660923589718129 1.0565519859053989 -0.76693975555514138 0.21392590389704111 5.3696803194028941 -1.5738529860541426 1.1493558731858071 -1.060241658801319 -2.0653307319278542 2.2301434493660302 -1.3150775580940641 -1.161168937468102 7.4280822171497567 0.24961882749501563 1.293630159579217 -0.37030329698484593 -0.16619793678308584 -0.94767845562405695 -0.47151658885691305 0.70136862181040782 0.93981589699876011 -0.57563732023099878 0.012309355443447112 0.012178222481336655 -0.28505164512823999 3.2395300813982333 -0.24047265332949747 -0.18284728810723433 -0.49607954388841047 1.4640285385656169 0.74237319780276056 0.1196850721708901 -0.0042002518005614959 -0.7796119037944137 0.068047142166704239 0.4276243523828796 0.9317262949468581 -0.36036590204025182 -1.5488583063267145 -0.16966412277195439 -0.32087343419298853 0.63294663537545737 0.42314504407162473 -0.35716421259047038 0.22119502866962595 -0.21044626616141673 0.25958035617598363 -0.064038076390990489 0.42810071620766743 -0.51794986582580749 0.040851137443641931 0.34932276035597004 -0.01377790818335636 0.065479951814909593 0.54390088859904517 0.2436969512193124 -0.016761723060290119 0.27494323673674437 2.5097330028248943 0.016325679513402407 0.44596049799173465 0.024992293062168772 -0.022738024361459358 0.18243222076235532 1.570284189576417 0.14826677480586123 0.13704285936939092
leaf_weight=111 13.000000000000002 19 196 412 20 90 128 39 6.9999999999999991 10.000000000000002 317 810 59 40 36 6.9999999999999991 41 8.0000000000000018 20 15.999999999999998 106 33 52 41 109 124 33 11.999999999999998 149 14.999999999999998 31 21 27 7.0000000000000027 22 6.9999999999999991 126 33 8.0000000000000018 11.000000000000002 12.999999999999998 107 36 14.999999999999998 14.999999999999998 64 54 7.9999999999999991 9.0000000000000018 17 30 26 122 29 53 37 19 39 11.999999999999998 10.999999999999998 7.0000000000000027 27 13.000000000000002 15.999999999999998 35 6.9999999999999991 48 19 35 8.9999999999999982 51 8.9999999999999982 9.9999999999999982 34 14.999999999999998 6.9999999999999991 41 9.9999999999999982 6.9999999999999991 17 185 13.999999999999998 8.9999999999999982
leaf_count=111 13 19 196 412 20 90 128 39 7 10 317 810 59 40 36 7 41 8 20 16 106 33 52 41 109 124 33 12 149 15 31 21 27 7 22 7 126 33 8 11 13 107 36 15 15 64 54 8 9 17 30 26 122 29 53 37 19 39 12 11 7 27 13 16 35 7 48 19 35 9 51 9 10 34 15 7 41 10 7 17 185 14 9
internal_value=0.0228669 -1.56285 8.28018 -3.93216 0.588683 12.9663 5.3564 5.80789 1.53062 -0.257131 -2.91299 -4.97775 -0.835374 2.40705 -2.40833 1.03486 0.202803 1.26608 -0.569067 0.413429 4.72736 -1.5839 1.29706 -0.868651 -2.59793 1.92278 -1.54777 -2.75159 7.04557 0.659556 0.763583 -0.165996 -0.183308 -1.14543 -1.02449 2.16815 0.797209 -0.632102 0.203698 -0.021742 -0.901405 3.01436 -0.393826 -0.519997 -0.463805 1.3921 0.581701 0.41552 0.068393 -1.37027 0.0934589 0.249833 0.903805 -0.415968 -1.88365 -0.170242 -0.592547 0.525486 0.243101 -0.750067 0.273197 -0.300638 0.00802162 -0.266841 0.344187 -1.28791 -0.0381016 0.234332 -0.0979032 -0.107626 0.492438 0.580795 -0.196318 0.208874 2.2044 0.189114 0.39645 0.129072 -0.177354 0.135947 1.49539 0.0969738 0.0769143
internal_weight=4707 3951 756 1879 2072 286 470 422 979 1093 958 921 483 349 546 630 610 48 356 388 234 108 366 198 438 202 127 329 188 264 142 222 158 72 55 131 192 132 246 152 54 147 85 22 70 71 111 81 73 50 165 56 129 78 72 93 39 56 25 21 72 49 109 45 52 66 89 37 72 36 66 48 46 59 23 20 57 17 34 25 237 25 18
internal_count=4707 3951 756 1879 2072 286 470 422 979 1093 958 921 483 349 546 630 610 48 356 388 234 108 366 198 438 202 127 329 188 264 142 222 158 72 55 131 192 132 246 152 54 147 85 22 70 71 111 81 73 50 165 56 129 78 72 93 39 56 25 21 72 49 109 45 52 66 89 37 72 36 66 48 46 59 23 20 57 17 34 25 237 25 18
is_linear=0
shrinkage=0.0985333


Tree=8
num_leaves=46
num_cat=0
split_feature=0 0 0 0 0 0 0 0 0 0 0 0 0 0 0 0 1 2 0 0 0 0 0 18 0 0 0 0 4 0 11 0 0 2 17 0 20 5 18 20 18 17 0 5 7
split_gain=5.41019e+06 1.80961e+06 744725 169415 149720 93227.6 29737.8 28778.5 24361.7 22555.3 16913.4 10105.9 6498.06 4321.42 3854.25 2328.8 1322.95 1145.91 1087.58 959.818 457.661 421.515 389.66 339.884 277.805 78.184 60.5312 55.5698 50.4625 32.484 15.6023 8.63335 7.19795 3.31837 2.38788 1.35833 1.23813 1.18244 0.986409 0.966558 0.925949 0.769918 0.753213 0.360642 0.337427
threshold=0.82203095532470205 -0.50175249126069199 2.1498033364880631 -0.67829208339997937 0.084327249382656774 1.5286162400117658 3.2459356242113819 0.50569453506469741 -0.28698305460972962 -0.77753350600614579 -0.58829658450436539 1.0878609427708408 -0.44234991405042096 -0.84304652654334367 -0.11374105275204612 0.30392721729748734 -0.017171036427321432 -0.82331682632476844 0.63389233697412484 -0.54674886019664692 -0.20004208425752054 -0.015377395096652492 -0.41666988462234333 1.8647423809218593 -0.45883684582728063 -0.32977628702123968 -0.2463409804465421 -0.16485714480414101 -0.7250503036844923 0.18222859023076918 1.2953851375880145 -0.26439097242275317 -0.22686958826310002 1.0573767000270193 -0.55933435940812515 -0.29838192378726774 0.059467995900077147 -0.66302659897486571 0.30695859581702428 -0.11323230033260896 -0.34808458892247479 -0.59980400006166179 -0.2588339825984024 -0.065324098809263612 -0.57785209481169209
decision_type=2 2 2 2 2 2 2 2 2 2 2 2 2 2 2 2 2 2 2 2 2 2 2 2 2 2 2 2 2 2 2 2 2 2 2 2 2 2 2 2 2 2 2 2 2
left_child=1 3 5 9 8 11 -4 15 12 13 16 -2 24 -1 20 29 -5 -12 -9 -19 26 -16 28 -17 -3 30 31 -22 -14 -6 34 37 39 38 41 -27 42 -10 -34 -28 -41 -24 -33 -38 -39
right_child=2 4 6 10 7 -7 -8 18 14 -11 17 -13 22 -15 21 23 -18 19 -20 -21 27 -23 25 -25 -26 35 32 -29 -30 -31 -32 36 33 -35 -36 -37 43 44 -40 40 -42 -43 -44 -45 -46
leaf_value=-5.6692505937411211 3.8828600799058548 -1.0682489326455868 10.969963946645358 -2.8584445410266079 0.95448881938658914 7.7908149972378755 14.893240401049654 2.1604288274322703 -0.0024865072943064475 -3.7710344626521008 -0.37370595198649614 5.3390184923053052 -0.1429964724357837 -4.5426792814695531 0.45360379725006789 1.5686558880830863 -1.4358880742133229 -2.0940176149815142 2.8825609434351009 -1.5802985748700937 0.17086597774810566 0.69943864582219317 -0.19684912138291757 0.50424493595160114 -0.69516038856375739 -0.13336194242299496 0.074132568555213357 0.30209261048679759 -0.48939124936088646 1.1830098958991557 -0.13930449349034552 0.044277693792040766 0.13749574915070517 0.033413733237194376 -0.26767187591985314 -0.071692516386425806 0.0094105137137947444 -0.020709703076912448 0.054686822329468331 0.052691544693790164 0.012023576775354565 -0.085952054726970317 0.012093259236510983 -0.013126908715962393 -0.050423794988251697
leaf_weight=111 146 133 126 457 151 159 90 114 7.9999999999999991 507 6.9999999999999991 176 7.9999999999999991 507 158 220 17 163 132 149 69 186 24 6.9999999999999991 57 73 29 108 68 170 27 11.999999999999998 39 6.9999999999999991 146 18 10.000000000000002 11.999999999999998 7.9999999999999991 13.000000000000002 11.999999999999998 8.9999999999999982 20 10.999999999999998 33
leaf_count=111 146 133 126 457 151 159 90 114 8 507 7 176 8 507 158 220 17 163 132 149 69 186 24 7 57 73 29 108 68 170 27 12 39 7 146 18 10 12 8 13 12 9 20 11 33
internal_value=0.0231114 -1.3714 8.01396 -3.55469 0.632804 5.78637 12.8089 1.69547 -0.0199556 -4.33506 -2.43391 4.72596 -0.506041 -4.77476 0.352991 1.28424 -2.81795 -1.83971 2.58173 -1.86825 0.139407 0.592038 -0.2629 1.54371 -0.970428 -0.207704 0.04124 0.255097 -0.460571 1.08658 -0.242005 -0.0117055 0.0919848 0.118447 -0.254627 -0.124169 0.015981 -0.0386928 0.128018 0.0601024 0.0369324 -0.177403 0.0272431 -0.00257218 -0.0445032
internal_weight=4707 4010 697 1918 2092 481 216 794 1298 1125 793 322 563 618 735 548 474 319 246 312 391 344 373 227 190 297 214 177 76 321 206 106 108 54 179 91 53 53 47 54 25 33 32 21 45
internal_count=4707 4010 697 1918 2092 481 216 794 1298 1125 793 322 563 618 735 548 474 319 246 312 391 344 373 227 190 297 214 177 76 321 206 106 108 54 179 91 53 53 47 54 25 33 32 21 45
is_linear=0
shrinkage=0.0985333


Tree=9
num_leaves=84
num_cat=0
split_feature=1 19 1 1 19 1 1 1 5 5 5 5 1 1 5 19 5 5 1 1 5 1 1 1 1 5 5 5 5 1 5 3 5 5 5 1 5 21 5 1 1 1 5 5 6 1 1 5 5 1 1 1 5 5 5 5 16 4 4 5 7 5 5 5 19 5 5 5 1 5 4 1 5 5 1 4 1 1 17 1 3 1 1
split_gain=4.25158e+06 1.38178e+06 555869 204918 119128 70457.2 58869.4 51125.6 26555.6 20879.2 16960.8 15769.2 13774.5 13662.7 11202.4 10906.9 7759.18 7110.16 5652.58 5237.81 4635.68 4001.65 3327.26 3058.76 3045.63 2884.08 2848.94 1907.77 1885.75 1874.79 1874.39 1716.74 1566.44 1325.97 846.869 1008.5 671.195 553.844 546.152 504.444 482.397 381.722 373.425 367.522 352.548 319.572 317.129 256.239 175.849 167.959 164.27 137.729 119.113 103.637 87.1028 82.9824 78.9263 75.2819 60.0218 54.843 53.0062 48.9572 45.6108 40.543 39.9195 38.9415 32.7124 25.7571 20.1751 17.2253 15.5028 15.3012 12.7008 11.4257 10.5084 5.63248 4.22294 3.48154 2.98287 2.61202 2.44719 1.02048 0.806622
threshold=0.94956148764696557 -0.5837251697616691 2.1979969489162028 -0.043325943099362177 -0.77382897567243358 1.4904727113959479 -0.54494904931501753 0.53630872802829388 0.23674275508897924 0.49720228963520124 0.14223349542608604 -0.31437981333799142 3.1908785356523448 -0.69798259657103234 -0.51455132113784907 -0.87387181646559908 0.36022061414946166 0.58031298108786711 0.20703906606302205 -0.35467675576279123 0.91359894516806273 -0.58163453984436142 -0.41710653795425784 -0.40094554346175487 -0.63875621149409245 -0.24708741220329886 1.0078597095973423 0.94748123038242227 -1.1701706436105688 -0.65256494302428814 0.61289843409163225 -0.37409092864673071 0.79718100241783507 0.22670576178654464 -0.72520486631059922 0.56700207541911463 0.33828892637024277 -0.59966231669554071 -0.077517359814801956 -0.46604693738612407 -0.72553731958897238 -0.20002207226346391 -0.79038603610031388 -0.61569366328395347 1.6684106379903489 -0.26644007868304237 -0.20002207226346391 0.59753167845468769 0.12978677525439919 -0.44354910088012306 -0.44354910088012306 0.11341346887595691 -1.2063271344328312 0.21595685092011999 0.46816480097651936 0.54917630896942726 0.38237102180928823 -0.15694059514103417 -0.75954454541758187 0.78803661178446205 -1.1557041896233842 0.94748123038242227 0.82271460442956579 0.018419065310823251 -0.47844798790537807 0.85960705814533023 -0.3333155987716469 -0.10549643242785721 -0.0088330802373973016 0.97347767424722353 -0.7532728651024746 -0.25911898026525804 0.59012063695379491 0.52045684052567931 -0.15180053494727844 -0.53376405407372352 1.0000000180025095e-35 -0.089979536392027035 -0.51108642467459131 0.36911559363397056 -0.15901242851413602 0.83625681160879373 -0.13719470192759123
decision_type=2 2 2 2 2 2 2 2 2 2 2 2 2 2 2 2 2 2 2 2 2 2 2 2 2 2 2 2 2 2 2 2 2 2 2 2 2 2 2 2 2 2 2 2 2 2 2 2 2 2 2 2 2 2 2 2 2 2 2 2 2 2 2 2 2 2 2 2 2 2 2 2 2 2 2 2 2 2 2 2 2 2 2
left_child=1 4 5 6 15 8 16 10 58 25 28 23 -4 -6 22 -1 29 -7 32 33 -10 36 -15 -8 40 52 -11 44 37 -3 46 -17 54 39 35 -24 -16 -5 50 -13 -18 65 60 56 47 -44 53 -20 74 61 -23 66 64 67 68 -51 75 -40 -2 -43 -25 72 -26 -41 -9 -32 -45 -21 -12 -57 -39 -55 -35 -59 -48 80 -68 -47 -58 -72 -30 -66 -50
right_child=2 3 12 7 13 17 11 9 20 26 18 19 -14 14 21 31 24 -19 27 30 -22 38 34 42 62 -27 -28 -29 43 -31 41 -33 -34 49 -36 -37 -38 70 57 63 -42 59 45 51 -46 77 48 -49 82 55 -52 -53 -54 71 -56 69 78 73 -60 -61 -62 -63 -64 -65 81 -67 76 -69 -70 -71 79 -73 -74 -75 -76 -77 -78 -79 -80 -81 -82 -83 -84
leaf_value=-4.5906575041139419 0.28755175807290767 -2.5563660723909694 10.0258781812827 -0.9332632474810677 -2.9184187784570237 2.5113421119161434 -1.6818439690015936 -0.23074275024272886 3.6646672367039641 2.3833906888416307 0.31668926359479449 -0.81646452741212505 13.448666214968217 -2.5446121200814527 -1.7728565692635905 -3.7496142061864752 -2.0399467236140527 7.1771687066309457 1.0120040917298092 -0.18371362303025757 5.0541642848394002 -1.0085783392813068 -1.905375302618056 -0.41196083341884071 -0.4469199689956897 1.3364844261834059 3.3174865263936058 1.8142959188892089 -0.14392000321978343 -1.6970949728111908 0.21736219300671433 -1.9631925175210234 1.0961419276016067 -0.26341414584905559 -0.57135618797781018 -0.41747860623201888 -0.76534146505402301 -0.28763160134710702 -0.38237896235197072 -0.43323996959605748 -1.1332479199239816 0.40403116277619905 -0.66602106851069098 0.014724406650334705 0.32905087248621234 -0.16946000433310399 -0.017563191352307536 1.3978004305234899 0.21242159772652353 -0.1173464283719437 -0.32566768869601065 0.5119421235059195 0.30304068162172737 0.032411568207241406 0.74989766279033121 0.026152401042151722 0.17849848489529649 -0.12516458741405587 0.81953016863757511 0.67349133160035057 -0.99294457429708005 0.0077448142563335568 -0.12049505358892808 -0.2227762564537808 -0.0063230954090098771 0.3844711746916909 0.10461435580827472 -0.051556261786710307 0.57681762160943051 0.1424894591477579 -0.12709376726090535 0.1270375663816346 -0.14823362510838461 0.02498517619098049 0.07553808375714921 -0.0119106746730358 0.27291066989346258 -0.050180908091476233 0.064919968518691612 -0.029765217421075147 -0.048861816937765916 0.039781774442805298 0.32172485525458655
leaf_weight=300 9.0000000000000018 83 108 17 274 7.9999999999999991 49 7.0000000000000044 92 142 18 40 90 243 85 640 17 169 87 20 157 22.000000000000004 78 8.9999999999999982 40 37 105 110 14.000000000000004 92 42 17 163 44 9.9999999999999982 6.9999999999999991 14.999999999999998 8.0000000000000018 14.000000000000002 31 44 31 25 7.9999999999999991 6.9999999999999991 16.000000000000004 20 118 38 34 8.9999999999999982 28 7.9999999999999991 51 105 34 10.000000000000002 7.9999999999999982 9.9999999999999982 79 32 9.9999999999999982 7.9999999999999991 32 7 56 8.0000000000000018 48 82 18 7.9999999999999982 24 35 7 22 6.9999999999999991 22 6.9999999999999991 9.9999999999999982 7 9 7 45
leaf_count=300 9 83 108 17 274 8 49 7 92 142 18 40 90 243 85 640 17 169 87 20 157 22 78 9 40 37 105 110 14 92 42 17 163 44 10 7 15 8 14 31 44 31 25 8 7 16 20 118 38 34 9 28 8 51 105 34 10 8 10 79 32 10 8 32 7 56 8 48 82 18 8 24 35 7 22 7 22 7 10 7 9 7 45
internal_value=0.0228478 -1.15684 7.44598 0.406913 -3.26535 5.44276 -0.508862 1.3349 4.32842 2.40664 0.93038 -0.113281 11.7813 -2.33651 -1.99882 -4.00378 -1.73537 7.01729 1.13923 0.065491 4.59672 -1.27428 -2.32579 -1.06827 -1.03244 0.798037 2.8199 1.44523 0.00205676 -2.14535 0.263308 -3.71367 0.86076 -0.272312 -1.69788 -1.80349 -1.65169 -0.554369 -0.590723 -0.547046 -1.47976 0.482858 -0.681285 0.204191 1.22827 -0.441938 0.0890198 1.25314 0.201445 -0.103309 -0.861822 0.350958 0.0432559 -0.0116354 0.65886 -0.00405175 0.000501452 -0.241219 0.649024 0.611861 -0.906498 -0.195562 -0.404023 -0.343125 -0.0839936 0.322488 0.200212 -0.097286 0.54188 0.0726635 -0.190626 0.0668657 -0.220561 -0.063377 0.0331947 -0.0967679 0.243172 -0.144243 0.139309 -0.0955064 -0.117754 0.0199743 0.281953
internal_weight=4707 4064 643 2335 1729 445 1176 1159 268 313 846 892 198 772 498 957 284 177 690 754 249 160 338 138 109 66 247 322 156 175 476 657 368 278 95 85 100 40 60 103 61 208 89 116 212 48 268 205 125 175 31 66 29 143 205 86 50 29 19 110 41 89 48 63 21 98 38 68 100 52 23 75 79 15 42 30 30 23 20 15 23 14 83
internal_count=4707 4064 643 2335 1729 445 1176 1159 268 313 846 892 198 772 498 957 284 177 690 754 249 160 338 138 109 66 247 322 156 175 476 657 368 278 95 85 100 40 60 103 61 208 89 116 212 48 268 205 125 175 31 66 29 143 205 86 50 29 19 110 41 89 48 63 21 98 38 68 100 52 23 75 79 15 42 30 30 23 20 15 23 14 83
is_linear=0
shrinkage=0.0985333


Tree=10
num_leaves=48
num_cat=0
split_feature=0 0 0 0 0 0 0 0 0 0 0 0 0 0 0 0 5 0 2 0 0 0 0 18 0 0 0 0 0 21 20 0 0 21 5 0 19 2 19 15 20 15 15 18 19 0 21
split_gain=3.61584e+06 1.20772e+06 499891 114411 99527.1 64344.3 21327.7 21202.2 17107.9 14151.3 10879.4 5604.18 4065.68 3326.42 2118.24 2117.91 788.665 774.598 759.148 534.502 482.416 293.586 247.655 223.797 183.654 169.675 157.633 66.6342 43.8266 31.0013 32.3609 27.0669 12.4944 6.87783 4.48294 4.35244 3.35385 2.96371 2.64412 2.29165 2.73653 1.961 1.47167 1.1711 1.00678 0.614273 0.52453
threshold=0.82203095532470205 -0.50175249126069199 2.1498033364880631 -0.67399507127667457 0.057882061236119713 1.4069165360312377 0.50569453506469741 2.9846684174689946 -0.77187442704392306 -0.29838192378726774 -0.58829658450436539 -0.84766925926802206 -0.44234991405042096 1.0103806258689589 0.26974498770988814 -0.14243929352376963 -1.9368576720467761 0.65244297930663786 -0.82331682632476844 -0.54674886019664692 1.615990782737756 -0.051652824347848368 -0.42204013300944659 1.8647423809218593 0.37391455121460676 -0.22686958826310002 -0.45883684582728063 0.1231000073894068 -0.35572425031391303 -0.32681956629222092 -0.52704441564150672 -0.26439097242275317 -0.17575839960579906 0.73843949630153405 -1.2063271344328312 -0.2463409804465421 -0.3034293702431981 -0.59618965329003115 -0.49993769860566745 -0.28705493036591495 -0.17012864548779136 -0.27097959393080534 -0.20011121521878447 0.29393189871885156 -0.32566138893256147 -0.27891809291355463 0.26071706988088411
decision_type=2 2 2 2 2 2 2 2 2 2 2 2 2 2 2 2 2 2 2 2 2 2 2 2 2 2 2 2 2 2 2 2 2 2 2 2 2 2 2 2 2 2 2 2 2 2 2
left_child=1 3 5 8 9 13 14 -4 11 12 16 -1 26 -2 27 25 -5 -8 -12 -20 -7 -17 34 24 -16 31 -3 -6 29 30 38 39 33 -27 -14 41 37 -30 -24 40 -11 43 -37 -33 -39 -41 -43
right_child=2 4 7 10 6 20 17 -9 -10 15 18 -13 22 -15 23 21 -18 -19 19 -21 -22 -23 28 -25 -26 32 -28 -29 36 -31 -32 35 -34 -35 -36 42 -38 44 -40 45 -42 46 -44 -45 -46 -47 -48
leaf_value=-4.8141083494850276 3.0113948305702141 -0.8645251772664676 8.7313481324892166 -1.1190703279474838 0.68370652371220997 4.995813817568421 1.8064521842125321 11.943707805858994 -3.0102840795492063 -0.035281584441508314 -0.29957476508476621 -3.6938193182028307 -0.17012844846222006 4.0718694798179218 1.0749407145335894 0.31233509160405964 -2.3121275566047998 2.4018964577558672 -1.6892590252900712 -1.2881086812052969 6.6521493065334081 0.5052873652773221 0.030850314935547588 0.39023605656072591 1.3887889393458064 0.12191527438011765 -0.57103177990297471 0.8808966510342352 -0.025741117323700539 -0.24532013719937143 -0.17981223500779678 0.050522734662537427 0.18700703118194259 0.01364596150686876 -0.42687944211300938 0.062849312698006143 -0.15376747675446129 -0.11703078757756374 -0.039584257240297689 -0.073021417018173468 0.026324692929489826 0.0054588201167035588 0.020188797719058262 0.0012595578117699368 -0.047686356026607375 -0.036187942524101478 -0.018746297517475054
leaf_weight=94 110 131 108 14.999999999999998 112 72 133 107 472 21.000000000000004 6.9999999999999991 584 6.9999999999999991 176 148 179 438 114 163 150 124 182 7 6.9999999999999991 126 99 57 206 6.9999999999999991 118 38 12.000000000000002 52 6.9999999999999991 50 38 62 50 6.9999999999999982 20 6.9999999999999991 26 14.999999999999998 6.9999999999999991 8.9999999999999982 22 8.9999999999999982
leaf_count=94 110 131 108 15 112 72 133 107 472 21 7 584 7 176 148 179 438 114 163 150 124 182 7 7 126 99 57 206 7 118 38 12 52 7 50 38 62 50 7 20 7 26 15 7 9 22 9
internal_value=0.0163066 -1.12426 6.54875 -2.90303 0.518344 4.72985 1.3399 10.4902 -3.52832 -0.0447377 -1.96145 -3.87225 -0.420354 3.70393 1.01229 0.248923 -2.2812 2.10998 -1.4897 -1.51283 6.1387 0.413398 -0.220491 1.21829 1.23443 0.0693239 -0.787197 0.819367 -0.180724 -0.215182 -0.135993 0.00264844 0.142397 0.115409 -0.406638 0.0334352 -0.130601 -0.102406 -0.00520798 -0.0437819 -0.0186991 0.0125226 0.052712 0.0353105 -0.109612 -0.0578628 -0.00186431
internal_weight=4705 4008 697 1923 2085 482 846 215 1150 1239 773 678 543 286 599 696 453 247 320 313 196 361 355 281 274 335 188 318 298 170 52 177 158 106 57 107 128 66 14 70 28 54 53 19 59 42 35
internal_count=4705 4008 697 1923 2085 482 846 215 1150 1239 773 678 543 286 599 696 453 247 320 313 196 361 355 281 274 335 188 318 298 170 52 177 158 106 57 107 128 66 14 70 28 54 53 19 59 42 35
is_linear=0
shrinkage=0.0985333


Tree=11
num_leaves=84
num_cat=0
split_feature=1 15 1 15 15 1 1 5 1 15 15 5 15 5 5 4 5 1 1 1 1 5 5 5 1 1 5 1 5 5 1 1 1 5 1 1 4 5 5 5 15 15 1 5 15 5 3 5 1 1 5 5 5 2 1 1 5 5 17 5 5 1 1 15 5 1 5 4 15 5 1 1 1 20 11 4 21 1 2 5 4 17 1
split_gain=2.84224e+06 901778 488205 97997.8 66879.6 53504.3 39637.6 19633.4 17610.5 16230.3 11493.3 9918.65 7558.94 4584.82 3593.46 3576.14 3214.06 2842.68 2415.97 2234.62 1989.61 1864.44 1338.39 1308.86 953.101 936.512 779.872 627.551 606.373 591.909 567.259 503.148 400.846 398.648 355.95 339.474 331.533 325.009 303.099 291.027 290.373 266.893 240.79 240.143 185.915 154.426 124.368 123.419 118.245 111.099 93.7872 86.9851 78.8922 78.7494 78.484 74.0176 67.0123 64.4943 58.795 58.7925 58.5812 57.4846 53.0965 50.1957 49.3871 48.8511 48.7533 48.1107 36.0207 33.5047 31.4546 30.8231 30.4519 24.1957 22.8804 21.5097 20.7858 19.0518 17.8715 16.3772 16.2468 15.8297 14.6437
threshold=0.73422601302431112 -0.50162329653005633 1.9276301210425939 -0.73848914529353216 -0.039857944185338195 1.2090168937420362 2.395053307622534 0.30454066773125538 0.30440172208395644 -0.63555832323338179 -0.33934247647917787 1.0483187715702151 -0.84775883632936677 0.88624843770405948 0.23674275508897924 -0.49613397218308053 1.0387412141211041 -0.56366120834054612 -0.27489709436473964 -0.033210987591818029 -0.65667476761816646 0.065371967486074087 0.82271460442956579 0.40230089534118124 -0.40775619983945927 -0.39568518180590956 0.38043213045379826 0.42870304667795783 0.52045684052567931 0.59753167845468769 0.053419485765625226 -0.5040430302664235 0.44697185250942323 -0.3333155987716469 -0.48726048913218517 -0.37894439895849269 1.731096499719355 -0.23032519954317157 0.82271460442956579 0.63599010639101683 -0.40313633920689546 -0.16492516494914963 -0.6602696059165537 0.44763628577380543 -0.57005726909070842 0.41375423881497403 0.033246071604390394 0.74275295742479674 -0.072518601446747835 -0.24203811120642313 0.72030049641973937 -0.85112087452513185 0.14223349542608604 -0.6027805990218581 0.99896710156183011 -0.2505123852860906 0.66470553992079606 0.035672109619479177 -0.42421360235417049 -0.23032519954317157 1.1059885205169884 -0.38687383147324717 -0.15860338302374949 -0.27097959393080534 0.48396193703102086 -0.41710653795425784 0.26114461739790201 -0.2285422787385078 -0.54071185049554604 0.18020580103198494 -0.47720401281685715 -0.54494904931501753 -0.3398146462830976 -0.30213786586400965 -0.85355339059327362 1.0000000180025095e-35 -0.2497083091324945 -0.15860338302374949 -0.31461816437993068 0.85960705814533023 -0.16922263575811905 0.13551275559243628 -0.22247621550937155
decision_type=2 2 2 2 2 2 2 2 2 2 2 2 2 2 2 2 2 2 2 2 2 2 2 2 2 2 2 2 2 2 2 2 2 2 2 2 2 2 2 2 2 2 2 2 2 2 2 2 2 2 2 2 2 2 2 2 2 2 2 2 2 2 2 2 2 2 2 2 2 2 2 2 2 2 2 2 2 2 2 2 2 2 2
left_child=1 3 5 12 10 7 -4 54 19 62 17 14 -1 27 -7 25 -9 28 31 38 53 24 43 41 37 44 34 36 -3 52 47 45 -15 40 -22 56 -10 -19 55 57 73 46 -30 69 -11 -12 63 -25 -43 -40 -44 -27 -29 -17 -2 -6 70 -33 -48 78 -24 -59 -5 80 82 -41 -57 -28 -36 -21 -23 -47 -35 -26 -42 -66 -65 -49 -50 -67 -20 -60 -37
right_child=2 4 6 9 8 11 -8 16 13 15 18 -13 -14 32 -16 20 -18 21 23 22 26 35 60 30 33 51 67 29 42 -31 -32 39 -34 72 68 64 -38 -39 49 65 74 48 50 -45 -46 71 58 77 59 -51 -52 -53 -54 -55 -56 66 -58 61 81 -61 -62 -63 -64 76 75 79 -68 -69 -70 -71 -72 -73 -74 -75 -76 -77 -78 -79 -80 -81 -82 -83 -84
leaf_value=-4.3434384776945985 0.1243211652602422 -1.2211378877634593 6.7744691510183879 -2.3870271906577183 0.012541132621410853 1.0450842491345902 10.1063598754853 2.5319329024044448 0.93474529151553587 -1.8857786082746797 -0.72682581007380764 5.5285949188123897 -3.2116904486000433 1.486830519436614 4.0203171019893151 -0.70687486860814197 3.5241548903810704 -1.1314526092266834 -0.12226719479611407 0.21324492825266994 -1.084584541825125 -0.30042807500262392 0.83475581368789353 0.26618851374401969 -0.35541378751161712 -1.296479086777663 -0.30999305874225069 0.37696650056044789 -0.88678218228586325 1.5407168965697302 0.88996923581521981 -0.30531023434082943 2.1369896441161225 -0.18660612235351581 -0.68231598831585738 -0.039292228446532663 0.17481803680074259 -0.58544639593828451 0.20214651073355919 -0.03273521965428923 -0.28121674468251273 0.088888266134131894 -0.47660786677386069 0.68221515210692074 -1.4985857191812719 -0.35527929252571239 0.3258161208444012 0.33484329168613863 0.22688367997713008 0.52800105182162305 -0.05639852887568416 -0.52504167969821636 1.0432373401708201 -1.7997787342606111 0.46289115168148698 0.048551412794799811 -0.016528193189097994 -0.18792858277340016 0.12746714791360886 0.42720039966165924 1.1092192972661017 -0.034093338663609633 -1.0037990351312369 0.10591943463323501 0.074932976034972135 0.069635638501717043 0.27545656420647602 -0.017821133326835548 -0.30630992700884885 0.46268742567917481 -0.14127780841313498 -0.11984737175080604 -0.014630681629516805 -0.64415490408887599 -0.082212832028980123 0.30421414460158458 -0.0011232419399242399 0.59099922755782552 0.021111393849320582 0.19837697357006009 0.0030800874643570923 -0.024455380909799696 0.11102894814705695
leaf_weight=94 18.000000000000004 53 89 446 19 6.9999999999999991 161 142 64 256 9.9999999999999982 125 792 58 116 6.9999999999999991 105 29 26 14.999999999999998 49 35 116 58 19 67 10.000000000000002 6.9999999999999991 22 83 30 18 100 21 11.000000000000002 13.000000000000002 7.9999999999999991 40 19 17 11.000000000000002 25 19.000000000000004 125 118 14.999999999999998 15.999999999999998 24 10.000000000000002 63 7.9999999999999991 7.9999999999999991 60 30 11.999999999999998 12.999999999999998 18 42 32 39 78 53 6.9999999999999991 33 9.0000000000000018 21 52 9.9999999999999982 15.999999999999998 78 34 15.000000000000002 18 58 15.999999999999998 12.999999999999998 34 31 6.9999999999999991 30 14.999999999999998 6.9999999999999991 6.9999999999999991
leaf_count=94 18 53 89 446 19 7 161 142 64 256 10 125 792 58 116 7 105 29 26 15 49 35 116 58 19 67 10 7 22 83 30 18 100 21 11 13 8 40 19 17 11 25 19 125 118 15 16 24 10 63 8 8 60 30 12 13 18 42 32 39 78 53 7 33 9 21 52 10 16 78 34 15 18 58 16 13 34 31 7 30 15 7 7
internal_value=0.01669 -1.05987 5.45681 -2.58431 0.399676 3.71015 9.02639 2.70995 0.993629 -1.92195 -0.143169 4.77585 -3.34781 1.51358 3.88347 -1.559 2.9956 -0.522945 0.134903 0.644983 -1.0585 -0.379726 0.768156 0.282444 -0.55727 -1.69824 -0.774246 1.18951 -0.974211 1.32429 0.516001 -0.123823 1.93446 -0.396175 -0.914063 -0.0811695 0.861934 -0.857045 0.330049 -0.050578 -0.494782 0.140385 -0.645567 0.583412 -1.77813 -0.425489 0.0651874 0.393755 0.283035 0.46349 -0.372231 -1.24038 0.995073 -1.66948 0.292908 0.186896 -0.18992 -0.145885 0.181058 0.359713 0.962211 -0.106226 -2.37324 0.00247467 0.141463 0.107206 0.23472 -0.187607 -0.518366 0.431345 -0.232267 -0.26162 -0.114733 -0.590848 -0.185558 0.232891 0.0541517 0.505079 0.159713 0.152991 -0.0796629 0.10042 0.0217584
internal_weight=4705 3930 775 1921 2009 525 250 277 958 1035 1051 248 886 380 123 582 247 443 608 578 133 341 412 387 212 449 96 222 102 150 143 221 158 143 76 129 72 69 166 181 104 244 49 218 374 40 163 113 81 82 27 75 67 37 30 84 87 113 55 56 194 95 453 108 42 68 65 20 27 93 69 30 39 77 27 22 67 55 17 51 41 39 20
internal_count=4705 3930 775 1921 2009 525 250 277 958 1035 1051 248 886 380 123 582 247 443 608 578 133 341 412 387 212 449 96 222 102 150 143 221 158 143 76 129 72 69 166 181 104 244 49 218 374 40 163 113 81 82 27 75 67 37 30 84 87 113 55 56 194 95 453 108 42 68 65 20 27 93 69 30 39 77 27 22 67 55 17 51 41 39 20
is_linear=0
shrinkage=0.0985333


Tree=12
num_leaves=50
num_cat=0
split_feature=0 0 0 0 0 0 0 0 0 0 0 0 0 0 0 0 0 0 6 3 0 0 0 0 15 0 17 0 0 15 4 18 0 21 15 15 0 15 15 0 15 15 15 21 0 15 18 21 0
split_gain=2.41783e+06 804544 338348 76510.7 66456.7 53598.8 14014.8 12679.6 10676.5 10012.3 6342.83 5988.92 2813.74 2631.54 1743.92 1680.36 1291.4 706.381 510.858 303.664 228.726 180.916 150.461 105.075 88.9257 83.2469 80.0964 37.5663 30.3552 33.0816 27.5977 25.7323 22.8499 15.1083 10.097 4.71961 4.13459 3.56206 2.21532 2.14921 1.71427 1.66286 2.4426 1.34974 1.48355 1.13314 0.904784 0.33554 0.278244
threshold=0.82203095532470205 -0.50175249126069199 2.2302269733976829 -0.66562848206149006 0.084327249382656774 1.5784555132638729 -0.79024328861663184 0.5406310740369481 -0.28698305460972962 3.2459356242113819 -0.6021663407664658 1.1283519625873959 -0.44234991405042096 -0.86010803766390131 -0.097871788327810058 0.33280456945755038 -0.74891350187705819 -0.56035386750946181 -0.8257376353845306 2.1254597395608967 -0.19225607760769775 -0.42204013300944659 0.01225651113499936 -0.45883684582728063 -0.62893743141446179 0.18222859023076918 -0.75272024596814746 -0.2463409804465421 -0.32977628702123968 -0.38093250523936995 -0.69735038229276902 -0.32193610934585076 -0.16485714480414101 -0.5036424140389173 -0.44675493664787064 -0.29845415941473241 -0.26439097242275317 -0.32984951379348243 0.069864649231709972 -0.22686958826310002 -0.27097959393080534 -0.32351157282601645 -0.41655835120624607 -0.53852436292224037 -0.35572425031391303 -0.36345212999105375 0.29393189871885156 0.26071706988088411 -0.21995493090731008
decision_type=2 2 2 2 2 2 2 2 2 2 2 2 2 2 2 2 2 2 2 2 2 2 2 2 2 2 2 2 2 2 2 2 2 2 2 2 2 2 2 2 2 2 2 2 2 2 2 2 2
left_child=1 3 5 6 8 11 13 15 12 -4 18 -2 23 -1 20 25 -8 24 -5 -17 27 30 -16 -3 -12 -6 -19 36 29 31 -14 34 -22 -25 -23 48 41 45 39 -37 46 42 -10 -31 -45 -30 -38 -42 -29
right_child=2 4 9 10 7 -7 16 -9 14 -11 17 -13 21 -15 22 19 -18 26 -20 -21 32 28 -24 33 -26 -27 -28 35 37 43 -32 -33 -34 -35 -36 38 40 -39 -40 -41 47 -43 -44 44 -46 -47 -48 -49 -50
leaf_value=-4.2409842296442024 2.6218887050631183 -0.70342849308668631 7.4586792041166605 -0.67156430980691073 0.63217449159198535 5.4644352955927786 -2.745321103614641 1.7938282492071964 -0.03356208235997029 10.110063764184641 -0.77122644239360005 3.6540198044153942 -0.090920371223826887 -3.1469890201905151 0.3364730906642393 1.1281071303386101 -2.3086428594108481 -0.63228483225675391 -1.9103840539266126 0.28636219846417182 0.11490318193882508 0.0070282222439665603 0.49409182106879979 -0.27254896716455035 -1.4645717097144009 0.80559257318295485 -1.1167334539774936 0.069330048867334793 -0.05929632692509966 -0.080211409985165558 -0.35843725635702384 -0.1538181150218271 0.20716355434552031 -0.51820382905138274 -0.086082218561605708 0.037498886849742848 0.043603595541571206 -0.10107024017868027 0.001901086992647611 0.073904227503867395 0.0017975885377627834 -0.038934134517799271 0.034036170722671122 -0.21836062452405089 -0.14162162418258964 -0.01056193820158003 0.00057056506514958872 -0.017711370109442216 0.14409835639242233
leaf_weight=56 163 131 108 7.9999999999999991 149 160 377 209 7 89 13.999999999999998 177 6.9999999999999991 415 197 221 340 19 333 6.9999999999999991 53 18 132 17 191 203 170 15.000000000000002 19.000000000000004 6.9999999999999991 50 60 123 40 25 40 12.000000000000002 63 6.9999999999999991 54 26 38 6.9999999999999982 84 32 7.9999999999999991 6.9999999999999991 8.9999999999999982 7.9999999999999991
leaf_count=56 163 131 108 8 149 160 377 209 7 89 14 177 7 415 197 221 340 19 333 7 53 18 132 17 191 203 170 15 19 7 50 60 123 40 25 40 12 63 7 54 26 38 7 84 32 8 7 9 8
internal_value=0.0165279 -0.916145 5.35827 -2.36796 0.424528 3.94954 -2.85843 1.13539 -0.0100678 8.80683 -1.56574 3.18988 -0.332684 -3.30635 0.236569 0.889104 -2.55005 -1.27298 -1.8882 1.10682 0.0986014 -0.173228 0.404094 -0.640406 -1.4305 0.738896 -1.08 0.0330178 -0.14128 -0.161154 -0.332515 -0.113195 0.18207 -0.464297 -0.0494307 0.0690976 -0.0100183 -0.0873478 0.0564028 0.0602531 0.00889206 -0.0290027 0.000274958 -0.197212 -0.201801 -0.0476425 0.030236 -0.00433316 0.110471
internal_weight=4705 4008 697 1923 2085 500 1188 789 1296 197 735 340 561 471 735 580 717 394 341 228 406 373 329 188 205 352 189 230 316 226 57 103 176 57 43 124 106 90 101 94 54 52 14 123 116 27 19 35 23
internal_count=4705 4008 697 1923 2085 500 1188 789 1296 197 735 340 561 471 735 580 717 394 341 228 406 373 329 188 205 352 189 230 316 226 57 103 176 57 43 124 106 90 101 94 54 52 14 123 116 27 19 35 23
is_linear=0
shrinkage=0.0985333


Tree=13
num_leaves=53
num_cat=0
split_feature=0 0 0 0 0 0 0 0 0 0 0 0 0 0 0 0 0 20 0 20 6 0 20 0 0 0 0 21 0 0 0 15 15 20 11 0 21 15 20 15 2 19 12 15 19 3 15 20 0 21 20 20
split_gain=1.97608e+06 645538 288384 57831.8 54219.5 46927.6 11645.5 10567.5 10296.3 8330.11 6050.61 5483.37 2584.58 1262.56 1143.53 797.69 543.462 447.738 341.004 313.653 306.358 272.406 267.047 207.954 61.3887 43.5247 27.5659 37.1678 25.7365 19.9878 12.0545 11.5194 15.0706 9.28814 6.11166 4.647 3.89257 2.37563 2.45289 2.0308 1.53744 1.49437 1.46724 1.42117 1.36396 1.0603 0.991694 0.985044 0.95671 0.319595 0.264206 0.208745
threshold=0.79304804269821016 -0.52226123785630907 2.2302269733976829 0.032731861945979872 -0.74255709830986927 1.5784555132638729 -0.42958173750707296 0.48800412919222164 -0.63112632887664299 3.2459356242113819 1.1283519625873959 -0.84304652654334367 -0.21995493090731008 0.23074069323401095 -0.57797995642312106 -0.4832481676785344 0.60846430537756235 0.27082989215337194 -0.097871788327810058 -0.82965897128644051 1.8636996044829235 -0.29838192378726774 0.029884466493125292 0.37391455121460676 -0.45326034553252287 -0.16485714480414101 -0.35572425031391303 -0.32681956629222092 -0.051652824347848368 -0.26439097242275317 0.084327249382656774 -0.45846432666565451 -0.482939374820824 0.98038145269285892 1.2953851375880145 -0.2463409804465421 0.27433129463864986 -0.27898971405254608 -0.17012864548779136 -0.32984951379348243 -0.4741226844235204 -0.41811444548501525 -0.70710678118654735 -0.27097959393080534 0.19250156324646336 -0.39358301199208084 -0.38093250523936995 0.50116462363393965 -0.41666988462234333 -0.66013396581799777 -0.11323230033260896 0.10544623272388672
decision_type=2 2 2 2 2 2 2 2 2 2 2 2 2 2 2 2 2 2 2 2 2 2 2 2 2 2 2 2 2 2 2 2 2 2 2 2 2 2 2 2 2 2 2 2 2 2 2 2 2 2 2 2
left_child=1 4 5 6 11 10 15 13 -6 -4 -2 -1 21 30 19 -3 -9 -16 25 -10 23 26 -21 -15 -17 36 27 31 33 37 -5 32 -8 -20 39 42 49 38 -23 41 -39 -28 -31 -44 45 -37 -36 -33 -29 -14 -42 -38
right_child=2 3 9 7 8 -7 12 16 14 -11 -12 -13 18 20 17 24 -18 -19 28 22 -22 29 -24 -25 -26 -27 34 48 -30 35 -32 47 -34 -35 46 44 51 40 -40 -41 50 -43 43 -45 -46 -47 -48 -49 -50 -51 -52 -53
leaf_value=-3.5150843164820853 2.3326354454448071 -0.81779154408961519 6.7460508062088778 0.4648217540467538 -2.0023234970910129 4.9371441021210236 -0.08386086080631075 1.2286065841876523 -0.66050665975722278 9.1503298860541005 3.3007228608922805 -2.6308722291363607 0.044096560763688432 0.77652772308761753 -1.1240933995079583 -0.54105794339354774 1.6768188218717874 -0.20386016970858631 0.26590758113340096 -1.5299277376088285 0.13904732663919114 -0.026056702519052368 -0.74342742205902013 1.0267770927108542 -0.36643022285619109 0.18729690810324573 -0.08877308207298848 -0.25177170924519909 0.35390887015834316 -0.013984943979101156 0.59766545845331775 -0.12864048232486511 0.072623732809178498 0.10509104346557203 -0.0076920692733257103 0.024530512976817784 0.062533031212151799 -0.081551236745272732 0.030920183776978288 -0.1216749779754281 -0.012507284008414925 -0.032356688709946325 0.038916991005041125 0.0015407143920963904 0.0075809026843426846 0.06036890085150233 -0.054994734116457625 -0.046880612821562792 -0.17431083333150221 0.110151990226347 -0.038246121850473838 0.027566593862233302
leaf_weight=113 182 131 108 94 491 160 11.000000000000002 114 11.999999999999998 89 177 754 6.9999999999999991 200 182 94 133 6.9999999999999991 80 275 6.9999999999999991 23.000000000000004 13.999999999999998 111 76 123 26 25 145 17 205 34 6.9999999999999991 9.9999999999999982 9.0000000000000018 18 11.000000000000002 8.9999999999999982 6.9999999999999991 73 10.000000000000002 11.999999999999998 14.999999999999998 22 8.9999999999999982 44 7.9999999999999991 6.9999999999999991 105 75 21 12.999999999999998
leaf_count=113 182 131 108 94 491 160 11 114 12 89 177 754 7 200 182 94 133 7 80 275 7 23 14 111 76 123 26 25 145 17 205 34 7 10 9 18 11 9 7 73 10 12 15 22 9 44 8 7 105 75 21 13
internal_value=0.0158632 -0.840707 4.76954 0.323926 -2.18812 3.51169 -0.0975487 0.944822 -1.67556 7.96826 2.83627 -2.75932 0.0681762 0.719917 -1.33666 -0.629707 1.48933 -1.09419 0.235791 -1.47507 0.861336 -0.0842743 -1.50086 0.875923 -0.471654 0.146799 -0.140164 -0.165218 0.319199 0.00742094 0.561564 -0.0921352 -0.0211388 0.252491 -0.0998698 0.0307553 0.0954705 -0.033743 -0.0109733 -0.108407 -0.0486317 -0.0750586 0.00818015 0.0186858 0.0467714 0.0517723 -0.0353876 -0.119318 -0.19521 0.106483 -0.0319931 0.0493386
internal_weight=4705 3989 716 2141 1848 519 1277 864 981 197 359 867 976 617 490 301 247 189 464 301 318 512 289 311 170 229 317 189 235 195 299 59 18 90 128 125 106 70 30 111 40 38 54 37 71 62 17 41 130 82 31 24
internal_count=4705 3989 716 2141 1848 519 1277 864 981 197 359 867 976 617 490 301 247 189 464 301 318 512 289 311 170 229 317 189 235 195 299 59 18 90 128 125 106 70 30 111 40 38 54 37 71 62 17 41 130 82 31 24
is_linear=0
shrinkage=0.0985333


Tree=14
num_leaves=84
num_cat=0
split_feature=1 15 1 15 15 1 1 15 15 4 15 1 3 1 1 1 3 15 1 4 1 4 1 15 1 1 15 15 3 4 3 15 16 7 7 1 17 1 1 1 15 3 21 1 15 12 16 1 7 3 17 4 19 16 1 4 4 17 18 16 21 17 1 3 4 1 4 15 17 16 21 12 15 1 15 1 21 3 4 1 16 21 4
split_gain=1.55362e+06 567675 177841 61682.4 53509.7 24778.4 21634.9 10944.7 9443.73 5831.5 5084.26 4784.2 2441.16 2365.16 2325.1 1663.68 1572.75 1130.19 970.033 914.505 898.632 898.044 735.22 677.765 628.86 624.215 472.327 384.929 350.369 303.864 251.642 225.147 281.536 219.859 304.665 184.554 179.15 174.836 156.049 140.958 126.5 124.182 123.863 120.836 105.624 89.0548 87.69 80.5853 72.4618 68.4756 65.9854 59.4315 91.2694 49.8145 47.2465 46.6688 45.1513 44.5784 43.1159 42.3055 42.167 40.5602 39.0653 38.7449 29.353 29.0828 27.6688 20.6176 19.6473 19.2638 14.1569 13.5463 12.5487 12.4607 11.9511 11.6262 11.5756 10.6156 10.2574 8.7096 7.31844 6.46676 6.18997
threshold=1.0479286195656179 -0.50162329653005633 2.281488084501528 0.11256965122398119 -0.74264335689749084 1.6557073498887875 0.56700207541911463 -0.28705493036591495 -0.6146811056561694 -0.47784157126401794 -0.86019800742727848 3.424853470986541 0.38524457182139576 -0.48726048913218517 0.30440172208395644 0.80823454823089236 -0.4001437619961255 -0.65976424900523944 0.38243981958400292 -0.40911440781096847 -0.27489709436473964 -0.50867733281329486 0.20703906606302205 -0.79196055492796946 0.053419485765625226 -0.7170319100302941 -0.15141439641069657 -0.46461900319534039 2.1254597395608967 -0.49613397218308053 -0.34803809529733598 -0.42157432728138217 -0.54467925193777444 -0.43338907110876912 1.3001672133263076 -0.42823032793567811 -0.36027875008534888 -0.32818472397479392 0.20703906606302205 -0.13719470192759123 -0.37332602286503086 0.26791173841572735 0.060159369977130457 -0.13719470192759123 -0.53656129364000249 0.85355339059327395 0.15259861220297741 -0.017171036427321432 -0.28892604740584604 0.56770948860055115 -0.59980400006166179 -0.019486268234935263 -0.40219272970730885 -0.44323985310228559 -0.15180053494727844 1.7810086222270829 -0.42139644842805341 1.3183762416907927 -0.018899002397849328 -0.043412454836850307 -0.2497083091324945 -0.56909010555507067 -0.017171036427321432 -0.42629167867891221 0.017621173629448733 -0.15860338302374949 -0.44648316968848212 -0.41655835120624607 -0.3753077017441564 0.38237102180928823 -0.22712598393905761 -1.1123724356957945 -0.37332602286503086 -0.35467675576279123 -0.17582676391200919 -0.5225361464085404 -0.4394790769861136 -0.23070526189166754 -0.46529821063380356 -0.25911898026525804 0.53624633196164273 0.34465344765330003 0.030164534259663062
decision_type=2 2 2 2 2 2 2 2 2 2 2 2 2 2 2 2 2 2 2 2 2 2 2 2 2 2 2 2 2 2 2 2 2 2 2 2 2 2 2 2 2 2 2 2 2 2 2 2 2 2 2 2 2 2 2 2 2 2 2 2 2 2 2 2 2 2 2 2 2 2 2 2 2 2 2 2 2 2 2 2 2 2 2
left_child=1 4 5 7 10 9 14 13 17 -2 -1 -4 20 25 24 -8 18 -6 65 33 35 27 43 -12 42 -3 56 68 66 47 40 32 58 44 -35 57 -33 53 45 59 -23 48 -5 -14 -18 50 62 -19 -21 71 -29 52 -38 67 79 81 69 76 -27 -28 74 -40 -41 -58 -45 -10 -16 -32 -15 -22 -65 -39 -55 -62 -37 -25 -9 -47 -75 -44 -71 -26 -51
right_child=2 3 11 6 8 -7 15 12 16 -11 23 -13 22 21 28 -17 19 29 -20 41 26 30 -24 75 55 31 39 38 -30 -31 37 36 -34 34 -36 60 51 49 61 46 -42 -43 54 64 -46 77 -48 -49 -50 82 -52 -53 -54 72 -56 -57 63 -59 -60 -61 73 -63 -64 70 -66 -67 -68 -69 -70 80 -72 -73 -74 78 -76 -77 -78 -79 -80 -81 -82 -83 -84
leaf_value=-3.5094136133548397 0.51438371204402356 -1.4241076690201619 6.3000505972825156 0.49104285073209269 -1.8233663036318337 4.645367105610938 1.4630863840784409 -0.019848766385921243 -1.2857620603589563 3.0129037684748083 -2.5570862398489078 8.5454557766026031 0.094355266292270965 -0.43790863378866818 0.46894864742167847 2.0569856811628351 -0.76289987146301785 -1.5224461693314559 -0.26720604494933431 -0.30882670669436663 -0.047813422252051395 -0.47538672211810923 0.87197032792146045 -2.2173790603649302 0.72669107944142874 -0.54027507584262957 0.21479771792069308 -0.08268427470361743 0.16991586951506016 -0.87866876397736127 -0.099258856462876799 -0.12441765795408948 -0.91904348756654142 -1.2194592875782417 -0.69385233716884165 0.035865097784246069 -0.15366750315229918 -0.060042040111384622 -0.13910666141591888 0.28689512508982129 -0.091605080816890533 -0.09743596130409414 0.019141938005745238 0.24693275318458144 -0.26929619276991934 -0.24271697116634541 0.16736867916122755 -0.64654154001087882 -0.64265209157033931 0.083477713499665637 -0.45528743535244043 -0.22329285412441727 -0.60264433893220848 -0.27019825800911579 0.31256411140141355 0.28840657402494108 -0.0062240399895375012 -0.37818556653234953 -0.20421049726530055 0.03714786375380074 -0.066706981956697053 0.08882100303708898 0.43287159331137937 0.2062099403083972 0.47457626603585812 -0.74174958154039106 0.99109774428787767 0.013440936560447274 -0.81609298669104358 0.096958038801948365 0.096727821587112309 0.050080006613424453 -0.090695201309309761 -0.051562389070534162 0.13396281089125758 -1.0013828633768866 -0.15064150018986089 -0.10864908782511858 0.043907621668950632 0.15717974267368318 -0.0051601595499298648 0.55815024284144388 0.26073460423461819
leaf_weight=56 10.999999999999998 6.9999999999999991 108 47 360 143 166 8.9999999999999982 261 254 396 71 12.999999999999998 22 9.9999999999999982 130 14.000000000000002 192 11.999999999999998 23 30 14.999999999999998 52 407 108 54 66 6.9999999999999991 6.9999999999999991 26 34 20 34 60 35 25 7.9999999999999991 9.9999999999999982 13.000000000000002 67 19 9.9999999999999982 7.0000000000000027 19 12.999999999999998 22 31 7.9999999999999991 26 7.0000000000000027 44 13.999999999999998 41 15.000000000000002 65 10.999999999999998 19 6.9999999999999991 9.9999999999999982 18 29 10.999999999999998 89 28 85 17 210 26 13.999999999999998 16.000000000000004 37 63 10.999999999999998 12.999999999999998 28 7.9999999999999991 42 20 30 17 9.9999999999999982 97 14.999999999999998
leaf_count=56 11 7 108 47 360 143 166 9 261 254 396 71 13 22 10 130 14 192 12 23 30 15 52 407 108 54 66 7 7 26 34 20 34 60 35 25 8 10 13 67 19 10 7 19 13 22 31 8 26 7 44 14 41 15 65 11 19 7 10 18 29 11 89 28 85 17 210 26 14 16 37 63 11 13 28 8 42 20 30 17 10 97 15
internal_value=0.0156065 -0.661591 4.74296 0.421688 -1.89546 3.55595 1.06141 -0.00432023 -1.41674 2.91698 -2.47133 7.33254 0.237562 -0.335686 0.704258 1.7442 -1.07314 -1.68516 -1.2242 -0.813108 0.141883 -0.187471 0.564478 -2.38539 0.536404 -0.617373 0.222218 -0.367242 0.952855 -1.4414 -0.0558371 -0.560641 -0.671602 -0.969766 -1.0563 -0.0392998 -0.408474 -0.00762506 -0.266918 0.297513 -0.288597 -0.454179 0.355245 0.40717 -0.58164 -0.322996 0.346331 -1.49874 -0.515997 0.0831449 -0.412465 -0.487722 -0.543989 -0.107248 0.26819 0.643236 0.0728915 -0.179334 -0.500644 0.179641 0.0286855 -0.0365659 0.37759 0.117159 0.44207 -1.2618 0.974818 -0.0523074 -0.6424 0.00359871 0.151752 0.0330037 -0.213428 -0.0204153 0.0926165 -2.20222 -0.130231 -0.191724 0.0133875 0.124256 0.0616014 0.657289 0.222967
internal_weight=4705 4118 587 2194 1924 408 875 1319 1057 265 867 179 763 556 579 296 471 586 290 181 594 368 169 811 352 188 411 153 227 226 215 181 98 122 95 183 83 181 117 271 34 59 136 117 27 93 187 200 49 95 51 63 49 86 89 216 140 58 64 84 125 24 156 84 104 278 220 60 36 56 65 73 26 72 53 415 51 42 43 24 26 205 22
internal_count=4705 4118 587 2194 1924 408 875 1319 1057 265 867 179 763 556 579 296 471 586 290 181 594 368 169 811 352 188 411 153 227 226 215 181 98 122 95 183 83 181 117 271 34 59 136 117 27 93 187 200 49 95 51 63 49 86 89 216 140 58 64 84 125 24 156 84 104 278 220 60 36 56 65 73 26 72 53 415 51 42 43 24 26 205 22
is_linear=0
shrinkage=0.0985333


Tree=15
num_leaves=68
num_cat=0
split_feature=0 0 0 0 0 0 0 0 0 0 0 0 0 0 0 0 5 5 0 0 5 18 15 0 15 0 0 15 15 0 3 0 0 0 5 15 3 15 20 0 21 4 3 20 15 0 15 15 18 5 3 19 19 18 7 15 3 16 15 3 0 7 15 0 11 20 5
split_gain=1.3248e+06 451079 172846 41723 40377.1 25488 8593.53 8326.74 6514.6 6133.37 3207.87 2283.65 1729.59 1536.46 1027.62 864.959 556.26 425.39 418.456 335.428 275.073 254.88 199.652 186.946 174.532 138.327 121.328 120.798 67.5482 112.578 66.9902 60.5859 40.3528 34 32.1439 31.7283 25.6961 23.0468 21.6166 19.8037 19.4997 18.1605 12.1331 8.7042 5.79159 5.63482 4.89907 4.55097 3.5981 3.58752 3.58697 3.05867 2.41652 2.15241 2.09739 1.61671 1.60903 1.33386 1.27228 1.85597 1.22525 1.16121 1.09403 0.627815 0.593724 0.549923 0.375625
threshold=0.87682287499280154 -0.50175249126069199 2.2302269733976829 -0.6631043793955772 0.1231000073894068 1.5784555132638729 -0.78631060560043775 0.55761557436356812 -0.26439097242275317 3.531339688718389 -0.6021663407664658 -0.86010803766390131 -0.44234991405042096 1.1283519625873959 -0.051652824347848368 0.37391455121460676 -1.9368576720467761 -1.9718899087270167 -0.54674886019664692 -0.75317402495265551 -1.641175844051409 2.0471161402962763 -0.62541669425997448 -0.15134680279782783 -0.50474875946799846 0.67749310580816691 -0.42204013300944659 -0.68905315075421725 -0.50474875946799846 -0.47325225369510032 -0.26978451191575964 0.032731861945979872 0.23074069323401095 -0.32977628702123968 -1.1701706436105688 -0.38093250523936995 -0.031886011769096508 -0.44675493664787064 0.95180271510616621 -0.22686958826310002 -0.64405261302873207 -0.69735038229276902 -0.41317017867082284 1.1271529871834998 -0.60210012115422895 -0.28698305460972962 0.098152997724859942 -0.49666430703365982 0.46337404637537433 0.56530205095632369 -0.031886011769096508 -0.28510760049680467 -0.0059998007252871684 0.11146305396415579 -1.4446302370292303 -0.50474875946799846 0.20268457170884849 -0.23051038076595973 -0.28705493036591495 0.13755248833536152 -0.097871788327810058 -1.4446302370292303 -0.08800786827365624 -0.2463409804465421 0.53656609248549347 -0.54187326571965355 0.54917630896942726
decision_type=2 2 2 2 2 2 2 2 2 2 2 2 2 2 2 2 2 2 2 2 2 2 2 2 2 2 2 2 2 2 2 2 2 2 2 2 2 2 2 2 2 2 2 2 2 2 2 2 2 2 2 2 2 2 2 2 2 2 2 2 2 2 2 2 2 2 2
left_child=1 3 5 6 8 13 11 15 12 -4 20 -1 28 -2 23 32 -8 -12 22 -18 -5 -17 -19 39 44 -9 41 -22 30 -30 42 -16 -6 35 -31 36 37 -28 54 51 -36 -14 -3 -40 -20 50 48 -43 61 -37 57 53 -33 65 -25 -38 -52 -35 59 -47 -56 -41 63 -53 -55 -10 -60
right_child=2 4 9 10 7 -7 16 25 14 -11 17 -13 26 -15 31 21 19 18 24 -21 27 -23 -24 38 -26 -27 33 -29 29 34 -32 52 -34 45 40 49 55 -39 43 46 -42 47 -44 -45 -46 58 -48 -49 -50 -51 56 62 -54 64 60 -57 -58 -59 66 -61 -62 -63 -64 -65 -66 -67 -68
leaf_value=-3.2020375006025872 2.0103406171571212 -0.17650766564114778 5.6760138959486293 -0.72097031656386112 0.50181009490909601 4.0508217943948077 -0.72818107492853668 1.1669306300278912 0.077917078343877511 7.7423281760290745 -0.11298653070810087 -2.3084784143007511 -0.059535253420712711 2.6908221582937384 0.28760314835683226 0.88761490455849457 -2.0141202757073788 -0.53134398910668434 -0.29472812784657215 -1.7198160562486966 -0.54076831494090971 0.17734428031866961 -1.0787035050794305 0.096569474902019822 -0.92755135848659565 1.5387513507942721 0.068686146510543916 -1.4229039623501514 -0.62214843178423174 -0.13056238914543469 -0.39816826573495823 0.48337625120211597 0.63353411982292795 -0.053056181779142501 -0.14900373535034592 -0.16242992856462621 -0.050322831941832055 -0.062445220338327313 -0.022807176938520805 0.027639179337681691 -0.43812853902575177 -0.11234294555828132 -0.010308678725272006 0.10794409509541154 -0.64416157262222484 0.023039023332370873 0.0019537065847208051 -0.28401550937118392 0.012204285090098927 -0.096348802427672478 -0.0088922042859667146 0.0013765132075522907 0.3538014655015892 0.021760333257916147 0.16875416249054587 -0.12984603537445424 -0.053959326066489378 -0.098595429400457651 -0.040952101231211124 -0.028906827977771617 0.22591271349155753 0.088791174535222742 -0.01731392356293503 0.022768954304394039 -0.011847595242644688 0.035477908161256975 -0.010506373453542493
leaf_weight=56 125 7 126 17 150 160 9.9999999999999982 95 7.9999999999999991 71 6.9999999999999991 453 6.9999999999999991 177 145 183 315 17 8.9999999999999982 373 6.9999999999999991 6.9999999999999991 220 11.999999999999998 66 133 15.999999999999998 298 66 7.9999999999999991 24 45 204 28 6.9999999999999991 93 8.9999999999999982 37 6.9999999999999991 6.9999999999999991 68 7.9999999999999991 7.9999999999999982 7.9999999999999991 75 10.000000000000002 7.9999999999999991 42 7.9999999999999991 30 16.000000000000004 25.999999999999996 104 6.9999999999999982 96 41 14.999999999999998 31 24 9.9999999999999982 73 118 11.999999999999998 25.000000000000004 7 22.000000000000004 7.9999999999999991
leaf_count=56 125 7 126 17 150 160 10 95 8 71 7 453 7 177 145 183 315 17 9 373 7 7 220 12 66 133 16 298 66 8 24 45 204 28 7 93 9 37 7 7 68 8 8 8 75 10 8 42 8 30 16 26 104 7 96 41 15 31 24 10 73 118 12 25 7 22 8
internal_value=0.0144878 -0.653753 4.09963 -1.74554 0.336383 3.01964 -2.10015 0.903146 0.0110732 6.53875 -1.1407 -2.42726 -0.225662 2.43453 0.207844 0.686222 -1.85107 -0.934757 -0.948514 -1.86375 -1.38036 0.865004 -1.04746 0.111851 -0.772535 1.40313 -0.113851 -1.40881 -0.471953 -0.508405 -0.303244 0.349894 0.582993 -0.0915132 -0.397155 -0.115299 -0.071217 -0.0211116 0.183083 0.0538492 -0.418734 -0.24487 -0.10607 0.0539451 -0.619571 -0.051855 0.0777524 -0.265402 0.0821493 -0.149321 -0.0665998 0.0209331 0.402789 0.039893 0.192599 -0.119627 -0.0338637 -0.0810312 -0.0238258 -0.00335193 0.19739 0.0861855 0.00633228 0.012629 0.00591199 0.0535424 -0.0350754
internal_weight=4705 4046 659 1923 2123 462 1207 772 1351 197 716 509 613 302 738 544 698 394 387 688 322 190 237 444 150 228 425 305 188 149 39 294 354 368 83 226 103 53 196 248 75 57 15 15 84 142 141 50 133 123 90 107 149 44 181 50 31 59 52 20 169 125 63 51 14 30 32
internal_count=4705 4046 659 1923 2123 462 1207 772 1351 197 716 509 613 302 738 544 698 394 387 688 322 190 237 444 150 228 425 305 188 149 39 294 354 368 83 226 103 53 196 248 75 57 15 15 84 142 141 50 133 123 90 107 149 44 181 50 31 59 52 20 169 125 63 51 14 30 32
is_linear=0
shrinkage=0.0985333


Tree=16
num_leaves=71
num_cat=0
split_feature=0 0 0 0 0 0 0 0 1 0 0 0 0 0 0 0 17 17 0 17 4 5 5 0 18 4 0 0 0 0 0 1 0 19 20 0 19 18 20 0 4 18 20 19 17 19 0 20 4 17 3 5 0 5 0 19 6 17 0 19 19 18 20 7 17 20 19 7 7 19
split_gain=1.08294e+06 373535 135760 34909.1 33921.5 19724.8 7680.24 7396.07 5718.18 5363.32 2420.69 2170.52 1727.29 1426.91 840.007 717.19 360.116 307.646 208.103 184.323 180.754 175.012 155.714 153.527 149.915 149.491 121.889 101.367 51.0584 50.8747 49.7827 49.7157 43.9287 30.5096 23.1199 22.9807 17.7577 18.3618 17.1761 16.3285 11.1077 10.6087 7.55001 7.33368 6.4077 6.06712 4.67572 4.27255 4.13674 3.01191 2.9227 2.80178 2.39438 2.07642 2.00821 1.7318 1.57668 1.49236 1.39913 1.30089 1.07795 1.25197 0.9648 0.865573 0.803629 0.603953 0.481932 0.35296 0.266016 0.239842
