tree
version=v4
num_class=1
num_tree_per_iteration=1
label_index=0
max_feature_idx=21
objective=regression
feature_names=Column_0 Column_1 Column_2 Column_3 Column_4 Column_5 Column_6 Column_7 Column_8 Column_9 Column_10 Column_11 Column_12 Column_13 Column_14 Column_15 Column_16 Column_17 Column_18 Column_19 Column_20 Column_21
feature_infos=[-0.88517591716325583:6.619827586865358] [-1.153978972134545:6.247707617008297] [-0.9389835826948959:5.709285717045705] [-0.89119725356330592:7.5793221482375159] [-0.93940719078795198:5.7139117177744581] [-2.2292951342387979:1.754418875589417] [-0.90084304273145055:7.5104967897404338] [-1.6588791070197122:1.6617474858791121] [-0.77357105254640035:1.292706076201088] [-0.64608394551514836:1.5477864864800706] [-1.0416154240120201:1.0598817487754877] [-1.4155235452656225:1.413159055795191] [-1.4156289804871924:1.4125480685452749] [-1.3557494809241493:1.3903490643770344] [-1.281880600075147:1.4181803833865843] [-0.88527090247836049:6.6199798959249065] [-1.1540198225254619:6.2477413428444999] [-0.93910598948043578:5.709503475765823] [-0.89130344534795936:7.5795761036488383] [-0.95225778608223066:5.3115978484060484] [-1.2341882611308261:5.0491305907169091] [-1.0080392570628871:7.3975346051876985]
tree_sizes=7443 3054 7612 7818 3748 7589 3904 7648 3894 7449 4498 7556 4229 5649 7558 5678 6044 6519 7032 6992 7253 7482 7511 7702 7765 7695 7562 7710 7755 7708 7592 7676 7655 7653 7666 7625 7673 7728 7603 7670 7659 7724 7720 7758 7795 7777 7759 7886 7825 7885 7827 7839 7925 7786 7829 7899 7922 8000 7946 7974 7946 8091 7988 7994 7921 8050 7894 8032 7960 7950 7969 8006 8045 7511 7997 8065 7058 8102 7463 7964 7564 8054 8247 4679 7920 8075 8122 6621 4546 8070 8148 7559 8135 7037 8252 8091 7084 8198 8204 5356 7735 7911 7971 6890 8153 7572 8100 8350 8189 6329 5785 6851 8178 7761 6662 5842 4402 8322 8253 8190 8155 5850 4457 8252 8185 8210 6747 6115 8312 8170 6477 7125 8171 5943 8141 6354 8077 6548 8043 8091 5970 5004 7265 6973 8259 7114 7842 6907 6338 6898 8158 6477 7996 7972 8027 5856 7293 8344 7001 8187 8253 7941 5219 4325 6561 8154 4863 8257 8259 4178 6087 4534 8162 5820 8212 7967 5966 6839 5024 5204 5637 5887 8237 6871 6641 8243 7360 8162 7844 8136 6946 7096 4611 5026 7918 8420 8101 8003 4400 8174 4912 7390 4976 6100 5457 6913 7061 4599 4229

Tree=0
num_leaves=84
num_cat=0
split_feature=15 15 15 3 15 6 15 15 15 6 15 15 16 15 3 15 15 3 3 16 15 15 3 11 3 11 15 21 5 19 5 19 10 21 3 5 21 5 3 19 11 15 19 11 15 15 15 19 15 16 21 3 11 3 6 3 3 16 3 3 19 3 12 12 15 5 21 10 6 16 19 11 12 21 16 21 3 21 16 11 16 3 16
split_gain=2.54419e+07 7.5739e+06 4.64647e+06 940632 690042 623416 569737 202278 129821 100255 98666.2 74219.6 63045.3 48617.7 38094.4 36348.7 31093.3 25190.5 15386.7 11666.1 11224.2 10608.9 8342.97 6995.93 6086.01 4961 4778.68 4647.25 3940.15 3669.62 3437.13 2469.14 2409.72 2308.32 2237.76 2138.28 2129.59 1940.61 1706.51 1655.94 1385.39 1179.22 1207.82 1074.03 1006.4 954.582 829.219 827.215 819.487 815.316 798.915 546.417 540.354 481.531 473.136 419.535 413.536 397.345 387.902 369.661 369.139 366.327 346.379 311.194 310.447 293.784 264.634 261.193 246.274 228.287 213.383 197.389 170.735 143.091 135.754 133.638 203.437 127.904 103.577 103.499 102.069 56.7407 52.0028
threshold=0.47996369821247492 -0.53199762824930186 1.778002792244022 1.0980175896059174 -0.70326492439616828 1.4520066990445357 -0.19547805702047344 1.0243206413007808 1.2483218168196772 0.39352467745004521 -0.42072707085187594 -0.61978485553108875 2.3030817210468117 -0.80848367259465059 0.24032568526733653 0.040313462222966855 0.12994265157771798 -0.034555974051865869 0.070124463270526669 0.41152243717250508 -0.49282076331534658 -0.33150717826500958 -0.25394554022844928 1.0000000180025095e-35 0.91463580159588664 -1.2966843873604366 0.1892581882707037 1.8961261181329565 0.66744936537344135 -0.17922516208005146 0.14315535168046625 -0.069523777505273457 -0.69136589521410208 0.33056769532697355 -0.3324558682202437 -0.096417295627990743 -0.047377453495032716 0.55132080348849166 -0.55337361596357748 -0.40818448643618582 -1.1136551549342679 -0.32096363689175028 -0.29339102639499931 -1.1136551549342679 -0.15752073714700041 -0.44966852381184946 -0.11585574659426896 0.23509331125868421 -0.25359140675877523 0.67999363897968557 -0.27196089184229705 0.48913274660386225 -1.1136551549342679 -0.10991442756223783 -0.48791105195714907 0.017784244609330389 -0.22118514789124077 -0.47257581704558121 -0.58298213381936359 0.30584646994175363 0.8589647872006354 0.63316385927007401 -1.2968110619311308 -1.2968110619311308 -0.055863980458690947 0.22844920262036897 0.051573749138010293 0.70963221997756987 -0.033222853749365448 -0.10828787641623837 -0.085080436974173126 0.53543231282355463 0.53497819596096197 -0.22646213827500297 -0.17760606862564635 -0.098823402105489441 -0.41765199056657037 -0.3742020321587915 -0.4390893530337599 0.8524482426560116 0.38012251904879962 -0.16874941788212264 -0.28148884866749896
decision_type=2 2 2 2 2 2 2 2 2 2 2 2 2 2 2 2 2 2 2 2 2 2 2 2 2 2 2 2 2 2 2 2 2 2 2 2 2 2 2 2 2 2 2 2 2 2 2 2 2 2 2 2 2 2 2 2 2 2 2 2 2 2 2 2 2 2 2 2 2 2 2 2 2 2 2 2 2 2 2 2 2 2 2
left_child=1 4 3 8 13 12 10 -5 14 15 17 -6 -4 -1 23 34 37 20 21 22 53 29 -13 49 40 -26 33 -16 41 38 -24 48 60 -17 36 71 46 -11 67 45 -18 42 65 61 70 -22 77 62 54 -2 80 66 -35 -3 63 -32 -47 -30 -33 79 -28 -37 -46 -23 -38 82 -43 -12 -10 -52 -36 -19 -68 -56 -60 76 -50 -8 -67 -45 -40 -77 -20
right_child=2 6 5 7 11 -7 9 -9 68 16 18 19 -14 -15 27 26 24 35 28 -21 39 31 30 -25 25 -27 32 -29 57 -31 55 58 -34 52 44 43 64 -39 50 -41 -42 51 -44 59 47 56 -48 -49 75 -51 69 -53 -54 -55 73 -57 -58 -59 74 -61 -62 -63 -64 -65 -66 78 72 -69 -70 -71 -72 -73 -74 -75 -76 81 -78 -79 -80 -81 -82 -83 -84
leaf_value=147.08947320152765 161.20171126750591 154.56325826710341 172.214057493897 168.9352022400335 151.41491977615865 186.81555911957247 158.90691570298486 175.15788159742357 164.45360086306417 160.18239345782771 156.27149107142267 153.01780805498896 179.59678411078738 149.07677771157037 165.53616277610922 160.40434684172232 159.743963082276 156.49895981102659 158.0913347102624 157.07320992442132 156.17749440556975 157.45642175668237 154.11414062005946 163.74742043304769 160.13317520445381 164.12856074722782 161.27039431290819 160.9115993039581 158.85601507785796 156.33926360424402 155.8558638877023 157.16842869037777 159.95449351413293 158.60801277749931 159.02503002874053 156.98194471527313 158.22955616718193 161.25846624916468 157.99004343340019 155.50871873100732 162.27266134438335 158.80152105529811 157.43638174992574 157.75742306429822 158.99935946383843 156.91388950994696 159.37940712067851 158.89061097300677 158.51230332176081 162.61633996146304 157.34737377534145 159.24115490182862 159.59977797200813 156.86761852109166 158.50483499211009 157.51314092696441 157.99728276758182 159.80587609940935 157.77907566390402 158.44385803474538 160.30533230081832 158.01924161619479 159.78306075976087 158.16649320064917 158.69252950734969 158.44372092141191 158.1489954944669 157.51175701726413 168.95166899390136 157.98053620824547 158.43559634144185 157.7124934515686 158.60614242545159 158.22323063804853 158.30105803045157 158.28160974972721 158.94539946712607 158.51745359243009 158.8347356509224 158.23663610099607 158.39596039346512 158.55099686938183 158.40545337707823
leaf_weight=276 45 98 61 119 433 176 36 150 17 52 11 319 54 737 133 115 6.9999999999999991 18.000000000000004 12.000000000000002 10.999999999999998 70 8.0000000000000018 63 95 6.9999999999999991 71 148 6.9999999999999991 9.9999999999999982 41 16.000000000000004 12.999999999999998 37 7.9999999999999991 19.000000000000004 13.000000000000002 32 88 32 51 85 33 10.999999999999998 16.000000000000004 13.999999999999998 35 73 20 24 55 49 18 43 6.9999999999999991 29 6.9999999999999991 6.9999999999999991 32 30.999999999999996 19 35 7.9999999999999991 97 19 20 12.999999999999998 12.000000000000002 11 76 12.999999999999998 8.9999999999999982 6.9999999999999991 12.999999999999998 35 7.0000000000000027 10.000000000000002 20 13.999999999999998 13.000000000000002 8.9999999999999982 6.9999999999999991 14.999999999999998 6.9999999999999991
leaf_count=276 45 98 61 119 433 176 36 150 17 52 11 319 54 737 133 115 7 18 12 11 70 8 63 95 7 71 148 7 10 41 16 13 37 8 19 13 32 88 32 51 85 33 11 16 14 35 73 20 24 55 49 18 43 7 29 7 7 32 31 19 35 8 97 19 20 13 12 11 76 13 9 7 13 35 7 10 20 14 13 9 7 15 7
internal_value=158.394 154.729 172.452 168.006 150.247 182.868 159.043 172.57 165.049 160.626 157.244 152.364 176.187 148.5 164.037 159.975 162.103 155.98 158.079 153.4 155.503 157.725 153.312 162.976 163.017 163.858 160.624 165.37 158.839 157.139 154.564 158.193 160.954 160.144 159.21 157.452 158.949 160.911 157.453 156.108 162.135 158.561 158.223 157.803 159.48 156.457 159.167 159.597 158.388 162.093 157.668 158.807 159.468 154.665 158.197 156.184 157.052 159.632 157.62 158.118 161.124 157.272 159.705 157.876 158.416 158.468 158.632 156.693 168.371 157.452 158.862 156.718 158.385 158.351 157.861 158.637 158.735 158.813 158.669 157.892 158.058 158.444 158.193
internal_weight=4787 3799 988 697 1862 291 1937 269 428 1030 907 849 115 1013 335 720 310 358 549 416 268 375 405 195 170 78 386 140 174 164 86 211 220 166 334 90 175 140 123 163 92 132 56 65 159 112 123 131 160 100 101 76 51 105 91 23 42 42 51 44 183 21 111 27 52 45 58 22 93 62 28 25 25 64 38 69 44 50 26 25 39 25 19
internal_count=4787 3799 988 697 1862 291 1937 269 428 1030 907 849 115 1013 335 720 310 358 549 416 268 375 405 195 170 78 386 140 174 164 86 211 220 166 334 90 175 140 123 163 92 132 56 65 159 112 123 131 160 100 101 76 51 105 91 23 42 42 51 44 183 21 111 27 52 45 58 22 93 62 28 25 25 64 38 69 44 50 26 25 39 25 19
is_linear=0
shrinkage=1


Tree=1
num_leaves=34
num_cat=0
split_feature=0 0 0 0 0 0 0 0 0 0 0 0 0 0 1 0 1 0 0 0 0 0 0 0 0 0 0 1 0 0 0 0 6
split_gain=2.23977e+07 7.3654e+06 3.15003e+06 619639 603709 309590 222683 112561 112255 69554.5 54504.7 22445.3 20270.2 17988.1 6754.01 6390.75 3978.59 3934.72 3184.06 2687.5 1744.97 1535.65 456.854 272.519 224.021 118.776 80.8691 80.1576 46.935 20.7944 6.69745 6.28289 1.23532
threshold=0.7765394373407869 -0.50592042081149302 1.9513478014503269 -0.68850585032300049 1.0000000180025095e-35 1.2969743690487865 2.6532312902434056 0.49524940166573056 -0.42081745672754983 -0.59655668583769517 -0.78858718123960114 -0.22225696107721424 0.22372265649679313 0.99294865743152372 0.53226307716965182 -0.46452287521713159 0.19277623951392484 -0.54522245856346008 -0.30691620305891193 -0.13291116193353239 0.58956414018499947 0.084344859488983848 -0.36512652298611808 -0.075697565008189985 -0.25351723497676509 -0.4335543183852672 -0.18377780625161891 0.39401532854732024 -0.27724148462775072 -0.32088724522742479 -0.23399365815307885 -0.28883179369592776 0.17553019145811835
decision_type=2 2 2 2 2 2 2 2 2 2 2 2 2 2 2 2 2 2 2 2 2 2 2 2 2 2 2 2 2 2 2 2 2
left_child=1 3 5 10 8 13 -4 12 15 16 -1 18 21 -2 17 -3 -5 -11 22 26 -9 -6 27 -21 28 -17 -13 -10 31 -24 -26 -20 -30
right_child=2 4 6 9 7 -7 -8 20 11 14 -12 19 -14 -15 -16 25 -18 -19 24 23 -22 -23 29 -25 30 -27 -28 -29 32 -31 -32 -33 -34
leaf_value=-9.8820722132865448 7.2494024846657243 -2.4641778349589112 19.71664059589915 -6.0523688943841396 1.5146436564193462 13.945272946431992 27.793885775649411 4.1089721197740854 -0.57817657454915938 -4.4710652772565336 -8.1288820954182466 0.33341800285159001 2.9526666330479436 9.6784436470933191 -0.83720334655111961 -1.564815344409167 -2.0860050742463057 -3.3501887355406983 -0.11092638269698092 0.79113242259381433 5.4221841565462716 2.0577319820105027 -0.32690692302633267 1.0965339532708931 0.1354803593849436 -1.0396792381072539 0.51510683927942769 -0.14466247249776379 0.041532681645187981 -0.19717590464910401 0.21781048566400782 -0.033913809700099946 0.0026095384393538036
leaf_weight=412 133 152 110 486 151 206 144 95 142 241 674 76 340 148 7.9999999999999991 95 6.9999999999999991 108 38 112 132 208 95 130 56 38 92 6.9999999999999991 46 38 38 19 9.9999999999999982
leaf_count=412 133 152 110 486 151 206 144 95 142 241 674 76 340 148 8 95 7 108 38 112 132 208 95 130 56 38 92 7 46 38 38 19 10
internal_value=0.016182 -2.87151 15.725 -7.25491 1.15558 10.9581 24.6007 3.03533 -0.319021 -5.22495 -8.82259 0.222801 2.39568 8.62857 -4.09376 -2.01072 -6.01064 -4.15966 -0.227634 0.757496 4.94094 1.84556 -0.441086 0.968035 0.0655697 -1.44426 0.441111 -0.561471 -0.0280388 -0.295647 0.175168 -0.088593 0.0351286
internal_weight=4787 4046 741 1936 2110 487 254 926 1184 850 1086 899 699 281 357 285 493 349 489 410 227 359 282 242 207 133 168 149 113 133 94 57 56
internal_count=4787 4046 741 1936 2110 487 254 926 1184 850 1086 899 699 281 357 285 493 349 489 410 227 359 282 242 207 133 168 149 113 133 94 57 56
is_linear=0
shrinkage=0.0985333


Tree=2
num_leaves=84
num_cat=0
split_feature=1 15 1 15 15 1 1 5 1 15 15 5 15 1 5 1 5 1 4 5 5 5 5 15 3 1 5 15 1 1 1 1 1 1 1 1 1 15 5 3 1 5 1 5 4 1 1 15 3 1 4 5 5 5 1 5 15 15 5 5 1 5 5 2 1 5 5 5 11 1 1 1 1 5 5 1 1 1 5 16 5 1 17
split_gain=1.76172e+07 5.87619e+06 2.82513e+06 511272 499887 298967 181154 136123 118905 92481.4 64990.2 53917.6 33531.6 28857.5 17817.1 17090.9 12678.4 12018.8 9905.38 7089.51 6824.39 6804.46 5509.3 4966.67 4395.26 4203.01 2952.4 2915.39 2741.31 2541 2325.08 2209.04 2097.97 2010.88 1897.59 1620.89 1489.77 1233.01 1098.87 949.579 607.272 605.274 598.729 586.255 556.831 525.282 515.515 484.94 476.316 423.02 393.113 389.275 369.601 335.041 305.978 292.79 291.124 287.906 269.403 211.593 201.31 200.408 197.575 162.683 131.972 121.602 79.04 74.7441 69.5263 61.0825 56.5715 53.9401 38.4809 36.1507 28.2146 26.3076 23.1366 20.1018 19.3654 18.9953 14.4854 11.1969 8.98124
threshold=0.77639818996745358 -0.51335337659482494 1.9453427709874138 -0.70707522430042424 -0.033881032979968549 1.271959789571498 2.738391793901414 0.31596069827438361 0.36669633598288848 -0.33150717826500958 -0.61652611289177284 0.40281438452186452 -0.81479983607592854 -0.55223461100103965 0.91028398353247209 -0.01766500827346788 0.0491131803167262 -0.27311373369004538 -0.47432540459960809 0.35149284729191688 0.68519435391206185 0.89898973809691707 0.50742516985277042 -0.44451759800169316 0.096294572601124825 0.39401532854732024 0.41335274210314144 -0.55185454157747882 0.063407633041558067 -0.41922280649703919 0.49397201597221602 -0.62021348919340147 -0.36982395647700245 -0.16897743782200961 -0.37779058334801535 0.47140699050324603 0.11235297949237737 -0.15752073714700041 0.64825079304753908 -0.34563643423346468 0.16324051985366186 0.2864810527842741 -0.51248298927087799 0.59145875397352043 -0.4431101014093019 -0.17757505606281471 -0.049984489131393355 -0.067043751660717243 0.44987758260796523 -0.35407009531141626 -0.46199667140679807 0.83456545100446233 -0.29557282747470243 0.4877838136096681 -0.48448281351076844 0.36313785345594179 -0.27731643813804102 -0.38749054568944458 0.55132080348849166 0.30779519609114753 -0.34568892441052751 -0.20984016990135901 0.76437700157175892 0.17115553516838339 0.96289645422403802 0.14315535168046625 0.80032255222278137 0.96185175604713502 0.8524482426560116 -0.24617189656531488 -0.24617189656531488 -0.16897743782200961 -0.34568892441052751 0.12808336183613561 0.51908357270511185 -0.27311373369004538 -0.43431736975253016 -0.30955980345672424 0.19278859720043567 -0.34547518568314134 0.33143665267243311 -0.36285687546879347 -0.34159295123317673
decision_type=2 2 2 2 2 2 2 2 2 2 2 2 2 2 2 2 2 2 2 2 2 2 2 2 2 2 2 2 2 2 2 2 2 2 2 2 2 2 2 2 2 2 2 2 2 2 2 2 2 2 2 2 2 2 2 2 2 2 2 2 2 2 2 2 2 2 2 2 2 2 2 2 2 2 2 2 2 2 2 2 2 2 2
left_child=1 3 5 12 9 7 -4 47 15 13 -5 -7 -1 22 26 33 23 29 25 37 40 -9 -3 44 39 27 50 -12 45 42 -16 -24 41 58 -25 -28 -22 48 59 -20 65 54 51 -35 -15 74 71 64 56 -46 -10 -11 57 78 -18 70 68 -36 75 73 -60 82 76 -58 -2 -17 81 -55 -19 -57 -34 -39 -61 -31 -21 -6 -43 -75 -44 -54 -26 -40 -48
right_child=2 4 6 10 8 11 -8 21 14 17 18 -13 -14 16 30 20 32 19 24 28 36 -23 31 34 80 -27 35 -29 -30 38 -32 -33 55 43 52 -37 -38 46 66 -41 -42 62 53 -45 49 -47 61 -49 -50 -51 -52 -53 79 67 -56 69 63 -59 60 72 -62 -63 -64 -65 -66 -67 -68 -69 -70 -71 -72 -73 -74 77 -76 -77 -78 -79 -80 -81 -82 -83 -84
leaf_value=-9.3733765055146225 0.067352458088388537 -3.1290149152399813 18.330174563894097 -5.6595526111342416 0.028782564309595176 2.7467212207707772 25.573131501931314 6.4597421537678761 0.91689939918446872 -1.165492241956477 -4.4765428736969168 12.422261887009331 -7.6424427948900915 -2.0506496681353572 3.759585370300266 0.55124481564353056 -1.1201697844295493 -0.13726740297755241 -3.8714787381421694 0.31401888118412424 1.9562587418303246 8.5498908334303572 -2.177183693787542 -1.4601894535277329 -1.2674533846620317 -1.5577890662119536 2.6360318861660996 -3.3200669938340059 2.0808078076213801 -0.37332557106520842 5.4682329625095925 -0.81449007816239527 -0.12312457503286041 0.71372582389269723 -0.89618213094607524 3.9708725781241232 2.6779994411828736 0.071523763612336602 0.060481916704327711 -2.3939404815164167 1.8903768938875998 -0.37033186441146493 -0.78397260208668718 1.4057994838847465 -1.5196490275852537 1.1778618027589034 0.53205852125561248 1.2008889117840857 0.70767243090598442 -0.57140354402716675 2.5055179216418688 -0.26571933757492894 -0.31559388083022399 -0.19677797688589338 -0.39727185577965546 0.2906477844484765 0.2901968279231068 -0.38830957685226092 0.085089056113768061 -0.068239337597309727 0.69602920345814701 1.053457510682577 0.081421350196169986 -0.056637961662490799 0.53776577399461167 1.3801837116111091 0.51085776650070092 0.11486991054384309 0.14888166454653748 0.66740573257754443 0.1787345096394235 0.3968690404789566 0.11125531858142985 -0.21631423012316081 0.71845553748266588 0.25330533237008956 -0.14514974977160433 -0.01296778974842025 -0.38495874773870453 -0.10449556697699469 -0.49266789815659434 0.25398570658957198 0.18875205933349551
leaf_weight=236 13.000000000000005 80 127 471 9.0000000000000018 7.9999999999999991 126 99 6.9999999999999991 19.000000000000004 267 217 758 74 52 7.9999999999999991 13.000000000000002 29 27 9.9999999999999982 101 153 36 38 11.000000000000002 10.999999999999998 45 84 31 21 97 25 11.000000000000002 29 39 104 176 9.0000000000000018 7.0000000000000027 44 77 38 9.0000000000000018 67 22 75 7 6.9999999999999991 14.999999999999998 12.999999999999998 45 8.9999999999999982 11.000000000000002 22.000000000000004 18 19 95 26 6.9999999999999991 19 46 33 12.999999999999998 13.999999999999998 8.9999999999999982 102 37 7.9999999999999991 7.9999999999999991 12.999999999999998 6.9999999999999991 15.999999999999998 21 10.000000000000002 39 11.999999999999998 11.999999999999998 7.9999999999999991 18 12.999999999999998 6.9999999999999991 10.999999999999998 6.9999999999999982
leaf_count=236 13 80 127 471 9 8 126 99 7 19 267 217 758 74 52 8 13 29 27 10 101 153 36 38 11 11 45 84 31 21 97 25 11 29 39 104 176 9 7 44 77 38 9 67 22 75 7 7 15 13 45 9 11 22 18 19 95 26 7 19 46 33 13 14 9 102 37 8 8 13 7 16 21 10 39 12 12 8 18 13 7 11 7
internal_value=0.0185015 -2.57911 13.7543 -6.52535 1.00562 9.39863 22.2269 7.09826 2.62467 -0.410376 -4.82183 12.124 -8.08378 -1.36916 4.07991 1.80394 -0.908265 0.415588 -3.91138 0.742789 2.11442 7.82511 -2.56094 -1.34793 -2.75361 -4.16792 3.34992 -4.23408 1.25336 -0.166587 4.96854 -1.69078 -0.173316 0.931801 -0.890174 3.63514 2.44159 0.390071 0.101543 -3.1062 1.59505 -0.442234 -0.577007 1.22812 -1.83847 0.996784 0.721459 0.624639 0.230086 -1.24878 2.36067 -0.936051 -0.60228 -0.358112 -0.780742 0.328239 0.166117 -0.722268 0.510539 -0.133023 0.625279 0.909225 -0.244396 0.245284 0.305784 1.33813 0.426665 -0.110452 -0.0681113 0.492842 0.00395557 0.302215 0.0273181 -0.286543 0.661507 0.174416 -0.328902 -0.142281 -0.590385 -0.228267 -1.09166 0.200197 0.430497
internal_weight=4787 4028 759 1916 2112 506 253 281 984 1128 922 225 994 521 350 634 380 607 451 388 464 252 141 236 89 362 201 351 155 219 149 61 144 170 127 149 277 233 134 71 187 94 85 96 109 124 72 29 161 35 52 28 89 57 31 50 146 65 74 79 53 47 63 109 22 110 55 30 37 32 18 25 40 39 49 21 50 18 27 24 18 18 14
internal_count=4787 4028 759 1916 2112 506 253 281 984 1128 922 225 994 521 350 634 380 607 451 388 464 252 141 236 89 362 201 351 155 219 149 61 144 170 127 149 277 233 134 71 187 94 85 96 109 124 72 29 161 35 52 28 89 57 31 50 146 65 74 79 53 47 63 109 22 110 55 30 37 32 18 25 40 39 49 21 50 18 27 24 18 18 14
is_linear=0
shrinkage=0.0985333


Tree=3
num_leaves=84
num_cat=0
split_feature=1 15 1 15 15 1 1 1 15 15 15 15 1 1 1 17 3 4 3 4 1 1 1 1 1 15 1 1 3 4 3 4 15 1 4 4 15 15 1 1 2 7 16 11 1 2 15 12 17 4 20 16 15 2 16 12 11 14 15 11 15 17 19 6 20 15 15 3 2 15 12 3 19 20 19 15 4 12 7 4 3 15 12
split_gain=1.44022e+07 5.16896e+06 1.87152e+06 479084 471714 191969 150508 105964 90683.3 73403.1 48809.5 44054.8 25684.2 16451.6 13781.1 12123.4 8378.53 6349.65 6121.91 5343.36 4991.82 4815.49 4390.41 3533.05 3250.42 3069.22 2613.76 2231.24 1894.07 1579.76 1269.51 1122.2 719.078 616.416 601.647 531.965 509.153 442.001 435.314 425.176 416.405 383.928 374.191 351.395 340.405 302.725 287.023 251.485 232.727 230.09 222.27 204.082 370.693 133.803 120.34 115.454 113.044 112.565 92.6451 91.9709 86.3763 85.424 83.3228 78.2858 48.052 45.3798 41.084 39.472 37.7149 36.9914 33.8843 30.005 26.519 26.1748 24.7222 24.5911 22.2081 16.8228 14.6703 14.5767 8.3619 8.165 3.66738
threshold=0.93596771488798725 -0.49590209184016198 2.0325791197250749 0.030976827183288959 -0.68043632177243796 1.4035464977202177 0.54725392832482356 2.9260298799629831 0.25451675823438896 -0.32096363689175028 -0.77805822820641868 -0.57974234140055292 0.17569638924863118 -0.52280959416488881 -0.17757505606281471 0.11550813298018033 0.057039408605227569 -0.19915857227497602 -0.047736540065086812 -0.42422353141180569 0.22914590224049367 0.66125707117628174 -0.076110119979541882 -0.41922280649703919 0.063407633041558067 -0.43797611295476618 -0.43431736975253016 0.36669633598288848 -0.44382209989716864 -0.21804514227247224 0.070124463270526669 -0.31798657517588963 -0.1838496800775514 -0.24617189656531488 -0.45570114807429934 -0.03337645785250945 -0.36468808382053358 -0.44966852381184946 -0.59179103247876863 -0.27311373369004538 -0.061220056446261537 1.0120596742249945 -0.48878838198537317 0.36487622011712156 -0.20617355726847506 -0.23298759822707268 -0.28890712911386557 -1.0014520408544672 -0.0086263175019044725 -0.43681457807680318 -0.77423911758749087 -0.28148884866749896 -0.15752073714700041 0.12907446378584503 -0.12561402971142113 0.53497819596096197 0.36487622011712156 1.0000000180025095e-35 -0.2285763619346132 0.8524482426560116 -0.1838496800775514 -0.30533283462542032 -0.13165695630915017 0.088942431090556398 -0.30033271361722708 -0.10224957004089998 -0.10224957004089998 -0.20160532156725317 -0.068895128151096122 -0.25359140675877523 -0.001540455970958831 -0.021470919386566794 -0.48472169247554675 -0.68816506873185213 -0.40082921942783639 -0.20574413344660797 0.64811394289047819 -0.001540455970958831 0.57893446645558255 -0.5244272777874105 -0.3847960868814399 -0.1838496800775514 -0.53805910790287881
decision_type=2 2 2 2 2 2 2 2 2 2 2 2 2 2 2 2 2 2 2 2 2 2 2 2 2 2 2 2 2 2 2 2 2 2 2 2 2 2 2 2 2 2 2 2 2 2 2 2 2 2 2 2 2 2 2 2 2 2 2 2 2 2 2 2 2 2 2 2 2 2 2 2 2 2 2 2 2 2 2 2 2 2 2
left_child=1 4 5 9 10 8 12 -4 75 13 -1 19 22 28 23 -7 26 32 25 20 -6 -8 44 38 46 42 50 -14 -3 37 -21 -18 56 48 -28 -26 41 -20 -11 45 59 43 -15 -27 -5 62 -19 -37 63 55 -13 -41 70 66 -54 60 69 65 -59 -39 -40 80 77 -31 -48 -47 -34 -58 -51 71 -53 -16 -35 -33 -43 -2 -30 -25 -63 -24 -38 -70 -71
right_child=2 3 7 6 11 15 21 -9 -10 14 -12 16 27 18 17 -17 31 24 29 30 -22 -23 79 39 35 36 34 -29 76 33 -32 73 53 72 -36 47 61 40 49 51 -42 74 -44 -45 -46 57 64 -49 -50 68 -52 52 54 -55 -56 -57 67 58 -60 -61 -62 78 -64 -65 -66 -67 -68 -69 81 82 -72 -73 -74 -75 -76 -77 -78 -79 -80 -81 -82 -83 -84
leaf_value=-7.9055528176000101 0.34926238311507157 -2.3757706160121783 17.293582242872379 0.43215578442759217 -4.714728739701858 4.3830845671866348 3.8409796576300113 23.669852533350507 7.9834968073472163 -1.103237428403083 -6.3918000358177931 -1.7367269748500558 2.282197213327378 -0.49226674484377059 -0.16511736946638317 12.13266680078925 -1.7380786599079185 0.21417314382665845 -0.95390446467546797 -3.2833214421915962 -1.660427200273437 5.2399502839755794 0.90297957641622362 0.053320667947311821 0.77069123918681814 -1.2126610043212955 -2.3354900510012344 2.9939587130775238 -1.5162510793354183 -0.20794811087919116 -1.1368022659631021 -0.13679162476182349 0.39702244842194867 0.18956669912957722 -0.82726008054070099 0.82643672164851956 -0.24817565001730779 -0.24863014291724644 -0.72797463463239409 0.5975426153262916 -0.83764315735314665 -0.11529273251236176 -1.6009094543167506 -0.6344011672788491 0.91552820626707432 -0.16009429625204763 1.1133028946859951 1.9012031399440621 -0.4505366974137473 -0.024629325256758719 -3.382847342773458 -0.026383540898928207 0.59896086690499639 0.17496518945425607 0.20383683348718737 -0.15621685612642669 0.070180159792006605 -0.10855393483925554 0.18434697846335715 0.089510093639645336 -0.21849671799796852 -0.60325023029295988 0.44719112324263366 0.087462340892650495 0.81061442434941589 0.060803199781187492 0.78457812013006945 0.33983923160825741 -0.30385303401117097 0.013926715702521145 0.14840312918214066 0.05436360796351962 0.54153787285538146 -0.48620090154935902 -0.42620121073198547 0.89752276840865164 -0.69512959211557235 0.21952819078674732 -0.21609688903879459 1.6392836199413601 -0.086931807249002735 -0.11418936694489681 0.10315920238482802
leaf_weight=522 8.0000000000000018 70 126 34 494 6.9999999999999991 95 108 224 7.9999999999999991 602 11.999999999999998 188 6.9999999999999991 15.000000000000002 180 10.000000000000002 7.9999999999999991 15.999999999999998 37 9.9999999999999982 173 13.999999999999998 12.000000000000002 12.999999999999998 32 42 162 58 7.9999999999999991 7.9999999999999991 7 17.999999999999996 8.0000000000000018 7.9999999999999991 9.9999999999999982 9.0000000000000018 34 23 29 9.9999999999999982 7.0000000000000027 70 37 49 33 52 66 9.9999999999999982 11.999999999999998 214 24 25 9.9999999999999982 17 8.9999999999999982 11.000000000000002 11.999999999999998 34 7.9999999999999991 8.0000000000000018 11.000000000000002 20 34 104 9.9999999999999982 22.000000000000004 12.999999999999998 11.999999999999998 8.0000000000000018 14.999999999999998 6.9999999999999991 18 7.9999999999999982 10.999999999999998 10.999999999999998 8.9999999999999982 18 6.9999999999999991 248 11.999999999999998 10.000000000000002 11.999999999999998
leaf_count=522 8 70 126 34 494 7 95 108 224 8 602 12 188 7 15 180 10 8 16 37 10 173 14 12 13 32 42 162 58 8 8 7 18 8 8 10 9 34 23 29 10 7 70 37 49 33 52 66 10 12 214 24 25 10 17 9 11 12 34 8 8 11 20 34 104 10 22 13 12 8 15 7 18 8 11 11 9 18 7 248 12 10 12
internal_value=0.0206711 -2.15135 13.4501 1.19217 -5.7871 9.4664 2.82072 20.5316 7.43635 -0.134424 -7.1164 -4.00809 2.03871 -1.06078 0.510735 11.9255 -2.98206 0.921946 -0.689927 -4.54894 -4.66559 4.79806 1.41192 0.0476305 1.19636 -1.03575 -3.14078 2.63712 -1.96614 -0.196538 -3.00779 -1.06442 0.306521 0.1058 -2.16183 1.6842 -0.704697 -0.531929 -0.50081 0.23253 -0.351798 -0.839194 -1.52506 -0.946682 0.742177 0.113637 0.902949 1.80099 -0.0925442 -0.390341 -3.32232 0.374901 0.274447 0.575907 0.466124 -0.544594 0.0843264 0.00227879 0.105735 -0.18235 -0.630904 -0.361665 0.299158 0.0198944 0.932979 -0.108032 0.6547 0.240169 -0.176032 -0.0159778 0.0473123 -0.0973371 0.467508 -0.378287 -0.342637 0.754286 -1.44463 0.165179 -0.510657 1.61194 -0.180866 -0.244334 0.074645
internal_weight=4787 4123 664 2149 1974 430 963 234 243 1186 1124 850 695 486 700 187 301 369 349 549 504 268 345 331 253 203 276 350 137 146 45 25 116 78 50 89 126 68 82 249 52 87 77 69 83 139 164 76 52 74 226 110 81 50 42 40 66 89 46 42 31 39 50 42 156 43 40 24 34 42 39 22 26 15 18 19 67 30 18 262 21 22 20
internal_count=4787 4123 664 2149 1974 430 963 234 243 1186 1124 850 695 486 700 187 301 369 349 549 504 268 345 331 253 203 276 350 137 146 45 25 116 78 50 89 126 68 82 249 52 87 77 69 83 139 164 76 52 74 226 110 81 50 42 40 66 89 46 42 31 39 50 42 156 43 40 24 34 42 39 22 26 15 18 19 67 30 18 262 21 22 20
is_linear=0
shrinkage=0.0985333


Tree=4
num_leaves=41
num_cat=0
split_feature=0 0 0 0 0 0 0 0 0 0 0 0 0 0 0 0 1 0 0 0 1 0 0 0 0 0 0 0 1 0 0 0 16 0 11 0 18 18 1 15
split_gain=1.22345e+07 4.06154e+06 1.67596e+06 355535 324505 175522 126090 72732.3 65182.4 49041.4 25010.4 15045.6 9517.64 8635.48 5459.22 4439.7 3863.26 2525.48 1928.85 1674.52 996.064 982.548 586.845 354.468 216.374 180.971 176.192 127.634 46.3941 30.3943 25.8801 17.2008 12.7313 12.1434 6.85611 2.77307 2.64425 0.782642 0.510688 0.361648
threshold=0.7980422564568086 -0.51362955998658921 1.8556980867147017 0.031041622579972492 -0.71707628198976903 3.0096275015308875 1.3361645496959642 -0.42081745672754983 0.49524940166573056 -0.59655668583769517 -0.81698016943158447 -0.20567153820905323 1.0243527065004427 0.25457418809873472 -0.64421311872662035 -0.46886306440244202 0.43936556764788037 0.63843980170376524 -0.30691620305891193 -0.10218038489902688 0.10157877190695748 -0.55194358803452381 0.10456172476046401 -0.43801385788129565 -0.25351723497676509 -0.14346084771196066 -0.36512652298611808 -0.033814100548240987 0.39401532854732024 -0.27724148462775072 -0.39942732345798709 -0.23399365815307885 -0.57592650142502255 -0.33143043919610821 1.2943198978900055 -0.28883179369592776 -0.12966357520272256 -0.55680848356609081 -0.14005229701079971 -0.26069576406931555
decision_type=2 2 2 2 2 2 2 2 2 2 2 2 2 2 2 2 2 2 2 2 2 2 2 2 2 2 2 2 2 2 2 2 2 2 2 2 2 2 2 2
left_child=1 4 6 7 10 -4 12 15 13 14 -1 18 -2 22 -6 -3 21 -10 26 25 -16 -11 -5 -17 29 -13 28 -21 30 35 32 -26 -9 -28 -35 -20 37 -31 -38 -37
right_child=2 3 5 8 9 -7 -8 11 17 16 -12 19 -14 -15 20 23 -18 -19 24 27 -22 -23 -24 -25 31 -27 33 -29 -30 36 -32 -33 -34 34 -36 39 38 -39 -40 -41
leaf_value=-7.813453121734077 5.5379074002720703 -1.9100691929259894 15.11110658225204 1.2051847314153306 -4.9598703962000741 21.542020483243981 10.239199375689063 -0.1918235490536892 3.1918350302167071 -3.3198906080458084 -6.2940632684181956 0.33193671611967668 7.3538612227288702 2.2247856651340081 -4.1223091374143559 -1.2473326928435142 -0.70683067969244073 4.2547151212289984 -0.094789277835055377 0.70308659286065833 -1.8665237473661254 -2.5689656664013523 1.598378721856029 -0.80106230423382785 0.101210604530922 0.5446459561335002 -0.2477158474480905 0.95375678743460435 -0.08424762831226161 0.0070618853890976998 -0.33127878803670696 0.18609179537658097 -0.50921010239930198 -0.17300613713638416 -0.047381779761854377 -0.013465004143110658 -0.017383546980016328 0.043318018427757635 0.010986111632112024 -0.048389154078527535
leaf_weight=217 133 152 165 133 356 108 168 6.9999999999999991 133 222 740 111 148 302 256 95 8.9999999999999982 113 38 111 9.9999999999999982 107 208 57 56 95 76 111 6.9999999999999991 8.9999999999999982 91 76 44 49 7.9999999999999991 8.0000000000000018 13.000000000000002 27 6.9999999999999991 10.999999999999998
leaf_count=217 133 152 165 133 356 108 168 7 133 222 740 111 148 302 256 95 9 113 38 111 10 107 208 57 56 95 76 111 7 9 91 76 44 49 8 8 13 27 7 11
internal_value=0.0217058 -2.0802 11.8104 0.862241 -5.37292 17.8875 8.00936 -0.203653 2.36681 -4.06614 -6.66487 0.219932 6.57038 1.82808 -4.59991 -1.52211 -3.04807 3.73111 -0.132509 0.651534 -4.06199 -3.10427 1.45835 -1.10105 0.0694222 0.437239 -0.306691 0.840845 -0.382322 -0.0304064 -0.394715 0.153508 -0.480279 -0.214585 -0.159016 -0.0790278 0.0207621 0.0356415 -0.00729533 -0.0379446
internal_weight=4787 4065 722 2148 1917 273 449 1259 889 960 957 955 281 643 622 304 338 246 527 428 266 329 341 152 245 206 282 222 149 113 142 132 51 133 57 57 56 36 20 19
internal_count=4787 4065 722 2148 1917 273 449 1259 889 960 957 955 281 643 622 304 338 246 527 428 266 329 341 152 245 206 282 222 149 113 142 132 51 133 57 57 56 36 20 19
is_linear=0
shrinkage=0.0985333


Tree=5
num_leaves=84
num_cat=0
split_feature=1 15 1 15 15 1 1 15 1 5 15 15 5 1 1 5 1 5 15 5 1 5 5 3 1 5 1 5 1 5 1 15 1 5 1 5 5 5 1 1 1 5 4 15 5 1 5 5 4 5 1 5 1 1 15 1 4 5 1 5 11 1 1 1 5 1 1 1 5 1 5 1 5 1 1 5 2 3 5 3 1 5 5
split_gain=9.61201e+06 3.5305e+06 1.15404e+06 353039 313626 120669 102039 69064.5 47616.9 46666.1 42810.8 25514.9 16398.7 14029.6 13559.5 12973.6 10924.4 8381.21 7106.55 6612.05 5365.31 5340.94 4495.84 4318.49 3397.1 3248.94 3199.07 2949.96 2637.35 2370.41 2003.69 1801.74 1657.62 1599.45 1324.41 1154.08 1086.73 860.759 708.339 670.27 657.384 580.752 481.175 458.228 410.758 408.608 330.918 318.145 208.118 202.296 193.15 174.435 159.475 135.403 133.435 127.813 121.139 115.18 102.614 90.7048 87.2403 82.8824 82.7824 80.0706 78.7258 67.4643 65.1555 53.2948 53.7226 51.8097 38.8568 35.0827 33.3095 30.8944 20.5199 18.614 16.4395 14.9989 14.3749 13.1153 13.0674 10.5868 9.90764
threshold=1.0098441031666354 -0.49590209184016198 2.1422876704728004 0.12994265157771798 -0.67267960817011796 1.4512262482483682 0.54725392832482356 -0.27731643813804102 3.2167438417495631 0.25770399718363696 -0.76134473201225805 -0.57761202527695932 0.83456545100446233 -0.51702317964000699 -0.14844939340886887 0.79262744436561772 0.20748351470758783 0.34320334144942038 -0.83511496656299977 0.03185383819453514 -0.58153200785423598 -0.053415443178040305 0.77218028252532556 0.12256019327964478 -0.37779058334801535 0.73976338286966847 0.12314325003302974 0.51908357270511185 0.32944381946132756 0.35149284729191688 -0.61218804991294895 -0.42072707085187594 -0.35407009531141626 0.83456545100446233 -0.31691292558586032 0.60298563248117087 -0.13166633624448196 -0.22937528240193433 -0.11670186568735323 0.053149629533984007 0.39401532854732024 -0.27579630541553141 -0.21804514227247224 -0.63331188464714472 0.55132080348849166 -0.066782079105105377 0.45863401078336946 0.25770399718363696 -0.51183623112241294 0.74844177894818165 -0.44492238611266349 0.14315535168046625 0.47140699050324603 -0.45691339201225167 -0.1682087030251995 -0.47795703176043564 -0.75106611775736476 0.03185383819453514 0.59432940343745344 0.40281438452186452 0.36487622011712156 -0.40816510149756868 -0.42713329157219621 -0.14005229701079971 -0.68562892058492908 -0.30257195646421375 -0.24617189656531488 -0.57589147559637499 0.73976338286966847 -0.27311373369004538 0.98634646673260629 -0.076110119979541882 0.76437700157175892 0.22914590224049367 -0.21411803375623326 0.76437700157175892 0.17115553516838339 0.26659130594585634 0.83456545100446233 -0.20160532156725317 -0.41922280649703919 -0.053415443178040305 0.95247168771777302
decision_type=2 2 2 2 2 2 2 2 2 2 2 2 2 2 2 2 2 2 2 2 2 2 2 2 2 2 2 2 2 2 2 2 2 2 2 2 2 2 2 2 2 2 2 2 2 2 2 2 2 2 2 2 2 2 2 2 2 2 2 2 2 2 2 2 2 2 2 2 2 2 2 2 2 2 2 2 2 2 2 2 2 2 2
left_child=1 4 5 7 10 9 16 13 -4 56 18 23 29 27 32 -7 33 36 -1 24 -13 40 -11 28 37 -18 49 57 43 -8 -29 41 44 45 46 51 54 -15 -35 71 42 64 -22 -6 62 -5 55 74 52 -19 59 69 -33 82 60 -21 -2 -3 -14 -23 76 72 -9 -50 -26 78 -53 68 -32 -34 -55 -38 -48 -56 -36 -67 -16 -49 -37 -62 -57 -71 -46
right_child=2 3 8 6 11 15 12 14 -10 22 -12 20 58 19 17 -17 25 26 -20 34 21 50 -24 -25 31 -27 -28 30 -30 -31 67 48 35 38 47 65 39 -39 -40 -41 -42 -43 -44 -45 53 -47 61 77 63 -51 -52 66 -54 70 73 80 -58 -59 -60 -61 79 -63 -64 -65 -66 75 -68 -69 -70 81 -72 -73 -74 -75 -76 -77 -78 -79 -80 -81 -82 -83 -84
leaf_value=-7.4215159121445096 0.42608173869637533 -2.4652414987757196 14.764949872647986 0.4219421243734362 -4.0431286302889227 5.9521883545177641 1.5475819431082813 -0.50552659128568811 19.928136773327303 4.9454562380415128 -4.8936411417645509 -2.8978546915196666 3.2693849615603057 -1.7504360626326128 0.083945370333357167 10.55190630301554 1.6283876978365546 0.92331333206098332 -6.0040914151574043 -0.58152725227332669 -2.2887093273672865 -0.80347247358436891 7.2498736682671892 -1.0945626566598778 -1.1018946410734674 2.4746767118555848 1.9102155379234627 -1.5107950887557746 -1.1735904292673185 3.2469120257282764 -0.65871851390303016 -0.45917903102388091 -0.23498162912887666 0.63975354888158964 -0.030810647552194322 0.13911491650523924 0.31128019434352855 -0.86456884517174626 1.581547821042723 1.0097336414027263 -0.70662934149999623 -0.11370058833915352 -1.0169730603440141 -3.4099339178897545 -0.18217946019708231 1.0192169023584217 -0.15858067074680918 0.20799088068390315 -0.18858882128722307 1.2820816510481776 0.0011618325670383872 0.093514113815385366 -0.006425160336145549 0.020117765307699351 0.16415171827720945 -0.29341695750401453 1.3148353899845799 -1.6164169836742179 4.9535654465514281 -0.22194643813640322 0.14040303869234796 0.138573992745016 -0.19579857236063403 0.066111874478758437 -0.57966407846245094 0.40884971759436911 0.2792581709177519 -0.22644629263103272 -0.19235505682346232 -0.077516381730487804 0.23407897139111972 0.55677967245903892 0.036210567524644445 0.4832096995442659 0.14638753939120969 0.69104425780920187 -0.048413627724993476 0.55749016881286395 0.39547000646637487 0.36906090337872782 -0.15187109220691541 0.043807075809532081 -0.029196664699218864
leaf_weight=117 6.9999999999999991 26 126 21 208 22 19 22 90 45 451 130 29 34 30 164 98 102 594 13.999999999999998 112 8.0000000000000053 164 9.9999999999999982 49 193 79 38 7.9999999999999991 100 15.000000000000002 47 9.9999999999999982 14.999999999999998 14.000000000000002 8.0000000000000018 29 33 129 44 6.9999999999999991 8.9999999999999982 10.999999999999998 304 17.000000000000004 77 23 6.9999999999999991 32 80 6.9999999999999991 48 8.9999999999999982 14.999999999999998 9.0000000000000018 26.999999999999996 8.9999999999999982 53 148 7.9999999999999991 11.000000000000002 20 23 15.999999999999998 17 24 33 14.999999999999998 6.9999999999999991 7.0000000000000027 17 33 10.999999999999998 19 6.9999999999999991 48 9.9999999999999982 32 20 10.999999999999998 27.000000000000004 18 6.9999999999999991
leaf_count=117 7 26 126 21 208 22 19 22 90 45 451 130 29 34 30 164 98 102 594 14 112 8 164 10 49 193 79 38 8 100 15 47 10 15 14 8 29 33 129 44 7 9 11 304 17 77 23 7 32 80 7 48 9 15 9 27 9 53 148 8 11 20 23 16 17 24 33 15 7 7 17 33 11 19 7 48 10 32 20 11 27 18 7
internal_value=0.0221928 -1.69466 11.3612 1.03416 -4.71025 8.18254 2.63152 0.0534909 17.1901 6.45172 -5.75237 -3.20314 4.09523 -0.754996 0.662063 10.1238 1.79797 1.00366 -6.27135 -0.458103 -2.38914 -1.90361 6.8403 -3.6199 -0.787657 2.21164 1.36758 -1.55257 -3.66108 3.02582 -1.03065 -0.545796 0.164212 1.27694 -0.00642158 0.316717 0.504076 -1.37658 1.50037 0.714718 -2.14447 -0.905057 -2.20521 -3.692 -0.16163 0.909563 -0.191876 0.36079 -0.266381 1.10151 -0.441887 0.100118 -0.390924 0.0189334 0.239097 -0.331112 1.06813 -1.98545 4.74405 -0.602128 0.145005 -0.00736346 -0.37196 -0.104922 -1.00217 0.556485 0.177343 -0.452353 -0.55571 -0.0784785 0.145291 0.463978 -0.0979802 0.409384 0.0403544 0.619529 0.0496585 0.516352 0.345101 0.288658 -0.23576 0.00464582 -0.146676
internal_weight=4787 4160 627 2185 1975 411 829 1356 216 225 1162 813 296 582 774 186 533 457 711 428 283 153 209 530 246 291 261 154 520 119 75 179 317 242 182 216 196 67 144 106 130 75 123 512 101 98 122 60 104 182 23 116 56 56 90 68 16 79 177 16 62 54 45 48 66 100 81 37 22 35 32 62 34 28 21 72 40 39 28 22 54 25 24
internal_count=4787 4160 627 2185 1975 411 829 1356 216 225 1162 813 296 582 774 186 533 457 711 428 283 153 209 530 246 291 261 154 520 119 75 179 317 242 182 216 196 67 144 106 130 75 123 512 101 98 122 60 104 182 23 116 56 56 90 68 16 79 177 16 62 54 45 48 66 100 81 37 22 35 32 62 34 28 21 72 40 39 28 22 54 25 24
is_linear=0
shrinkage=0.0985333


Tree=6
num_leaves=43
num_cat=0
split_feature=0 0 0 0 0 0 0 0 0 0 0 0 0 0 0 0 0 1 0 0 0 1 0 3 1 0 0 0 0 1 0 0 0 15 0 0 18 0 18 15 15 15
split_gain=8.18143e+06 2.74743e+06 1.10014e+06 234840 232851 147486 46465.4 41262.8 34881 31696.2 21370.9 12268.4 8410.07 5047.24 2689.4 2540.29 1865.59 1784.61 1781.3 1408.95 1165.11 1152.23 468.766 343.831 301.884 185.422 154.314 116.407 83.7472 31.9202 28.8505 28.2975 23.7823 13.834 9.71006 6.86512 6.34597 4.35998 2.68095 1.50274 0.625461 0.441234
threshold=0.82981121659725765 -0.50008306375891209 2.1708439921777809 0.066772232637858045 -0.70317593608979023 1.4394084387206358 0.51472975730928872 -0.42081745672754983 -0.59655668583769517 3.2721209625015812 -0.81698016943158447 -0.17465811422402272 1.0620665299044971 0.2768083947587478 -0.7489796939558041 -0.55194358803452381 -0.45003980882043998 1.0000000180025095e-35 -0.28883179369592776 0.63843980170376524 -0.066975726533489141 0.32944381946132756 -0.65187886406707407 1.8836939376113924 -0.0084420049877103349 -0.3468252250220285 -0.23399365815307885 0.14333397788986149 -0.14346084771196066 0.43936556764788037 -0.033814100548240987 -0.39942732345798709 -0.25351723497676509 -0.43355559735908006 -0.30691620305891193 -0.20567153820905323 -0.59606531660216955 -0.27724148462775072 -0.12966357520272256 -0.1838496800775514 -0.26069576406931555 -0.32096363689175028
decision_type=2 2 2 2 2 2 2 2 2 2 2 2 2 2 2 2 2 2 2 2 2 2 2 2 2 2 2 2 2 2 2 2 2 2 2 2 2 2 2 2 2 2
left_child=1 4 5 7 10 12 13 16 17 -4 -1 18 -2 27 -12 21 -3 22 25 -8 28 -10 -6 -15 -17 29 32 -5 -13 31 -22 -9 37 -33 36 -28 -27 40 -39 -34 -20 -36
right_child=2 3 9 6 8 -7 19 11 15 -11 14 20 -14 23 -16 24 -18 -19 26 -21 30 -23 -24 -25 -26 34 35 -29 -30 -31 -32 33 39 -35 41 -37 -38 38 -40 -41 -42 -43
leaf_value=-6.3993294793147779 4.7195682099148391 -1.3509114235312847 13.51006792327421 1.0881009758218798 -4.0295035836183466 9.3600829582349885 2.6784447295379779 -0.37952182572217014 -2.7219573350038115 18.061459368943627 -5.2722404817462936 0.2966105863453577 6.2977879847565728 1.9046255145694553 -4.4189237379094184 -2.0208792433727503 -0.75251103004732534 -1.7388027645153148 -0.0083003272531830576 3.5480628216747778 0.59729204127107227 -0.92421683537895671 -3.4233752522581864 0.67322335638151465 -0.74083139784698981 -0.047849028076871004 0.15458880517815976 1.3742644802754258 0.48181980508821876 -0.053509936829597309 0.82551314837287282 -0.15215730719585127 0.098777380642048038 -0.27764049701123761 -0.039425516959179063 0.22878089445588723 -0.15984885762523829 0.031600682545639851 -0.011219799294063292 0.045946202189888874 -0.047129624406023619 -0.088734657670685335
leaf_weight=217 133 171 126 132 262 187 114 51 219 90 589 55 167 276 206 142 95 12.999999999999998 8.0000000000000018 132 56 7.9999999999999991 292 6.9999999999999991 6.9999999999999991 8.9999999999999982 76 190 150 6.9999999999999991 168 25 39 104 10.999999999999998 56 86 36 20 17 10.999999999999998 27
leaf_count=217 133 171 126 132 262 187 114 51 219 90 589 55 167 276 206 142 95 13 8 132 56 8 292 7 7 9 76 190 150 7 168 25 39 104 11 56 86 36 20 17 11 27
internal_value=0.0232322 -1.669 9.81503 0.77996 -4.33267 7.13455 2.04463 -0.065337 -3.1978 15.6555 -5.376 0.22246 5.65848 1.56508 -5.07077 -2.41792 -1.14932 -3.69758 -0.0721019 3.18683 0.620198 -2.67309 -3.73272 1.88247 -1.97851 -0.227188 0.117084 1.26948 0.437747 -0.290605 0.778184 -0.298668 0.039681 -0.257828 -0.133031 0.190991 -0.151248 0.00267317 0.0165371 0.0862696 -0.0345092 -0.0788502
internal_weight=4787 4084 703 2129 1955 487 851 1278 943 216 1012 1012 300 605 795 376 266 567 583 246 429 227 554 283 149 320 263 322 205 187 224 180 131 129 133 132 95 75 56 56 19 38
internal_count=4787 4084 703 2129 1955 487 851 1278 943 216 1012 1012 300 605 795 376 266 567 583 246 429 227 554 283 149 320 263 322 205 187 224 180 131 129 133 132 95 75 56 56 19 38
is_linear=0
shrinkage=0.0985333


Tree=7
num_leaves=84
num_cat=0
split_feature=1 15 1 15 15 1 1 1 5 15 15 5 15 5 1 1 1 4 5 5 5 5 3 3 1 5 5 15 1 1 1 1 15 1 5 5 5 1 5 5 5 15 1 3 17 1 1 4 5 15 1 5 12 1 5 5 5 4 1 1 1 1 1 5 1 1 5 5 1 1 5 1 3 1 1 5 1 1 4 5 5 1 5
split_gain=6.4281e+06 2.10491e+06 1.05572e+06 187022 183084 107373 92205.5 47532.5 45578.2 29587.7 29119.1 17228.9 11856.3 10737 7644.05 6927.93 6534.74 5505.39 5106.92 4393.74 4180.98 3277.15 2781.55 2633.06 2214.04 2140.74 1892.35 1823.9 1420.78 1399.58 1214.5 1159.98 910.335 863.452 812.684 759.859 748.843 669.635 656.026 628.966 595.567 500.765 393.473 382.045 352.215 316.662 306.544 258.161 252.262 245.911 232.811 223.768 217.375 165.137 161.165 136.009 126.028 124.239 122.996 109.393 108.517 104.487 99.8704 98.8147 88.5664 88.0427 80.8783 80.6818 68.1989 59.1272 57.5483 48.5953 48.1166 46.1392 38.6426 31.0382 26.2577 22.5572 19.2185 17.5157 14.1331 12.9103 11.8877
threshold=0.77639818996745358 -0.51335337659482494 1.8477243137579846 -0.72954511959591362 -0.075765877525236155 2.6155883901850392 1.2364938742638427 0.32944381946132756 0.33143665267243311 -0.37209764681757102 -0.62954607352200664 0.87314309944338808 -0.8253406263966111 0.93466646598611025 -0.53930914562632315 -0.01766500827346788 -0.41922280649703919 -0.47432540459960809 0.25770399718363696 0.03185383819453514 1.0455012831199963 0.75601682249083613 0.39753736394676892 -0.3324558682202437 -0.60783100276139568 0.4877838136096681 0.38160311244507933 -0.56114046056003031 -0.62522617197980412 0.32944381946132756 -0.39192830110274829 0.49397201597221602 -0.24802657990863913 -0.11670186568735323 0.45863401078336946 0.83456545100446233 -0.53801276174890811 0.43936556764788037 -0.36717131463035912 -0.22937528240193433 0.22844920262036897 -0.45585209576747182 -0.36982395647700245 1.2551337569374279 0.15494524717558047 -0.24617189656531488 -0.25394303844935856 -0.65401013304800937 0.19278859720043567 -0.15752073714700041 0.063407633041558067 0.42402086353924723 -1.0014520408544672 -0.28165024200825411 0.36313785345594179 0.30779519609114753 0.30779519609114753 -0.56167579083802799 0.15268224904967903 -0.55223461100103965 -0.21411803375623326 -0.12558354099284977 -0.55223461100103965 -0.27579630541553141 -0.47795703176043564 -0.5688017034582229 0.2864810527842741 0.96185175604713502 0.16324051985366186 -0.48448281351076844 0.33143665267243311 0.47140699050324603 -0.39138636988805037 0.96289645422403802 -0.076110119979541882 0.81833694809007784 -0.18442780142696272 -0.30955980345672424 -0.21804514227247224 0.39246990261782394 0.62591207858997355 -0.57589147559637499 0.60298563248117087
decision_type=2 2 2 2 2 2 2 2 2 2 2 2 2 2 2 2 2 2 2 2 2 2 2 2 2 2 2 2 2 2 2 2 2 2 2 2 2 2 2 2 2 2 2 2 2 2 2 2 2 2 2 2 2 2 2 2 2 2 2 2 2 2 2 2 2 2 2 2 2 2 2 2 2 2 2 2 2 2 2 2 2 2 2
left_child=1 3 6 12 9 -4 8 15 47 14 -5 18 -1 25 26 35 24 27 -8 30 -10 48 32 -19 -11 39 62 29 -28 -12 38 43 51 54 65 45 41 -15 -16 -9 69 -32 56 -27 49 79 -37 73 -17 72 -23 57 -35 63 -24 -47 64 71 -50 -42 -59 -51 -3 -38 -21 -25 -44 82 -43 -26 74 -18 -34 -2 -46 -58 -55 -72 -53 -6 -56 -30 -61
right_child=2 4 5 10 7 -7 11 13 20 16 17 -13 -14 37 19 21 22 23 -20 42 -22 50 33 34 40 31 28 -29 81 -31 36 -33 44 52 -36 46 53 -39 -40 -41 59 68 66 -45 70 55 -48 -49 58 61 -52 78 -54 76 80 -57 75 60 -60 67 -62 -63 -64 -65 -66 -67 -68 -69 -70 -71 77 -73 -74 -75 -76 -77 -78 -79 -80 -81 -82 -83 -84
leaf_value=-5.8649785860832457 0.082188385056272698 -2.0365027759132373 10.498181051832852 -3.5370124036620347 -0.060473905605280792 15.359881360523463 1.4248826960662535 0.33876824505825276 3.9510049077860487 -1.621856785186911 -2.8012511546691501 7.6060589875973905 -4.6960216094555767 2.2678813620440623 -1.7618822147298587 0.51092807906660109 -0.28873258143905967 -2.3672445773449535 5.2272840198731494 -0.59962933193463674 5.3259662620922272 1.1186434811627255 -0.023290014591005045 -1.5750464956298225 -0.92808233062360668 1.7257291662658354 -1.4554411753934595 -2.0768989534518107 -0.53839038974269704 -1.0568500671793077 -1.1358330504416638 2.4336721817107883 0.112672762656606 0.31381823054383678 -0.31552731779503579 0.32039198560851506 -0.61913739595301032 3.3294753787752036 -0.92369912569152224 1.4460914722681957 -0.41574776215703935 -0.63113851807134858 -0.016446003519265423 0.55056201812150041 -0.15541983722127548 0.19655904599092669 0.8346420186117991 0.8941545851977637 0.82665988437537175 0.30525254963286513 1.5786870999599554 0.067137558247092513 1.0043139623007251 -0.15455658016475018 0.2379762253803071 0.50978283374688493 -0.14896629580412893 -0.11843480890248617 1.1264498567691876 -0.23324498920571507 0.084898123829422176 0.57763774883064989 -0.81598104237798097 -0.15850789460047973 -0.19825062913635222 -0.90729557131717276 0.28445237780049804 0.074611180812672831 -0.1938992818739019 -0.42729389078337465 0.010614833361374795 -0.0010750538887428439 0.26440347981026463 0.38001082978569317 0.077105100124407661 0.057156263256838584 0.060151231937248535 0.21986199332416448 0.30611173160354804 0.096436916317479943 0.51019760711086803 -0.22102400475413853 -0.11820029652126887
leaf_weight=177 12.000000000000005 60 126 488 7.0000000000000027 144 6.9999999999999991 7.9999999999999991 129 11.999999999999998 305 171 724 45 22 26 28 33 48 10.000000000000002 104 57 9.9999999999999982 25.999999999999996 12.000000000000002 62 40 116 19.000000000000004 9.9999999999999982 41 95 38 8.9999999999999982 11.999999999999998 20 15.000000000000002 104 44 65 17 37 13.999999999999998 6.9999999999999991 17.000000000000004 24 76 7.9999999999999991 114 44 180 7.0000000000000027 57 10.000000000000002 14.000000000000002 69 31 52 77 32 44 40 6.9999999999999991 9.9999999999999982 18 25.000000000000004 18 11.999999999999998 7.9999999999999991 15.999999999999998 9.0000000000000018 6.9999999999999991 75 9.9999999999999982 7.9999999999999991 6.9999999999999991 6.9999999999999991 8.9999999999999982 12.999999999999998 21 15.999999999999998 8.9999999999999982 30
leaf_count=177 12 60 126 488 7 144 7 8 129 12 305 171 724 45 22 26 28 33 48 10 104 57 10 26 12 62 40 116 19 10 41 95 38 9 12 20 15 104 44 65 17 37 14 7 17 24 76 8 114 44 180 7 57 10 14 69 31 52 77 32 44 40 7 10 18 25 18 12 8 16 9 7 75 10 8 7 7 9 13 21 16 9 30
internal_value=0.0230923 -1.546 8.3202 -3.90785 0.599479 13.2489 5.52656 1.51391 4.17245 -0.318594 -2.97231 7.01766 -4.94672 2.38313 -0.947961 1.00445 0.112118 -2.43019 4.85385 -0.651767 4.63209 1.22356 0.275412 -1.64013 -0.498746 1.91657 -1.55705 -2.59204 -1.09165 -2.75768 -0.919672 2.13865 0.151056 0.71528 -1.15813 0.534294 -0.708206 3.06627 -1.27531 1.3451 -0.343829 -0.873798 -0.108443 1.63779 0.269006 0.353781 0.742047 0.495028 0.919267 0.32392 1.48533 -0.0381975 0.930031 -0.32931 0.316087 0.438679 -0.241996 -0.0863825 0.965002 -0.206856 -0.0255212 0.452286 -1.95429 -0.475708 -0.390746 -1.32445 0.163809 -0.142804 -0.572385 -0.718762 0.0121472 -0.236366 0.218134 0.250144 -0.0806857 -0.109426 -0.0708266 0.133461 0.244272 0.0549165 0.420122 -0.471175 -0.186568
internal_weight=4787 4028 759 1916 2112 270 489 1057 263 1055 1015 226 901 386 427 671 628 527 55 292 233 454 497 96 131 237 135 431 68 315 194 164 391 106 63 217 128 149 66 73 119 86 98 69 240 121 96 30 217 197 237 151 66 42 40 93 66 131 191 91 96 84 67 25 28 51 32 74 45 28 43 35 113 22 25 38 17 18 20 28 30 28 62
internal_count=4787 4028 759 1916 2112 270 489 1057 263 1055 1015 226 901 386 427 671 628 527 55 292 233 454 497 96 131 237 135 431 68 315 194 164 391 106 63 217 128 149 66 73 119 86 98 69 240 121 96 30 217 197 237 151 66 42 40 93 66 131 191 91 96 84 67 25 28 51 32 74 45 28 43 35 113 22 25 38 17 18 20 28 30 28 62
is_linear=0
shrinkage=0.0985333


Tree=8
num_leaves=43
num_cat=0
split_feature=0 0 0 0 0 0 0 0 0 0 0 0 0 0 0 0 1 2 0 0 18 0 0 0 0 0 0 16 0 0 0 16 16 11 2 0 0 16 17 20 4 11
split_gain=5.46568e+06 1.8293e+06 744408 169260 147386 118304 29671.6 23760.2 22201.7 18354.6 9601.13 8440.75 6378.32 4432.52 3485.02 3269.04 1393.97 1093.65 883.285 717.484 508.173 505.892 309.347 234.961 230.517 194.626 157.961 93.5783 73.6109 44.6418 16.7047 12.7416 11.3874 7.01253 6.1051 5.38359 2.89382 1.81072 1.46837 0.542155 0.318815 0.279793
threshold=0.82981121659725765 -0.49294805839600819 2.2516450963786308 -0.67259162763507918 0.07784874489150774 1.500401822808149 0.51472975730928872 -0.77054243569865544 -0.28883179369592776 -0.57770342290107435 3.2721209625015812 1.1039173856818092 -0.4335543183852672 -0.83502163386166395 -0.13291116193353239 0.31180340450248811 0.10157877190695748 -0.81220911196974688 0.63843980170376524 -0.53221883417055127 1.883705727881231 -0.033814100548240987 -0.40787509015638285 -0.21216941388257737 0.18931776837328704 -0.59655668583769517 -0.44485795189758098 0.59430616825368177 -0.33143043919610821 -0.25351723497676509 -0.19540580004515909 -0.59744348858235108 -0.54620152654215459 1.2943198978900055 -0.44922012616707235 -0.23399365815307885 -0.27724148462775072 -0.20620485797756843 -0.36038533007495072 -0.34152605331504476 0.079156021715905356 -0.36724070958755362
decision_type=2 2 2 2 2 2 2 2 2 2 2 2 2 2 2 2 2 2 2 2 2 2 2 2 2 2 2 2 2 2 2 2 2 2 2 2 2 2 2 2 2 2
left_child=1 3 5 7 8 11 15 13 12 16 -4 -2 26 -1 23 24 25 -11 -8 -19 -17 -16 27 29 -6 -5 -3 31 33 36 -25 -14 -30 34 -24 38 37 -10 -31 40 -38 -41
right_child=2 4 10 9 6 -7 18 -9 14 17 -12 -13 22 -15 21 20 -18 19 -20 -21 -22 -23 28 30 -26 -27 -28 -29 32 35 -32 -33 -34 -35 -36 -37 39 -39 -40 41 -42 -43
leaf_value=-5.5854362277900762 3.9310837719254157 -0.98486937911969719 11.264973989414282 -2.8947060795164927 0.95483622008934144 7.9639433929852643 2.1880531024339018 -3.7201992882183093 -0.0039317918375798965 -0.33658297534139159 14.887528577666391 5.3164564544588879 -0.17701506725103405 -4.4834466255110854 0.44021422554213696 1.6323783756584187 -1.2662918968197185 -1.9745392994258262 2.8914959512290688 -1.4879195617837371 0.46568761200479264 0.69134480535319009 -0.15241621970592978 0.1430905050988715 1.2157069313402855 -2.3328091366055697 -0.61922717588364917 -0.032428517149446737 0.020493650876655622 0.086360401122298466 0.2470844858855715 -0.448189577516802 -0.10123089989934682 -0.1196389064275669 -0.23079793462513951 0.119784059776709 0.0078250260060835058 -0.061362543836341751 0.043498620334863861 0.022092722464363491 -0.01691770302890264 0.0050278226353425185
leaf_weight=117 152 152 108 407 189 186 114 545 12.000000000000002 6.9999999999999991 90 167 7.9999999999999991 500 187 220 13.999999999999998 163 132 130 6.9999999999999991 187 44 38 170 110 38 6.9999999999999991 6.9999999999999991 26 111 61 88 24 119 57 6.9999999999999982 6.9999999999999991 30 24 7 18
leaf_count=117 152 152 108 407 189 186 114 545 12 7 90 167 8 500 187 220 14 163 132 130 7 187 44 38 170 110 38 7 7 26 111 61 88 24 119 57 7 7 30 24 7 18
internal_value=0.0231339 -1.36001 8.02644 -3.49344 0.67578 5.94995 1.69052 -4.26413 0.0024662 -2.40287 13.1338 4.70447 -0.467261 -4.7217 0.365004 1.29618 -2.75914 -1.74855 2.59958 -1.77806 1.60376 0.570847 -0.218567 0.133161 1.08855 -2.79108 -0.923842 -0.393117 -0.167426 0.0582226 0.224325 -0.426484 -0.0918644 -0.2035 -0.213166 0.0964258 -0.001011 -0.0311681 0.0671837 0.0104101 -0.00542223 0.0157014
internal_weight=4787 4084 703 1993 2091 505 832 1162 1259 831 198 319 548 617 711 586 531 300 246 293 227 374 358 337 359 517 190 76 282 188 149 69 95 187 163 113 75 19 56 56 14 42
internal_count=4787 4084 703 1993 2091 505 832 1162 1259 831 198 319 548 617 711 586 531 300 246 293 227 374 358 337 359 517 190 76 282 188 149 69 95 187 163 113 75 19 56 56 14 42
is_linear=0
shrinkage=0.0985333


Tree=9
num_leaves=84
num_cat=0
split_feature=1 19 1 19 1 1 1 1 1 5 5 5 19 1 5 1 5 5 5 1 5 5 1 5 5 3 5 19 1 5 5 5 1 1 1 5 1 5 1 1 3 5 5 1 5 19 1 5 5 5 5 1 5 1 5 1 4 5 1 5 1 1 5 1 1 1 5 1 4 1 5 1 5 5 5 1 4 1 5 5 1 5 5
split_gain=4.29552e+06 1.42149e+06 531103 174107 169480 66063.2 48279.4 42604.5 28583.4 21112.3 19328.5 17420.1 15001.2 12613.1 11411 10358.8 9654.89 8758.11 5660.7 5082.5 4384.75 3817.15 3581.28 3406.87 2298.85 2284.77 2278.72 2251.03 2220.74 2130.45 1839.65 1679.63 1606.95 1582.54 1070.46 806.765 766.47 700.947 566.24 544.37 529.127 499.238 493.777 485.719 418.132 393.899 359.948 350.273 336.776 313.36 255.407 216.692 214.013 207.344 194.238 185.267 133.779 129.399 117.902 102.906 95.477 91.44 91.3961 83.3689 81.4246 59.7774 50.6311 41.0005 40.4597 36.1101 35.9146 32.4607 30.5648 29.216 23.1933 23.1389 22.8128 22.4414 22.4335 15.238 14.4774 14.3714 11.2968
threshold=1.0098441031666354 -0.49021523359185099 2.2192049745093172 -0.74248177298034601 0.063407633041558067 1.4512262482483682 -0.46334631102994989 0.54725392832482356 -0.59740824595993181 0.50742516985277042 0.25770399718363696 -0.31376466051126195 -0.8477806328758023 3.2167438417495631 -0.014979512264387136 -0.62021348919340147 1.0551016028363949 0.21585446040844428 0.094369259496825134 -0.38664326482294831 0.0491131803167262 0.76437700157175892 -0.15915156315654924 1.0221505096586163 0.88751558875441872 -0.36521626055745232 -0.29557282747470243 -0.6289077099271182 -0.72434585768851978 -0.22937528240193433 0.45863401078336946 -0.72699645438830351 -0.47254183252371712 0.31383690095345024 -0.37779058334801535 0.35149284729191688 0.22914590224049367 0.72432032393986501 -0.228259060322649 -0.34568892441052751 2.1455860536132181 -0.38671107652149933 -1.0359564517034363 -0.68963251539775061 0.2864810527842741 -0.91783768791705422 0.41154751398838824 -0.70647277860217816 -0.66445943769843152 0.6184581079226501 0.66744936537344135 0.5783020007481624 0.59145875397352043 -0.036821191871224741 0.67767772269726734 -0.56445226559169748 -0.7605094027561129 0.65774101633952209 -0.20617355726847506 -0.60136017730808045 -0.27311373369004538 -0.31691292558586032 0.70867901552764001 -0.025632842811653102 -0.36285687546879347 -0.6677240190409689 -1.1759342534349047 -0.23653006841320154 -0.75106611775736476 -0.066782079105105377 1.0038238629928256 0.32944381946132756 0.03185383819453514 1.0000000180025095e-35 0.54075750635657516 0.42679666846034486 -0.67289670304550542 -0.30955980345672424 0.013664931988374871 0.8563847210825728 -0.24617189656531488 -0.053415443178040305 0.40281438452186452
decision_type=2 2 2 2 2 2 2 2 2 2 2 2 2 2 2 2 2 2 2 2 2 2 2 2 2 2 2 2 2 2 2 2 2 2 2 2 2 2 2 2 2 2 2 2 2 2 2 2 2 2 2 2 2 2 2 2 2 2 2 2 2 2 2 2 2 2 2 2 2 2 2 2 2 2 2 2 2 2 2 2 2 2 2
left_child=1 3 5 12 6 10 15 14 20 29 68 19 45 -4 42 30 52 26 41 31 43 36 39 -11 -12 -14 34 46 -22 66 -3 -10 35 -23 -8 -13 -16 69 61 57 -35 -17 56 -5 -20 -1 -21 51 53 67 -30 -29 -7 -36 64 62 -6 82 -50 71 -49 73 -46 78 72 -32 -9 -41 -2 -24 77 -44 -34 -28 -57 -58 -55 -51 -40 -59 -66 -63 -19
right_child=2 4 13 8 7 16 17 9 11 23 24 32 25 -15 21 18 -18 22 44 27 28 33 37 -25 -26 -27 38 47 50 -31 65 -33 54 40 48 -37 -38 -39 63 49 -42 -43 59 -45 55 -47 -48 60 58 70 -52 -53 -54 76 -56 74 75 79 -60 -61 -62 81 -64 -65 80 -67 -68 -69 -70 -71 -72 -73 -74 -75 -76 -77 -78 -79 -80 -81 -82 -83 -84
leaf_value=-5.3431498264600403 0.33697484458922422 -2.3303653414322816 10.074738970455751 -2.9409770058905895 -0.50811331635824186 2.3605067477183432 -1.2053867770696312 0.072226518170766141 -2.3633882712426599 2.4553392340846907 3.5740137388803879 -1.0135568200374721 -3.5650360831014738 13.473735985193043 0.75258432281893073 -2.0485843745741885 7.7102335149325842 -0.13343219387364935 -0.69382305748981932 -1.8878123266454623 -2.3472500797566136 1.2815505239192382 0.3522791230390746 3.4181645029610412 4.9395831903361049 -2.0811947721883537 -0.36721023388077889 -1.0869129845788497 -1.3922770363806267 1.3244461501128768 -1.5170028082927678 -1.5261761345945213 -0.31954880694958454 1.8938704815022274 -0.7833186338241892 -0.2103313245484971 1.1574701028387795 0.82934890647981296 0.022157813635098136 0.079901640239431401 0.58974427597594192 -1.1560342529413323 -0.007780391016856434 -2.401852241007199 -0.5529946084182632 -4.1964243147876559 -0.634452231870267 -0.56336201771624617 -0.38540415059181077 0.1207667853341486 -0.53590440135764328 -0.33121766223371973 5.6597846543411547 -0.34519402144135053 0.28675924069961689 -0.23265559375484707 -0.13668247120179233 0.044602409092996273 -0.031003234003143525 0.38405222323163485 -0.097036192712323333 -0.14038297322886037 -0.19031227727974431 0.2917814786520338 -0.049801470133441023 -0.81926680990440526 0.35018373640392558 0.21656848698343623 0.96351480919764021 0.54285056624349814 0.4946437393291841 0.1834175370221747 -0.096362570384562779 -0.18414505619016119 -0.093512989405143326 0.05314293646172942 -0.077227691890992073 0.34181463150038177 0.14051070003546232 0.16731061897951904 0.093746492897305064 -0.021177778084723667 -0.04111365412419931
leaf_weight=57 6.9999999999999991 69 108 217 8.0000000000000018 6.9999999999999991 21 20.000000000000004 140 151 71 39 592 90 119 19 121 27 30 47 53 174 44 112 138 27 22 49 45 37 18 62 14.999999999999998 119 23 20 135 150 35 55 6.9999999999999991 45 13.999999999999998 184 23 373 6.9999999999999991 13.000000000000002 11.999999999999998 9.9999999999999982 9.9999999999999982 7.9999999999999991 76 7 9.9999999999999982 20 16.000000000000004 19 24 24 7.9999999999999991 13.999999999999998 15.999999999999998 24 12.000000000000002 20 7.9999999999999991 40 8.9999999999999982 91 39 18 14.999999999999998 36 41 6.9999999999999991 7.9999999999999982 66 27 28 9.0000000000000018 26 30
leaf_count=57 7 69 108 217 8 7 21 20 140 151 71 39 592 90 119 19 121 27 30 47 53 174 44 112 138 27 22 49 45 37 18 62 15 119 23 20 135 150 35 55 7 45 14 184 23 373 7 13 12 10 10 8 76 7 10 20 16 19 24 24 8 14 16 24 12 20 8 40 9 91 39 18 15 36 41 7 8 66 27 28 9 26 30
internal_value=0.0227668 -1.12496 7.60284 -3.00467 0.6377 5.57932 -0.156098 1.60072 -2.03617 2.51251 4.28942 -1.44881 -3.88438 11.8199 1.12342 -1.22564 6.90892 0.21386 -0.774147 -1.81211 -2.54705 1.28725 0.42549 2.90353 4.53994 -3.51197 -0.240154 -1.27587 -1.8573 0.865089 -1.99546 -2.13577 -0.415667 1.53344 -0.622987 -0.767426 0.980153 0.676644 -0.0348238 0.192753 1.83872 -1.51047 0.0710542 -2.71574 -0.382559 -4.38891 -1.77228 -0.872866 -0.412282 0.282845 -1.27661 -1.00533 5.48478 -0.6072 -0.0530128 -0.269549 -0.229188 0.00765702 -0.172078 0.240847 -0.423798 -0.193664 -0.431247 0.146658 -0.133319 -1.24668 0.180809 0.14291 0.795978 0.49086 0.391063 0.107012 -0.229015 -0.269981 -0.148954 -0.0794973 -0.242766 0.319111 0.0782998 0.124028 0.0161805 -0.0705893 -0.0898667
internal_weight=4787 4160 627 2012 2148 429 1179 969 963 328 225 454 1049 198 641 301 204 878 194 334 509 554 599 263 209 619 279 132 108 65 107 202 120 300 95 59 254 285 184 314 126 64 87 401 130 430 54 78 74 210 55 57 83 38 61 100 31 104 36 56 21 98 39 86 51 38 28 95 16 135 115 32 30 58 61 23 15 76 62 47 21 40 57
internal_count=4787 4160 627 2012 2148 429 1179 969 963 328 225 454 1049 198 641 301 204 878 194 334 509 554 599 263 209 619 279 132 108 65 107 202 120 300 95 59 254 285 184 314 126 64 87 401 130 430 54 78 74 210 55 57 83 38 61 100 31 104 36 56 21 98 39 86 51 38 28 95 16 135 115 32 30 58 61 23 15 76 62 47 21 40 57
is_linear=0
shrinkage=0.0985333


Tree=10
num_leaves=49
num_cat=0
split_feature=0 0 0 0 0 0 0 0 0 0 0 0 0 0 0 0 0 5 2 0 18 0 0 0 0 0 16 0 0 0 21 0 15 16 21 0 0 19 0 2 5 18 18 19 19 19 20 17
split_gain=3.65808e+06 1.24281e+06 477346 113815 103744 74399.7 20989.1 17104.8 15790.5 12295.5 5800.51 5583.5 5431.31 4326.46 2533.94 1875.87 1387.44 883.9 733.832 572.63 426.41 315.848 255.542 238.188 232.998 106.726 58.807 58.6334 48.5175 32.1347 20.0843 15.8124 10.6319 7.70845 7.09624 6.70591 5.51936 4.77828 3.74968 3.51734 2.41155 2.16824 2.17039 2.02861 1.59914 1.53672 0.790314 0.343466
threshold=0.85756279394299273 -0.49294805839600819 2.2516450963786308 -0.67259162763507918 0.093992183712869062 1.5731280595310044 0.51472975730928872 -0.76125383000438074 -0.27724148462775072 -0.57973017971579788 3.2721209625015812 1.1455423172717574 -0.83966950490210068 -0.4335543183852672 -0.10218038489902688 0.31180340450248811 0.6825574270915471 -1.9128952873218543 -0.81485548335410407 -0.53763079352002474 1.883705727881231 -0.19540580004515909 -0.62951649020580247 1.0000000180025095e-35 -0.40787509015638285 -0.44485795189758098 0.59430616825368177 -0.33143043919610821 -0.15744973084697111 -0.23399365815307885 -0.31313934262747661 -0.41329004218410753 -0.43355559735908006 -0.54620152654215459 -0.6939948209386898 -0.25351723497676509 -0.30691620305891193 -0.537124683027426 -0.36512652298611808 -0.17740824871371649 0.0491131803167262 -0.12966357520272256 -0.53722782475247477 1.0000000180025095e-35 -0.18863987993673489 -0.25310815365177902 0.19337407559181358 -0.35403292082133453
decision_type=2 2 2 2 2 2 2 2 2 2 2 2 2 2 2 2 2 2 2 2 2 2 2 2 2 2 2 2 2 2 2 2 2 2 2 2 2 2 2 2 2 2 2 2 2 2 2 2
left_child=1 3 5 7 8 11 15 12 13 17 -4 -2 -1 25 21 -6 -8 -5 -11 -20 -17 29 -19 -16 26 34 31 30 -23 35 32 -15 37 -29 -3 41 -35 -26 -32 44 -38 42 -10 -37 -31 -41 -45 -43
right_child=2 4 10 9 6 -7 16 -9 14 18 -12 -13 -14 24 23 20 -18 22 19 -21 -22 28 -24 -25 27 -27 -28 33 -30 39 38 -33 -34 36 -36 43 40 -39 -40 45 -42 47 -44 46 -46 -47 -48 -49
leaf_value=-4.7135427849944991 3.3441916985320117 -0.33961672690473271 9.240091658002374 -1.1182091964970442 0.90720527803065265 6.6733504166271898 1.8538182369502232 -2.94766399193532 -0.011866259447718356 -0.28415721152739176 12.195267982560891 4.4960214175625328 -3.6385316522095086 -0.38800367310493289 0.42225619360659666 1.3391821819099714 2.5136216745971001 -2.5017005063384241 -1.6481005813010636 -1.2466866880716327 0.34064372284096095 0.17049164806962933 -2.0982797234059705 0.61558397024898781 -0.077712423528199209 -0.50170377027095536 -0.032439853746480576 0.021904135689795129 0.29109688588263072 0.1483731778536479 -0.20629044220780013 -0.20192955887524006 -0.13229918194018914 -0.099394082318824489 -0.81491639438401575 0.065911399429335701 -0.071753700436340648 0.0090829618280694139 -0.1396418119875554 0.029009753575460269 -0.026188507614327863 -0.0024318659270347901 0.035762655576394083 -0.0049399913521006892 0.074577539828361267 0.087850399613816077 0.034413147481476329 -0.028361600681580081
leaf_weight=99 151 6.9999999999999991 108 15.999999999999998 317 168 152 453 11.999999999999998 6.9999999999999991 89 167 616 50 170 220 114 221 161 150 6.9999999999999991 74 273 169 9.0000000000000018 38 6.9999999999999991 6.9999999999999991 112 36 81 19 35 52 141 41 23 10.999999999999998 52 9.9999999999999982 31 9.0000000000000018 24 6.9999999999999991 15.999999999999998 32 8.9999999999999982 9.9999999999999982
leaf_count=99 151 7 108 16 317 168 152 453 12 7 89 167 616 50 170 220 114 221 161 150 7 74 273 169 9 38 7 7 112 36 81 19 35 52 141 41 23 11 52 10 31 9 24 7 16 32 9 10
internal_value=0.0172666 -1.09643 6.67522 -2.85562 0.574349 4.95726 1.44634 -3.48432 0.0261645 -1.95819 10.7583 3.99 -3.80885 -0.364827 0.327591 1.08395 2.16458 -2.26523 -1.44714 -1.46998 1.31384 0.154917 -2.29453 0.52376 -0.170061 -0.749516 -0.322093 -0.128523 0.247014 0.0691169 -0.162239 -0.348589 -0.101217 -0.0693453 -0.800521 0.0319526 -0.0758631 -0.0355565 -0.18434 0.11075 -0.0486815 0.00662337 0.0202269 0.054652 0.131606 0.0770477 0.0193298 -0.0183075
internal_weight=4783 4100 683 1996 2104 486 810 1168 1294 828 197 318 715 563 731 544 266 510 318 311 227 392 494 339 377 186 76 301 186 206 188 69 55 113 148 112 106 20 133 94 54 55 36 57 52 42 16 19
internal_count=4783 4100 683 1996 2104 486 810 1168 1294 828 197 318 715 563 731 544 266 510 318 311 227 392 494 339 377 186 76 301 186 206 188 69 55 113 148 112 106 20 133 94 54 55 36 57 52 42 16 19
is_linear=0
shrinkage=0.0985333


Tree=11
num_leaves=84
num_cat=0
split_feature=1 15 1 15 15 1 5 1 15 1 15 4 15 5 3 1 1 1 15 5 4 5 5 5 1 5 5 18 1 1 1 1 1 1 5 1 1 1 5 5 5 5 15 15 5 2 1 5 5 5 5 5 5 5 5 1 5 1 17 1 1 1 5 3 17 1 1 5 5 11 12 1 1 18 3 4 1 5 5 5 4 1 1
split_gain=2.87503e+06 944404 465144 97132.7 74286 61702.3 37644.1 21934.3 17046.5 11571.4 11359.6 8617.63 6919.78 5404.59 3181.76 3062.72 2684.34 2221.69 1984.66 1863.17 1713.7 1361.4 1324.41 1171.31 953.663 915.147 852.449 750.51 681.906 533.302 506.936 504.926 501.991 490.577 489.696 483.537 366.414 359.19 308.343 289.602 266.551 263.148 223.244 213.437 200.302 198.679 178.175 159.483 150.703 134.225 125.393 101.24 96.6223 96.5573 77.1231 73.975 73.4373 64.1371 58.8419 54.6459 50.4402 46.9908 45.3699 43.9729 43.006 41.3173 38.9663 38.2606 37.4078 35.6972 34.4098 33.5182 33.2667 29.295 21.4344 20.5505 20.5296 19.0683 13.3183 11.5874 10.5839 10.3913 9.5611
threshold=0.81567931242209724 -0.49282076331534658 1.7866138511477119 -0.73183055364638772 -0.033881032979968549 2.4171856596911043 0.71673298367840055 0.34194860428598473 -0.60619581838059344 1.1463712893506692 -0.33150717826500958 -0.23063618893746976 -0.83976299075358007 0.91772616959087749 -0.39138636988805037 -0.52280959416488881 0.025689506823761494 -0.27311373369004538 -0.6519135237633823 -0.17393750699170377 -0.47432540459960809 0.87314309944338808 0.41335274210314144 0.40281438452186452 -0.37779058334801535 0.59145875397352043 0.38160311244507933 1.883705727881231 -0.65148313417831427 -0.49351153947672888 -0.5688017034582229 -0.0084420049877103349 -0.14844939340886887 -0.15915156315654924 1.0899751778680671 -0.41922280649703919 1.1463712893506692 0.5783020007481624 0.64825079304753908 0.42402086353924723 0.37325619028844442 0.64825079304753908 -0.19547805702047344 -0.42072707085187594 0.36313785345594179 -0.44922012616707235 -0.066782079105105377 0.12808336183613561 0.75601682249083613 0.36313785345594179 0.15516024044289276 0.41335274210314144 -0.86139514804626816 0.78214504795827866 0.11182816547545775 -0.28165024200825411 0.73976338286966847 -0.58153200785423598 -0.54804268365194464 -0.39877090402633669 -0.44492238611266349 -0.38664326482294831 0.66744936537344135 -0.48307726389306577 0.058602488057962247 -0.076110119979541882 -0.24617189656531488 -0.036137474071005836 0.27313659763201636 1.111290665463837 0.99837112891254953 -0.17757505606281471 -0.31691292558586032 -0.51105660272842235 -0.060821594730385828 -0.7605094027561129 -0.14005229701079971 0.86520650761235174 0.76437700157175892 0.43557804284753615 1.0000000180025095e-35 -0.20617355726847506 -0.44957877762798942
decision_type=2 2 2 2 2 2 2 2 2 2 2 2 2 2 2 2 2 2 2 2 2 2 2 2 2 2 2 2 2 2 2 2 2 2 2 2 2 2 2 2 2 2 2 2 2 2 2 2 2 2 2 2 2 2 2 2 2 2 2 2 2 2 2 2 2 2 2 2 2 2 2 2 2 2 2 2 2 2 2 2 2 2 2
left_child=1 3 6 12 10 -4 11 16 18 -8 15 36 -1 25 32 26 33 29 -5 24 45 39 42 -20 -17 47 -3 -27 -28 48 51 53 -10 55 -11 44 75 -15 54 67 60 68 50 63 82 -16 76 -9 73 66 69 -22 -48 81 80 -6 57 -30 -45 -40 -32 -56 -57 -26 -54 -65 -37 -18 -35 74 -60 -52 -51 -12 -19 -2 -44 -61 -46 -63 -31 -24 -21
right_child=2 4 5 8 7 -7 9 13 14 34 17 -13 -14 37 20 19 21 22 23 35 30 -23 31 -25 43 27 28 -29 56 38 40 -33 -34 41 -36 49 -38 -39 59 -41 -42 -43 46 58 78 -47 52 -49 -50 72 71 -53 64 -55 61 62 -58 -59 70 77 -62 79 -64 65 -66 -67 -68 -69 -70 -71 -72 -73 -74 -75 -76 -77 -78 -79 -80 -81 -82 -83 -84
leaf_value=-4.2509764025870735 0.29839032302993601 -1.1967614838929062 6.7286565974631678 -2.4275438953852899 0.073141952551530692 10.147746261220133 3.2750416937042739 0.3926597105437552 -1.7141093627057666 3.9618972404580259 -0.67076152860251503 2.4676051009705766 -3.1788460984616789 1.7414800026153652 -1.0965169043066034 -1.0006062585741569 0.1574191344072047 -0.046550593431522722 -1.9930791184723564 -0.42939226389158908 -1.119883989598929 1.0838640826419952 0.17035319314017597 -0.7058220243730986 -0.68852115510148604 1.5398884683378287 -0.97241353056053192 0.30956311761662397 -0.51100963771914498 -0.29905272150948387 -0.74974693304836237 0.86338804219085774 -0.98424838522268399 0.11417667717650877 5.1840351091933083 -0.080567619447824174 0.91617200303567403 2.3975072791169638 0.010164903984117431 0.77678339206828706 -0.048474663464763333 0.63140095769452664 0.031379000588643104 -0.084261676218498449 -0.10168464036803683 -1.6531420842822275 0.11672194759692567 1.0275399130551042 -0.11330087431343817 0.074724236827570359 0.087142965290707225 -0.38147140015092956 0.46561321567442854 0.52945823243618906 -0.14308580554939701 0.12785889126935665 -0.023865344732633961 -0.19344033801922333 -0.38094631296725517 0.099818747058125087 -0.37198622168110729 -0.03519448660001586 0.35095181302362982 -0.47882347407051667 0.14797694526122018 -0.18917816395802445 0.10090976950440149 0.51148199170618514 0.36638262847982317 0.14411537642087252 -0.11057367027707372 0.32018257251712878 0.29167712088554337 -0.29181129926128191 0.046942327224999691 0.087814153577028209 0.17012707974118441 0.2546087307867661 0.0233202772476853 0.055905874411441465 -0.089845477220909381 0.33308302336265921 -0.22022580569806319
leaf_weight=99 9.9999999999999982 55 128 396 27 161 146 9.9999999999999982 260 96 11.999999999999998 71 786 83 62 36 6.9999999999999991 48 233 32 24.000000000000004 167 18 11.999999999999998 22 129 29 6.9999999999999991 18 17.000000000000004 14.999999999999995 36 26 10.999999999999998 105 36 8.9999999999999982 79 20 136 12.999999999999998 100 25 20 26 39 15.999999999999998 78 14.999999999999998 13.999999999999998 13.000000000000002 6.9999999999999991 44 45 36 19 6.9999999999999991 18 22 19 22.000000000000004 31 34 24 8.9999999999999982 13.999999999999998 12.999999999999998 73 44 15.999999999999998 9.9999999999999982 18 20 13.000000000000002 41 13.000000000000002 17 29 9.9999999999999982 19 6.9999999999999991 40 15.999999999999998
leaf_count=99 10 55 128 396 27 161 146 10 260 96 12 71 786 83 62 36 7 48 233 32 24 167 18 12 22 129 29 7 18 17 15 36 26 11 105 36 9 79 20 136 13 100 25 20 26 39 16 78 15 14 13 7 44 45 36 19 7 18 22 19 22 31 34 24 9 14 13 73 44 16 10 18 20 13 41 13 17 29 10 19 7 40 16
internal_value=0.0170704 -1.01683 5.65372 -2.54172 0.468149 8.72869 3.62855 1.07208 -1.91684 4.12353 -0.113114 1.883 -3.31449 1.65358 -1.4442 -0.490802 0.701849 0.164466 -2.25254 -0.320156 -1.08095 0.863496 0.305555 -1.94049 -0.570713 1.30151 -0.894787 1.48561 -0.620796 -0.0862023 -0.694919 0.545769 -1.66003 0.429892 4.67549 -0.0911893 0.474082 2.10385 -0.0105017 0.679046 -0.449895 0.532109 0.164831 -0.40727 -0.253322 -1.35802 0.266767 0.972586 -0.396004 0.0763867 0.077181 -1.00704 0.361356 0.410853 -0.111315 0.218305 -0.330077 -0.382457 -0.236874 0.150126 -0.575069 -0.0625812 0.283436 -0.534439 0.423781 -0.396282 -0.0290135 0.48814 0.325474 0.0229234 -0.315092 0.240634 0.21718 -0.531929 -0.00333761 0.205873 0.0960297 0.203936 -0.0679361 0.000768769 -0.256661 0.294743 -0.378745
internal_weight=4783 4044 739 1994 2050 289 450 1004 1109 347 1046 103 885 386 468 442 618 604 641 315 182 383 386 245 148 224 127 136 72 218 81 139 286 235 201 167 32 162 178 216 50 155 247 112 84 101 111 88 40 83 136 31 69 103 110 80 43 36 52 68 37 86 53 60 53 38 49 80 55 105 32 31 34 25 89 23 42 48 36 50 24 58 48
internal_count=4783 4044 739 1994 2050 289 450 1004 1109 347 1046 103 885 386 468 442 618 604 641 315 182 383 386 245 148 224 127 136 72 218 81 139 286 235 201 167 32 162 178 216 50 155 247 112 84 101 111 88 40 83 136 31 69 103 110 80 43 36 52 68 37 86 53 60 53 38 49 80 55 105 32 31 34 25 89 23 42 48 36 50 24 58 48
is_linear=0
shrinkage=0.0985333


Tree=12
num_leaves=46
num_cat=0
split_feature=0 0 0 0 0 0 0 0 0 0 0 0 0 0 0 0 0 0 3 0 0 15 21 0 0 21 0 0 4 18 18 0 7 11 3 21 0 7 0 15 17 18 18 15 15
split_gain=2.4455e+06 841305 308832 75905.9 73240.4 49520.8 16413 14834.2 11783.1 11573.3 6337.1 3171.34 1802.55 1684.65 1442.28 1200.7 266.006 245.985 194.139 136.245 107.867 49.2324 31.9972 22.6521 20.8529 20.5607 16.492 12.6039 10.0542 8.81916 9.71553 8.76437 8.70677 8.28727 6.42531 4.79893 3.50033 2.29765 2.26262 2.79617 1.89875 1.88508 1.84038 1.02361 0.475312
threshold=0.88596257388763722 -0.49294805839600819 1.7780100239822569 -0.73174062411637675 0.13000418609847436 2.467253694465064 -0.59655668583769517 0.56355149306802821 -0.25351723497676509 1.2069518908216048 -0.81698016943158447 -0.42081745672754983 -0.066975726533489141 0.35407785086565574 -0.64421311872662035 -0.56125654952564297 -0.44485795189758098 -0.15744973084697111 2.1455860536132181 0.040377949982052984 -0.33143043919610821 -0.49978317091719821 -0.6939948209386898 0.6825574270915471 -0.21216941388257737 -0.31313934262747661 -0.27724148462775072 0.18931776837328704 -0.12098915756311672 -0.41114748507455756 -0.49138042850595948 -0.37236764181362919 -0.28731594908324121 1.2943198978900055 -0.34563643423346468 0.76422486579951621 -0.23399365815307885 1.4451848819944064 -0.30691620305891193 -0.23916790284446285 -0.36038533007495072 -0.12966357520272256 -0.53722782475247477 -0.31477376859403805 -0.1682087030251995
decision_type=2 2 2 2 2 2 2 2 2 2 2 2 2 2 2 2 2 2 2 2 2 2 2 2 2 2 2 2 2 2 2 2 2 2 2 2 2 2 2 2 2 2 2 2 2
left_child=1 3 9 10 8 -4 14 13 11 -2 -1 16 17 27 -5 -8 22 24 -15 -14 25 -18 -3 -9 36 28 33 -6 29 30 -13 -27 -30 38 -35 -26 40 -33 -22 -40 -10 42 -28 -43 -44
right_child=2 4 5 6 7 -7 15 23 12 -11 -12 20 19 18 -16 -17 21 -19 -20 -21 26 -23 -24 -25 35 31 41 -29 32 -31 -32 37 -34 34 -36 -37 -38 -39 39 -41 -42 43 44 -45 -46
leaf_value=-3.5596129769041887 2.897720324693803 -0.24141951211974069 6.1654711476547384 -2.2201126008393768 0.65898067879693878 9.2460313372711198 -1.4746458134588496 1.6176123050171645 0.063102098036506918 4.1838744256403722 -2.8168148725817015 -0.097084376150256932 0.4063846353452053 1.1928841764629381 -1.8063478289372206 -1.0703986579841354 -0.10979088312019035 0.25811069787294744 0.3848972982166039 0.56358781103554634 -0.085692930799358372 -0.40974088839395306 -0.6584867158854234 2.0844093718768564 0.13501504477553655 -0.18906468955361289 -0.010662900027215903 0.83984847913263938 0.040164675475186533 -0.1680902350909145 0.01860027061298259 -0.13092085076909821 -0.077639087291477213 -0.049517629320585975 0.057831947673108716 0.031339982737879558 0.084316758980834919 -0.044877050158895149 -0.027503084076293462 -0.080358881697415688 0.023625800643410882 0.010135249450530869 0.041052203309993852 -0.031575196331321269 0.0070592488986320088
leaf_weight=219 170 6.9999999999999991 128 433 94 161 189 95 26 205 666 26 188 221 265 224 8.9999999999999982 169 6.9999999999999991 149 49 67 141 133 105 88 11.999999999999998 224 9.0000000000000018 17 7.9999999999999991 61 8.9999999999999982 7 7.9999999999999982 6.9999999999999991 56 7.9999999999999991 34 14.999999999999998 31 7.0000000000000027 17 11.999999999999998 7.0000000000000027
leaf_count=219 170 7 128 433 94 161 189 95 26 205 666 26 188 221 265 224 9 169 7 149 49 67 141 133 105 88 12 224 9 17 8 61 9 7 8 7 56 8 34 15 31 7 17 12 7
internal_value=0.0167784 -0.879057 5.55024 -2.32961 0.48626 7.96867 -1.77738 1.24804 0.0471555 3.63191 -3.01347 -0.268766 0.314249 0.958882 -2.07249 -1.26586 -0.561945 0.168918 1.17406 0.480796 -0.0987237 -0.380409 -0.644592 1.91638 0.0990964 -0.142761 -0.0378347 0.793877 -0.0902211 -0.111554 -0.07064 -0.163464 -0.0216925 -0.0588568 0.00783418 0.129644 0.065932 -0.123508 -0.0689869 -0.047827 0.044159 0.00626065 0.0189415 -0.0169919 0.033238
internal_weight=4783 4119 664 1996 2123 289 1111 774 1349 375 885 618 731 546 698 413 224 394 228 337 394 76 148 228 225 226 168 318 69 51 34 157 18 113 15 112 113 69 98 49 57 55 36 19 24
internal_count=4783 4119 664 1996 2123 289 1111 774 1349 375 885 618 731 546 698 413 224 394 228 337 394 76 148 228 225 226 168 318 69 51 34 157 18 113 15 112 113 69 98 49 57 55 36 19 24
is_linear=0
shrinkage=0.0985333


Tree=13
num_leaves=61
num_cat=0
split_feature=0 0 0 0 0 0 0 0 0 0 0 0 0 0 0 0 0 0 20 0 15 0 3 20 20 0 0 21 0 15 15 21 0 15 20 18 0 0 15 0 21 15 20 0 20 21 0 0 13 19 18 18 11 21 15 15 21 15 2 19
split_gain=1.9954e+06 685358 253607 61893.5 59856.3 32023.6 16932.6 13733.6 12153.1 9645.17 5636.01 2818.58 2610.03 1469.47 1383.85 1333.93 981.844 345.192 321.848 199.863 184.539 167.859 153.367 147.102 112.909 111.735 87.6444 69.9414 63.0182 61.2516 49.6047 36.739 30.7296 26.2994 26.2568 25.6535 16.9917 11.0153 10.2328 10.1666 8.61459 6.17186 4.62989 4.11364 3.40339 3.51672 2.33828 1.87504 1.83939 1.76239 1.59264 1.55836 1.3004 1.265 1.0038 0.87797 0.813945 0.659812 0.568925 0.395485
threshold=0.88596257388763722 -0.49294805839600819 2.1708439921777809 -0.73609737662477748 0.13000418609847436 1.6188179805204626 3.2721209625015812 -0.59655668583769517 0.56355149306802821 -0.25351723497676509 -0.85125967584666606 1.1794469907358758 -0.4335543183852672 -0.066975726533489141 0.36622400387778953 -0.65526606939419207 -0.56125654952564297 -0.79595996572477312 0.038359666358472884 -0.15744973084697111 -0.62954607352200664 -0.40787509015638285 2.1455860536132181 0.29606545328420675 0.14249116824361427 0.040377949982052984 -0.46886306440244202 -0.53340247819262598 -0.32088724522742479 -0.60922668408324776 -0.49590209184016198 -0.57336979807235888 0.18931776837328704 -0.43797611295476618 0.61532036389043698 -0.20817724127488021 -0.20567153820905323 -0.27724148462775072 -0.48792780335999275 0.6825574270915471 -0.44605644035505498 -0.33805642151041665 0.98973341364409295 -0.23399365815307885 0.72103154643767853 0.2952279801008868 -0.3468252250220285 -0.41329004218410753 0.32283199824469072 -0.14368323027059135 -0.12966357520272256 -0.53722782475247477 1.2943198978900055 0.0074307391215887178 -0.28890712911386557 -0.31477376859403805 -0.16944860281562821 -0.48792780335999275 -0.10383198794620131 0.12506986338803047
decision_type=2 2 2 2 2 2 2 2 2 2 2 2 2 2 2 2 2 2 2 2 2 2 2 2 2 2 2 2 2 2 2 2 2 2 2 2 2 2 2 2 2 2 2 2 2 2 2 2 2 2 2 2 2 2 2 2 2 2 2 2
left_child=1 3 5 10 9 11 -4 15 14 12 -1 -2 26 19 32 -5 18 -12 20 36 -9 34 -16 29 -17 -15 30 31 33 -18 -3 -28 -6 35 38 40 43 48 -14 -10 -23 46 -21 49 45 -38 -35 -40 52 56 51 -39 -30 -45 -50 -52 -11 -37 -55 -51
right_child=2 4 6 7 8 -7 -8 16 39 13 17 -13 21 25 22 24 23 -19 -20 42 -22 28 -24 -25 -26 -27 27 -29 37 -31 -32 -33 -34 41 -36 57 44 50 47 -41 -42 -43 -44 53 -46 -47 -48 -49 54 59 55 -53 -54 58 -56 -57 -58 -59 -60 -61
leaf_value=-3.8114078027169369 2.5611841036749574 -0.41775478269212296 6.588660823271522 -2.0350975141989891 0.59630260173587979 4.9738539150701193 9.1965647889096136 -0.67048989393381142 1.4636990451385807 0.066450532816303795 -2.8628173848920584 3.4090624741712037 -0.10686649121236332 0.3670493276733956 1.0945754644417136 -1.6809048556167148 -0.40422316013569382 -2.4872847786970391 -0.40190161549369063 0.23854638866309424 -1.3985153933591359 -0.019275732723786191 0.35932053658759766 -0.3060866992543379 -0.74898970788477759 0.50928727678606478 -0.32443265740781813 -0.51017695143400965 -0.069616128775645797 -0.99813877845634102 -0.7406673963691276 -0.043758310131511616 0.76835521159317344 -0.11191000592155093 -0.036800926503858085 -0.051323935183772623 0.13885308749896053 -0.0098431254872556832 -0.3034717299906613 1.8841151753219898 0.095795450060024157 -0.15251049769269032 0.098643744064394995 0.092057560820536052 0.034242841178384512 0.06169839751254344 -0.054005946081310395 -0.16714102309225221 -0.010262416349746938 -0.0042160296694087936 0.0094617534269247142 0.030548573187059169 -0.014799297085130081 0.015651244714544633 -0.042017752666409745 -0.029147662574380815 0.027553430689365634 -0.13477327386937552 0.05864605167733862 0.022038448717505103
leaf_weight=59 151 24 126 396 94 131 89 12.999999999999998 95 20 298 167 9.9999999999999982 188 202 312 7.9999999999999991 509 6.9999999999999991 160 169 11.000000000000002 6.9999999999999991 6.9999999999999991 8.9999999999999982 149 21.000000000000004 84 41 209 50 6.9999999999999991 243 62 6.9999999999999991 8.0000000000000018 71 11.999999999999998 42 133 8.9999999999999982 88 8.9999999999999982 48 6.9999999999999991 14.999999999999998 19 17 18 7.0000000000000027 7.0000000000000027 24 6.9999999999999991 7.0000000000000027 28 11.999999999999998 17 9.9999999999999982 20 12.999999999999998
leaf_count=59 151 24 126 396 94 131 89 13 95 20 298 167 10 188 202 312 8 509 7 160 169 11 7 7 9 149 21 84 41 209 50 7 243 62 7 8 71 12 42 133 9 88 9 48 7 15 19 17 18 7 7 24 7 7 28 12 17 10 20 13
internal_value=0.0162141 -0.792994 5.01458 -2.10223 0.439304 3.63547 7.79383 -1.61302 1.12797 0.0423436 -2.73181 3.03762 -0.243483 0.283995 0.866265 -1.87703 -1.14317 -2.63732 -1.3319 0.152774 -1.35969 -0.108819 1.07606 -0.966496 -1.66285 0.434371 -0.548728 -0.45886 -0.0789899 -0.982779 -0.658761 -0.266539 0.726762 -0.113798 -0.239229 -0.0357342 0.0898243 -0.0291806 -0.257086 1.73288 0.0388625 -0.130305 0.233177 0.0642369 0.122615 0.128239 -0.101036 -0.275376 -0.0491015 0.0402864 0.00573509 0.0173918 -0.0631241 0.0799154 -0.0311475 -0.015636 0.0523843 -0.111667 0.0504851 0.0135622
internal_weight=4783 4119 664 1996 2123 449 215 1130 774 1349 866 318 618 731 546 717 413 807 189 394 182 432 209 224 321 337 186 112 356 217 74 28 337 207 76 38 225 149 69 228 20 169 169 132 93 86 81 59 94 57 55 36 48 75 46 19 37 18 27 20
internal_count=4783 4119 664 1996 2123 449 215 1130 774 1349 866 318 618 731 546 717 413 807 189 394 182 432 209 224 321 337 186 112 356 217 74 28 337 207 76 38 225 149 69 228 20 169 169 132 93 86 81 59 94 57 55 36 48 75 46 19 37 18 27 20
is_linear=0
shrinkage=0.0985333


Tree=14
num_leaves=84
num_cat=0
split_feature=1 15 1 15 15 1 1 15 15 15 1 15 1 1 4 1 1 15 1 4 6 1 1 1 1 1 1 1 4 3 4 17 3 1 18 1 1 15 16 15 17 1 3 15 1 11 1 16 21 21 16 15 11 15 18 18 15 21 15 16 15 17 21 3 15 11 15 3 17 3 1 16 16 17 15 15 15 16 16 1 12 16 15
split_gain=1.56805e+06 542849 214171 52740 49879.3 38038.4 17835.8 9744.21 9460.87 7626.55 5840.62 4660.98 2331.96 1857.79 1785.4 1561.05 1525.25 1238.88 987.156 809.526 696.491 659.045 628.427 616.211 543.596 452.899 405.16 397.364 329.04 312.246 289.27 279.737 279.263 272.966 263.366 258.317 236.786 197.535 268.239 150.778 141.351 136.228 131.672 127.291 117.841 111.65 98.0987 95.4016 91.1847 63.5262 60.7224 53.515 53.4578 53.3588 42.773 42.4651 42.1573 41.9794 41.0141 40.0087 36.6018 33.898 28.5761 28.0375 27.8044 25.0153 22.7343 22.5679 21.8193 19.457 18.4046 24.1236 18.0127 17.6787 17.5137 17.4223 16.7706 16.4089 14.759 14.1939 13.1864 12.0038 10.6011
threshold=0.93596771488798725 -0.49282076331534658 2.3030877395127138 -0.74184189871886641 0.0089869848071042601 1.5589399684701022 0.47140699050324603 0.25451675823438896 -0.60619581838059344 -0.32096363689175028 3.4518162764425324 -0.8513535436012416 0.11235297949237737 -0.47795703176043564 -0.54331384778490655 0.66125707117628174 -0.20617355726847506 -0.6519135237633823 -0.65148313417831427 -0.49924518445741556 0.59508969684445445 -0.70954059454056495 -0.43905570590377996 1.0830751357090451 -0.52280959416488881 -0.39877090402633669 -0.46334631102994989 -0.14005229701079971 -0.44940562474180062 -0.39797665289466089 -0.28677127198558339 -0.3789136529584855 -0.33904615122685422 0.24573789424197376 1.883705727881231 1.0000000180025095e-35 0.2174179517789204 -0.41314982026513858 -0.52284408516321124 -0.39941859168166949 0.73115103129110859 -0.24617189656531488 -0.58298213381936359 -0.52804887788314936 0.45653217358092218 0.8524482426560116 -0.51248298927087799 -0.56448717616375943 0.17688060640002221 -0.22646213827500297 -0.65574521021455212 -0.13298135967297262 0.8524482426560116 -0.10224957004089998 -0.44390927030904676 -0.0084545213759975937 -0.36468808382053358 -0.12700479138296719 -0.1838496800775514 -0.67943493032704649 -0.25359140675877523 -0.27396766525553351 0.12919458657065283 0.51530285593446046 -0.38749054568944458 0.36487622011712156 -0.42816785081371761 -0.66149246181115806 0.058602488057962247 -0.39138636988805037 -0.34568892441052751 -0.19463564336679459 -0.20620485797756843 -0.31697865393677155 -0.52804887788314936 -0.19547805702047344 -0.1838496800775514 -0.54620152654215459 -0.66775997013503197 -0.25394303844935856 1.0000000180025095e-35 -0.16900836375891851 -0.27731643813804102
decision_type=2 2 2 2 2 2 2 2 2 2 2 2 2 2 2 2 2 2 2 2 2 2 2 2 2 2 2 2 2 2 2 2 2 2 2 2 2 2 2 2 2 2 2 2 2 2 2 2 2 2 2 2 2 2 2 2 2 2 2 2 2 2 2 2 2 2 2 2 2 2 2 2 2 2 2 2 2 2 2 2 2 2 2
left_child=1 3 5 11 9 7 12 -2 17 13 -4 -1 27 21 22 -8 25 -5 -16 31 30 -3 -10 -9 -13 46 43 62 35 -30 53 42 56 -14 -35 -19 -22 38 55 -33 61 52 -15 59 74 51 -11 -28 -29 58 -45 72 66 65 -44 78 -21 -48 69 -20 -47 -39 -6 -43 -56 -18 -34 -62 -55 -27 -51 82 -32 -53 -24 80 -73 -54 -23 -64 -59 -60 -72
right_child=2 4 10 8 6 -7 15 23 14 16 -12 24 33 19 18 -17 20 28 26 32 36 37 44 -25 -26 49 47 48 29 -31 45 39 41 34 -36 -37 -38 40 -40 -41 -42 63 54 50 -46 60 57 -49 -50 70 -52 73 77 68 64 -57 -58 75 81 -61 67 -63 79 -65 -66 -67 -68 -69 -70 -71 71 76 -74 -75 -76 -77 -78 -79 -80 -81 -82 -83 -84
leaf_value=-3.4361476843749372 0.41494488699640414 -1.4387084206339373 6.2988260504310123 -1.7881136905983102 0.25662415050474807 4.4681367340360305 1.2024027404349258 2.2094102110037745 -1.2989888556940625 -0.34197782164561408 8.599979639105868 -2.3810376600679048 0.62547459882473522 -0.46378529137168284 -1.1714030226206029 1.7263708013275803 0.00090819765963823013 -1.4983819509023772 -0.35377288549139302 -0.43647496794963336 0.41258887273387052 -0.21307009147098868 -1.007978897219183 2.9274595536756092 -0.84413552397280389 0.0041957936848513915 0.045824829971532213 0.52763612155458584 -1.2957455108874574 -0.45291978071057282 0.19312020150149481 -0.72631685866476414 -0.18481380744843232 0.87343119326277652 0.19529221163862248 -0.54962682328764767 0.86956348611683232 -0.13949760352581608 -0.91442660534599407 -0.31643714406274109 -0.68430391743986363 0.070625280028537213 -0.041916573103575522 -0.097092939660595165 -0.33802846313881457 0.15209397222490575 -0.011783412871751013 -0.32536114267440641 0.36690746732936774 -0.04893118191838515 -0.4914973583716663 0.34013609092855679 0.12204065673424135 0.26884412343879893 -0.27000485271644836 -0.20135586586451565 -0.10447798650211321 -0.26707860312139825 0.21591104532038405 -0.84423463291980683 0.18122039986624297 -0.34319145681896784 0.03679659436326007 0.24703269411362461 -0.068575570333699681 0.11197456566516684 -0.059175950684589765 0.47065073152605647 0.069958084304883247 0.1286057381140214 0.01332993522756302 -0.11254144710754148 0.064343401605403916 0.19617402988930269 -0.56952744027757096 -0.071493785155436126 0.026112133473994246 -0.011789083675539169 -0.56051019187907036 0.15520704495464901 -0.078874898459627737 0.073089685999726178 0.12352480251613161
leaf_weight=59 20 6.9999999999999991 108 433 22 184 151 83 242 25 71 782 143 19 41 174 53 212 8.9999999999999982 15.000000000000002 57 6.9999999999999991 49 197 6.9999999999999991 29 8.0000000000000018 120 8.0000000000000018 17 22 27 24 221 7.9999999999999991 7.9999999999999991 18 19 30 25 10.999999999999998 26 21 7.0000000000000027 8.9999999999999982 9.9999999999999982 26 23 117 26 18 37 9.9999999999999982 15.000000000000002 29 9.9999999999999982 7.9999999999999991 17.000000000000004 39 45 8.9999999999999982 35 20 13.999999999999998 11.999999999999998 28 39 45 11.999999999999998 18 12.999999999999998 8.9999999999999982 27 38 18 17 24 25 51 23 8.9999999999999982 11.999999999999998 27
leaf_count=59 20 7 108 433 22 184 151 83 242 25 71 782 143 19 41 174 53 212 9 15 57 7 49 197 7 29 8 120 8 17 22 27 24 221 8 8 18 19 30 25 11 26 21 7 9 10 26 23 117 26 18 37 10 15 29 10 8 17 39 45 9 35 20 14 12 28 39 45 12 18 13 9 27 38 18 17 24 25 51 23 9 12 27
internal_value=0.0155628 -0.701154 4.45034 -1.86705 0.394639 3.33291 0.900203 2.59461 -1.42383 -0.0552554 7.35402 -2.45851 0.606005 -0.360167 -1.0684 1.49781 0.159203 -1.66317 -0.756496 -0.206328 0.290729 -0.617009 -1.207 2.7435 -2.37106 -0.0098948 -0.57154 0.395363 -1.42102 -0.844816 0.218251 -0.383084 -0.055437 0.771911 0.852926 -1.47272 0.55503 -0.553214 -0.650127 -0.560598 -0.382186 0.000696242 -0.251233 -0.688757 -0.871241 0.291344 -0.184108 -0.234479 0.454564 0.0749348 -0.405783 0.225379 -0.0618452 0.0860348 -0.165488 -0.495747 -0.349183 -0.11361 0.129811 -0.788145 0.401436 -0.283961 0.167709 0.146807 -0.220765 0.0422503 -0.114013 0.43593 0.198071 0.057276 0.01812 0.0431115 0.130894 0.278801 -0.923193 -0.169831 -0.0186406 0.0338238 -0.532621 0.10683 -0.218503 0.18894 0.0915434
internal_weight=4783 4120 663 1995 2125 484 999 300 1147 1126 179 848 674 464 469 325 662 678 151 294 371 170 318 280 789 291 110 302 245 25 296 133 161 372 229 220 75 163 98 52 65 138 81 79 76 188 94 31 237 197 25 124 98 108 62 68 23 69 98 54 64 54 65 40 41 81 63 54 27 47 99 73 49 75 67 43 33 35 58 43 26 51 40
internal_count=4783 4120 663 1995 2125 484 999 300 1147 1126 179 848 674 464 469 325 662 678 151 294 371 170 318 280 789 291 110 302 245 25 296 133 161 372 229 220 75 163 98 52 65 138 81 79 76 188 94 31 237 197 25 124 98 108 62 68 23 69 98 54 64 54 65 40 41 81 63 54 27 47 99 73 49 75 67 43 33 35 58 43 26 51 40
is_linear=0
shrinkage=0.0985333


Tree=15
num_leaves=61
num_cat=0
split_feature=0 0 0 0 0 0 0 0 0 0 0 0 0 0 18 15 0 0 0 5 5 0 5 16 15 0 0 21 15 16 0 0 5 15 0 15 20 21 0 5 15 0 15 0 0 15 15 16 16 15 15 15 4 5 19 7 20 5 18 20
split_gain=1.33793e+06 421856 217648 34727.4 34653.6 30180.6 12913.3 7640.52 6621.07 6105.49 4052.13 1309.28 1244.43 806.769 757.133 738.967 626.518 576.043 559.604 455.372 323.39 318.711 293.144 288.546 257.758 210.082 98.4111 67.6745 47.8525 42.5996 37.8398 25.7722 23.7004 18.7869 16.777 16.641 24.4218 11.9427 11.8627 8.07483 7.4156 5.5836 5.15534 5.13412 4.54683 2.99515 1.95044 2.08098 1.94519 1.8997 1.05015 1.5521 0.868331 0.865583 0.863049 0.779124 0.651411 0.454837 0.453995 0.371745
threshold=0.74943072181431314 -0.52028328513519517 1.7780100239822569 -0.74175163931988963 1.0000000180025095e-35 3.0096275015308875 1.2483465012892203 -0.42081745672754983 -0.62251090666696218 0.3820490447538249 -0.85125967584666606 0.91582251608194587 -0.23399365815307885 -0.56900566397599461 2.1717802009635032 -0.62954607352200664 -0.47417703655979054 0.56355149306802821 0.17417486246340921 -2.0527820625107709 -1.4316681780907659 -0.78313320861651026 -1.957743751214444 -0.15918239009214921 -0.49590209184016198 -0.14346084771196066 -0.28883179369592776 -0.49298324379593544 -0.56114046056003031 -0.66131281816144361 -0.43801385788129565 0.066772232637858045 0.12808336183613561 0.12068160717515979 -0.32088724522742479 -0.49590209184016198 0.11618125614740674 -0.41232554080933742 -0.086457992887007715 0.35149284729191688 0.030976827183288959 -0.19540580004515909 -0.44966852381184946 -0.40787509015638285 -0.25351723497676509 -0.26069576406931555 -0.33150717826500958 -0.12561402971142113 -0.33013349500697875 -0.20574413344660797 -0.23916790284446285 -0.26840254434076549 -0.071149597847501897 0.45863401078336946 -0.37013433763544829 -1.0091912953655942 0.60174342073586329 0.35149284729191688 -0.14924423401633857 0.33173816043400156
decision_type=2 2 2 2 2 2 2 2 2 2 2 2 2 2 2 2 2 2 2 2 2 2 2 2 2 2 2 2 2 2 2 2 2 2 2 2 2 2 2 2 2 2 2 2 2 2 2 2 2 2 2 2 2 2 2 2 2 2 2 2
left_child=1 3 6 10 7 -4 11 16 23 18 -1 -2 26 15 17 32 24 -11 31 -12 -15 -21 -17 -5 -3 40 29 35 -22 -9 -29 -6 -10 38 37 -18 -37 42 -27 -35 41 45 -31 -39 46 54 48 57 -28 55 51 -36 -47 -42 -14 -46 -43 -48 -49 -51
right_child=2 4 5 8 9 -7 -8 12 13 14 19 -13 25 20 -16 22 27 -19 -20 21 28 -23 -24 -25 -26 33 44 30 -30 34 -32 -33 -34 39 50 36 -38 43 -40 -41 53 56 -44 -45 49 52 47 58 -50 59 -52 -53 -54 -55 -56 -57 -58 -59 -60 -61
leaf_value=-3.1443051993611473 1.6079656612506323 -0.45535361595359408 4.9443966289287173 -1.6191802162490865 0.3433422201673052 7.37916950442923 3.1230310637706626 0.09831864499815765 -0.72798433568746979 0.92522391174067597 -0.82968972390692797 2.2181037469262201 0.12297826851886993 -0.13832712582185311 0.029833687185990443 -0.48395744585665806 -0.09150245816118556 1.2735833867239554 0.62258124964875394 -2.3070446992778946 -0.69385847311463711 -1.9966109711372417 -1.2843440259740242 -0.64551779309848434 -0.77416562167076775 0.19819486741054565 -0.0077963901528190164 -0.4558175599925815 -0.98122282921027537 0.0018291825432596494 -0.28083652056480324 0.45050316313913841 -0.27268229618398615 0.04706009136540662 -0.044699198764980505 -0.30143429342008127 -0.061090309410416647 -0.1662128792064857 0.27252480999583745 0.16915614019264322 -0.0027520048196313998 0.120893344092463 -0.073312641124797684 -0.10640075639876385 0.0105346723628485 0.064594077761231439 -0.0052609527701792417 -0.013827313702811634 0.054050108378144765 -0.003268451871575922 -0.07070869323885369 -8.7850771558161552e-05 0.030518381696760015 0.038246066145884799 0.053967105900774172 0.053212884913428925 0.046623800606504839 0.016050081203258383 -0.04357695386941729 0.020296153248103469
leaf_weight=59 114 64 182 575 112 107 187 8.9999999999999982 29 186 7.9999999999999991 169 15.000000000000002 6.9999999999999991 6.9999999999999991 9.9999999999999982 11.999999999999998 130 281 408 55 372 257 8.9999999999999982 86 99 7.9999999999999991 77 106 10.999999999999998 43 187 6.9999999999999991 9.9999999999999982 45 29 6.9999999999999991 29 122 33 7.0000000000000027 77 39 158 6.9999999999999991 35 17 15.000000000000002 6.9999999999999991 12.000000000000002 20 8.9999999999999982 22 10.999999999999998 11.999999999999998 29 6.9999999999999991 15.999999999999998 10.999999999999998 8.9999999999999982
leaf_count=59 114 64 182 575 112 107 187 9 29 186 8 169 15 7 7 10 12 130 281 408 55 372 257 9 86 99 8 77 106 11 43 187 7 10 45 29 7 29 122 33 7 77 39 158 7 35 17 15 7 12 20 9 22 11 12 29 7 16 11 9
internal_value=0.0146159 -0.701896 3.79963 -1.76616 0.253317 5.92073 2.46242 -0.0895266 -1.38047 0.714744 -2.23917 1.9942 0.0573947 -1.08893 1.05827 -1.19882 -0.50203 1.0805 0.518412 -2.15826 -0.870985 -2.16824 -1.26079 -1.60798 -0.651171 0.172728 -0.0581118 -0.358653 -0.89934 -0.0873077 -0.402527 0.414649 -0.670457 0.229053 -0.0936791 -0.229701 -0.263958 -0.106638 0.242715 0.146263 0.0901223 0.0965455 -0.0577096 -0.118463 0.0136075 0.0726068 -0.00264637 -0.0108541 0.0256892 0.0336784 -0.0493288 -0.0377096 0.0538888 0.024381 0.101727 0.0465342 0.116749 0.0055989 -0.0299835 0.00823839
internal_weight=4783 4024 759 1902 2122 289 470 1219 1055 903 847 283 901 471 323 303 318 316 580 788 168 780 267 584 150 450 451 168 161 320 120 299 36 264 311 48 36 237 221 43 186 168 50 187 131 84 74 59 15 57 74 54 57 18 27 36 84 33 26 21
internal_count=4783 4024 759 1902 2122 289 470 1219 1055 903 847 283 901 471 323 303 318 316 580 788 168 780 267 584 150 450 451 168 161 320 120 299 36 264 311 48 36 237 221 43 186 168 50 187 131 84 74 59 15 57 74 54 57 18 27 36 84 33 26 21
is_linear=0
shrinkage=0.0985333


Tree=16
num_leaves=65
num_cat=0
split_feature=0 0 0 0 0 0 0 0 0 0 0 0 0 0 0 5 0 1 0 0 18 0 1 0 20 19 19 1 0 5 19 0 0 19 17 0 12 19 19 18 5 17 17 19 12 0 18 20 0 7 19 5 0 0 18 17 18 18 7 18 20 1 20 20
split_gain=1.09251e+06 366307 151228 32398 31329.2 28556.4 6724.18 6419.73 5844.3 3512.26 3122.66 2742.39 2004.28 841.566 462.179 459.321 423.527 364.269 352.195 345.894 343.511 270.552 185.233 184.585 147.586 146.491 114.848 97.8892 79.3553 70.1853 50.3707 35.3769 28.933 22.9279 22.2103 13.7529 11.3012 10.72 9.88977 15.5712 9.40946 6.33321 5.55347 5.25323 5.25183 5.21286 5.06326 3.88167 3.29382 3.1778 2.74583 2.70851 2.17626 2.06034 1.73883 1.45131 1.17734 1.38397 0.59659 0.514517 0.872137 0.453175 0.329839 0.310407
threshold=0.85756279394299273 -0.50008306375891209 2.3419522128384043 0.10456172476046401 -0.74175163931988963 1.6719607293031031 -0.59655668583769517 0.49524940166573056 -0.41329004218410753 -0.84596523667005707 3.5588645672641035 1.1455423172717574 -0.14346084771196066 -0.65526606939419207 0.6825574270915471 -2.0527820625107709 0.31180340450248811 -0.5592573723387867 -0.46886306440244202 -0.53763079352002474 1.674144920871117 -0.27724148462775072 -0.025632842811653102 -0.033814100548240987 -0.81786992724326246 -0.56840498625557523 -0.7136178433150967 0.72559728745272933 -0.79595996572477312 0.69459890621571962 -0.58443887904803693 -0.43801385788129565 -0.23399365815307885 -0.5792971820234939 -0.71108573993253332 -0.33797946664712591 -1.2968110619311308 -0.58941528603562221 -0.44008116277195186 -0.22126285228690643 1.0551016028363949 -0.58708411039040376 0.19702966112047463 0.45276880252162593 -1.2968110619311308 -0.19540580004515909 -0.58632274489978509 -0.41869533621247984 -0.61647290204793903 1.4451848819944064 -0.40818448643618582 0.45863401078336946 -0.32088724522742479 -0.25351723497676509 0.37121922879045793 -0.36038533007495072 -0.12966357520272256 -0.53722782475247477 -0.57606608759618239 0.27961995170627413 0.60174342073586329 -0.14005229701079971 -0.69560544823133041 -0.089036008882302425
decision_type=2 2 2 2 2 2 2 2 2 2 2 2 2 2 2 2 2 2 2 2 2 2 2 2 2 2 2 2 2 2 2 2 2 2 2 2 2 2 2 2 2 2 2 2 2 2 2 2 2 2 2 2 2 2 2 2 2 2 2 2 2 2 2 2
