tree
version=v4
num_class=1
num_tree_per_iteration=1
label_index=0
max_feature_idx=21
objective=regression
feature_names=Column_0 Column_1 Column_2 Column_3 Column_4 Column_5 Column_6 Column_7 Column_8 Column_9 Column_10 Column_11 Column_12 Column_13 Column_14 Column_15 Column_16 Column_17 Column_18 Column_19 Column_20 Column_21
feature_infos=[-0.86546662488940351:6.7874979329400045] [-1.1540247096930456:6.4106637407282632] [-0.98506685697720708:5.8099616707013606] [-0.87401152842728813:7.7175887223084727] [-0.94250210337870144:5.8301691875607684] [-2.1110579879924978:1.7902396035163419] [-0.88556030098633598:7.6456474734427555] [-1.6592139201336096:1.6590186955283459] [-0.77463659999231804:1.2909279009150332] [-0.64505531480395539:1.5502546480124009] [-1.0504558896166549:1.1156383106173164] [-1.4139999770466944:1.4155490094713847] [-1.416328337545921:1.4109891800320016] [-1.3575306771956004:1.3902957982232091] [-1.2821704242536902:1.4161313226427032] [-0.86561372512616142:6.7877759248796403] [-1.1542162879448732:6.4109618481600625] [-0.98523206959936682:5.8102752926130021] [-0.87414093479054578:7.7179252965710301] [-0.93033877561683498:5.4488897680009316] [-1.2339619899998731:5.1813711670322551] [-0.98861097293586009:7.509704667340162]
tree_sizes=7321 3360 7722 7541 3678 7704 3775 7585 3710 7580 4112 7553 4416 4484 7565 5540 5400 6007 6448 6691 6874 7432 7714 7536 7706 7635 7651 7639 7780 7700 7647 7694 7614 7648 7595 7576 7731 7733 7656 7664 7698 7692 7690 7663 7807 7779 7685 7807 7892 7778 7889 7816 7786 7879 7856 7878 7915 7982 8020 7989 7907 7947 7949 7933 8031 7563 7855 8106 8064 7950 6548 8111 7932 7904 8051 8177 6719 8102 5651 7944 7503 8064 6275 7343 7810 6341 7279 4633 7935 8166 7867 7525 8336 4821 8020 8265 6435 5217 6193 8178 7696 8092 7211 7879 6428 7435 5781 6037 8082 6513 6117 7681 4057 7396 8157 6406 6820 8192 4314 7234 8073 7989 8214 8012 4344 7484 4718 5413 5273 8090 8388 6071 8160 8271 7457 8223 8218 8280 8087 7646

Tree=0
num_leaves=83
num_cat=0
split_feature=15 15 15 3 15 6 15 15 15 3 15 15 15 16 15 3 15 3 15 3 16 3 19 15 11 3 15 15 3 15 19 19 6 21 3 19 11 15 15 12 5 15 15 21 21 5 3 5 12 6 11 3 3 12 19 15 15 3 3 20 15 21 5 21 18 11 15 3 21 19 11 15 3 19 19 14 3 16 19 21 15 3
split_gain=2.65383e+07 8.38553e+06 4.38175e+06 892807 763486 661247 635444 144010 120479 114265 111593 79451 66473.7 61406 41977.2 33219.3 30814.4 25596.6 20971.3 12634.4 12610.8 10563.3 8759.31 8419.06 6658.95 6489.89 5677.97 5134.3 4784.42 3069.73 3041.5 2672.97 2617.81 2580.72 2320.47 2004.12 1838.76 1549.12 1534.38 1254.22 1054.48 1044.75 1029.09 988.434 890.081 798.747 793.31 721.763 702.906 664.432 581.953 489.928 474.199 455.37 446.021 362.619 348.149 307.918 302.158 298.449 295.311 252.034 231.736 198.59 192.788 189.004 175.453 171.792 244.204 171.374 167.853 146.572 141.771 117.835 63.0359 43.6064 30.6954 24.218 23.0066 16.0542 10.7441 7.23792
threshold=0.5653762749120651 -0.50237283641644648 1.8187086498423679 1.1541469988127513 -0.67219484081970771 1.488824913645648 -0.1135007174141625 1.0816693903171191 -0.39207414142262914 0.4314420288314656 1.3701632348208517 -0.59363381953343863 -0.77142262717000476 2.3792115581318591 0.33740788465921462 0.28558561893695578 0.1677573002316419 0.0072204016449133714 -0.2972136205252584 0.16632769227917657 0.43298032235273376 0.44478963132844324 -0.15265591899414474 -0.46647509428492667 0.18385980790269904 0.96844122494175677 -0.53873767567974873 0.036942190657814129 0.099976566823185967 0.036942190657814129 -0.37094286430905726 -0.018817037052560544 0.2498746323073201 0.36561001806839705 -0.67814997004772415 0.16238603219745393 -0.53600439879276851 -0.42030238904203115 -0.21809054267120839 -0.70949895815144026 0.30780748239830896 -0.24118296377577267 0.31376375979559046 -0.070869611427495163 0.33315393399693388 0.29701127652248188 -0.46188012089379554 0.61506293686901226 -1.2975465297907716 -0.09606849475086357 -1.1120391286985609 -0.3740567653339712 -0.28120387839847422 -1.2975465297907716 0.79786706885715841 -0.32085011576794309 -0.42030238904203115 -0.54138540533231483 -0.52494270660415399 -0.8192977997992944 0.30305741791630686 0.0772614149750709 0.12603733009026916 -0.18368185420847441 -0.47533550100948824 -0.85311742611902874 -0.42614321600741728 -0.24145123617921457 -0.052727025106649041 0.098444918774199711 -1.2951244203889145 0.79300578087854823 0.55079667724646908 0.31562549899676545 -0.084311778282593577 1.1489154459066735 0.52429491576696241 -0.25548223718451574 0.55456330053870517 0.21910179586940429 -0.068303641145471314 -0.19502479271146608
decision_type=2 2 2 2 2 2 2 2 2 2 2 2 2 2 2 2 2 2 2 2 2 2 2 2 2 2 2 2 2 2 2 2 2 2 2 2 2 2 2 2 2 2 2 2 2 2 2 2 2 2 2 2 2 2 2 2 2 2 2 2 2 2 2 2 2 2 2 2 2 2 2 2 2 2 2 2 2 2 2 2 2 2
left_child=1 4 3 10 12 13 8 -5 17 16 15 -6 -1 -4 27 24 29 23 22 20 26 31 28 49 71 -16 59 -11 34 35 37 38 36 60 -10 48 -19 52 46 61 -21 64 -35 58 69 65 53 72 79 -3 66 -39 -25 -20 -41 -45 62 78 -36 -13 -18 -31 -38 -48 -33 -30 -34 68 -40 -43 -29 -2 -23 -46 -24 -47 -52 -67 -37 -8 -59 -53
right_child=2 6 5 7 11 -7 9 -9 18 14 -12 19 -14 -15 25 -17 33 32 21 40 -22 47 74 30 -26 -27 -28 70 45 39 -32 41 50 42 43 57 56 51 67 54 -42 44 -44 55 73 75 63 -49 -50 -51 76 81 -54 -55 -56 -57 -58 80 -60 -61 -62 -63 -64 -65 -66 77 -68 -69 -70 -71 -72 -73 -74 -75 -76 -77 -78 -79 -80 -81 -82 -83
leaf_value=143.96631332431514 157.68038511270518 151.15140604404223 168.4394492585356 165.74158847314408 147.9802403859787 183.07363976815097 155.35128358930419 171.51195631257653 152.589753554087 156.95619661739772 165.17977531844042 152.22608541256992 145.81964437008989 175.79712537886635 159.04013357702937 162.04342448445743 157.17243511634803 152.80265618058422 153.84527474691654 152.38938267122117 153.48575032327619 155.05490680464465 153.68587031649 152.37221102455325 160.53343960961868 161.50721028668477 150.59979853496429 156.6576869614189 154.15685865966753 156.12649888897752 151.82217042046321 153.49026530618545 153.89722734799915 156.14067364824709 153.89466897812346 154.80235368578377 153.65854795998897 153.14926130094915 155.19520293532548 156.66965383736289 154.10939377583432 154.98079821836555 157.11485416257929 153.50719058376376 154.38211829195288 155.26960085683788 155.089274531321 156.55108554423066 156.0185733522238 153.24553290274454 154.66346090534194 153.87398822647407 153.26590922943467 154.60632844572436 155.25801657301557 154.3388244572013 154.56300355677524 154.86698424438288 154.38600269219251 149.37501211252285 158.04773684304251 155.41244113044343 154.34812465728069 154.77112824403403 154.28976033519265 154.53795110470915 154.51756438108706 155.41955618608074 154.69359696245664 154.61542757533749 158.46464698113144 159.22606432602487 155.81618945944422 153.83076829963184 152.74063236388849 154.7738747553141 154.95145094426996 154.78336773185441 154.54604331183964 154.83083261597051 155.3539784387587 154.26128140500589
leaf_weight=415 39 89 63 107 447 184 18.000000000000004 148 7.9999999999999991 63 77 7.9999999999999991 788 52 54 139 89 18 8.0000000000000018 11.000000000000002 10.999999999999998 10.999999999999998 9.9999999999999982 62 86 58 131 13.999999999999998 7.0000000000000027 26 55 7.9999999999999991 7.9999999999999991 41 11.999999999999998 6.9999999999999982 14.000000000000002 23 56 98 6.9999999999999991 22 86 26 8.0000000000000018 35 40 38 132 6.9999999999999991 12.000000000000002 14.000000000000002 27 21 6.9999999999999991 7.9999999999999991 8.9999999999999982 7.9999999999999991 71 310 94 30 8.9999999999999982 54 6.9999999999999991 8 6.9999999999999991 67 14.999999999999998 30 138 58 23 8.9999999999999982 40 6.9999999999999991 12.999999999999998 6.9999999999999973 7 6.9999999999999991 36 6.9999999999999991
leaf_count=415 39 89 63 107 447 184 18 148 8 63 77 8 788 52 54 139 89 18 8 11 11 11 10 62 86 58 131 14 7 26 55 8 8 41 12 7 14 23 56 98 7 22 86 26 8 35 40 38 132 7 12 14 27 21 7 8 9 8 71 310 94 30 9 54 7 8 7 67 15 30 138 58 23 9 40 7 13 7 7 7 36 7
internal_value=154.513 151.121 169.318 164.711 146.797 179.167 155.63 169.269 153.907 157.378 161.699 148.962 145.153 172.279 158.894 160.764 156.637 152.504 154.713 149.919 149.816 155.133 153.981 152.049 159.673 160.485 149.734 157.985 154.3 156.015 152.504 154.897 153.977 157.368 153.95 155.73 153.525 152.845 155.051 156.362 152.89 154.416 156.851 154.094 154.588 154.977 154.787 156.192 155.917 151.256 154.574 153.466 152.588 154.35 156.602 153.67 154.055 155.174 154.294 149.422 157.678 155.817 153.874 154.922 153.755 154.492 154.136 155.275 155.103 154.79 158.349 158.732 155.642 154.027 152.866 155.213 154.849 154.683 154.707 155.262 155.298 153.952
internal_weight=5124 4171 953 654 2128 299 2043 255 1030 1013 399 925 1203 115 327 322 686 374 656 478 460 417 239 284 183 112 449 215 189 376 188 345 90 310 125 215 50 133 261 161 18 84 127 117 69 64 123 72 157 96 40 44 89 29 105 34 32 58 83 318 183 56 23 94 15 22 15 138 71 52 152 97 34 17 50 42 25 15 14 25 44 21
internal_count=5124 4171 953 654 2128 299 2043 255 1030 1013 399 925 1203 115 327 322 686 374 656 478 460 417 239 284 183 112 449 215 189 376 188 345 90 310 125 215 50 133 261 161 18 84 127 117 69 64 123 72 157 96 40 44 89 29 105 34 32 58 83 318 183 56 23 94 15 22 15 138 71 52 152 97 34 17 50 42 25 15 14 25 44 21
is_linear=0
shrinkage=1


Tree=1
num_leaves=37
num_cat=0
split_feature=0 0 0 0 0 0 0 0 0 0 0 0 0 0 0 1 0 1 0 0 0 0 0 0 0 0 1 0 0 0 0 0 15 5 21 3
split_gain=2.32527e+07 7.74444e+06 3.3176e+06 661514 586376 407195 161285 121417 93214.3 73570.1 61692.6 31574.4 21861 16621.5 13597.1 7956.33 7610.68 6654.76 4814.86 4640.64 3197.14 2425.91 1083.13 301.566 286.03 284.13 124.573 104.683 85.5425 38.2801 16.1274 9.94425 2.32656 1.2439 0.845482 0.291655
threshold=0.7930607564218225 -0.48129242728125787 2.1163009552810457 -0.66540318284106814 0.024330748763222408 1.3701861533110502 2.7910693128752242 -0.39250390107146083 0.48225006902271966 -0.56933096819782902 -0.78947658162850487 1.0456889678872268 -0.20404958534531978 0.23208118208171682 -0.72053050568882526 0.21407597368588868 -0.4342068416347134 0.56372494459283207 0.60166532650155136 -0.51980521318038642 -0.09973093627225571 -0.29709809093217304 0.10694889767636308 -0.34888401321627077 -0.24959971876997142 -0.40528088142157392 0.40895467972743182 -0.17435615137160174 -0.37855171918969538 -0.31356330688639755 -0.27302582595687613 -0.33052050042287601 -0.41561073558252265 0.71295722814130913 -0.032615193235399693 -0.075670144296462613
decision_type=2 2 2 2 2 2 2 2 2 2 2 2 2 2 2 2 2 2 2 2 2 2 2 2 2 2 2 2 2 2 2 2 2 2 2 2
left_child=1 3 5 10 7 11 -4 16 13 15 -1 -2 21 22 -12 -5 -3 19 -10 -11 27 23 -6 26 30 -18 28 -14 -9 31 -23 32 -25 -33 -31 -36
right_child=2 4 6 9 8 -7 -8 12 18 17 14 -13 20 -15 -16 -17 25 -19 -20 -21 -22 24 -24 29 -26 -27 -28 -29 -30 34 -32 33 -34 -35 35 -37
leaf_value=-9.9412284427969926 7.4247111733302633 -2.1101433941143135 20.419360139802478 -5.6990402933845159 1.7641746125026803 14.632781325493292 28.272400756011322 -0.41576096691241798 4.0345033706076707 -4.1326407850945834 -8.3370533124810873 10.080892941360988 0.58038615862021148 3.1375442225402894 -7.0650671611421183 -1.9435324925674209 -1.2021558408502053 -0.49634285337432371 5.4095801442177072 -3.0496144789966642 1.2854639453694099 0.12476924889101168 2.3022404945978026 -0.035119683432824539 0.40520454974615527 -0.73435389682448338 0.10273626490274343 0.81282731812903952 -0.20980162594195689 0.050321507981367052 0.22360342705836453 -0.045190624226860932 -0.12227795546787446 -0.0014973293340204126 0.025388463742732788 0.00036555396347658575
leaf_weight=269 159 178 100 555 145 217 140 35 119 256 666 156 80 326 310 9.9999999999999982 99 6.9999999999999991 140 113 238 60 209 6.9999999999999991 118 40 6.9999999999999991 137 76 23 40 32 32 7.9999999999999991 10.000000000000002 6.9999999999999991
leaf_count=269 159 178 100 555 145 217 140 35 119 256 666 156 80 326 310 10 99 7 140 113 238 60 209 7 118 40 7 137 76 23 40 32 32 8 10 7
internal_value=0.0152607 -2.78356 15.7364 -6.91644 1.39176 11.2763 25.3293 -0.0278582 3.24023 -4.91351 -8.4129 8.8332 0.551133 2.61079 -7.95882 -5.64452 -1.67823 -3.77455 4.83789 -3.83167 1.03142 0.0667815 2.10061 -0.150512 0.301706 -1.08816 -0.259882 0.73735 -0.285111 -0.0378788 0.170322 -0.0765598 -0.110686 -0.0372527 0.0385257 0.0168612
internal_weight=5124 4352 772 2186 2166 532 240 1227 939 941 1245 315 910 680 976 565 317 376 259 369 455 455 354 237 218 139 118 217 111 119 100 79 39 40 40 17
internal_count=5124 4352 772 2186 2166 532 240 1227 939 941 1245 315 910 680 976 565 317 376 259 369 455 455 354 237 218 139 118 217 111 119 100 79 39 40 40 17
is_linear=0
shrinkage=0.0985333


Tree=2
num_leaves=84
num_cat=0
split_feature=1 15 1 15 15 1 1 1 5 15 15 15 5 5 1 1 1 15 5 4 5 3 4 1 1 5 15 1 5 5 5 1 1 5 5 1 1 15 1 3 3 1 19 5 5 5 5 5 5 1 5 1 5 1 17 5 1 5 5 1 5 1 3 4 5 1 1 1 5 15 1 21 5 4 13 1 1 1 5 1 1 1 5
split_gain=1.82654e+07 6.65653e+06 2.44272e+06 612717 573270 241336 162857 134254 116025 102751 77042 51762.4 47747.7 23145.1 21575.3 20703.9 17633.6 12514.3 12227.5 12134.6 11212.3 6485.29 6388.13 5475.63 5305.92 4643.68 4569.77 4126.92 3994.88 3270.18 3006.66 2878.36 2608.26 2095.91 1942.48 1807.1 1765.32 1602.67 1484.75 1427.12 1285.66 898.597 725.46 549.671 535.943 472.643 425.455 416.024 378.749 370.603 360.9 303.941 249.14 230.311 222.733 211.707 196.985 195.496 162.073 148.475 127.765 125.784 120.669 116.713 107.817 101.649 90.5764 72.6843 72.4923 63.5375 61.5162 38.8342 36.3576 28.3099 26.2375 25.8787 13.3774 13.2237 10.8579 10.1785 7.98676 6.15824 4.36367
threshold=0.93665413762098793 -0.46953350413465494 2.0667187036565213 -0.64641640579452353 0.068283394047721269 1.3626610734667579 0.50094896730858152 3.1050952899961604 0.39529258812365425 -0.2972136205252584 -0.73881645610411828 -0.553658831447713 0.47186146362476378 0.97085667826316258 0.21407597368588868 -0.50709203002621173 -0.15637921495641555 -0.79537275852268674 0.10401341236029557 -0.42958980102068567 0.39529258812365425 0.073474805343679603 -0.37890886478148184 0.35798274968466903 -0.059951455642853604 0.47186146362476378 -0.40961054344253206 -0.37830401919890083 0.57183981763385017 0.85185609748545821 0.77402170713433682 -0.60850450488442542 0.078594666445568007 0.64078259317395603 0.74248486968119576 0.058668678731065162 -0.37214480733576244 -0.16314135534517279 -0.34941189544149764 -0.29445475913822744 0.1132274475629392 -0.49750473872024276 -0.54751626009959942 -0.36788028994823369 0.55097678733161504 0.013625212105134872 -0.21409857060578855 0.78152613634679025 0.4396785882820779 -0.042075307390050047 0.36704832814203964 -0.16371492003465526 0.45916939626183523 1.0752469509654323 0.3630466884824734 0.41697703897790467 -0.33465950560822816 0.98007196424315313 -0.84982553763041846 -0.46334441034148527 0.82460549634803371 -0.56305094344596263 0.060223924603926289 0.079607668314561189 0.22141465537724989 -0.33465950560822816 -0.22465158494754714 -0.26745448187501797 1.0072165228279732 -0.24971261001470887 -0.11604035800103493 -0.11897025737160748 0.29701127652248188 -0.59251176359069169 -0.84023833183672336 -0.23967136826872468 -0.42638865749914961 -0.4319949196584682 0.31878586045679974 -0.25569595183475902 -0.37830401919890083 -0.32766630342071829 0.12603733009026916
decision_type=2 2 2 2 2 2 2 2 2 2 2 2 2 2 2 2 2 2 2 2 2 2 2 2 2 2 2 2 2 2 2 2 2 2 2 2 2 2 2 2 2 2 2 2 2 2 2 2 2 2 2 2 2 2 2 2 2 2 2 2 2 2 2 2 2 2 2 2 2 2 2 2 2 2 2 2 2 2 2 2 2 2 2
left_child=1 3 5 10 9 8 14 -4 53 15 17 22 -7 25 24 28 27 -1 26 35 37 39 23 -5 57 -8 42 41 63 -10 -16 -30 -22 45 -26 -13 -28 43 50 -21 -24 47 -17 69 64 67 51 74 -23 82 59 -38 -41 -2 58 75 78 79 -51 -20 77 -33 -44 -3 -43 -35 -48 -29 76 73 -45 -71 -58 -18 -11 -40 -46 -52 -47 -6 -61 -57 -39
right_child=2 4 7 11 6 12 13 -9 29 16 -12 19 -14 -15 30 18 20 -19 38 21 32 48 40 -25 34 -27 36 33 31 -31 -32 61 -34 65 -36 -37 46 49 55 52 -42 44 62 70 68 56 66 -49 -50 54 60 -53 -54 -55 -56 81 72 -59 -60 80 -62 -63 -64 -65 -66 -67 -68 -69 -70 71 -72 -73 -74 -75 -76 -77 -78 -79 -80 -81 -82 -83 -84
leaf_value=-9.107148215592785 0.46399724968555089 -2.5015845002847139 19.579187820595461 -4.8039347339365479 0.38563195253277122 3.0466546286279583 2.7630259515187663 26.702437717151589 6.7790738509819031 -1.1425271562720671 -6.4294655148490278 -3.4398313583519808 13.192886014809199 6.2343608803856743 2.3994090102801171 -0.49686522295709323 -0.052066447626561867 -7.6591348516101876 -0.56778120213342809 -2.9948629906194988 1.5190967668633328 -0.65807527497078278 -3.2950033783946777 -1.3963314954226971 1.6106119549329629 4.5719146312916257 -1.1533056948982421 -0.2175954452459424 -1.8390130264038378 9.321586431682622 3.3529622706141367 -0.6269655338360528 2.4573387341925512 0.49875044475915997 2.3233068232799736 -1.4172569260599124 -0.71464664787383736 0.27835207646790183 0.1100142958445732 -1.7837128810893046 -1.1392343164324248 -0.50312385507800739 -1.5517974230448865 0.31549084296831192 0.052334279191087157 0.0015481701632150695 -0.077619161969708153 -0.1093513234415595 0.085919099899291543 0.47851907173818131 -0.030362491353478203 -0.24628816320574312 -0.61543806163721793 1.3486106090385985 0.47684721025275856 0.33830651493032582 0.31178243729400018 1.367516121546948 1.2859891897456437 -0.15201590353404776 0.33817834535884145 -0.16595203083077059 -0.59379833994457065 -1.0172146357884391 -0.1234131614493832 0.97339258343763713 0.27107255182522882 0.083747891156864415 0.41573467452233293 0.43005114793997484 0.80967170801666599 0.16848102017111902 0.51772389022410348 0.17676431028492312 -0.4612778758733006 0.38698832416117085 0.19488762788295103 0.084004629170676651 0.14653013942414966 0.8944939052088452 -0.018752860540985933 0.8375460093812922 0.66666292810636829
leaf_weight=227 10.000000000000002 72 140 507 7.9999999999999991 6.9999999999999991 38 100 58 7.0000000000000027 561 222 210 138 98 11.999999999999998 6.9999999999999991 561 8.9999999999999982 27 111 13.000000000000002 37 7.9999999999999991 102 138 29 12.000000000000002 34 156 190 19.000000000000004 64 17 170 10.999999999999998 20 8.0000000000000018 10.000000000000002 27 7.9999999999999991 9.9999999999999982 92 8.9999999999999982 17 7.0000000000000027 17.000000000000004 10.999999999999998 9.9999999999999982 7.9999999999999991 23.999999999999996 47 6.9999999999999991 11.999999999999998 9.9999999999999982 6.9999999999999991 36 31 80 15.999999999999998 13.999999999999998 11.999999999999998 6.9999999999999991 6.9999999999999991 23 81 7.9999999999999991 12.999999999999998 11.999999999999998 21 42 15.999999999999998 59 8.9999999999999982 9.0000000000000018 7.9999999999999991 12.000000000000002 12.000000000000002 14.999999999999998 42 7.0000000000000027 25 15.999999999999998
leaf_count=227 10 72 140 507 8 7 38 100 58 7 561 222 210 138 98 12 7 561 9 27 111 13 37 8 102 138 29 12 34 156 190 19 64 17 170 11 20 8 10 27 8 10 92 9 17 7 17 11 10 8 24 47 7 12 10 7 36 31 80 16 14 12 7 7 23 81 8 13 12 21 42 16 59 9 9 8 12 12 15 42 7 25 16
internal_value=0.0173646 -2.31242 14.8528 -6.10932 1.52413 10.4637 3.3372 22.8768 8.05715 0.133678 -7.43092 -4.05572 12.9173 5.17399 2.41501 -0.942352 0.871299 -8.11338 -0.537447 -2.98657 1.31192 -1.8447 -4.63939 -4.76045 1.86468 4.24077 -0.963432 0.345362 -1.93007 8.7486 3.06008 -1.24782 1.90228 0.565402 2.07909 -3.36597 -0.522249 0.833486 0.216614 -2.35415 -3.01811 -0.178881 -1.41472 0.521943 0.00608032 0.311654 -0.28951 -0.630098 -0.365028 1.07783 -0.0448778 -0.413702 -1.62058 1.06185 1.17431 0.621152 0.392782 1.09025 1.233 -0.287449 0.118735 -0.482369 -1.5059 -2.41719 -0.274531 0.910429 0.0529503 -0.0695793 0.235648 0.273105 0.747493 0.340511 0.453076 0.0850224 -0.9066 0.274835 0.125511 0.0116939 0.106754 0.842649 -0.119062 0.77109 0.587567
internal_weight=5124 4431 693 2226 2205 453 955 240 236 1250 1349 877 217 314 641 508 742 788 364 317 401 84 560 515 353 176 232 341 144 214 288 65 175 240 272 233 121 226 132 61 45 101 111 104 74 142 92 27 23 122 82 67 34 22 98 50 117 81 88 32 50 31 99 79 33 98 25 25 41 53 51 37 95 16 16 18 29 36 22 50 23 32 24
internal_count=5124 4431 693 2226 2205 453 955 240 236 1250 1349 877 217 314 641 508 742 788 364 317 401 84 560 515 353 176 232 341 144 214 288 65 175 240 272 233 121 226 132 61 45 101 111 104 74 142 92 27 23 122 82 67 34 22 98 50 117 81 88 32 50 31 99 79 33 98 25 25 41 53 51 37 95 16 16 18 29 36 22 50 23 32 24
is_linear=0
shrinkage=0.0985333


Tree=3
num_leaves=82
num_cat=0
split_feature=1 15 1 15 15 1 1 4 1 15 15 15 15 1 1 1 4 4 1 3 3 1 1 3 15 1 3 15 20 15 1 15 1 1 3 3 2 4 4 15 17 4 3 20 15 15 1 15 12 1 16 1 11 11 16 19 20 1 17 15 11 3 1 7 7 1 1 3 20 3 4 4 3 15 6 11 7 3 1 1 1
split_gain=1.4941e+07 5.02046e+06 2.44744e+06 428583 415800 235683 224898 113077 90415.7 78542.9 55130.5 37174.8 33315.7 16505.9 16249.5 15729.6 12550.2 8539.9 8057.77 6976.38 5798.58 5224.38 3563.84 3094.22 2728.64 2415.35 2376.37 2356.32 2177.84 2167.12 2092.45 1851.8 1726.95 1453.17 1126.94 852.369 762.56 677.61 665.445 661.397 718.303 575.473 568.471 552.301 483.524 424.816 410.833 408.741 280.371 262.223 237.544 202.484 189.481 184.584 173.301 172.054 168.966 150.66 124.239 124.216 111.481 101.739 98.1673 81.336 77.9145 73.1344 69.2671 62.4074 61.2771 52.3969 45.7566 34.4592 33.2044 32.7057 28.5508 19.315 18.5244 18.1685 16.6038 15.9432 4.44095
threshold=0.78005753519489651 -0.49474422493468495 1.8859071609043478 -0.68331597584476544 -0.0424689464692685 2.7368479164105617 1.2955682973995415 -0.42348686105470823 0.37269276316414884 -0.35717624350838723 -0.5994941079011592 0.52921448920665337 -0.78712105350563 -0.37830401919890083 -0.50709203002621173 0.0093450313066194089 -0.42958980102068567 -0.48663902244177898 0.57997376258978883 0.44478963132844324 -0.29445475913822744 -0.59590874332579225 0.4204841988403431 -0.10217190577596903 0.12916255752534928 0.18629441545133071 -0.54138540533231483 -0.52561638270500055 -0.44857113935066967 -0.21809054267120839 0.97632388369057599 -0.42030238904203115 -0.11604035800103493 -0.23967136826872468 0.13972920904244571 0.13972920904244571 0.25923958458595425 -0.1576109547108222 0.041928647655048494 -0.17446486313117585 -0.12193441741616938 -0.45479759653233148 -0.49167042211893419 -0.4861397988836374 -0.42030238904203115 -0.42030238904203115 -0.34941189544149764 -0.12552607989931094 -1.1146056247654852 0.40895467972743182 0.0092287615768369066 -0.13590671978747293 1.2966734528136055 0.85466645854371948 -0.51875417307551164 -0.42611870004194213 0.055266366508495542 -0.1744835011214638 0.20000749082758981 -0.72672468070316276 0.85466645854371948 -0.019378081591817489 -0.22465158494754714 1.2983412373042205 -0.86572351204053311 -0.31242176386648773 -0.32766630342071829 -0.20827567345121928 -0.40938858449471399 -0.44031116903273743 -0.1830840954383802 -0.37890886478148184 -0.64081537175907621 -0.53038598741475196 -0.32878279147327333 0.53755343121745913 0.2884443542766687 -0.34745828209724033 -0.44931189672051136 -0.33465950560822816 -0.4319949196584682
decision_type=2 2 2 2 2 2 2 2 2 2 2 2 2 2 2 2 2 2 2 2 2 2 2 2 2 2 2 2 2 2 2 2 2 2 2 2 2 2 2 2 2 2 2 2 2 2 2 2 2 2 2 2 2 2 2 2 2 2 2 2 2 2 2 2 2 2 2 2 2 2 2 2 2 2 2 2 2 2 2 2 2
left_child=1 3 6 12 9 -4 7 55 15 14 -5 -8 -1 21 28 33 22 31 26 29 -18 -11 27 43 -20 71 -10 -12 35 41 -9 49 62 79 -22 44 47 45 -30 40 64 50 -42 -19 52 -25 54 77 -34 -16 56 -35 -3 65 -39 -2 -15 -45 -41 -14 -44 -49 -21 76 78 -43 -38 -55 -48 -52 -68 -17 -60 -36 -66 -47 -33 -31 -23 -6 -74
right_child=2 4 5 10 8 -7 11 30 18 13 16 -13 59 19 17 25 20 23 24 32 34 39 -24 37 -26 -27 -28 -29 38 36 -32 63 48 51 73 -37 66 46 -40 58 42 53 60 57 -46 75 68 61 -50 -51 69 -53 -54 67 -56 -57 -58 -59 72 -61 -62 -63 -64 -65 74 -67 70 -69 -70 -71 -72 -73 80 -75 -76 -77 -78 -79 -80 -81 -82
leaf_value=-8.0431955949907561 0.21516188359964752 -2.0746318455110804 16.03237280146022 -4.9357209021300354 0.21644297196915671 23.147823720023208 2.3195473360444594 5.9650335825310545 0.82926741754158539 -2.0507588973276101 -3.8355518824586428 11.003951314574742 -6.7916955211503192 -0.013886237043531055 -1.7283419847166108 1.1732345060168308 -3.2674269609513416 -0.1397457120019292 1.6532631450490805 0.23110912045593807 -1.7925360235031405 -0.18154911427758286 -1.30143734928333 -0.64499327437185405 4.4167589506905056 2.4105167754865162 3.2124266903444543 -2.7942207631123481 -2.7036854245227828 0.42788890687748093 7.6602531987379292 -0.62134242671177087 0.77800303845215235 0.92419139962991892 -0.84835343517188011 -0.41971236793843592 -0.061035229408921247 0.15447271961641257 -1.0104927907083725 0.3486173386180984 -0.91843142047995607 0.04139935177588714 -0.37899125481554713 -1.136686758629212 -0.99993138194583686 -0.074468232137452045 0.49117893370356069 0.76045885565587001 1.7183831594465542 -0.60833522683287333 -0.063963902276842621 1.3338752480793519 -1.0497118805579615 0.18964135311865907 -0.29420462709726708 0.90115132059438174 -0.57390239659399223 -0.36277238397705069 -0.15367916039214397 -5.8887815695171843 -0.013044361363865964 1.1928621585177339 0.76742347883336237 -0.31716542453123303 -0.0021578572411383038 0.28169028040992083 0.087460740242336549 0.59586643737528178 0.11800315334807623 0.15979833562812726 0.3782350777258825 1.8862012227138567 0.0081455496435137633 -0.33147673226260793 0.21532765596812806 0.088013853094642311 -1.0804101582939394 0.64111703687253363 -0.0030024923785791969 0.57563444732239588 0.10965967219372877
leaf_weight=290 6.9999999999999991 45 138 467 6.9999999999999991 140 6.9999999999999991 105 6.9999999999999991 13.999999999999998 357 211 603 10.000000000000002 78 22 33 8.9999999999999982 8.9999999999999982 7.9999999999999991 42 16.000000000000004 10.999999999999998 14.999999999999998 163 219 182 73 59 40 160 25 11.999999999999998 58 10.000000000000002 7.9999999999999991 7.0000000000000027 14.000000000000002 7.9999999999999991 11.999999999999998 22 18 45 35 21 20.000000000000004 27 68 68 6.9999999999999991 12.999999999999998 122 13.999999999999998 8.9999999999999982 12.999999999999998 25 7.9999999999999991 6.9999999999999991 6.9999999999999991 250 9.9999999999999982 24 26 7.9999999999999991 11.000000000000002 47 12.000000000000005 26 7.9999999999999991 27 11.999999999999995 228 7.9999999999999991 8.9999999999999982 8.9999999999999982 6.9999999999999991 19 80 6.9999999999999991 39 7.0000000000000027
leaf_count=290 7 45 138 467 7 140 7 105 7 14 357 211 603 10 78 22 33 9 9 8 42 16 11 15 163 219 182 73 59 40 160 25 12 58 10 8 7 14 8 12 22 18 45 35 21 20 27 68 68 7 13 122 14 9 13 25 8 7 7 250 10 24 26 8 11 47 12 26 8 27 12 228 8 9 9 7 19 80 7 39 7
internal_value=0.0196768 -2.25952 12.4244 -5.64233 1.06344 19.8507 8.31229 6.4113 2.46589 -0.250625 -4.12951 10.7648 -6.95245 0.413664 -1.26112 1.79396 -3.3992 -0.812722 3.73087 0.689282 -2.2147 -0.428165 -3.63291 -0.301005 4.3068 2.12171 3.14028 -3.68194 -2.07048 0.488426 7.07214 -1.37049 1.36139 1.09255 -1.50357 -1.61708 0.67168 0.0134864 -2.55975 -0.239784 -0.346369 0.198421 -0.520277 -0.903304 -1.71495 -0.279469 0.21613 0.738043 1.61458 -1.6629 -0.0474068 1.22133 -1.90148 0.33789 -0.070249 0.785983 -0.314165 -1.04433 0.133697 -6.55135 -0.317065 0.911531 0.67354 -0.820195 -0.0197288 0.220485 0.1899 0.51731 0.423787 0.0877547 0.261595 1.83995 -0.0143394 -0.690554 0.112684 -0.0272336 -0.882505 0.58371 -0.134561 0.539532 0.0669796
internal_weight=5124 4331 793 2145 2186 278 515 297 1056 1130 1002 218 1143 683 447 695 535 292 361 515 94 168 441 155 172 469 189 430 155 401 265 137 114 226 61 88 243 104 67 154 120 158 77 51 80 42 62 212 80 85 58 180 59 100 27 32 18 42 34 853 55 92 34 52 43 65 31 35 35 40 24 250 22 19 20 27 44 120 23 46 15
internal_count=5124 4331 793 2145 2186 278 515 297 1056 1130 1002 218 1143 683 447 695 535 292 361 515 94 168 441 155 172 469 189 430 155 401 265 137 114 226 61 88 243 104 67 154 120 158 77 51 80 42 62 212 80 85 58 180 59 100 27 32 18 42 34 853 55 92 34 52 43 65 31 35 35 40 24 250 22 19 20 27 44 120 23 46 15
is_linear=0
shrinkage=0.0985333


Tree=4
num_leaves=41
num_cat=0
split_feature=0 0 0 0 0 0 0 0 0 0 0 0 0 1 0 5 0 0 0 0 0 0 0 0 0 0 0 0 0 1 0 0 16 20 0 21 15 15 0 21
split_gain=1.26988e+07 4.26976e+06 1.77712e+06 360610 335029 187847 135287 67501.3 59201.2 41232.6 36677.2 12302.9 11252.8 4351.8 4162.73 3558.62 2775.68 2416.47 2049 1704.01 1282.25 997.859 672.153 536.798 382.122 232.725 164.16 82.4113 74.6613 60.1562 40.1821 31.4789 14.5682 9.15644 6.35869 6.22546 5.69397 5.24266 3.31138 1.58733
threshold=0.81520486505395895 -0.48129242728125787 1.9029835202640184 -0.65755214035735909 0.037039160236640903 2.9792522639267376 1.2798050967473229 -0.39250390107146083 0.54626795354852431 -0.75778778395319557 -0.56933096819782902 -0.18029273485537242 0.28551440061818029 0.11761435744178317 -0.43850105850121124 -1.8705895191165185 -0.5256646244005031 0.96454462728286705 -0.81373389571540133 -0.28803317275578633 -0.09973093627225571 0.10694889767636308 1.5378324675735791 -0.70326522169627814 -0.41570178962802545 -0.24107054629312616 -0.34888401321627077 -0.042367566158118534 0.64239883084936722 0.40895467972743182 -0.37855171918969538 -0.31356330688639755 -0.48515944103785147 1.0000000180025095e-35 -0.22575419353448714 -0.33380035991654033 -0.378479671095104 -0.32085011576794309 -0.27302582595687613 -0.032615193235399693
decision_type=2 2 2 2 2 2 2 2 2 2 2 2 2 2 2 2 2 2 2 2 2 2 2 2 2 2 2 2 2 2 2 2 2 2 2 2 2 2 2 2
left_child=1 3 6 9 7 -4 17 14 12 18 13 19 21 -5 -3 -12 -17 -2 -1 26 -13 -6 -8 -11 -16 38 29 -22 -10 30 32 33 -9 35 -27 -28 -33 -32 -21 -38
right_child=2 4 5 10 8 -7 22 11 28 23 15 20 -14 -15 24 16 -18 -19 -20 25 27 -23 -24 -25 -26 34 31 -29 -30 -31 37 36 -34 -35 -36 -37 39 -39 -40 -41
leaf_value=-7.8750427533569027 5.2990947452885564 -1.5947892776457255 15.040897272734158 -4.1575979062807571 1.3068017596841806 21.483626824897822 8.4434665830713698 -0.082707384644251744 3.31126499268075 -5.8318648164200129 -0.36439060363441877 0.57783380565378073 2.462775417751478 -1.6617161450716846 -1.0204781088113675 -3.0649208661288032 -2.2829863294150843 6.8830763847613587 -6.526825718287947 0.11080211957023221 0.81859638053198536 1.7683200062826787 10.897185270188952 -5.0146216945032389 -0.63759776875984209 0.25721229150080249 0.03004592492794822 1.0619378588790718 4.2653696169794362 0.087129029093353794 -0.091156455439700287 0.10268536339205304 -0.29789770791578735 -0.0865853354288596 0.37951762219626572 -0.038686524518155074 0.04547703846701226 -0.16252161018452752 0.17626804262844248 0.0089696514661003375
leaf_weight=123 100 158 159 511 125 120 99 6.9999999999999991 100 481 6.9999999999999991 157 322 12.999999999999998 79 235 134 157 436 40 118 272 118 246 80 40 15.999999999999998 140 119 6.9999999999999991 43 11.999999999999998 28 27 118 36 25 33 60 23
leaf_count=123 100 158 159 511 125 120 99 7 100 481 7 157 322 13 79 235 134 157 436 40 118 272 118 246 80 40 16 140 119 7 43 12 28 27 118 36 25 33 60 23
internal_value=0.0200859 -2.01831 11.8087 -5.09378 1.06168 18.0359 8.04152 0.00239359 2.46487 -6.15674 -3.55757 0.425967 2.01565 -4.10672 -1.23165 -2.76249 -2.80426 6.34352 -6.86902 0.10281 0.822923 1.63526 9.9244 -5.57981 -0.845115 0.280061 -0.0764553 0.962666 3.88665 -0.16018 -0.177891 -0.00326372 -0.265936 -0.0433555 0.35459 -0.0169925 0.0490186 -0.127746 0.154561 0.0297273
internal_weight=5124 4371 753 2186 2185 279 474 1247 938 1286 900 930 719 524 317 376 369 257 559 515 415 397 217 727 159 258 257 258 219 118 111 139 35 79 158 52 60 76 100 48
internal_count=5124 4371 753 2186 2185 279 474 1247 938 1286 900 930 719 524 317 376 369 257 559 515 415 397 217 727 159 258 257 258 219 118 111 139 35 79 158 52 60 76 100 48
is_linear=0
shrinkage=0.0985333


Tree=5
num_leaves=84
num_cat=0
split_feature=1 15 1 15 15 1 1 5 1 15 15 5 15 5 1 1 1 4 5 5 1 5 3 1 1 3 5 5 1 15 1 15 5 5 1 1 5 5 17 5 1 1 4 1 1 15 1 1 3 1 1 15 1 5 5 1 5 3 1 1 5 15 5 1 5 4 18 1 5 2 5 1 20 1 5 5 1 1 1 5 5 1 1
split_gain=9.96774e+06 3.32944e+06 1.65032e+06 283804 277969 206140 87271.2 79522.3 68175.8 42009 36988.1 29234.2 24342.8 15868.7 12424 11215.3 9032.33 7993.75 7543.3 7524.79 6948.76 6046.63 3914.19 3613.81 3491.57 3222.51 3018.6 2624.45 2120.01 1863.73 1765.11 1435.83 1134.1 1106.94 1089.22 1080.66 868.334 862.186 832.878 786.174 765.538 740.859 677.77 655.579 569.95 542.292 408.945 386.705 374.989 333.024 284.561 253.23 239.749 229.595 229.516 223.607 220.186 211.694 211.452 199.267 186.234 176.812 160.752 136.516 116.515 105.258 73.6825 69.8858 63.5562 62.1722 62.1154 58.1012 55.7636 53.334 43.2419 42.647 39.9268 29.7075 28.9331 24.6609 17.7793 17.3076 16.1269
threshold=0.78005753519489651 -0.49474422493468495 2.0667187036565213 -0.68331597584476544 -0.099835502893712361 1.2955682973995415 3.1050952899961604 0.39529258812365425 0.33181120188908775 -0.35717624350838723 -0.5994941079011592 0.64654343839316153 -0.79315702269888677 0.67330300952147504 -0.059951455642853604 -0.53021328312143878 -0.37830401919890083 -0.42958980102068567 1.1027483687099371 0.054588214930681271 0.57997376258978883 0.74248486968119576 -0.29445475913822744 1.4838553480623002 -0.59590874332579225 0.44478963132844324 0.4396785882820779 1.0000000180025095e-35 0.4330691631087375 -0.42030238904203115 -0.61902865177706745 -0.52561638270500055 0.19034503078075043 0.64654343839316153 0.089528438045302736 -0.42138967267316013 0.47186146362476378 0.013625212105134872 -0.33798545714696804 0.16859698757639321 -0.24666656735284948 -0.11604035800103493 -0.41075029069092922 -0.45780697589010982 -0.16371492003465526 -0.012688223581137482 -0.50709203002621173 -0.37214480733576244 -0.10217190577596903 -0.24666656735284948 0.089528438045302736 -0.24118296377577267 0.40895467972743182 0.55931197943753796 0.49721951405846282 -0.55734886035310427 0.34701028773252357 -0.46845720038505995 -0.55734886035310427 -0.25569595183475902 0.6660281896746324 -0.7205826245652146 -0.16421147675580314 -0.40601828502793819 0.41697703897790467 -0.59251176359069169 2.161829511507309 -0.051610408448313751 0.22141465537724989 0.055752761970234051 0.12603733009026916 -0.23967136826872468 -0.42495130852790147 -0.32060109253920044 -0.16421147675580314 0.77402170713433682 -0.46978473306776991 -0.46334441034148527 -0.3885500957292724 0.23659757506404097 -0.19496824862232101 -0.36643466641385053 -0.22465158494754714
decision_type=2 2 2 2 2 2 2 2 2 2 2 2 2 2 2 2 2 2 2 2 2 2 2 2 2 2 2 2 2 2 2 2 2 2 2 2 2 2 2 2 2 2 2 2 2 2 2 2 2 2 2 2 2 2 2 2 2 2 2 2 2 2 2 2 2 2 2 2 2 2 2 2 2 2 2 2 2 2 2 2 2 2 2
left_child=1 3 5 12 9 7 -4 45 14 15 -5 -7 -1 27 33 26 24 28 -9 29 66 39 -19 -13 -11 37 -3 -10 31 42 -28 -12 57 59 -23 61 58 44 48 74 63 64 52 56 62 -2 69 -44 -31 54 -41 65 -17 73 -39 -38 -21 -26 -24 81 77 -14 -18 -35 -27 -46 -15 -53 -51 -34 -43 -50 -49 -45 -16 -32 -62 -48 -55 -61 -40 -6 -64
right_child=2 4 6 10 8 11 -8 18 13 16 17 23 35 20 21 19 25 22 -20 43 -22 34 36 -25 32 41 30 -29 -30 38 75 -33 46 40 -36 -37 55 49 80 50 -42 70 47 53 51 -47 60 72 71 68 -52 67 -54 78 -56 -57 -58 -59 -60 79 76 -63 82 -65 -66 -67 -68 -69 -70 -71 -72 -73 -74 -75 -76 -77 -78 -79 -80 -81 -82 -83 -84
leaf_value=-6.6795252407119641 0.47112788826590923 -2.2173040077974813 14.421728378387295 -4.0244433187569379 -0.018675035886744375 3.8756533509830131 19.903451518833513 5.0630327729571203 0.74650710393858799 -1.7270695249985444 -3.1109832648917397 7.5684543342175727 -5.5360361735868695 2.8079327438289954 0.26824047996542388 -1.4668348916211924 -0.43182689621018849 -2.6810655735540796 6.7621530342344141 -0.59155485516363226 3.9609894549344133 1.5050968132090972 -1.778851696052093 10.118621259789082 -1.0416033917133258 0.17477226747332408 -1.5478360106244049 2.1129193754850175 -0.95273689554281704 -0.51336372292503396 -0.49821720753859255 -2.2812678898738157 -0.16613072864392628 0.096455217457558418 2.0813182127351988 -2.1423071751041491 -0.70670527981023146 0.13244721850233912 -1.1615772403807276 0.99551740331277916 1.0214254911102565 0.53273864783443903 -1.0610564568589342 -0.02169560837490463 -0.080683819999611828 1.3269886885735704 -0.21159674446032464 -0.060725295938832066 -0.14078680029889576 0.39209147845381814 1.3948688293741907 0.066288472636649109 -0.49135958848755679 0.164227180835748 0.45671192336618172 0.0094205094152034555 -0.055079078631509445 -0.36497865747118252 -0.97818544745344482 0.25888099559542388 0.058937304383225038 -4.7507661639969987 -0.077428673576984561 0.56037963503455912 0.65225554742936664 0.1879541207801361 1.1745694475888038 0.4093339219093195 0.68918068661130494 -0.50376068754529546 1.2916775217814682 0.17641936023891538 -0.43911062397898537 0.19730797551369111 0.70427886758371627 -0.12789151106843138 0.2651412164531608 -0.041924935152962729 0.50291289571467535 0.52324253265266629 -0.54675363469386762 0.15399495933519686 0.077547367126685418
leaf_weight=248 23 74 140 467 7.0000000000000027 15.999999999999998 100 152 21 13.999999999999998 358 70 682 159 8.9999999999999982 86 12.999999999999998 33 108 13.000000000000002 124 103 20.999999999999996 170 13.000000000000002 9.9999999999999982 41 114 8.9999999999999982 40 17.000000000000004 74 14.000000000000002 8.9999999999999982 185 6.9999999999999991 7 42 20.000000000000004 80 95 7.9999999999999991 15.999999999999998 30 22 13.999999999999998 13.999999999999995 6.9999999999999991 6.9999999999999991 28 123 7.9999999999999991 6.9999999999999991 8.0000000000000018 49 6.9999999999999982 14.999999999999998 13.999999999999998 26.000000000000004 15.999999999999998 19 206 11.999999999999998 41 23 30 6.9999999999999991 56 58 15.999999999999998 47 8.9999999999999982 10.000000000000002 12.999999999999998 23 6.9999999999999991 20 29.000000000000004 15.999999999999998 40 10.999999999999998 15.999999999999998 8.0000000000000018
leaf_count=248 23 74 140 467 7 16 100 152 21 14 358 70 682 159 9 86 13 33 108 13 124 103 21 170 13 10 41 114 9 40 17 74 14 9 185 7 7 42 20 80 95 8 16 30 22 14 14 7 7 28 123 8 7 8 49 7 15 14 26 16 19 206 12 41 23 30 7 56 58 16 47 9 10 13 23 7 20 29 16 40 11 16 8
internal_value=0.0209661 -1.84065 10.1529 -4.59546 0.86541 7.11779 16.9504 5.24453 1.8967 -0.328913 -3.36436 9.19441 -5.66159 2.89207 1.31991 -1.0395 0.234121 -2.76653 5.84654 -0.695035 3.31547 1.58323 -1.8164 9.49025 -0.406624 0.472293 -1.76815 1.92379 -2.9537 -1.016 -1.17248 -2.98767 -0.23579 0.690726 1.89509 -5.35546 -1.23244 0.323164 -0.625876 1.17958 0.852888 0.992362 -1.26198 0.0347716 0.143753 0.87893 -0.0881196 -0.744059 -0.362866 0.46867 1.25637 0.245324 -1.41322 0.200667 0.317155 -0.41643 -0.341047 -0.770398 -1.43126 0.370307 0.0290792 -5.37257 -0.202903 0.48827 0.537245 0.0763091 2.76387 0.371931 0.610939 -0.378977 1.21852 0.037284 -0.31922 0.0540646 0.618985 -0.419329 0.177397 -0.108563 0.424229 0.466746 -1.01861 0.105778 -0.0131834
internal_weight=5124 4331 793 2145 2186 553 240 297 1172 1014 1002 256 1143 425 747 447 567 535 260 308 290 523 94 240 153 414 139 135 441 213 65 432 139 224 288 895 61 326 87 235 145 88 126 95 149 37 112 33 56 177 203 116 93 67 91 14 28 27 47 79 82 888 33 50 33 52 166 64 86 30 55 16 17 43 32 24 39 43 24 56 31 23 20
internal_count=5124 4331 793 2145 2186 553 240 297 1172 1014 1002 256 1143 425 747 447 567 535 260 308 290 523 94 240 153 414 139 135 441 213 65 432 139 224 288 895 61 326 87 235 145 88 126 95 149 37 112 33 56 177 203 116 93 67 91 14 28 27 47 79 82 888 33 50 33 52 166 64 86 30 55 16 17 43 32 24 39 43 24 56 31 23 20
is_linear=0
shrinkage=0.0985333


Tree=6
num_leaves=42
num_cat=0
split_feature=0 0 0 0 0 0 0 0 0 0 0 0 0 0 0 1 0 1 0 0 0 0 0 0 3 0 0 0 0 0 1 0 0 15 15 0 18 18 0 19 18
split_gain=8.49223e+06 2.88811e+06 1.15924e+06 252845 227471 154484 44477.4 40834.6 40067.5 33451.3 22556.1 11330.8 10783.9 4962.35 4186.14 2344.41 2099.79 1791.96 1371.09 1229.11 953.304 752.106 665.372 393.933 218.163 170.231 135.594 124.609 59.5506 34.105 33.942 45.6338 21.938 15.6593 5.8811 4.63138 3.32117 2.9667 2.73359 2.47831 2.17497
threshold=0.84611285547948645 -0.47405615724251698 2.2053649424574888 -0.6463650377480078 0.07879230091725449 1.4743918315799058 -0.39250390107146083 0.54626795354852431 3.1890678504950634 -0.75342113666251398 -0.55359459879206352 -0.16303327252712513 1.0817083326192292 0.30313960665862844 -0.81767015065080895 0.11761435744178317 -0.44534994138224887 0.56372494459283207 -0.27302582595687613 -0.052482930886632508 -0.59946791674594879 0.67401112528292784 -0.51263468334677487 -0.41570178962802545 1.9497801737412914 -0.33052050042287601 0.16784700394760568 -0.22575419353448714 -0.113395391785776 -0.6946843115254121 0.4330691631087375 -0.37855171918969538 -0.29709809093217304 -0.35717624350838723 -0.2972136205252584 -0.24959971876997142 -0.42049129025182158 -0.1089336132669111 -0.31356330688639755 -0.25990018737118042 0.11315158585055395
decision_type=2 2 2 2 2 2 2 2 2 2 2 2 2 2 2 2 2 2 2 2 2 2 2 2 2 2 2 2 2 2 2 2 2 2 2 2 2 2 2 2 2
left_child=1 3 5 9 6 12 16 13 -4 14 15 18 -2 26 -1 20 -3 22 25 28 -5 -9 -12 -18 -15 30 -6 35 -13 -11 31 36 34 -33 40 -20 -8 39 -36 -34 -27
right_child=2 4 8 10 7 -7 11 21 -10 29 17 19 -14 24 -16 -17 23 -19 27 -21 -22 -23 -24 -25 -26 32 -28 -29 -30 -31 -32 33 37 -35 38 -37 -38 -39 -40 -41 -42
leaf_value=-6.5944602839945903 4.7310209067523639 -1.2868229246010268 13.427681783271455 -3.4800127485006871 1.2355274963135736 9.385509300513986 -0.083427697353584657 2.7896865807975981 18.08205897809728 -4.6663758611267898 -2.2798212288546731 0.47493418791586367 6.3673241291827152 2.0454668596980428 -5.3111078826792752 -1.373100750750486 -0.86240741450986147 -0.31470072385978892 0.1254059270865418 0.92677698613180115 -2.9172350525390605 3.6211484346282243 -1.7369924389623743 -0.51510050569428412 0.78916595577414117 0.045757155765707908 1.5455684325711117 0.32769546918025699 0.65043642509913668 -4.0401526617015522 0.077538473397386148 -0.032795817366127605 0.14513686501949494 -0.11042639593149577 -0.0443983241587287 0.20070143353194161 -0.23205226957080111 0.049831841471030341 0.0044583665981838792 0.066255838637218303 -0.0028039287839858027
leaf_weight=102 140 118 120 259 147 197 6.9999999999999991 120 100 460 173 97 176 294 519 13.999999999999998 99 6.9999999999999991 40 242 288 119 116 80 6.9999999999999991 28 188 158 119 268 6.9999999999999991 44 11.999999999999998 71 18 60 28 27 22 21 11.999999999999998
leaf_count=102 140 118 120 259 147 197 7 120 100 460 173 97 176 294 519 14 99 7 40 242 288 119 116 80 7 28 188 158 119 268 7 44 12 71 18 60 28 27 22 21 12
internal_value=0.0218284 -1.61917 9.81448 -4.13137 0.919634 7.16753 0.0967748 2.14646 15.7849 -4.97498 -2.78913 0.407858 5.70011 1.71738 -5.55645 -3.16626 -0.95691 -2.04671 0.107189 0.768752 -3.20344 3.2484 -2.08454 -0.719609 2.02534 -0.0372597 1.42322 0.271804 0.580154 -4.45558 -0.106687 -0.116804 0.0412768 -0.0825097 0.0066744 0.175669 -0.212295 0.0845949 -0.01927 0.105762 0.0321021
internal_weight=5124 4391 733 2206 2185 513 1310 875 220 1349 857 1013 316 636 621 561 297 296 555 458 547 239 289 179 301 297 335 258 216 728 157 150 140 115 80 100 35 60 40 33 40
internal_count=5124 4391 733 2206 2185 513 1310 875 220 1349 857 1013 316 636 621 561 297 296 555 458 547 239 289 179 301 297 335 258 216 728 157 150 140 115 80 100 35 60 40 33 40
is_linear=0
shrinkage=0.0985333


Tree=7
num_leaves=84
num_cat=0
split_feature=1 15 1 15 15 1 5 1 1 15 15 15 5 5 5 1 1 5 3 15 4 15 5 5 5 1 3 15 4 1 1 1 1 1 1 15 1 1 5 1 17 1 5 1 5 21 4 5 5 5 5 5 1 5 4 1 2 5 5 18 12 1 15 1 5 5 1 3 5 5 3 17 1 5 5 7 5 1 5 4 1 3 4
split_gain=6.6616e+06 2.27932e+06 1.02958e+06 212387 183340 117025 63007.3 60468.5 46407.9 33582.1 25165.8 19229.3 11145.7 9500.7 9266.51 8917.79 6096.29 5611.54 4722.73 3858.32 3857.56 3145.47 2855.66 2516.29 2175.6 2130.83 2067.31 1970.55 1871.49 1504.13 1395.11 1206.97 1195.73 1168.36 1120.42 871.195 742.234 739.321 658.39 560.36 538.865 455.87 451.663 428.362 420.436 402.707 381.162 371.804 328.03 323.53 321.437 276.128 239.248 236.87 235.478 217.774 203.913 199.648 190.743 179.169 168.568 154.749 146.217 133.674 124.286 117.239 93.6861 92.8958 77.2412 75.5101 75.3463 73.1938 72.7504 72.2799 68.3318 66.1425 61.0025 58.9242 40.7263 33.0297 32.0301 31.4048 29.305
threshold=0.84510473652936458 -0.47406167242425185 2.0667187036565213 -0.65765756062589553 1.0000000180025095e-35 1.4838553480623002 -0.094998263597413715 2.8704436816176933 0.39312798961938655 -0.2972136205252584 -0.75649019130092865 -0.553658831447713 0.96263238868577405 0.85185609748545821 0.98007196424315313 -0.53491912553131171 0.068715376674307035 0.12603733009026916 0.28558561893695578 -0.6178007142859453 -0.42958980102068567 -0.81781459598081752 0.79739980716732084 0.41697703897790467 0.59562121415566704 -0.3885500957292724 0.060223924603926289 -0.41561073558252265 -0.39164543514526085 0.089528438045302736 0.25312624028001929 -0.14733121618696621 -0.32766630342071829 0.56372494459283207 -0.35743303779142049 -0.15152219387883267 -0.60030232729919109 -0.34941189544149764 0.69179014968887131 0.61193884933625387 -0.39139734632791306 -0.57306495851345429 0.47186146362476378 -0.64416992133530526 0.44824590884045973 0.017564100789694139 -0.39801372032715027 0.48308568079256503 0.25801743177509517 0.45916939626183523 -0.082625930816748586 -0.16421147675580314 -0.46334441034148527 0.36704832814203964 -0.46753416689611055 -0.52431360761028201 0.20008918744393753 -0.22725530585977066 -0.094998263597413715 1.3663466380133922 0.53368601596556753 -0.47394493100364993 -0.24118296377577267 -0.46978473306776991 0.61506293686901226 0.4396785882820779 1.0752469509654323 -0.38730764607372453 0.41697703897790467 0.75206291071999865 -0.39388472556498894 0.28212796040678645 -0.23967136826872468 -0.36788028994823369 0.82460549634803371 1.1540702540145702 0.28350552759667774 -0.32766630342071829 1.0072165228279732 -0.021754204163846529 -0.22465158494754714 -0.49167042211893419 -0.53705461346507077
decision_type=2 2 2 2 2 2 2 2 2 2 2 2 2 2 2 2 2 2 2 2 2 2 2 2 2 2 2 2 2 2 2 2 2 2 2 2 2 2 2 2 2 2 2 2 2 2 2 2 2 2 2 2 2 2 2 2 2 2 2 2 2 2 2 2 2 2 2 2 2 2 2 2 2 2 2 2 2 2 2 2 2 2 2
left_child=1 3 5 10 9 6 66 -4 16 15 21 19 23 -7 -8 24 31 27 25 -5 41 -1 48 51 43 47 49 40 30 44 -21 64 -12 59 57 56 -26 53 76 -14 46 -13 -30 -3 71 67 -17 61 -18 52 -31 -10 -22 63 60 -49 62 -29 -43 -25 -36 -11 -27 -19 -6 -28 -2 -37 -39 81 -64 -20 -56 -48 -55 -59 -33 -66 -57 -70 -46 -47 -58
right_child=2 4 7 11 8 13 14 -9 12 18 32 20 39 -15 -16 17 22 37 29 28 26 -23 -24 33 36 35 65 34 42 50 -32 38 -34 -35 54 45 -38 68 -40 -41 -42 58 -44 -45 80 69 73 55 -50 -51 -52 -53 -54 74 72 78 82 75 -60 -61 -62 -63 70 -65 77 -67 -68 -69 79 -71 -72 -73 -74 -75 -76 -77 -78 -79 -80 -81 -82 -83 -84
leaf_value=-5.9534949428343342 0.40745550238347122 -2.2348463645984449 11.449009002275572 -3.2518463637175885 0.23300218976336803 4.8441368481102618 4.2805185956436427 15.911250477958237 0.58891341578842427 -0.69810342883350351 -4.0632548155638419 -2.3331536634319638 2.7469669709530531 8.4896359581631575 5.8455344450575524 -0.85774917762617509 0.52778965143659717 -0.45952648471460361 0.42262003139452381 -2.7105967975817626 -1.7249638861474847 -4.7965374673763099 1.764388309460226 1.8868856654114785 -1.0199242055559212 0.1302973376308397 -0.41321698342048674 -1.1161391574763291 -1.8111641413162389 0.41781130257951932 -1.0056831695621378 0.29172264188032865 -1.5105439255593145 2.6189664302605129 -0.47558543935570535 0.49484226437314577 -0.22319057110749899 0.18023656219292511 1.1530731163560548 3.7522838329125876 -1.281904865687723 -1.8053480308676741 -0.54640098031333584 -1.3432657880544412 0.32320802811553301 0.0025808966387664491 -0.42716987980581306 -0.3010485989889175 1.2088099998684594 -0.47535253980597986 1.4249023186523173 1.4679823941383876 -0.7962923873145541 0.0027480713149329286 -0.12817515097438356 0.041240483510620207 -0.14038849851798355 -0.60901788476395224 -0.68146972001781314 0.76565960071186001 -0.12893686555674252 -0.1940598202363569 0.18816253203251015 -0.073446665750400292 0.20175163047615791 0.025530384442204079 0.89328367562970534 0.74859096048194951 0.23225294833567517 0.51374413033297894 0.39765374436383089 0.082974462033015131 0.13011954772100998 -0.042190827963093591 0.23299525482983288 -0.15751398373768224 0.72907331605505876 0.62096037779669144 0.23729978721571052 0.57353639533080214 0.84372722492740759 0.23080073303661494 0.054281990780327832
leaf_weight=102 20 20 120 224 21 24 122 120 10.999999999999998 9.0000000000000018 700 97 81 153 181 59 14.999999999999998 12.999999999999998 29 349 34 477 211 65 37 54 12.000000000000002 13.999999999999998 33 6.9999999999999991 9.9999999999999982 9.9999999999999982 6.9999999999999991 99 26 67 19 17 117 77 39 117 6.9999999999999991 54 6.9999999999999991 6.9999999999999991 9.0000000000000018 13.999999999999998 159 6.9999999999999991 48 37 12.999999999999998 45 15.999999999999998 37 9.0000000000000018 21.000000000000004 6.9999999999999991 7.9999999999999991 32 19 34 22 7.9999999999999991 8.9999999999999982 12.999999999999998 65 10.999999999999998 8.9999999999999982 75 9.9999999999999982 20 8.9999999999999982 13.999999999999998 6.9999999999999991 54 46 11.999999999999998 22 58 35 15.999999999999998
leaf_count=102 20 20 120 224 21 24 122 120 11 9 700 97 81 153 181 59 15 13 29 349 34 477 211 65 37 54 12 14 33 7 10 10 7 99 26 67 19 17 117 77 39 117 7 54 7 7 9 14 159 7 48 37 13 45 16 37 9 21 7 8 32 19 34 22 8 9 13 65 11 9 75 10 20 9 14 7 54 46 12 22 58 35 16
internal_value=0.0217059 -1.45467 8.55996 -3.68229 0.815264 6.00117 4.82836 13.8701 1.77471 -0.0398217 -4.50234 -2.52247 2.64043 8.09535 5.26956 -0.617035 1.25302 -0.378437 0.449783 -2.84106 -1.82743 -5.03372 1.50429 2.12021 -1.31583 0.286541 -1.12905 -0.65589 -2.58506 0.908274 -2.67293 0.860451 -4.04529 2.31422 -0.386407 0.390654 -0.777695 0.11101 1.00089 3.30522 -0.951952 -2.04387 -1.64965 -1.67132 0.651309 0.543302 -0.737959 -0.136708 1.16128 -1.43702 1.32834 1.31852 -1.53875 -0.0534861 -0.1846 0.00124655 0.235093 -0.790683 -1.76167 1.80333 -0.301963 -0.413816 0.274541 -0.244689 0.492978 -0.247704 0.664051 0.635364 0.404073 0.280345 0.339933 0.349097 0.0141702 -0.271784 0.0670485 -0.525268 0.678799 0.574399 0.101471 0.491923 0.806418 0.195792 -0.0241669
internal_weight=5124 4371 753 2205 2166 513 336 240 1019 1147 1286 919 378 177 303 526 641 396 621 623 296 579 385 220 130 462 75 252 399 159 359 256 707 172 136 371 56 144 181 158 116 221 40 74 104 183 77 91 174 54 55 48 47 94 94 63 188 42 124 73 58 28 163 35 75 21 33 132 50 51 109 39 36 18 59 28 64 54 49 33 65 42 25
internal_count=5124 4371 753 2205 2166 513 336 240 1019 1147 1286 919 378 177 303 526 641 396 621 623 296 579 385 220 130 462 75 252 399 159 359 256 707 172 136 371 56 144 181 158 116 221 40 74 104 183 77 91 174 54 55 48 47 94 94 63 188 42 124 73 58 28 163 35 75 21 33 132 50 51 109 39 36 18 59 28 64 54 49 33 65 42 25
is_linear=0
shrinkage=0.0985333


Tree=8
num_leaves=41
num_cat=0
split_feature=0 0 0 0 0 0 0 0 0 0 0 0 0 0 0 5 0 5 0 0 0 0 0 3 0 0 0 0 1 0 0 16 2 6 16 18 3 2 7 3
split_gain=5.6745e+06 1.89369e+06 816724 167823 143119 135846 28040.2 24728 23140 18884.7 15329.6 7504.92 7484.98 6518.17 4250.47 1733.96 1408.92 1342.8 924.268 895.277 585.82 546.72 279.064 212.144 173.407 128.255 55.7042 42.6845 22.2762 30.0761 21.1306 14.0846 11.0355 5.13637 3.36857 2.46789 3.85656 2.33416 1.33352 0.431944
threshold=0.81520486505395895 -0.47405615724251698 2.3242481279886458 -0.6463650377480078 0.057152646539046906 1.6167274978457138 -0.39250390107146083 0.54626795354852431 -0.79527183716905769 1.1678983660110671 -0.55931277596677376 -0.7156403898374285 3.5887758447183429 -0.16303327252712513 0.32755688740428374 -1.7880506344921059 -0.44534994138224887 -1.8705895191165185 -0.51263468334677487 -0.2616996841634574 -0.052482930886632508 0.16784700394760568 -0.41570178962802545 1.896679929025054 -0.61125899355197 -0.33052050042287601 -0.22575419353448714 -0.113395391785776 0.4330691631087375 -0.37855171918969538 -0.29709809093217304 -0.48515944103785147 -0.44735302921994252 -0.57788946637825034 -0.34919375038417749 -0.1089336132669111 -0.12867366725547549 -0.26122582751713913 0.7212573041456195 0.020471282384666618
decision_type=2 2 2 2 2 2 2 2 2 2 2 2 2 2 2 2 2 2 2 2 2 2 2 2 2 2 2 2 2 2 2 2 2 2 2 2 2 2 2 2
left_child=1 3 5 8 6 9 16 14 -1 -2 15 -10 -4 19 21 -5 -3 -12 -19 25 27 -6 -18 -16 -17 28 33 -15 29 31 34 -8 -31 -21 38 36 -32 -36 -27 -37
right_child=2 4 12 10 7 -7 13 -9 11 -11 17 -13 -14 20 23 24 22 18 -20 26 -22 -23 -24 -25 -26 30 -28 -29 -30 32 35 -33 -34 -35 37 39 -38 -39 -40 -41
leaf_value=-5.0522132269582141 3.9340600619099546 -1.0480076661001876 11.595946945797506 -1.2320826440318153 0.98176821030293027 8.1748485922344702 -0.026790851294063625 2.5927598476718834 -4.072765071602805 5.582101110993694 -0.24069530865273497 -3.382339724774083 15.23532959705955 0.38901510984422838 1.721141545041025 -2.919212961678793 -0.70297375978297705 -1.9125125578421533 -1.4134327227042511 0.043774970722238682 0.73215180757442688 1.286696259421237 -0.41388151191360961 0.63770380928073545 -2.4622807880992488 0.035483124487604191 0.26760353975790169 0.53463798381004335 0.066183465533056332 -0.0066288644792457741 0.065081108475720281 -0.19634430241004328 -0.079219074815839216 0.16124885692791302 0.017731159142651057 0.023169003630067415 0.14466239982223025 -0.028753597354018789 -0.0034074122912014838 0.057676229950750876
leaf_weight=227 200 118 120 17 189 177 6.9999999999999991 219 729 176 6.9999999999999991 393 80 97 252 197 99 212 117 6.9999999999999991 200 230 80 6.9999999999999991 307 28 158 119 6.9999999999999991 27 33 28 88 73 12.999999999999998 11.999999999999998 10.999999999999998 28 10.999999999999998 24
leaf_count=227 200 118 120 17 189 177 7 219 729 176 7 393 80 97 252 197 99 212 117 7 200 230 80 7 307 28 158 119 7 27 33 28 88 73 13 12 11 28 11 24
internal_value=0.0218285 -1.34078 7.90214 -3.37031 0.729207 5.88806 0.0545049 1.67918 -4.05761 4.74834 -2.27675 -3.84182 13.2807 0.31095 1.37269 -2.62082 -0.777971 -1.72245 -1.7512 0.0888282 0.604185 1.15811 -0.583835 1.70045 -2.65914 -0.0198406 0.23182 0.476243 -0.0822611 -0.0904951 0.0418432 -0.167783 -0.0628532 0.153163 0.0054265 0.0765621 0.0938791 -0.0137835 0.0251137 0.049153
internal_weight=5124 4371 753 2206 2165 553 1268 897 1349 376 857 1122 200 971 678 521 297 336 329 555 416 419 179 259 504 317 238 216 157 150 160 35 115 80 80 80 44 41 39 36
internal_count=5124 4371 753 2206 2165 553 1268 897 1349 376 857 1122 200 971 678 521 297 336 329 555 416 419 179 259 504 317 238 216 157 150 160 35 115 80 80 80 44 41 39 36
is_linear=0
shrinkage=0.0985333


Tree=9
num_leaves=84
num_cat=0
split_feature=1 19 1 1 19 1 5 1 1 5 5 1 5 19 1 5 5 5 1 5 1 1 1 1 1 1 5 19 1 5 5 1 5 3 5 5 5 1 5 1 1 5 1 5 1 5 5 5 5 1 3 1 5 5 5 19 7 5 1 5 3 4 5 1 1 16 5 1 5 5 20 1 1 16 20 21 5 5 5 5 5 5 4
split_gain=4.46289e+06 1.5159e+06 533173 209570 128135 60881.3 59967.8 59377.4 42622.5 22075.2 19367.5 17104.7 13792.3 11820.9 11308.2 11160.3 8620.37 6137.46 5030.22 4694.78 4032.82 3941.06 3779.77 3681 3057.89 2905.48 2398.28 2164.79 2125.94 2122.5 2055.8 1510.82 1478.27 1353.01 1283.43 904.275 896.422 761.299 745.35 696.444 641.795 504.364 354.532 352.124 351.898 348.365 338.285 294.943 284.674 274.341 254.566 190.85 188.277 175.842 173.58 127.668 122.969 122.846 86.8845 84.7602 81.5252 70.0546 58.9596 57.3915 50.7913 46.2889 37.9361 37.374 34.7543 25.2534 24.5154 23.8309 23.6312 22.1349 27.7761 20.8724 18.3185 10.354 8.73172 8.65886 8.6093 7.83998 6.03202
threshold=1.0513162723845924 -0.54335506471205208 2.2770144851336731 -0.024650588222717019 -0.73416770071591542 1.5702288633710413 0.61506293686901226 -0.52431360761028201 0.57997376258978883 0.31878586045679974 -0.22725530585977066 -0.68019442796387086 -0.26530511890337938 -0.84995866118391972 3.4821650130337387 -0.54025650420112215 0.4396785882820779 0.85185609748545821 -0.33465950560822816 0.98007196424315313 -0.32060109253920044 -0.5682012207858258 0.22803559556309552 -0.37214480733576244 0.28417429992077009 -0.68769995956627306 1.0613713140010386 -0.45114228372891801 -0.63231316204398125 -0.83306856278189267 0.68092373594231215 0.46964867654567577 0.30780748239830896 -0.28120387839847422 -0.05038124291294354 1.0149522354837104 -0.60533042171155393 0.29770785028911756 0.44824590884045973 -0.60030232729919109 -0.44395719336137163 0.44824590884045973 -0.42638865749914961 -0.36788028994823369 -0.18534647822060954 0.013625212105134872 -1.2577388071591689 1.0237665699047422 0.20705431953682157 -0.21519129225241471 1.6580673539522717 0.46964867654567577 -0.84982553763041846 0.76536467612821213 0.20705431953682157 -0.65515239740809161 -1.0099944953301832 0.085498964297335958 -0.27428622644176598 0.15685327198392154 -0.46845720038505995 -0.63682441464800599 -1.057390649057852 -0.44931189672051136 -0.4319949196584682 -0.5845815751828759 0.15685327198392154 -0.45780697589010982 0.92518003280963124 0.071328390837559666 0.3279075848429624 -0.37830401919890083 0.46964867654567577 -0.22478300200213328 0.026552111775836742 -0.14712317524033755 0.69179014968887131 0.81479982437307774 -0.14784358955817425 0.4396785882820779 -1.0203149959689244 -0.030626036797578589 -0.51184681795342479
decision_type=2 2 2 2 2 2 2 2 2 2 2 2 2 2 2 2 2 2 2 2 2 2 2 2 2 2 2 2 2 2 2 2 2 2 2 2 2 2 2 2 2 2 2 2 2 2 2 2 2 2 2 2 2 2 2 2 2 2 2 2 2 2 2 2 2 2 2 2 2 2 2 2 2 2 2 2 2 2 2 2 2 2 2
left_child=1 4 5 7 13 9 15 16 22 -2 20 45 23 -1 -4 27 28 -7 32 -11 43 38 47 55 48 -18 -10 60 -3 31 49 62 40 -15 -30 50 56 46 -14 -27 66 42 69 -9 68 -6 -29 -8 -17 59 -24 -26 72 64 78 -13 -22 -42 -31 81 -5 70 -25 -55 79 -41 -12 -43 -32 -23 -48 -44 80 -38 -75 -54 -67 -46 -51 -34 -39 -20 -63
right_child=2 3 14 6 11 17 8 10 26 19 18 12 21 33 -16 24 25 -19 30 -21 36 41 35 29 51 39 -28 37 34 58 44 -33 53 -35 -36 -37 73 52 -40 65 57 67 71 -45 77 -47 61 -49 -50 54 -52 -53 75 63 -56 -57 -58 -59 -60 -61 -62 82 -64 -65 -66 76 -68 -69 -70 -71 -72 -73 -74 74 -76 -77 -78 -79 -80 -81 -82 -83 -84
leaf_value=-4.4183317521792365 0.87213554061117438 -2.4198707324987341 10.368089732549015 -0.80643227476383594 -2.878703678243355 4.122238748197443 0.97508916128265521 -1.6961857702033107 2.5941795010439366 3.8684101516171689 -0.7532328811856821 -2.5699491226606002 -1.5264580049352805 -3.5510616545811313 13.794468477458299 0.44686982953816229 -1.6702851536042247 7.4883258319332047 -0.037411586039180461 5.3368498622729836 -0.34564726757399883 -0.8178901580846899 1.5188850325052816 -1.9488382576023988 1.0333121667306737 -0.80597518269180413 3.499507332996505 -0.6684982109081935 -1.9274675048647092 -0.691841521598758 0.34846203008650861 -0.47551030013162054 -0.1061486304442384 -1.5764352586489299 -1.020928938492327 2.0152272148482 -0.15716774482424739 -0.0013819464322137973 -0.52155934784609614 -0.029372360502848381 -0.30840958383769912 -0.069543765352154813 -0.20583443223988107 -0.89083195719996155 0.54983263386943249 -2.1721563245203406 -0.26892152857794605 1.324073789248164 0.76402014178565103 0.085055210020764271 0.51541038434805175 1.4974775698701435 0.57653142835910287 0.074001335362561815 0.42467989265044442 -2.0805300755589715 -0.83706877128713952 -0.036331706085044969 -0.16901936284370939 0.18999319211462709 -0.24678554438516362 0.025150384805872002 -0.89119684816692923 0.28740659383315648 0.082610673368411824 -0.36046039956568854 -0.3743399500392765 0.17194723963825229 0.56651952283647822 -0.34048083106963284 -0.035354464971076173 0.014736186436915606 0.23012544166177609 0.076007455153118006 -0.12202686672519533 0.21745135554704501 -0.15513008194894007 0.85792093219829912 0.21339829920358463 -0.021190125318102455 0.12705799256851652 0.048082732297942285 0.12637413530150338
leaf_weight=269 15.999999999999998 84 120 26 265 20 129 48 142 88 27 132 73 841 80 57 28 157 17 153 13.999999999999998 19.000000000000004 142 84 62 38 118 6.9999999999999991 50 15.000000000000002 37 10.999999999999998 15.999999999999998 10.999999999999998 43 116 11.999999999999998 9.0000000000000018 12.999999999999998 10.999999999999998 26 9.0000000000000018 7 21 28 70 8.0000000000000018 105 145 12.999999999999998 6.9999999999999991 72 21.000000000000004 21 96 189 34 38 6.9999999999999991 81 6.9999999999999991 15.999999999999998 8.9999999999999982 41 50 13.999999999999998 15.999999999999998 9.9999999999999982 55 8.9999999999999982 8.9999999999999982 7.9999999999999982 34 14.000000000000002 7.9999999999999991 7.9999999999999991 18 86 45 35 7.9999999999999991 18 8.0000000000000018
leaf_count=269 16 84 120 26 265 20 129 48 142 88 27 132 73 841 80 57 28 157 17 153 14 19 142 84 62 38 118 7 50 15 37 11 16 11 43 116 12 9 13 11 26 9 7 21 28 70 8 105 145 13 7 72 21 21 96 189 34 38 7 81 7 16 9 41 50 14 16 10 55 9 9 8 34 14 8 8 18 86 45 35 8 18 8
internal_value=0.0215668 -1.07294 7.73748 0.587299 -3.04498 5.72117 1.47201 -0.35352 2.02161 4.62774 0.0422541 -2.17592 -1.8366 -3.75725 11.9451 0.624685 -1.58081 7.19234 0.249132 4.86157 -0.962882 -0.978876 1.47165 -2.11111 0.945207 -0.852183 3.04469 -0.0499108 -2.00513 -1.56616 0.440774 -1.75228 -0.0899981 -3.5319 -1.55881 1.73911 -0.465938 0.137387 -1.40002 -0.513809 -0.368748 -0.352531 -0.527991 -1.50412 0.673793 -2.75424 -0.165652 1.14831 0.683354 0.256857 1.48422 1.31342 0.318557 0.0967574 0.342624 -2.30647 -0.725904 -0.156791 -0.570153 0.136515 -0.721677 -0.0354275 -1.88133 0.222688 0.0147448 -0.215697 -0.649803 0.0643228 0.494278 -0.717639 -0.171644 -0.10711 0.184458 -0.0664752 -0.00265944 0.510515 -0.270818 0.800261 0.190901 -0.0527869 0.0701004 0.0069155 0.070331
internal_weight=5124 4490 634 2439 2051 434 1256 1183 759 257 897 930 595 1121 200 497 286 177 746 241 151 148 499 447 336 109 260 161 177 126 476 104 270 852 93 265 82 128 86 81 107 62 43 69 206 335 48 234 202 270 149 134 80 163 154 321 48 64 22 116 33 41 93 62 101 43 43 19 92 28 17 15 51 34 22 29 32 114 58 51 17 35 24
internal_count=5124 4490 634 2439 2051 434 1256 1183 759 257 897 930 595 1121 200 497 286 177 746 241 151 148 499 447 336 109 260 161 177 126 476 104 270 852 93 265 82 128 86 81 107 62 43 69 206 335 48 234 202 270 149 134 80 163 154 321 48 64 22 116 33 41 93 62 101 43 43 19 92 28 17 15 51 34 22 29 32 114 58 51 17 35 24
is_linear=0
shrinkage=0.0985333


Tree=10
num_leaves=45
num_cat=0
split_feature=0 0 0 0 0 0 0 0 0 0 0 0 0 0 0 5 5 0 0 0 0 0 0 6 0 0 0 0 0 0 21 15 16 0 18 0 0 0 15 18 6 5 20 6
split_gain=3.79589e+06 1.3028e+06 506088 117487 103277 77330.3 19559 18251.1 18074.2 11056.2 7689.74 6707.79 5757.62 5681.19 2221.18 1018.59 750.183 702.717 655.616 650.404 444.012 422.077 344.88 153.917 97.6946 76.0037 73.3607 60.5368 39.4067 29.0929 26.8208 23.3468 19.1647 14.6107 13.2059 7.19172 4.32991 3.13311 2.7573 2.73606 6.31869 2.73103 1.35388 1.06822
threshold=0.87470753247716859 -0.46953669126396091 2.3242481279886458 -0.6421816320360586 0.10694889767636308 1.6167274978457138 0.56544389367965275 -0.74484096593691185 -0.39250390107146083 -0.55359459879206352 1.2095214347485908 3.1890678504950634 -0.15141475642380214 -0.82974175890528545 0.35266432880014681 -1.7880506344921059 -1.8705895191165185 -0.426154951732655 -0.012588497380504032 -0.24959971876997142 0.67401112528292784 -0.56933096819782902 -0.51263468334677487 1.7738299780836235 -0.31356330688639755 -0.44990630920064195 -0.113395391785776 -0.40528088142157392 -0.20404958534531978 0.18199150028411945 -0.2511649818199832 -0.59659378379729311 -0.59600477395825724 -0.37855171918969538 -0.34098169370366987 -0.29709809093217304 -0.34077863677345632 -0.24107054629312616 -0.21809054267120839 -0.036001452929555325 0.0095689427393745533 0.12603733009026916 1.0000000180025095e-35 0.14254588070404245
decision_type=2 2 2 2 2 2 2 2 2 2 2 2 2 2 2 2 2 2 2 2 2 2 2 2 2 2 2 2 2 2 2 2 2 2 2 2 2 2 2 2 2 2 2 2
left_child=1 3 5 7 8 10 14 13 17 15 -2 -4 19 -1 29 -5 -11 25 26 24 -8 -17 31 -16 30 -3 -14 -19 37 -6 32 -18 -10 42 -34 38 -35 -21 43 40 -37 -41 -32 -26
right_child=2 4 11 9 6 -7 20 -9 12 16 -12 -13 18 -15 23 21 22 27 -20 28 -22 -23 -24 -25 35 -27 -28 -29 -30 -31 33 -33 34 36 -36 39 -38 -39 -40 41 -42 -43 -44 -45
leaf_value=-4.8282858990771391 3.4042862449552538 -0.85330646816313727 9.2176118821974544 -0.97520086405693363 0.86606521114002966 6.6789895806371282 1.8763284740768627 -2.8741480634163987 0.12262174588003302 -0.20589601668854285 4.6342615115388748 12.20409237931786 0.31820948505172886 -3.5309387604951867 1.4573046664344538 -2.2028753053793984 -0.73827396075145635 -0.46044578578885231 0.68068169319198357 0.089209032446061334 2.4707564023947115 -1.7182226750542569 -1.1445312866867154 0.53863874377450516 0.044469279472467732 -0.60041535094247167 0.47065334775109197 -0.2620686403098838 0.24803717400862663 1.0768379883203723 -0.16146541626223934 -1.521958759518087 0.0077352763704541727 -0.073818376873195923 -0.08736841677077814 0.059818926592659721 -0.02919466895567293 0.16520867815206508 -0.018660883776281667 0.00042652238498597694 0.14230486115682922 0.05798060229856513 -0.061774842670227766 0.0017368274070254561
leaf_weight=62 178 78 100 15.999999999999998 123 178 100 644 6.9999999999999991 6.9999999999999991 157 99 77 669 232 423 9.9999999999999982 80 205 20 140 98 138 6.9999999999999991 19.000000000000004 76 199 40 118 248 18.000000000000004 163 45 63 17 54 41 97 11.999999999999998 11.999999999999998 11.999999999999998 21 7.9999999999999991 7.9999999999999991
leaf_count=62 178 78 100 16 123 178 100 644 7 7 157 99 77 669 232 423 10 80 205 20 140 98 138 7 19 76 199 40 118 248 18 163 45 63 17 54 41 97 12 12 12 21 8 8
internal_value=0.0162989 -1.06363 6.67409 -2.73571 0.650738 4.98111 1.49639 -3.30132 0.106636 -1.81668 4.02125 10.8823 0.292253 -3.66269 1.1881 -2.09548 -1.32881 -0.60157 0.542279 0.0800537 2.25257 -2.12337 -1.3516 1.43828 -0.00797574 -0.744077 0.432488 -0.403311 0.204616 1.01541 -0.0518063 -1.49167 -0.00184105 -0.0776067 -0.0215077 0.0549558 -0.0577002 0.155088 0.0171774 0.0687784 0.0810198 0.0390396 -0.141431 0.0334142
internal_weight=5119 4407 712 2230 2177 513 850 1375 1327 855 335 199 1053 731 610 537 318 274 481 572 240 521 311 239 337 154 276 120 235 371 199 173 69 130 62 138 104 117 39 99 66 33 26 27
internal_count=5119 4407 712 2230 2177 513 850 1375 1327 855 335 199 1053 731 610 537 318 274 481 572 240 521 311 239 337 154 276 120 235 371 199 173 69 130 62 138 104 117 39 99 66 33 26 27
is_linear=0
shrinkage=0.0985333


Tree=11
num_leaves=84
num_cat=0
split_feature=1 15 1 15 15 1 1 5 15 15 15 5 5 1 5 1 1 3 5 5 1 4 15 5 1 5 1 1 1 15 1 5 20 2 1 1 5 1 5 1 15 17 1 1 5 5 4 4 5 5 1 5 1 5 5 4 4 12 5 5 15 5 1 1 1 1 17 1 1 5 5 5 1 4 1 5 5 5 4 3 5 12 1
split_gain=2.97722e+06 1.08719e+06 374721 102068 97908.7 59382.8 33235.2 20455.9 17723.4 16642.6 9502.19 7693.46 6639.83 3660.76 3549.63 3188.42 3099.98 2911.27 2283.97 2196.22 2070.1 2020.69 1884.25 1697.94 1690.56 1183.37 1098.15 981.977 923.931 844.213 732.556 699.519 683.292 549.505 488.604 457.939 384.866 337.627 325.774 288.241 262.457 254.093 237.965 216.154 199.342 188.11 282.911 166.811 157.563 155.794 145.88 131.756 116.461 107.265 94.4947 94.4052 89.2745 82.2424 78.6898 77.3438 76.7178 68.1967 63.1024 60.2828 56.2169 55.7074 55.2351 53.3089 49.7415 47.7799 47.3556 41.9178 38.7556 32.9536 28.0739 20.4045 19.9481 19.014 18.1838 15.5739 14.8658 14.8469 14.2731
threshold=1.0060489140294639 -0.46953350413465494 2.3791744214745036 0.068283394047721269 -0.69457785976933561 1.6936186204306294 0.46964867654567577 0.31878586045679974 -0.2972136205252584 -0.58130691095301223 -0.80291038970921658 0.89734934468762717 1.1180312811584965 -0.50709203002621173 1.0934755779000034 -0.24666656735284948 0.14336504171515377 -0.35413208334572915 0.10401341236029557 0.4396785882820779 0.64425203831169509 -0.36617229441770288 -0.62609228113794024 1.0237665699047422 -0.44395719336137163 0.10401341236029557 0.13181481107152457 0.71568441190111731 -0.60527474035515094 -0.41561073558252265 -0.13590671978747293 0.98007196424315313 -0.85099467516737548 -0.47058692791948481 -0.37214480733576244 -0.49750473872024276 0.52023074316327422 -0.42638865749914961 0.71295722814130913 -0.32766630342071829 -0.16314135534517279 -0.39139734632791306 -0.059951455642853604 -0.024650588222717019 0.30780748239830896 0.47186146362476378 1.8194762490499519 -0.39801372032715027 0.77402170713433682 0.80628531564263439 0.019042804179063819 0.033413431033531872 -0.13590671978747293 0.78152613634679025 0.45916939626183523 -0.46753416689611055 -0.36617229441770288 1.0000000180025095e-35 0.23659757506404097 -0.12823867382972554 -0.52561638270500055 0.47186146362476378 -0.35743303779142049 -0.41582007714816499 -0.46334441034148527 -0.11604035800103493 -0.51558076876546488 -0.093904417848022184 -0.55368934159608763 0.77402170713433682 -0.17773236783881965 0.29701127652248188 -0.26745448187501797 -0.49937559280555793 0.33181120188908775 0.4396785882820779 0.92518003280963124 0.88174054575570215 -0.021754204163846529 0.020471282384666618 -0.030626036797578589 0.36321223129361363 -0.4319949196584682
decision_type=2 2 2 2 2 2 2 2 2 2 2 2 2 2 2 2 2 2 2 2 2 2 2 2 2 2 2 2 2 2 2 2 2 2 2 2 2 2 2 2 2 2 2 2 2 2 2 2 2 2 2 2 2 2 2 2 2 2 2 2 2 2 2 2 2 2 2 2 2 2 2 2 2 2 2 2 2 2 2 2 2 2 2
left_child=1 4 5 8 10 7 16 -2 13 22 -1 27 -9 25 -7 35 31 30 29 40 -13 33 -6 45 -12 -3 49 58 48 41 -11 42 -24 61 70 53 37 -23 51 54 56 47 75 -42 -30 -18 -47 74 -27 67 -34 73 -33 -10 64 57 81 -36 -8 66 -39 -19 82 -40 -20 80 -45 -21 69 -46 -31 -41 -57 -37 -15 -5 -65 -56 -49 -43 -58 -17 -53
right_child=2 3 -4 6 9 14 11 12 15 17 24 20 -14 18 -16 19 23 21 39 26 -22 36 32 -25 -26 28 -28 -29 44 34 -32 52 50 -35 55 38 -38 60 63 71 43 79 -44 59 68 46 -48 78 -50 -51 -52 62 -54 -55 77 72 65 -59 -60 -61 -62 -63 -64 76 -66 -67 -68 -69 -70 -71 -72 -73 -74 -75 -76 -77 -78 -79 -80 -81 -82 -83 -84
leaf_value=-3.829067389037903 0.73745234018219175 -1.3980803438509102 10.051749185916261 0.11906932080041917 -2.2926652702214874 4.7873170235027933 0.50805464477817452 3.4081788630020027 -0.44923515736030478 -1.5868544679826897 -2.953071420889235 1.9121541362940115 4.6697906906631061 -0.60251572687984634 6.9045215153152864 0.04074251167125803 0.67959699404407081 -0.96987974619495554 -0.26078494812612768 0.34709624279648332 2.8253752962617371 -0.77446333865589445 -0.58393292267215213 1.4578763842110416 -0.84689893429165297 -1.0463361982310835 1.1844885501509923 1.9164612037804141 -0.61114276426667269 -0.74704495938795101 -0.88025369705685885 0.45065464721816378 -1.8874297404254614 -1.4777662256672601 -0.33127100946278487 -0.35602111240605905 0.032663455006523727 -0.3548372690722425 0.083584459108199491 0.11362255310463716 0.21335692547091073 -0.97874681371030547 0.60134731157806065 0.43211572589432345 -0.34293830407097559 1.0479378757283941 0.31499349594497 -0.012562850532828435 -0.47216567981063468 0.72036504759031772 -0.79415946602496423 -0.087989001042584655 0.90442442634356701 -0.047531305559089444 0.049592932060269254 -0.10502529803680516 0.019033024422809318 -0.095558648302725632 1.3141287783004367 0.57574652255030045 0.028525250670631937 -0.37619072441308399 0.11041577052625584 0.18120221810991533 -0.025352028603808065 0.34324549718002828 0.17734059606982605 0.5692125307072754 -0.040147927633690468 -0.044028840496127437 -0.35053744639906331 0.37761688324761117 0.077439534868894919 -0.065723876512228663 -0.26530546740707761 0.33858668208663395 0.36452699866915289 0.18979311008584432 -0.22093087803716818 -0.42869108209119677 0.18135527491343814 0.14438250539607561 0.010649923866672096
leaf_weight=188 21 27 179 9.9999999999999982 392 53 6.9999999999999991 154 16.000000000000004 285 888 75 140 44 105 27 55 60 10.999999999999998 47 132 27.999999999999996 7.9999999999999991 117 6.9999999999999991 41 42 69 17 12.000000000000002 30 17 242 57 24 6.9999999999999991 11.999999999999998 7.0000000000000027 18 11.999999999999998 53 22.000000000000004 107 30 21.000000000000004 147 8.9999999999999982 7 14.999999999999998 79 7.9999999999999991 22 107 10.999999999999998 34 17 8.0000000000000018 39 97 55 9.0000000000000018 7.9999999999999991 61 21 34 44 21 48 13.999999999999998 7.9999999999999991 19 27 22 8.9999999999999982 10.999999999999998 41 35 11.999999999999998 7.9999999999999982 8.9999999999999982 23 33 31
leaf_count=188 21 27 179 10 392 53 7 154 16 285 888 75 140 44 105 27 55 60 11 47 132 28 8 117 7 41 42 69 17 12 30 17 242 57 24 7 12 7 18 12 53 22 107 30 21 147 9 7 15 79 8 22 107 11 34 17 8 39 97 55 9 8 61 21 34 44 21 48 14 8 19 27 22 9 11 41 35 12 8 9 23 33 31
internal_value=0.0162847 -0.892976 6.21832 0.640838 -2.43162 4.7066 1.38612 3.84418 0.0474814 -1.7874 -3.10564 2.10828 4.05519 -0.399882 6.30945 0.353999 0.927113 -1.33988 -0.229978 0.490809 2.53053 -0.987683 -2.1202 1.13665 -2.93985 -0.817071 0.728545 1.56423 -0.646084 -0.41193 -1.52962 0.672825 -1.83189 -1.20719 -0.239254 0.0492277 -0.456887 -0.583211 0.100915 0.0996744 0.30985 -0.624206 0.514292 0.396531 -0.347348 0.938349 1.01323 -0.477065 -0.92817 0.598018 -1.8635 0.00549005 0.855822 -0.309077 0.000793942 -0.126162 0.200567 -0.19765 1.27757 0.478695 -0.17182 -0.921154 0.0446546 0.26099 -0.0971024 0.271292 0.344752 0.475024 -0.20612 -0.273687 -0.562377 0.31193 -0.00412573 -0.232674 -0.554339 0.305622 0.310008 0.0966563 -0.14389 -0.876897 0.145459 0.102406 -0.033112
internal_weight=5119 4467 652 2238 2229 473 990 315 1248 1146 1083 380 294 507 158 741 610 496 364 510 207 181 650 328 895 143 216 173 116 234 315 282 258 125 133 231 56 44 204 130 294 101 158 159 60 211 156 70 56 174 250 130 124 27 91 102 135 63 104 106 16 68 114 74 45 75 51 95 43 29 31 39 39 16 55 51 56 46 15 31 31 60 53
internal_count=5119 4467 652 2238 2229 473 990 315 1248 1146 1083 380 294 507 158 741 610 496 364 510 207 181 650 328 895 143 216 173 116 234 315 282 258 125 133 231 56 44 204 130 294 101 158 159 60 211 156 70 56 174 250 130 124 27 91 102 135 63 104 106 16 68 114 74 45 75 51 95 43 29 31 39 39 16 55 51 56 46 15 31 31 60 53
is_linear=0
shrinkage=0.0985333


Tree=12
num_leaves=48
num_cat=0
split_feature=0 0 0 0 0 0 0 0 0 0 0 0 0 0 0 0 0 0 18 0 0 15 0 15 0 0 0 0 15 3 0 2 17 0 15 15 21 4 0 15 2 4 0 15 2 4 2
split_gain=2.53748e+06 882040 326078 78449.2 72891.1 58999.1 15025.1 14755.7 12008.9 6301.48 5244.82 4969.61 3613.95 1504.97 1487.41 662.935 545.595 473.16 342.644 286.454 203.027 202.886 122.72 59.2714 58.688 44.9415 37.7194 37.0584 27.2053 22.9744 22.5787 18.774 14.8693 7.70524 7.08905 5.53455 5.31673 4.11134 3.99034 6.89034 3.80262 3.38448 2.26743 2.06309 1.82569 1.68938 0.84114
threshold=0.90613449610569552 -0.46953669126396091 2.4252842973746347 -0.63146155366561085 0.10694889767636308 1.6727761460178487 0.56544389367965275 -0.74245913058127766 -0.38427752556157291 -0.54695955643901228 1.2095214347485908 -0.82974175890528545 -0.12542008634628654 3.5887758447183429 0.35266432880014681 -0.41570178962802545 -0.24107054629312616 0.72021738140119429 1.9498039207122375 1.0000000180025095e-35 -0.56933096819782902 -0.60703124609679771 -0.44990630920064195 -0.59091375402767243 -0.31356330688639755 -0.49485154118773711 -0.20404958534531978 -0.39250390107146083 -0.42030238904203115 0.086725686083432715 0.21555239730924877 -0.33759903910268041 -0.47899366068075699 -0.34888401321627077 -0.21809054267120839 -0.2972136205252584 1.007456431214228 -0.49937559280555793 -0.27302582595687613 -0.42030238904203115 0.014094792021362863 -0.15124266952893267 -0.28803317275578633 -0.081917150311709722 -0.28045273673158583 0.88307298209628493 -0.33759903910268041
decision_type=2 2 2 2 2 2 2 2 2 2 2 2 2 2 2 2 2 2 2 2 2 2 2 2 2 2 2 2 2 2 2 2 2 2 2 2 2 2 2 2 2 2 2 2 2 2 2
left_child=1 3 5 7 8 10 14 11 15 20 -2 -1 16 -4 30 22 24 -8 -16 -14 -5 -22 -3 -11 28 -25 43 31 29 46 -6 -17 -29 37 38 -35 -28 -30 39 -26 44 -31 -42 -18 -36 -40 -10
right_child=2 4 13 9 6 -7 17 -9 12 23 -12 -13 19 -15 18 27 26 -19 -20 -21 21 -23 -24 25 34 -27 36 32 33 41 -32 -33 -34 35 40 -37 -38 -39 45 -41 42 -43 -44 -45 -46 -47 -48
leaf_value=-4.0193434828459482 2.8267770157833256 -0.68965357600776178 7.8745267577026263 -1.7226465457058815 0.74055876142587473 5.7173751097392405 1.6230141358975461 -2.3050011473264727 0.13987246655465538 -0.45559797059603013 3.8526878974058887 -2.8746558250354646 0.38308103706901719 10.403359179360955 1.1970220318886091 -0.20264930463750699 0.14720826235006959 2.1194412197098558 0.30375285008393854 0.56525138497558669 -0.57555898046271692 -1.4369260944484818 -0.47294239556694506 -1.1132434937698528 0.11913688669720959 -0.84598187618705822 0.22885271925332962 -0.16940352062902475 -0.038559307597510029 -0.073586713651804289 0.90404281309545687 -0.34438824504479548 -0.0077805444407601692 0.0037546885854116076 0.016740427845060645 -0.050046372097143757 0.091523294531462004 -0.090753799548140279 0.10049785232337169 0.031884174732625441 6.3462848783913429e-06 0.0067080590656315572 0.054269499739026991 0.081426316460891046 -0.039686800002388424 0.02797813979796257 0.049377708027346104
leaf_weight=62 158 78 100 378 186 178 140 685 9.9999999999999982 8.9999999999999982 177 688 238 79 232 45 76 120 6.9999999999999991 185 8.9999999999999982 130 116 191 7.9999999999999991 78 167 10.000000000000002 34 6.9999999999999991 185 35 9.9999999999999982 36 7.0000000000000027 34 8.9999999999999982 42 32 63 11.000000000000002 8.9999999999999982 20 21 9.9999999999999982 6.9999999999999991 7.0000000000000027
leaf_count=62 158 78 100 378 186 178 140 685 10 9 177 688 238 79 232 45 76 120 7 185 9 130 116 191 8 78 167 10 34 7 185 35 10 36 7 34 9 42 32 63 11 9 20 21 10 7 7
internal_value=0.0161444 -0.852419 5.54983 -2.23143 0.548579 4.23748 1.24764 -2.66757 0.088261 -1.43621 3.40189 -2.98689 0.246432 9.1627 0.970782 -0.463974 0.0920263 1.87639 1.17546 0.466603 -1.6445 -1.39614 -0.570391 -1.03376 0.00778888 -1.04721 0.194644 -0.245625 -0.0305912 0.0468214 0.829506 -0.276107 -0.101404 -0.048753 0.0510011 -0.0234767 0.223688 -0.0700412 0.0645495 0.0466839 0.0177463 -0.0351202 0.0369124 0.136189 -0.0175221 0.090754 0.116985
internal_weight=5119 4427 692 2230 2197 513 870 1435 1327 795 335 750 1033 179 610 294 610 260 239 423 517 139 194 278 337 269 273 100 179 33 371 80 20 146 158 70 176 76 110 71 48 16 31 97 17 39 17
internal_count=5119 4427 692 2230 2197 513 870 1435 1327 795 335 750 1033 179 610 294 610 260 239 423 517 139 194 278 337 269 273 100 179 33 371 80 20 146 158 70 176 76 110 71 48 16 31 97 17 39 17
is_linear=0
shrinkage=0.0985333


Tree=13
num_leaves=49
num_cat=0
split_feature=0 0 0 0 0 0 0 0 0 0 0 0 0 0 0 0 20 0 0 0 18 19 0 15 20 20 0 0 20 0 0 15 15 3 0 2 20 15 15 0 15 0 17 15 0 17 13 20
split_gain=2.07304e+06 718734 270604 66527.6 57824.7 39475.7 14964.2 12301.9 11053.7 8683.73 8244.62 2947.51 1228.7 1197.85 1139.36 613.997 506.941 488.758 424.636 424.445 278.662 266.108 195.539 187.366 129.692 54.2288 49.6964 49.1588 39.9601 39.9568 35.8105 28.4631 18.334 19.5526 14.9602 12.7928 10.2025 6.65071 5.26547 5.26306 4.78275 5.26928 4.05107 3.91425 3.83512 3.4558 3.08661 0.613763
threshold=0.90613449610569552 -0.46641200684875894 1.9029835202640184 -0.67952139952764723 0.10694889767636308 2.5688802718008032 1.3229074902900406 0.56544389367965275 -0.56933096819782902 -0.38427752556157291 -0.79527183716905769 -0.113395391785776 0.36759548926242142 -0.61125899355197 -0.53495684570356994 -0.72967415717997863 -0.046842806423148371 -0.24107054629312616 0.67401112528292784 -0.41570178962802545 1.9498039207122375 -0.55377014509197642 -0.012588497380504032 -0.60703124609679771 -0.75589452080858843 0.71021028144025211 0.21555239730924877 -0.29709809093217304 -0.74693049611946283 -0.18029273485537242 -0.44990630920064195 -0.42030238904203115 -0.42030238904203115 0.060223924603926289 -0.33052050042287601 -0.54362198164807085 -0.23051692800786278 -0.21809054267120839 -0.2972136205252584 -0.40043627079697347 -0.42030238904203115 -0.28803317275578633 -0.41663471799582125 0.057056794185525769 -0.3700520658372744 -0.64670780880501844 0.32210701734384511 -0.21020095380425421
decision_type=2 2 2 2 2 2 2 2 2 2 2 2 2 2 2 2 2 2 2 2 2 2 2 2 2 2 2 2 2 2 2 2 2 2 2 2 2 2 2 2 2 2 2 2 2 2 2 2
left_child=1 3 6 10 9 -4 -2 12 13 19 -1 17 26 -5 23 -12 24 27 -9 28 -14 36 -13 -10 -15 31 -6 32 -3 37 -30 35 33 -11 44 45 -16 -19 -36 -33 -29 47 -35 -31 -34 -21 -43 -42
right_child=2 4 5 8 7 -7 -8 18 14 11 15 22 20 16 21 -17 -18 29 -20 25 -22 -23 -24 -25 -26 -27 -28 40 30 43 -32 39 34 42 38 -37 -38 -39 -40 -41 41 46 -44 -45 -46 -47 -48 -49
leaf_value=-3.1042751977747542 2.7220418073111134 -0.16866155916487979 5.6813585961482458 -1.8406997718772544 0.6688912454365098 8.5287122334812562 4.0446039917007788 1.3896044552940765 -0.56877090751461223 0.1237889725938574 -2.4681340514412988 0.34633749016360094 1.0976310066874566 -1.0485178505050812 -0.69254501657377066 -2.1175539739261908 -0.66885161094499046 0.17192568961519081 1.8551702578787239 -0.090884487984457085 0.28356822451449853 -0.9684736890719684 0.50289050048037254 -1.2630956945440523 -1.5709429651971223 0.028352584590627696 0.82449228200947355 0.12692736794947698 -0.60822553716533323 0.23305942197259763 -0.43354076647611278 -0.33551040527047454 -0.087975936019685425 0.01584754274111325 0.027707315145271166 -0.19303904999746543 -0.28079148787320479 0.11437482059045667 -0.02267655395659542 -0.19586845165459582 0.014604305815580993 0.03459776035825942 -0.060531319095454998 0.12777291613315389 -0.041973052554372725 -0.00085861798314338701 0.075137529301007047 -0.016525452771185098
leaf_weight=230 218 7.9999999999999991 119 387 186 159 196 100 11.999999999999998 12.999999999999998 646 199 212 35 84 290 14.999999999999998 63 160 7 6.9999999999999991 146 205 187 210 6.9999999999999991 205 6.9999999999999991 55 118 112 33 27 13.999999999999998 35 20 6.9999999999999991 93 39 26 10.000000000000002 43 8.0000000000000018 18 82 6.9999999999999982 51 7.9999999999999991
leaf_count=230 218 8 119 387 186 159 196 100 12 13 646 199 212 35 84 290 15 63 160 7 7 146 205 187 210 7 205 7 55 118 112 33 27 14 35 20 7 93 39 26 10 43 8 18 82 7 51 8
internal_value=0.0159892 -0.769073 5.01767 -2.00326 0.506479 7.39276 3.37586 1.12733 -1.4393 0.091686 -2.5214 0.222714 0.876835 -1.70103 -1.04082 -2.36752 -1.47218 0.0884477 1.69624 -0.397232 1.07632 -0.865711 0.42929 -1.23142 -1.51159 -0.223756 0.756839 0.00727363 -0.490243 0.180976 -0.501996 -0.243063 -0.0205065 0.0420592 -0.0330191 -0.146222 -0.672062 0.14077 0.00132115 -0.287921 0.0573271 0.0493854 -0.016283 0.222562 -0.0556725 -0.0547998 0.0584385 0.000336982
internal_weight=5119 4427 692 2249 2178 278 414 870 1083 1308 1166 1033 610 647 436 936 260 629 260 275 219 237 404 199 245 100 391 337 175 292 167 93 218 35 183 34 91 156 74 59 119 112 22 136 109 14 94 18
internal_count=5119 4427 692 2249 2178 278 414 870 1083 1308 1166 1033 610 647 436 936 260 629 260 275 219 237 404 199 245 100 391 337 175 292 167 93 218 35 183 34 91 156 74 59 119 112 22 136 109 14 94 18
is_linear=0
shrinkage=0.0985333


Tree=14
num_leaves=84
num_cat=0
split_feature=1 15 1 15 15 1 1 15 15 1 4 15 15 1 3 1 1 4 15 1 1 3 4 1 1 3 1 15 1 1 15 1 3 1 17 3 4 7 19 12 17 15 1 17 17 1 4 7 7 4 1 15 7 7 1 3 1 1 11 4 15 3 15 7 3 11 4 17 15 1 12 4 16 15 16 15 4 18 7 1 12 17 4
split_gain=1.626e+06 613961 175387 61491 57022.4 23554.9 20735.7 11536.4 9192.54 7329.68 5771.62 5473.84 3194.66 3135.22 2497.67 2193.54 1720.68 1197.78 1124.5 1209.32 1092.99 860.119 834.5 761.235 637.764 627.969 562.051 502.959 462.035 456.811 409.015 395.246 387.237 375.285 259.628 235.303 234.171 229.49 197.251 194.533 190.1 177.479 167.946 143.336 137.381 131.983 139.848 129.688 310.674 112.885 106.705 95.7556 93.3404 118.426 91.6196 68.2343 63.1351 61.6772 60.6064 54.7647 53.8004 50.6541 50.6223 42.5617 40.5214 36.5475 35.903 35.8961 35.6956 31.9994 33.9183 29.4742 25.2319 24.8301 20.6364 20.3302 19.2102 18.7048 15.9018 12.6015 11.9277 10.282 8.82472
threshold=1.1091529108402316 -0.46201805753824082 2.3791744214745036 0.1677573002316419 -0.65050923965120222 1.6936186204306294 0.66836777602504538 -0.24971261001470887 -0.76381805486314136 3.4821650130337387 -0.42348686105470823 -0.553658831447713 -0.82988687476580358 0.27048287430397971 0.64364956418196606 -0.46334441034148527 -0.57306495851345429 -0.45479759653233148 -0.70830600105571728 -0.47394493100364993 -0.24666656735284948 -0.089017746793440281 -0.55456739771526686 1.0000000180025095e-35 -0.70071425660684272 -0.43373408954147302 0.81080430427857009 -0.40961054344253206 0.4204841988403431 0.17541576421895752 -0.099835502893712361 0.028541479434756444 2.1617942655773432 0.39312798961938655 -0.47231727454491518 -0.30112856038671632 -0.21439483091600345 -0.57718154546123268 -0.030510267930454475 -1.0022772733803922 -0.18469300715902992 -0.31343306780588925 -0.22465158494754714 0.10747099477473328 -0.33798545714696804 -0.10229801653789636 0.092344238678340143 -0.2886395788819322 -1.0099944953301832 -0.25260454200734034 -0.60030232729919109 -0.33060918738716005 1.2983412373042205 -0.2886395788819322 -0.49750473872024276 0.086725686083432715 -0.18534647822060954 0.88481577520985566 0.85466645854371948 -0.54342289864696014 -0.36423116618490509 0.25908385745744922 -0.43370302004618461 1.2983412373042205 -0.089017746793440281 0.53755343121745913 -0.59861470355666901 -0.56658957498649587 -0.16314135534517279 1.0000000180025095e-35 0.53368601596556753 -0.5704881106699905 -0.011307699219661255 -0.068303641145471314 -0.24679940950534676 -0.38417390369755011 1.0603235863255425 -0.16203673796877879 -0.72145252875088284 -0.46334441034148527 0.36321223129361363 -0.088552486736960048 -0.44842931135044206
decision_type=2 2 2 2 2 2 2 2 2 2 2 2 2 2 2 2 2 2 2 2 2 2 2 2 2 2 2 2 2 2 2 2 2 2 2 2 2 2 2 2 2 2 2 2 2 2 2 2 2 2 2 2 2 2 2 2 2 2 2 2 2 2 2 2 2 2 2 2 2 2 2 2 2 2 2 2 2 2 2 2 2 2 2
left_child=1 4 5 7 8 10 13 15 12 -4 -2 22 -1 31 20 24 34 27 19 -10 43 28 23 -6 -3 79 -8 44 47 -16 49 56 33 -15 -13 51 67 78 39 -26 57 -40 58 68 62 72 65 48 -18 80 -41 -19 53 -39 -45 -51 -5 60 75 -50 -29 -44 74 -49 -52 -47 -56 -23 -9 70 -42 -58 -32 -68 -17 -37 -48 -38 -27 -24 -22 -57 -43
right_child=2 3 9 6 11 -7 26 14 18 -11 -12 16 -14 32 29 17 21 35 -20 -21 30 36 25 -25 38 37 -28 40 -30 -31 45 -33 -34 -35 -36 42 77 52 41 50 69 82 61 54 -46 46 76 63 59 55 64 -53 -54 -55 66 81 71 -59 -60 -61 -62 -63 -64 -65 -66 -67 73 -69 -70 -71 -72 -73 -74 -75 -76 -77 -78 -79 -80 -81 -82 -83 -84
leaf_value=-3.3555368183062084 0.50347167250339331 -1.2933554333413639 6.2517479195859407 0.15707293227840288 -1.4749027579662792 4.6785826828467387 1.5778227356322896 0.091260079883057552 -2.1050463856849557 8.6074805199653994 3.1123879961064196 -0.82596502676694084 -2.394472050043591 0.85372129346921588 0.49975087490746078 -0.16309098774058192 -0.78010138604224155 -0.33952530301861872 -1.7422609497429686 -0.49519743129020849 0.08084399532262368 -0.15376820421225831 -1.5215537650090725 -0.65187621680319197 -0.65618642737331223 -0.52336221525666426 2.1012091094362764 -0.17026920312824029 -0.014830987023478542 0.94333622962074459 0.32907521925421501 0.68429881897155587 0.20902965795601719 1.1667041745438125 -1.2629271292565838 -0.072082093419001861 -0.065977343314465739 -0.68133721421801907 -0.80229073402612039 -0.46126290402695752 -0.43169238373141633 -0.38143989611810536 0.1022578425977235 -0.2426064215556363 -0.7136989718842105 0.26378949280442121 0.59187837354289741 -0.9503102484368533 -0.4331383979979781 0.19535635076082969 -0.2692931661392276 -0.012155059229709598 -0.66406520862708696 -1.2610849375841897 -0.1197493490442998 0.42329849605302461 0.14399620424083015 0.19118603472309181 0.13312237915119432 -0.11784030515317397 0.0092754224269703343 0.29774523983639839 -0.18061690973821853 -0.59495223003987352 -0.093209721310174617 0.42870834189113888 0.011352561257207681 -0.50445766846447915 0.22749050118245182 -0.069977372267659904 -0.15828630822632106 0.46019649096929155 0.1549312038609055 0.11970316588668667 -0.48847470943962268 0.028091180513409347 0.38280075767856808 0.10292351988501915 -0.17866047250290662 -0.62768328164699683 0.17160789684275732 0.19732867683924418 -0.13870743636518321
leaf_weight=62 9.9999999999999982 6.9999999999999991 100 13.999999999999998 411 158 106 42 494 79 246 53 438 112 56 7.0000000000000027 32 12.999999999999998 332 6.9999999999999991 40 8.0000000000000018 39 19 19 11.000000000000002 153 25 7.9999999999999991 67 66 184 6.9999999999999991 223 89 31 9.0000000000000018 21 26 31 18.000000000000004 6.9999999999999991 25 9.9999999999999982 19 52 91 78 9.0000000000000018 51 60 19 31 34 9.9999999999999982 37 6.9999999999999991 6.9999999999999991 38 15.999999999999998 37 42 20 29 22 56 53 15.999999999999998 46 6.9999999999999991 12.999999999999998 73 20 31 22 43 34 9.9999999999999982 6.9999999999999991 6.9999999999999991 36 11.999999999999998 8.9999999999999982
leaf_count=62 10 7 100 14 411 158 106 42 494 79 246 53 438 112 56 7 32 13 332 7 40 8 39 19 19 11 153 25 8 67 66 184 7 223 89 31 9 21 26 31 18 7 25 10 19 52 91 78 9 51 60 19 31 34 10 37 7 7 38 16 37 42 20 29 22 56 53 16 46 7 13 73 20 31 22 43 34 10 7 7 36 12 9
internal_value=0.0150762 -0.621738 4.85146 0.529158 -1.76462 3.68473 1.17133 0.117367 -2.17956 7.43167 3.01837 -1.16861 -2.53537 0.854035 0.355375 -0.222735 -0.849709 -0.0883298 -1.95661 -2.08602 0.279539 -0.654737 -1.35884 -1.4439 -0.502493 -1.08853 1.91009 -0.276419 -0.752739 0.760145 0.356567 0.59563 1.0562 1.07164 -1.12283 0.069566 -0.236437 -0.893658 -0.446639 -0.369162 -0.136092 -0.64451 0.113758 0.0782175 -0.480328 0.424001 0.46635 -0.787708 -0.583736 0.228656 -0.303246 -0.164882 -0.968679 -1.09199 -0.000862673 0.297459 0.404339 -0.0341659 0.0375565 -0.269416 -0.0681786 0.233217 -0.349624 -0.875165 -0.227612 0.359718 0.0323805 -0.420976 0.168253 -0.303258 -0.343873 0.439489 0.295968 0.0544239 -0.435158 -0.0151869 0.546585 0.0250299 -0.43875 -1.4378 0.129315 0.384264 -0.29291
internal_weight=5119 4526 593 2256 2270 414 879 1377 1333 179 256 937 500 620 810 567 357 386 833 501 687 215 580 430 181 150 259 175 172 123 495 278 342 335 142 211 43 104 174 132 107 42 179 192 68 319 233 164 57 176 113 32 86 55 104 100 94 69 112 25 62 67 49 107 82 108 94 24 88 38 31 80 86 84 29 74 125 19 18 46 76 49 16
internal_count=5119 4526 593 2256 2270 414 879 1377 1333 179 256 937 500 620 810 567 357 386 833 501 687 215 580 430 181 150 259 175 172 123 495 278 342 335 142 211 43 104 174 132 107 42 179 192 68 319 233 164 57 176 113 32 86 55 104 100 94 69 112 25 62 67 49 107 82 108 94 24 88 38 31 80 86 84 29 74 125 19 18 46 76 49 16
is_linear=0
shrinkage=0.0985333


Tree=15
num_leaves=60
num_cat=0
split_feature=0 0 0 0 0 0 0 0 0 0 0 0 0 0 0 0 0 5 20 5 0 18 15 0 0 0 15 0 0 16 21 11 20 5 0 15 15 18 15 3 15 15 16 18 0 0 0 15 3 0 3 18 5 15 16 19 16 4 21
split_gain=1.3871e+06 479091 183804 44364.9 38461.2 27584 10367.3 8795.33 7478.04 6408.7 3429.34 2382.7 1925.85 1331.97 972.168 619.591 611.614 539.581 381.053 334.359 296.774 240.411 141.466 154.288 111.957 103.48 81.0719 97.8581 67.5399 49.9572 46.8074 44.5475 30.5208 27.5889 22.4718 20.8769 17.4015 19.2266 15.976 16.9107 14.6264 13.841 10.1941 8.93696 7.70043 6.54468 6.51763 6.23512 5.28569 3.88521 2.66661 2.66375 2.62106 2.45692 2.34282 3.1865 1.72502 1.59947 1.54812
threshold=0.90613449610569552 -0.46641200684875894 1.9029835202640184 -0.62933479171434581 0.13636062647898486 3.1890678504950634 1.4147830478927126 -0.76547442310656255 0.56544389367965275 -0.24107054629312616 -0.54695955643901228 -0.82974175890528545 -0.40528088142157392 -0.70840957760896883 -0.052482930886632508 0.39698434221076778 1.0817083326192292 -1.8705895191165185 -0.87772517536004313 -1.5679421499243771 0.72021738140119429 1.9498039207122375 -0.5508562603948971 -0.49485154118773711 -0.16303327252712513 -0.37855171918969538 -0.46953350413465494 -0.43850105850121124 1.0000000180025095e-35 -0.3876160767278109 -0.48772972043973867 1.2966734528136055 2.1135348676581156 -1.6556381006392595 -0.29709809093217304 -0.1135007174141625 -0.35717624350838723 -0.089104577631423085 -0.41561073558252265 -0.055745462308220556 -0.21809054267120839 0.20326473443166374 0.25302575126199428 -0.4917790915364782 -0.38427752556157291 -0.53058178282155144 -0.31356330688639755 -0.42030238904203115 0.086725686083432715 -0.21797940781077174 0.4314420288314656 -0.27462696957711019 0.62571722120442375 -0.23090845844165339 -0.024769058594112017 -0.25990018737118042 -0.084851047350454387 0.32001043393088952 -0.070869611427495163
decision_type=2 2 2 2 2 2 2 2 2 2 2 2 2 2 2 2 2 2 2 2 2 2 2 2 2 2 2 2 2 2 2 2 2 2 2 2 2 2 2 2 2 2 2 2 2 2 2 2 2 2 2 2 2 2 2 2 2 2 2
left_child=1 3 6 7 9 -4 16 11 15 12 17 -1 26 -9 24 -6 -2 -5 -19 -12 -10 32 45 -24 40 33 31 -28 41 -30 56 51 -17 -14 36 -26 37 48 39 -35 58 -16 -37 -33 -40 -21 52 -36 -27 -42 -39 -3 -38 -48 57 -56 -29 -49 -11
right_child=2 4 5 10 8 -7 -8 13 20 14 19 -13 25 -15 28 21 -18 18 -20 22 -22 -23 23 -25 35 34 27 30 29 -31 -32 43 -34 38 47 42 46 50 44 -41 49 -43 -44 -45 -46 -47 53 54 -50 -51 -52 -53 -54 -55 55 -57 -58 -59 -60
leaf_value=-3.0474138943109512 1.8973678559461875 -0.15345912705283699 5.1130636629909043 -0.41939688263306768 0.64830307325109471 7.5535749826058085 3.4244598060063201 -1.9114825098039872 1.1972787243175027 0.17456165390220835 -0.054122596001498637 -2.1935374798532243 0.055474139266211975 -1.6011982400589704 0.32857134749252742 0.94310217037384791 2.5104385556715609 -0.38179069257446613 -1.2291055444148447 -0.65655856324291995 1.5720035682955229 0.2083499340324633 -0.8974188150866913 -0.64017771019244452 0.27269333377364707 0.088516228147083709 -0.5138974835056872 -0.093033816795021901 0.74257584948692057 0.4199718177375012 -0.37341663116569662 -0.12004518529068911 0.42189678743052667 0.033717343521586278 0.12223824519151416 0.20839882195472254 -0.048881945893544165 -0.042931837582381206 -0.1852929290030268 -0.11626789835493768 0.055168593462498118 0.14317138710923791 0.11236961354960454 0.016996400799428806 -0.071282862737087963 -0.39868503115666143 0.032558891987829609 0.054082122696212868 -0.0033815468809575873 0.10787004185409049 0.016873215752426642 -0.33336675707148566 -0.0082470528871186593 -0.019054243185118835 0.051698629057322414 -0.01618549352645688 -0.21384244324161159 0.021672886994747727 0.096936710436922299
leaf_weight=62 100 10.999999999999998 179 12.999999999999998 367 99 158 521 140 56 6.9999999999999991 418 6.9999999999999991 454 88 164 156 8.9999999999999982 475 25 120 6.9999999999999991 150 85 96 33 69 10.000000000000002 7.9999999999999991 240 72 7 8.9999999999999982 11.000000000000002 6.9999999999999991 91 77 22.000000000000004 35 12.999999999999998 30 11.999999999999998 28 6.9999999999999982 13.999999999999998 30 17.000000000000004 61 6.9999999999999991 91 7.9999999999999991 19.000000000000004 21 12.999999999999998 7.0000000000000027 15.999999999999998 20 28 19
leaf_count=62 100 11 179 13 367 99 158 521 140 56 7 418 7 454 88 164 156 9 475 25 120 7 150 85 96 33 69 10 8 240 72 7 9 11 7 91 77 22 35 13 30 12 28 7 14 30 17 61 7 91 8 19 21 13 7 16 20 28 19
internal_value=0.0139707 -0.628205 4.10531 -1.63585 0.413208 6.06245 2.75265 -1.95988 0.95138 0.0948684 -1.03627 -2.32437 -0.141957 -1.77303 0.285609 0.73651 2.2988 -1.19824 -1.21611 -0.754803 1.38818 0.901092 -0.770898 -0.81477 0.180638 -0.0125671 -0.376984 -0.410532 0.406654 0.440222 -0.326369 -0.226617 0.924592 -0.110268 0.012992 0.230311 -0.00740578 0.0311716 -0.127914 -0.0518429 0.123169 0.311732 0.189532 -0.0615355 -0.159422 -0.547125 -0.028763 0.0461996 0.0734203 0.0966588 -0.0268859 -0.289621 -0.0407411 0.0105242 0.0380046 0.00844594 -0.187074 0.0450534 0.159926
internal_weight=5119 4427 692 2249 2178 278 414 1455 807 1371 794 480 612 975 759 547 256 497 484 297 260 180 290 235 411 397 215 171 348 248 102 44 173 80 317 215 198 70 73 24 196 100 119 14 49 55 128 119 40 121 30 30 98 30 112 23 30 89 75
internal_count=5119 4427 692 2249 2178 278 414 1455 807 1371 794 480 612 975 759 547 256 497 484 297 260 180 290 235 411 397 215 171 348 248 102 44 173 80 317 215 198 70 73 24 196 100 119 14 49 55 128 119 40 121 30 30 98 30 112 23 30 89 75
is_linear=0
shrinkage=0.0985333


Tree=16
num_leaves=59
num_cat=0
split_feature=0 0 0 0 0 0 0 0 0 0 0 0 0 0 0 1 0 19 0 0 0 19 0 18 0 17 19 1 1 20 4 0 0 19 0 0 19 17 20 0 5 0 1 19 0 20 19 18 5 12 0 13 18 0 6 18 5 5
split_gain=1.13271e+06 390543 152105 36054.8 31458.5 23600.5 7965.37 7413.55 6823.44 4777.88 3151.97 2807.54 2443.46 1586.79 708.108 654.379 506.94 296.902 285.674 248.793 247.558 192.937 190.127 163.722 103.486 86.7581 86.0146 44.6253 43.0641 36.2989 27.93 96.9766 26.0987 24.866 22.7673 22.0463 17.4621 16.0153 12.7271 12.3535 10.8682 6.94165 5.57256 8.52246 6.16357 5.04409 4.39087 5.5685 4.6202 2.753 2.7306 2.15447 1.99268 1.95766 1.66703 1.47226 1.30414 3.86472
threshold=0.90613449610569552 -0.46641200684875894 2.3242481279886458 -0.62933479171434581 0.10694889767636308 1.7225008235485089 3.5887758447183429 -0.79527183716905769 0.56544389367965275 -0.38427752556157291 1.2467295692459777 -0.53864722922011476 -0.72967415717997863 -0.113395391785776 0.35266432880014681 0.46964867654567577 -0.84162207384371113 -0.72233325603642884 0.64239883084936722 -0.41570178962802545 -0.24107054629312616 -0.55919930254960504 -0.56933096819782902 1.9498039207122375 1.0000000180025095e-35 -0.76594984940124256 -0.60524681673724967 0.33181120188908775 0.66836777602504538 -0.74693049611946283 -0.56730396807904582 0.21555239730924877 -0.44990630920064195 -0.56221458421612047 -0.31356330688639755 -0.20404958534531978 -0.46142168273314593 -0.61813284413984682 1.0307619465835167 -0.59946791674594879 1.0695739065472842 -0.40528088142157392 -0.23967136826872468 -0.37094286430905726 -0.34888401321627077 0.71021028144025211 -0.34008175386756595 0.020390389877710333 0.40821977205819965 -1.2975465297907716 -0.28073744192804606 -0.84023833183672336 0.43138342604936053 -0.28073744192804606 0.077493672241062461 -0.59459989583171557 0.16859698757639321 0.35952053226482061
decision_type=2 2 2 2 2 2 2 2 2 2 2 2 2 2 2 2 2 2 2 2 2 2 2 2 2 2 2 2 2 2 2 2 2 2 2 2 2 2 2 2 2 2 2 2 2 2 2 2 2 2 2 2 2 2 2 2 2 2
left_child=1 3 5 7 9 10 -4 16 14 19 -2 15 -9 20 30 17 -1 39 -10 27 34 25 26 -16 38 -13 -19 29 36 -3 -6 -32 -31 -24 40 49 37 -21 -15 -5 42 -38 44 -44 -11 52 47 54 53 -22 -49 -50 -37 -48 -36 -51 -34 -58
right_child=2 4 6 11 8 -7 -8 12 18 13 -12 21 -14 24 23 -17 -18 22 -20 28 35 -23 33 -25 -26 -27 -28 -29 -30 32 31 -33 56 -35 46 45 41 -39 -40 -41 -42 -43 43 -45 -46 -47 48 50 51 55 -52 -53 -54 -55 -56 -57 57 -59
leaf_value=-2.9214487564282825 1.8983555391865683 -0.11086396108372676 5.1062697272149586 -0.59751976414824981 0.88921355238461097 3.8675865333619868 7.1042797617497229 -1.8116110801864493 0.98172190130870118 -0.048313003348607227 2.6272947556649324 -0.10699121560016416 -1.4836515488222013 0.26885630890055395 0.80002990353553538 -0.079652082343201161 -2.1281175030236232 -1.0657728365479739 1.3559824222673378 -0.018191267273296133 0.017958126817890756 -0.73371883704827023 -0.81561304653216349 0.19450488991851775 0.37565804311012335 -0.52997239146233055 -1.3310088070624979 -0.11286755605960472 0.051787841510280978 -0.47465367539825243 0.4563262258042976 0.5993053983619302 -0.3647026848467867 -1.0880416706083187 0.050204496001855309 0.16420453984911584 -0.26959464740717742 -0.15644480921770126 0.12477767481687209 -0.2222798882343909 0.082985487034371114 -0.15399963815159082 0.057637808168940832 -0.028907166138555644 -0.0056817841015123364 0.083588775082007627 -0.018829256691349071 -0.010897364197139667 0.0081898221869719547 0.032120339767205408 0.048171352788022301 0.057937767421258606 0.086990524386818854 0.016461409803701151 0.11250199524361457 0.097029748783757752 -0.11087585913774767 -0.26977656502114222
leaf_weight=41 178 7.9999999999999991 120 7 6.9999999999999991 138 79 646 80 76 177 6.9999999999999991 579 204 232 6.9999999999999991 189 233 180 13.999999999999998 6.9999999999999991 157 107 6.9999999999999991 185 93 109 9.9999999999999982 6.9999999999999991 54 180 184 68 66 21 157 25 20 14.999999999999998 7.9999999999999982 6.9999999999999991 34 17 21 58 22 22 14.000000000000002 12.999999999999998 7.9999999999999991 10.999999999999998 30 15.999999999999998 35 11.999999999999998 82 8.9999999999999982 26
leaf_count=41 178 8 120 7 7 138 79 646 80 76 177 7 579 204 232 7 189 233 180 14 7 157 107 7 185 93 109 10 7 54 180 184 68 66 21 157 25 20 15 8 7 34 17 21 58 22 22 14 13 8 11 30 16 35 12 82 9 26
